svm_type c_svc
kernel_type rbf
gamma 0.03125
nr_class 2
total_sv 504
rho 1.16017
label 1 -1
probA -1.30401
probB 1.03525
nr_sv 114 390
SV
1.000864253500042 1:-1 2:0.751446 3:-0.714284 4:-0.205443 5:0.809248 6:0.613822 7:-1 8:0.751446 9:-0.110221 10:-1 11:0.751446 12:-0.0462897 13:-0.25 14:1 15:-0.60785 16:0.890174 17:-0.200001 18:0.930636 19:-1 20:-0.0977827 21:0.312127 22:-0.714284 23:0.930636 24:-1 25:1 26:-1 27:1 28:1 29:-1 30:0.867052 31:-0.894441 32:-0.157091 33:-1 34:0.976878 35:-1 36:-1 37:0.867052 38:0.246002 39:-0.428572 40:0.867052 41:-1 42:0.486486 43:-0.142856 44:0.766808 45:0.809248 46:-1 47:0.45946 48:-1 49:0.150505 50:0.353229 51:0.555966 52:-1 53:0.513514 54:-0.200001 55:0.513514 56:-0.686346 57:1 58:0.45946 59:0.220172 60:-0.569696 61:0.081082 62:0.221402 63:0.45946 64:-0.08487 65:0.40845 66:-0.404256 68:-0.404256 69:0.486486 70:0.486486 71:-0.603306 72:0.81081 73:0.190082 74:-1 75:-0.962126 76:0.81081 77:-0.574468 78:-0.626076 79:-0.351252 80:0.338842 
8.527427036364745 1:-1 2:0.907514 3:-1 4:-0.359966 5:0.942196 6:-0.436964 8:0.751446 9:-0.534849 10:-1 11:0.930636 12:0.463813 13:-0.500001 14:0.876175 15:-0.165223 16:0.809248 17:0.200001 18:0.867052 19:-1 20:-0.0977827 21:0.902834 22:-1 23:0.861272 24:-1 25:0.930636 26:-0.428568 27:0.867052 28:-0.299655 29:-1 30:0.861272 31:-0.946441 32:-0.201555 33:-1 34:0.907514 35:2.33334e-006 36:-1 37:0.930636 38:0.608856 39:-1 40:0.907514 41:-1 42:0.081082 43:-0.714284 44:1 45:0.774566 46:-1 47:0.45946 48:-1 49:-0.498083 50:0.884544 51:-0.08487 52:-0.33333 53:-0.675676 54:-0.599998 55:-0.756756 56:0.220172 57:-0.135136 58:0.081082 59:0.608856 60:-0.587878 61:0.486486 62:0.02214 63:-0.135136 64:0.152522 65:0.464788 66:-0.404256 67:0.513514 68:-0.219858 69:-0.135136 70:-0.486486 71:-0.041322 72:0.486486 73:-0.140496 74:0.769696 75:-0.65058 76:0.081082 77:1 78:0.02214 79:-0.893708 80:-0.619834 
4.804676617572246 1:-1 2:0.774566 3:-0.714284 4:-0.205443 5:0.867052 6:0.613822 7:-0.499996 8:0.786128 9:-0.110221 10:-0.499996 11:0.687862 12:0.738353 13:-0.25 14:0.24948 15:0.0197085 16:0.861272 17:-0.599998 18:0.976878 19:-1 20:-0.0617217 21:0.902834 22:-0.428572 23:0.930636 24:-1 25:0.774566 26:-1 27:0.890174 28:-0.680829 29:-1 30:0.867052 31:-0.16085 32:-0.738978 33:-1 34:1 35:-1 36:-0.33333 37:0.867052 38:0.246002 39:-0.714284 40:0.976878 41:-1 42:0.486486 43:-1 44:-0.280658 45:0.774566 46:-1 47:-0.27027 48:-1 49:0.546405 50:0.142862 51:0.608856 52:1 53:0.486486 54:-1 55:-0.756756 56:0.152522 57:0.81081 58:-0.81081 59:0.220172 60:0.157576 61:1 62:-0.686346 63:-0.756756 64:0.152522 65:-0.042254 66:0.205674 67:-0.486486 68:-0.248226 69:1 70:0.486486 71:-0.206612 73:-0.619834 74:-1 75:-0.962126 76:-0.756756 77:-0.574468 78:0.152522 79:-0.975566 80:0.338842 
4.331833202643391 1:-0.333333 2:0.809248 3:-0.428572 4:-0.273607 5:0.757226 6:1 7:-1 8:0.976878 9:0.536217 10:-1 11:0.774566 12:-0.0798173 13:-1 14:0.400368 15:-0.165223 16:1 17:-0.599998 18:0.890174 19:-0.499996 20:0.978506 21:0.403702 22:-0.428572 23:0.67052 24:-1 25:0.930636 26:-1 27:0.751446 28:-0.425223 29:-0.714284 30:0.890174 31:-0.175883 32:-0.902389 33:-1 34:0.751446 35:-1 36:-1 37:0.976878 38:0.555966 39:-0.428572 40:1 41:-1 42:1 43:-1 44:-0.769965 45:-1 46:-0.428572 47:1 48:-0.499996 49:-1 50:-0.945211 51:-0.686346 52:-0.33333 53:0.108108 54:-0.599998 55:0.108108 56:0.220172 57:0.594594 58:-0.756756 59:-0.279212 60:0.6 62:-0.07749 63:0.513514 64:-0.289052 65:-0.746478 66:0.276596 67:0.81081 68:1 69:0.81081 71:-0.140496 72:0.594594 73:0.603306 74:0.733334 75:-1 76:0.081082 77:0.276596 78:-0.08487 79:0.485644 80:0.190082 
3.198314204292581 1:-0.333333 2:0.67052 3:-0.714284 4:-0.317296 5:0.687862 6:1 7:-1 8:0.687862 9:-0.0569695 10:-0.499996 11:0.751446 12:0.3062 13:-1 14:0.24948 15:-0.199699 16:0.976878 17:-0.599998 18:0.751446 19:-0.499996 20:-1 21:0.112203 22:0.142856 23:0.751446 24:-1 25:0.976878 26:-1 27:0.930636 28:1 29:-1 30:0.890174 31:0.576195 32:0.419013 33:-0.499996 34:0.976878 35:-1 36:-0.33333 37:0.751446 38:0.555966 39:-1 40:0.976878 41:-1 42:0.594594 43:-1 44:-0.125776 45:0.786128 46:0.142856 47:0.162162 48:-1 49:-0.0649999 50:-0.638941 51:0.221402 52:-1 53:-0.81081 54:-1 55:-0.27027 56:0.221402 57:1 58:0.594594 59:-0.07749 60:-0.59394 61:0.594594 62:0.221402 63:-0.243244 64:0.562116 65:0.43662 66:-0.886524 67:1 68:-0.716312 69:1 71:1 72:0.081082 73:0.487604 74:-0.787878 75:-1 76:1 77:-0.702128 78:-0.279212 79:-0.750764 80:0.190082 
5.167444422171088 1:-1 2:0.976878 3:-1 4:-0.220912 5:0.687862 6:-0.0513018 7:-0.499996 8:0.867052 9:-0.347301 10:-1 11:0.751446 12:0.3062 13:-0.749999 14:0.0607607 15:-0.242928 16:0.976878 17:-1 18:1 19:-0.499996 20:1 21:0.403702 22:-0.142856 23:0.757226 24:-1 25:0.861272 26:0.142856 27:0.976878 28:-0.00367794 29:-0.714284 30:0.942196 31:0.30149 32:0.419013 33:-0.499996 34:0.774566 35:-1 36:-1 37:0.942196 38:0.254612 39:-0.714284 40:0.67052 41:-1 42:-0.675676 43:-1 44:-0.561447 45:-1 46:-0.714284 47:0.486486 48:-0.499996 49:0.427532 50:-0.0782796 51:0.221402 52:-0.33333 53:0.162162 54:-1 55:0.108108 56:0.608856 57:-0.756756 58:0.594594 59:-0.313654 60:0.733334 61:0.81081 62:0.152522 63:1 64:-0.289052 65:-0.97183 66:-0.574468 67:1 68:0.276596 69:-0.243244 70:-0.675676 71:1 72:1 73:0.487604 74:0.60606 75:-0.55284 76:-0.486486 77:0.120568 78:0.221402 79:1 80:0.768596 
1.440843481890012 1:-0.333333 2:0.890174 3:0.142856 4:-0.112796 5:0.890174 6:-0.410675 7:-1 8:0.751446 9:0.0798768 10:-1 11:-1 12:0.107607 13:-0.749999 14:0.767028 15:1 16:0.867052 17:-1 18:1 19:-1 20:-0.0977827 21:0.715835 22:-0.714284 23:0.976878 24:-0.714284 25:0.890174 26:-1 27:0.757226 28:-0.0195157 29:-0.142856 30:0.445086 31:0.30149 32:1 33:-1 34:0.809248 35:-1 36:-1 37:-1 38:-1 39:-0.714284 40:-1 41:-1 42:0.108108 43:-0.714284 44:-0.151877 45:0.890174 46:-1 47:0.45946 48:-0.499996 49:0.754611 50:-0.388453 51:0.246002 52:-1 54:-0.599998 56:0.555966 57:0.513514 58:0.108108 59:0.221402 60:-0.569696 61:0.81081 62:-0.08487 64:0.555966 65:0.267606 66:-0.404256 67:0.486486 68:-0.248226 69:0.108108 70:0.594594 71:-0.950414 72:0.108108 73:0.338842 74:-0.266666 75:-0.27917 77:-1 78:0.555966 79:-1 80:-1 
5.560047498358675 1:-0.333333 2:0.907514 3:-0.428572 4:0.181806 5:0.930636 6:0.128124 7:-1 8:0.751446 9:-0.529756 10:-1 11:0.757226 12:0.287578 13:-0.749999 14:0.805088 15:-0.110941 16:0.786128 17:-0.599998 18:0.890174 19:-1 20:-0.0977827 21:0.403702 22:-1 23:0.809248 24:-1 25:0.867052 26:-0.428568 27:-1 28:0.833831 29:-0.142856 30:-1 31:-0.175883 32:-0.399679 33:-1 34:0.890174 35:-0.333333 36:-0.33333 37:0.907514 38:-0.289052 39:-1 40:0.942196 41:-1 42:-0.135136 43:-0.714284 44:1 45:-1 46:-1 47:0.45946 48:-0.499996 49:-0.737927 50:1 51:0.562116 52:-1 53:0.081082 54:-0.599998 55:0.108108 56:0.246002 58:0.108108 59:-0.08487 60:-0.587878 62:0.555966 63:-0.135136 64:-0.289052 65:0.464788 66:-0.404256 67:-0.27027 68:-0.219858 69:-0.675676 70:0.108108 71:-0.471074 72:0.108108 73:0.206612 74:-0.587878 75:-0.793524 76:0.486486 77:-0.219858 78:0.02214 79:-0.893708 80:-0.950414 
4.579475030946396 1:-1 2:0.751446 3:-1 4:-0.234509 5:0.687862 6:0.31838 7:-1 8:0.867052 9:-1 10:-1 11:0.907514 12:0.679037 13:-0.25 14:0.876175 15:-0.110941 16:0.687862 17:-1 18:0.687862 19:-1 20:1 21:0.581274 22:-1 23:0.780346 24:-0.714284 25:0.867052 26:-1 27:0.445086 28:-0.140851 29:-1 30:0.687862 31:-0.098822 32:-0.758319 33:1 34:0.786128 35:-0.333333 36:0.33333 37:0.786128 38:-0.377614 39:-1 40:0.907514 41:7.00001e-006 42:-0.27027 43:-0.714284 44:0.766808 45:0.867052 46:-1 47:0.486486 48:-1 49:0.427532 50:-0.634056 51:-0.377614 52:-1 53:0.162162 54:-1 55:0.486486 56:0.246002 57:-0.27027 58:-0.135136 59:1 60:-0.569696 61:0.162162 62:0.562116 63:0.45946 64:0.246002 65:0.40845 66:-0.574468 67:0.162162 68:-0.404256 69:-0.135136 70:0.162162 71:0.256198 72:0.594594 73:-0.23967 74:1 75:-0.918142 76:0.486486 77:0.205674 78:-0.626076 79:-0.351252 80:-0.23967 
7.245079057324261 1:-1 2:0.976878 3:-0.714284 4:-0.359966 5:0.976878 6:-1 7:0.500004 8:0.867052 9:-0.0569695 10:-1 11:0.751446 12:-0.0462897 13:-0.25 14:0.876175 15:-0.110941 16:1 17:-1 18:0.861272 19:-1 20:1 21:0.715835 22:-0.428572 23:0.861272 24:-1 25:0.867052 26:-1 27:0.867052 28:-0.228948 29:-1 30:0.751446 31:-0.547689 32:-0.902389 33:-1 34:0.861272 35:-0.666664 36:-1 37:0.751446 38:-0.626076 39:-0.714284 40:0.907514 41:-1 42:0.594594 43:-0.428572 44:-0.561447 45:0.890174 46:-0.714284 47:0.486486 48:-1 49:0.947863 50:0.884544 51:-0.686346 52:-1 53:1 54:-1 56:0.246002 57:-0.486486 58:0.45946 59:0.608856 60:0.733334 61:-0.486486 62:0.608856 63:1 64:0.555966 65:-0.97183 66:-0.574468 67:0.81081 68:0.276596 69:-0.135136 70:0.45946 71:-0.603306 72:0.486486 73:0.603306 74:-0.787878 75:-0.351252 76:0.486486 77:-0.702128 78:0.221402 79:1 80:-0.603306 
3.257942626227261 1:-0.333333 2:0.867052 3:-0.714284 4:0.759966 5:0.976878 6:-0.410675 7:-1 8:0.751446 9:1 10:-1 11:0.751446 12:-0.0462897 13:-0.25 14:0.400368 15:-0.110941 16:0.687862 17:-1 18:0.976878 19:-1 20:0.491678 21:0.21496 22:-0.428572 23:-1 24:-0.428572 25:0.867052 26:-1 27:0.867052 28:-0.418089 29:-0.714284 30:0.445086 31:-0.16085 32:-0.758319 34:0.687862 35:-1 36:-1 37:0.890174 38:-1 39:-0.714284 40:1 41:-1 43:-0.714284 44:0.651796 45:0.445086 46:-0.714284 47:0.594594 48:-1 49:0.947863 50:0.884544 51:-0.377614 52:-1 53:1 54:-1 55:0.594594 56:0.246002 57:0.162162 58:0.45946 59:-0.289052 60:-1 61:1 62:-0.377614 63:0.486486 64:-1 65:1 66:-0.702128 67:0.162162 68:-0.574468 69:0.81081 70:0.594594 71:-0.603306 72:0.486486 73:-0.23967 74:-0.569696 75:-0.27917 76:0.486486 77:-0.248226 78:0.246002 79:-0.962126 80:-1 
2.825980622108842 1:-0.333333 2:0.751446 3:-0.714284 4:0.759966 5:0.751446 6:0.128124 7:-1 8:0.976878 9:1 10:-1 11:0.976878 12:0.959305 13:-0.500001 14:-1 15:-0.228077 16:0.930636 17:-0.599998 18:0.751446 19:-1 20:0.978506 21:-0.424323 22:-0.428572 23:-1 24:-1 25:0.751446 26:-1 27:0.867052 28:0.187016 29:-0.428572 30:-1 31:0.576195 32:-0.41902 33:-1 34:0.867052 35:-1 36:-1 37:0.890174 38:-0.289052 39:-1 40:0.751446 41:-1 43:0.142856 44:0.766808 45:0.751446 46:-0.428572 47:1 48:-1 49:-0.641295 50:0.884544 51:0.220172 52:-1 53:0.45946 54:-1 55:0.594594 56:-0.626076 57:0.486486 58:1 59:-0.289052 60:-0.569696 61:0.594594 62:0.246002 63:0.45946 64:-0.07749 65:0.40845 66:0.276596 67:0.081082 68:-0.404256 69:0.45946 70:0.108108 71:0.487604 72:0.486486 73:-0.041322 74:-0.569696 75:-0.793524 76:0.45946 77:-0.248226 78:-0.626076 79:-0.351252 80:-0.950414 
4.25239012941428 1:-1 2:-1 3:-0.714284 4:-0.212751 5:0.976878 6:-0.468934 7:-1 8:0.445086 9:-0.380188 10:-0.499996 11:0.751446 12:-0.0462897 13:-0.749999 14:0.805088 15:-0.258929 16:0.687862 17:-1 18:1 19:-1 20:0.410539 21:0.715835 22:-0.714284 23:0.867052 24:-0.428572 25:0.445086 26:-0.428568 27:-1 28:0.117657 29:-0.428572 30:0.757226 31:0.30149 32:-0.377443 33:-1 34:0.757226 35:-1 36:-1 37:0.809248 38:-0.313654 39:-0.714284 40:0.942196 41:-1 42:0.513514 43:-0.714284 44:0.0153465 45:0.890174 46:-1 47:0.594594 49:0.947863 50:1 51:-0.523986 52:-1 53:1 54:-0.599998 56:-1 57:0.108108 58:0.45946 59:0.246002 60:-0.266666 61:0.81081 62:-0.313654 63:0.108108 64:0.555966 65:0.605634 66:-0.702128 67:-0.81081 68:-1 69:-0.675676 70:0.108108 71:-0.603306 72:0.108108 73:-0.206612 74:0.6 75:-0.46121 76:0.594594 77:1 78:-0.289052 79:-0.793524 80:-0.471074 
9.631982188258512 1:-1 2:0.930636 3:-1 4:-0.301827 5:0.907514 6:-0.5272 7:-1 8:0.942196 9:-0.529756 10:-1 11:0.976878 12:0.959305 13:-1 14:0.876175 15:-0.95429 16:0.907514 17:-0.599998 18:0.751446 19:-0.499996 20:0.137312 21:0.39252 22:-0.714284 23:1 24:-1 25:0.751446 26:-0.428568 27:0.67052 28:-0.418089 29:-1 30:1 31:0.576195 32:-0.571766 33:-0.499996 34:0.687862 35:0.666669 36:-1 37:0.907514 38:-0.686346 39:-0.428572 40:0.907514 41:-1 42:-0.135136 43:-1 44:-0.5583 45:0.907514 46:-0.428572 47:-0.675676 48:-1 49:-0.481399 50:-0.0724124 51:0.02214 52:-1 53:-0.135136 54:-1 55:-0.135136 56:-0.07749 57:0.162162 58:1 59:-0.686346 60:0.769696 61:0.594594 62:-0.377614 63:0.081082 64:0.02214 65:-0.887324 66:0.120568 67:-0.135136 68:1 69:-0.135136 70:0.81081 71:0.487604 72:-0.243244 73:0.256198 74:-0.587878 75:0.110568 76:0.594594 77:-0.219858 78:0.220172 79:0.644472 80:0.603306 
0.8128785435769059 1:-0.333333 2:0.890174 3:-0.428572 4:0.759966 5:-1 6:-0.5272 7:-1 8:0.67052 9:0.536217 10:-1 11:0.867052 12:0.341453 13:-0.25 14:1 15:1 16:0.867052 17:-1 18:0.751446 19:-0.499996 20:0.861999 21:0.388684 22:-0.428572 23:-1 24:-1 25:0.890174 26:-1 27:0.751446 28:-0.680829 29:-0.428572 30:1 31:-0.917934 32:1 33:-1 34:1 35:-1 36:-1 37:0.976878 38:-0.686346 39:-0.428572 40:0.867052 41:-1 42:1 43:-0.428572 44:-0.151877 45:0.976878 46:-1 47:-0.243244 48:-1 49:1 50:0.438357 51:0.246002 52:-1 53:0.108108 54:-1 55:1 56:0.555966 57:0.81081 58:0.486486 59:-0.289052 60:-0.569696 61:0.45946 62:-0.686346 64:0.221402 65:0.267606 66:-0.716312 67:0.486486 68:-0.248226 69:0.486486 70:0.81081 71:0.338842 72:0.45946 73:0.338842 74:0.733334 75:0.110568 77:0.276596 78:0.555966 79:-1 80:0.603306 
3.031435675729239 1:-0.333333 2:0.751446 3:-0.142856 4:0.759966 5:0.751446 6:-0.5272 7:-1 8:0.757226 9:0.536217 10:-0.499996 11:1 12:0.729186 13:-1 14:0.738818 15:1 16:0.890174 17:-1 18:0.751446 19:-1 20:-0.158112 21:0.388684 22:-0.142856 23:-1 24:-1 25:0.890174 26:-1 27:0.687862 28:1 29:-0.714284 30:1 31:-0.917934 32:-0.157091 33:-1 34:0.976878 35:-1 36:-1 37:0.976878 38:-0.686346 39:-0.428572 40:0.890174 41:-1 42:1 43:-0.142856 44:0.766808 45:0.976878 46:-1 47:0.108108 48:-0.499996 49:-0.641295 50:-0.292561 51:0.555966 52:-1 53:0.45946 54:-1 55:1 56:0.555966 57:1 58:0.81081 59:-0.289052 60:-0.569696 61:0.45946 62:0.221402 63:0.45946 64:0.221402 65:0.40845 66:0.021276 68:-0.404256 70:0.81081 71:0.603306 72:-0.81081 73:0.190082 74:0.733334 75:0.110568 77:0.276596 78:-0.626076 79:-0.351252 80:0.603306 
3.197178166909415 1:-1 2:0.907514 3:-0.428572 4:-0.112796 5:0.890174 6:-0.384894 7:-1 8:-1 9:0.536217 10:-1 11:0.942196 12:0.131681 13:-1 14:-0.188266 15:-0.521573 16:-1 17:-1 18:0.809248 19:-1 20:0.783634 21:0.112203 22:0.142856 23:0.976878 24:-1 25:0.757226 26:-0.428568 27:0.890174 28:1 29:-0.428572 30:0.976878 31:1 32:-0.388108 33:-1 34:0.976878 35:-0.666664 36:-0.33333 37:0.976878 38:0.221402 39:-1 40:0.751446 41:-1 42:1 43:-1 44:1 45:0.786128 46:-0.714284 47:0.108108 48:-0.499996 49:0.754611 50:0.142862 51:-0.289052 52:-1 54:-0.599998 55:-0.27027 56:-0.313654 57:1 58:-0.675676 59:0.221402 60:-0.587878 61:0.513514 62:0.221402 63:-0.135136 64:0.562116 65:0.464788 66:-1 67:0.108108 68:-0.219858 69:0.594594 70:1 71:0.768596 73:-0.950414 74:0.733334 75:1 76:0.108108 77:0.276596 78:0.02214 79:-0.893708 80:0.487604 
9.830066111236123 1:-1 2:0.809248 3:-1 4:-0.51636 5:0.976878 6:0.613822 7:-1 8:0.976878 9:0.0532512 10:-1 11:0.930636 12:0.463813 13:-0.500001 14:0.400368 15:-0.228077 16:0.809248 17:-0.599998 18:0.867052 19:-0.499996 20:0.978506 21:0.16078 22:-0.428572 23:0.907514 24:-1 25:0.751446 26:-1 27:0.751446 28:0.126353 29:-1 30:0.867052 31:-0.946441 32:-0.201555 33:-0.499996 34:0.751446 35:-0.666664 36:-1 37:0.687862 38:0.246002 39:-0.714284 40:1 41:-1 42:0.162162 43:-0.428572 44:-0.769965 45:0.67052 46:-0.714284 47:1 48:-1 49:0.947863 50:-0.945211 51:-0.08487 52:-1 53:1 54:-0.200001 55:-0.243244 56:-0.626076 57:0.45946 58:0.081082 59:0.02214 60:0.6 61:0.486486 62:-0.626076 63:0.513514 64:-0.279212 65:-0.746478 66:0.276596 67:0.513514 68:1 69:0.81081 70:0.486486 71:-0.041322 72:0.594594 73:-0.140496 74:-0.618182 75:-0.962126 76:0.45946 77:-0.886524 78:-0.08487 79:0.485644 80:0.338842 
9.389261170564886 1:-1 2:0.976878 3:-0.714284 4:-0.317296 5:0.930636 6:0.613822 7:-1 8:0.751446 9:0.0532512 10:-1 11:1 12:0.729186 13:-0.749999 14:0.876175 15:-0.95429 16:1 17:-0.599998 18:0.890174 19:-1 20:0.491678 21:0.388684 22:-0.428572 23:0.751446 24:-1 25:0.751446 26:-1 27:0.751446 28:-0.425223 29:-1 30:0.867052 31:-0.175883 32:-0.902389 33:-0.499996 34:0.751446 35:-0.666664 36:-1 37:0.687862 38:0.246002 39:-0.428572 40:0.907514 41:-1 42:0.162162 43:-1 44:-0.561447 45:0.976878 46:0.428572 47:0.594594 48:-1 49:-0.737927 50:-0.945211 51:-0.686346 52:-1 53:0.081082 54:-1 55:1 56:-0.07749 57:0.594594 58:0.81081 59:-0.07749 60:0.733334 62:-0.07749 63:1 64:0.221402 65:-0.97183 66:-0.702128 67:0.81081 68:0.276596 69:-0.135136 70:0.486486 71:0.603306 72:0.594594 73:0.603306 74:-0.618182 75:-0.962126 76:0.594594 77:-0.886524 78:0.221402 79:1 80:0.338842 
7.994314267347476 1:-1 2:0.867052 3:-1 4:-0.112796 5:0.976878 6:-0.217837 7:-1 8:0.751446 9:-0.0569695 10:-1 11:0.751446 12:0.3062 13:-0.749999 14:0.876175 15:-0.95429 16:0.907514 17:-0.599998 18:0.751446 19:-1 20:0.491678 21:0.902834 22:-0.428572 23:0.976878 24:-1 25:0.751446 26:-1 27:0.907514 28:-0.425223 29:-1 30:0.930636 31:0.576195 32:-0.571766 33:-1 34:0.751446 35:2.33334e-006 36:-1 37:0.751446 38:0.220172 39:-1 40:0.907514 41:-1 42:0.594594 43:-1 44:0.651796 45:0.774566 46:0.714284 47:0.594594 48:-1 49:0.947863 50:-1 51:0.02214 52:-0.33333 53:1 54:-1 55:-0.756756 56:-0.07749 57:0.594594 58:0.594594 59:0.221402 60:-1 61:0.594594 62:-0.07749 63:0.486486 64:0.152522 65:1 66:-0.702128 67:-0.135136 68:-0.574468 69:-0.135136 70:0.081082 71:1 72:-0.135136 73:0.256198 74:-0.787878 75:0.644472 76:0.594594 77:-0.702128 78:0.246002 79:-0.962126 80:-0.041322 
0.5736189243690124 1:-0.333333 2:0.867052 3:-0.714284 4:0.181806 5:0.751446 6:0.613822 7:-1 8:0.890174 9:0.536217 10:-0.499996 11:0.751446 12:0.3062 13:-0.500001 14:0.24948 15:-0.165223 16:0.809248 17:-0.599998 18:0.687862 19:-1 20:0.91886 21:0.39252 22:-0.142856 23:0.809248 24:-1 25:0.930636 26:-1 27:-1 28:1 29:-0.714284 30:0.867052 31:-0.514177 32:-0.201555 33:-1 34:0.976878 35:-0.666664 36:-1 37:0.976878 38:0.246002 39:-1 40:0.976878 41:-1 42:1 43:-1 44:0.651796 45:0.907514 46:-0.428572 48:-1 49:-0.769553 50:1 51:-0.08487 52:-1 53:0.594594 54:-0.200001 55:-0.135136 56:0.220172 57:1 58:0.594594 59:-0.08487 60:-1 61:-0.81081 62:0.221402 63:0.486486 64:0.02214 65:1 66:-0.248226 67:0.513514 68:-0.574468 69:1 70:0.486486 71:1 72:0.108108 73:-0.140496 74:0.733334 75:-0.962126 76:0.081082 77:0.276596 78:0.246002 79:-0.962126 80:0.338842 
3.659268785556051 1:-0.333333 2:0.774566 3:0.142856 4:1 5:0.930636 6:-0.183807 7:-1 8:0.809248 9:-0.62608 10:-1 11:0.976878 12:0.959305 13:-1 14:0.594123 15:-0.199699 16:0.890174 17:-0.599998 18:1 19:-1 20:-0.683775 21:0.715835 22:-0.428572 23:0.890174 24:-0.714284 25:0.976878 26:-1 27:0.890174 28:-0.425223 29:-1 30:0.751446 31:0.30149 32:-0.157091 33:-1 34:0.751446 35:-1 36:-1 37:1 38:-0.07749 39:-0.428572 40:0.445086 41:-1 42:0.81081 43:-1 44:-0.280658 45:0.890174 46:-0.428572 47:0.513514 48:-1 49:-0.737927 50:0.142862 51:0.555966 52:-0.33333 53:0.081082 54:-0.599998 56:0.221402 57:0.594594 58:1 59:0.555966 60:0.157576 61:0.81081 62:-0.07749 63:-0.756756 64:0.555966 65:-0.042254 66:1 68:-0.248226 69:0.594594 70:0.594594 71:0.487604 73:0.190082 74:-0.048484 75:-0.918142 76:1 77:-0.262412 78:0.152522 79:-0.975566 80:1 
6.852534549397412 1:-0.333333 2:0.867052 3:-0.714284 4:-0.301827 5:0.786128 6:1 7:-1 8:0.67052 9:0.074784 10:-1 11:0.687862 12:0.256052 13:-0.749999 14:0.594123 15:-0.352636 16:-1 17:-1 18:0.687862 19:-0.499996 20:0.861999 21:0.388684 22:-0.428572 23:1 24:-0.428572 25:-1 26:-1 27:0.976878 28:-0.425223 29:-0.428572 30:0.890174 31:-0.098822 32:-0.388108 34:0.751446 35:-1 36:-0.33333 37:0.445086 38:0.555966 39:-0.714284 40:0.445086 41:-1 42:0.594594 43:-1 44:0.651796 45:0.976878 46:-0.714284 47:-0.243244 48:-1 49:-0.791794 50:-0.0782796 51:-0.289052 52:-1 53:-0.27027 54:-1 55:1 56:-0.289052 57:0.594594 58:0.162162 59:-0.686346 60:-1 61:0.162162 62:-0.07749 63:0.486486 64:0.221402 65:1 66:-0.716312 67:0.108108 68:-0.574468 69:0.594594 71:-0.23967 72:1 73:-0.950414 74:-0.224242 75:-1 76:0.108108 77:-0.702128 78:0.246002 79:-0.962126 80:0.190082 
2.184243962532143 1:-0.333333 2:0.867052 3:-0.714284 4:-0.112796 5:-1 6:-0.49523 7:-0.499996 8:0.907514 9:1 10:-1 11:0.751446 12:0.3062 13:-0.25 14:1 15:-0.247883 16:-1 17:-1 18:0.861272 19:-0.499996 20:-0.260746 21:0.897243 22:-0.714284 23:0.976878 24:-1 25:0.780346 26:-0.428568 27:0.774566 28:0.187016 29:-0.428572 30:0.67052 31:-0.547689 32:-0.388108 33:-1 34:0.867052 35:-0.666664 36:-1 37:0.890174 38:-0.279212 39:-1 40:0.867052 41:7.00001e-006 43:-1 44:0.651796 45:0.942196 46:-0.714284 47:-0.135136 48:-1 49:1 50:-0.00196299 51:-0.289052 52:-0.33333 53:0.108108 54:-1 55:-0.675676 56:1 57:0.486486 58:0.594594 59:0.221402 60:-1 61:-0.486486 62:0.246002 63:0.486486 64:0.254612 65:1 66:-0.219858 67:0.108108 68:-0.574468 69:0.486486 70:-0.243244 71:1 72:-0.756756 73:-0.950414 74:-0.569696 75:-0.750764 76:-1 77:-0.248226 78:0.246002 79:-0.962126 80:-0.70248 
0.8114085819042208 1:0.333333 2:1 3:-0.142856 4:-0.234509 5:0.976878 6:1 7:-1 8:0.445086 9:0.536217 10:-1 11:0.809248 12:-0.276399 13:-1 14:0.738818 15:1 16:0.976878 17:-1 18:0.976878 19:-1 20:0.410539 21:0.403702 22:0.142856 23:0.780346 24:-0.714284 25:0.890174 26:-1 27:-1 28:0.126353 29:-0.428572 30:0.890174 31:-0.16085 32:0.419013 33:-1 34:0.751446 35:-1 36:-1 37:0.976878 38:0.555966 39:-0.714284 40:0.890174 41:7.00001e-006 42:1 43:-0.714284 44:-0.00617097 45:-1 46:-1 47:0.594594 48:-1 49:0.947863 50:1 51:0.221402 52:-1 53:1 54:-0.599998 55:0.108108 56:0.555966 57:0.45946 58:0.513514 59:1 60:-0.048484 61:1 62:-0.626076 63:0.81081 64:-0.289052 65:-0.042254 66:-0.702128 67:1 68:-0.262412 71:-0.140496 72:0.108108 73:0.487604 74:0.733334 75:-1 77:0.276596 78:-0.686346 79:0.110568 80:0.190082 
3.565286388129769 1:-1 2:0.780346 3:-0.714284 4:-0.212751 5:0.890174 6:-0.384894 7:-1 8:0.867052 9:-0.325769 10:-1 11:0.751446 12:-0.0462897 13:-0.25 14:0.594123 15:-0.329205 16:0.867052 17:-1 18:1 19:-1 20:1 21:0.312127 22:-0.714284 23:0.867052 24:-0.428572 25:0.809248 26:-1 27:-1 28:-0.49459 29:-0.714284 30:0.976878 31:0.30149 32:1 33:-1 34:0.445086 35:-1 36:-1 37:0.780346 38:0.221402 39:-0.714284 40:0.445086 41:1 42:-1 43:-0.714284 44:-0.360395 45:0.809248 46:-1 47:0.486486 48:-1 49:0.754611 50:1 51:0.246002 52:-1 54:-0.200001 55:0.513514 56:-0.08487 57:0.594594 58:0.45946 59:0.246002 60:0.733334 61:0.81081 62:-1 63:-1 64:-0.08487 65:-0.859154 66:-0.574468 67:0.486486 68:0.617022 69:0.594594 70:1 71:-0.603306 72:0.108108 73:0.338842 74:0.733334 75:1 76:0.513514 77:0.617022 78:1 79:-0.764202 80:0.487604 
4.478830237883294 1:-0.333333 2:0.890174 3:-0.428572 4:0.759966 5:1 6:-0.386954 7:-1 8:0.890174 9:0.0798768 10:-1 11:0.976878 12:0.959305 13:-0.749999 14:0.400368 15:-0.521573 16:0.751446 17:-1 18:0.67052 19:-0.499996 20:0.91886 21:0.21496 22:-0.428572 23:-1 24:-0.714284 25:0.757226 26:-1 27:0.976878 28:0.187016 29:-0.428572 30:0.809248 31:-0.822394 32:-0.71873 33:-1 34:0.867052 35:-1 36:-1 37:-1 38:-0.08487 39:-0.428572 40:1 41:-1 42:0.108108 43:-1 44:-0.151877 45:0.445086 46:-0.714284 48:-0.499996 49:-0.501911 50:-0.0782796 51:-0.07749 52:-1 53:0.81081 54:-0.599998 55:0.594594 56:-0.313654 57:0.486486 58:1 59:-0.289052 60:-0.569696 61:-0.243244 62:0.246002 64:-1 65:0.267606 66:-0.248226 67:0.594594 68:-0.248226 69:0.81081 70:0.513514 71:0.487604 72:1 73:1 74:-0.266666 75:0.485644 76:0.108108 77:-1 78:0.555966 79:-1 80:-0.140496 
7.651904934921878 1:-1 2:0.751446 3:-1 4:-0.112796 5:0.809248 6:0.613822 7:-1 8:0.786128 9:0.074784 10:-1 11:0.445086 12:-0.0333847 13:-0.749999 14:-1 15:-0.95429 16:0.930636 17:-0.599998 18:0.67052 20:-0.0617217 21:0.478504 22:-0.714284 23:0.976878 24:-0.428572 25:0.751446 26:-1 27:0.67052 28:-0.00367794 29:-1 30:0.867052 31:-0.822394 32:-0.41902 33:-1 34:0.774566 35:-1 36:-0.33333 37:0.445086 38:0.246002 39:-1 40:0.751446 41:-1 42:0.594594 43:-0.428572 44:0.766808 45:0.757226 46:-0.714284 47:-0.27027 48:-0.499996 49:0.150505 50:-0.0724124 51:0.220172 52:-0.33333 53:0.513514 54:-0.599998 55:0.108108 56:-0.07749 57:-0.756756 58:0.594594 59:0.221402 60:-0.569696 61:-0.243244 62:0.152522 63:0.45946 64:-0.313654 65:0.40845 66:0.205674 67:0.081082 68:-0.404256 69:0.45946 70:0.486486 71:-1 72:-0.243244 73:-0.041322 74:-0.224242 75:-0.962126 76:0.594594 77:-0.702128 78:-0.626076 79:-0.351252 80:0.338842 
5.414210379019643 1:-1 2:0.867052 3:-1 4:0.150022 5:0.809248 6:-0.183807 7:-1 8:0.867052 9:-0.380188 10:-1 11:0.976878 12:0.959305 13:-0.500001 14:0.400368 15:-0.521573 16:0.976878 17:-1 18:0.976878 19:-1 20:1 21:0.478504 22:0.142856 23:0.942196 24:-1 25:0.757226 26:-0.428568 27:0.976878 28:-0.425223 29:-1 30:0.751446 31:-0.16085 32:0.419013 33:-1 34:0.751446 35:-1 36:-1 37:0.809248 38:-0.07749 39:-0.714284 40:1 41:-1 42:0.513514 43:-1 44:0.651796 45:0.757226 46:-0.428572 47:0.486486 49:0.150505 50:-0.0782796 51:0.221402 52:-1 53:0.513514 54:-0.200001 55:0.108108 56:-0.313654 57:0.594594 58:1 59:0.254612 60:-1 61:1 62:-0.07749 63:0.486486 64:-0.313654 65:1 66:-0.574468 67:1 68:-0.574468 69:0.81081 70:0.594594 71:0.487604 72:1 73:0.487604 74:0.6 75:-0.918142 76:0.108108 77:1 78:0.246002 79:-0.962126 80:1 
3.313422824398475 1:-0.333333 2:0.751446 3:-0.714284 4:0.150022 5:1 6:0.613822 7:-0.499996 8:0.976878 9:0.111588 10:-1 11:0.687862 12:0.256052 13:-0.749999 14:0.594123 15:-0.258929 16:0.976878 17:-0.599998 18:0.861272 19:-1 20:0.978506 21:-0.424323 22:-0.428572 23:0.942196 24:-0.428572 25:0.445086 26:-0.428568 27:0.930636 28:0.833831 29:-1 30:0.867052 31:-0.547689 32:0.419013 33:-0.499996 34:0.890174 35:-1 36:-1 37:0.751446 38:0.246002 39:-0.714284 40:0.445086 41:-1 42:0.45946 43:-0.714284 44:-0.575215 45:0.751446 46:-0.428572 47:1 48:-1 49:-0.501911 50:-0.638941 51:0.221402 52:-1 53:0.81081 54:-1 55:0.594594 56:-1 58:0.162162 59:0.254612 60:-0.787878 61:-0.486486 62:0.555966 63:0.594594 64:-0.07749 65:0.71831 66:0.276596 67:1 68:-0.702128 69:0.594594 70:0.486486 71:-0.23967 72:0.081082 73:0.487604 74:-0.569696 75:-0.962126 76:0.594594 77:-0.404256 78:-0.07749 79:-0.918142 80:0.338842 
3.686289677589564 1:-0.333333 2:0.930636 3:-0.714284 4:-0.317296 5:-1 6:-0.468934 7:-1 8:-1 9:-0.529756 10:-1 11:0.751446 12:0.3062 13:-0.749999 14:0.594123 15:1 16:0.867052 17:-0.599998 18:0.907514 19:-1 20:0.783634 21:0.388684 22:-0.714284 23:0.751446 24:-0.714284 25:0.890174 26:-1 27:0.751446 28:-0.425223 29:-0.428572 30:0.757226 31:-0.137358 32:1 33:-1 34:0.751446 35:-0.333333 36:-1 37:0.907514 38:-0.313654 39:-1 40:0.445086 41:-1 42:-0.135136 43:-0.714284 44:-0.5583 45:0.976878 46:-0.142856 47:0.108108 48:-0.499996 49:1 50:0.438357 51:0.246002 52:-1 53:0.108108 54:-1 55:1 56:0.555966 57:0.594594 58:0.594594 59:-0.07749 60:0.769696 61:-0.135136 62:-0.07749 63:0.081082 64:0.221402 65:-0.887324 66:-1 67:0.486486 68:1 69:0.594594 70:0.108108 71:1 72:0.45946 73:0.338842 74:-0.587878 75:-0.46121 77:-0.219858 78:0.220172 79:0.644472 80:-0.471074 
2.918274006208387 1:-1 2:-1 3:-1 4:-0.317296 5:0.867052 6:0.613822 7:-1 8:0.774566 9:-0.62608 10:-1 11:0.976878 12:0.959305 13:-0.25 14:0.6542 15:-0.60785 16:1 17:-1 18:0.942196 19:-1 20:-0.0367594 21:0.897243 22:-0.714284 23:0.751446 24:-1 25:1 26:0.142856 27:-1 28:0.187016 29:-0.428572 30:0.867052 31:-0.355049 32:-0.902389 33:-1 34:0.867052 35:-1 36:-1 37:1 38:0.246002 39:-0.142856 40:0.809248 41:-1 42:0.81081 43:-1 44:0.0153465 45:0.942196 46:-0.714284 47:-0.756756 48:-1 49:0.546405 50:1 51:-0.686346 52:-0.33333 53:0.486486 54:-0.599998 55:-0.675676 56:-0.686346 57:0.486486 58:1 59:-0.07749 60:-0.266666 61:-0.675676 62:0.246002 63:0.108108 64:0.254612 65:0.605634 66:-0.248226 67:0.81081 68:-1 69:0.513514 70:0.486486 71:0.487604 72:0.108108 73:0.603306 74:-0.048484 75:-0.962126 76:0.81081 77:-0.262412 78:-0.289052 79:-0.793524 80:0.338842 
4.084930146302664 1:-1 2:0.751446 3:-1 4:0.759966 5:1 6:-0.0724405 7:-1 8:0.976878 9:0.536217 10:-1 11:0.687862 12:0.256052 13:-0.749999 14:0.0680997 15:-0.110941 16:0.751446 17:-1 18:0.786128 19:-1 20:0.978506 21:0.312127 22:-0.428572 23:-1 24:-0.428572 25:0.867052 26:-1 27:0.445086 28:-0.49459 29:-0.714284 30:0.774566 31:-0.465622 32:-0.354308 33:-0.499996 34:0.445086 35:-1 36:-0.33333 37:0.976878 38:0.152522 39:-0.714284 40:0.757226 41:-1 42:1 43:-0.428572 44:0.766808 45:0.809248 46:-1 47:1 48:-0.499996 49:-0.501911 50:-0.634056 51:-0.626076 52:-0.33333 53:0.81081 54:-0.599998 55:0.513514 56:0.246002 57:0.594594 58:0.162162 59:-0.289052 60:-0.569696 61:-0.27027 62:-1 63:0.45946 64:-0.08487 65:0.40845 66:0.276596 67:0.45946 68:-0.404256 69:0.108108 70:-0.756756 71:-0.23967 72:0.594594 73:-0.603306 74:0.733334 75:-0.975566 76:0.486486 77:0.276596 78:-0.626076 79:-0.351252 80:-0.140496 
5.865375214888847 1:-1 2:0.757226 3:-1 4:-0.276325 5:0.809248 6:-0.384894 7:-1 8:0.809248 9:-0.0569695 11:0.976878 12:0.959305 13:-1 14:0.805088 15:-0.00866945 16:0.445086 17:-1 18:0.751446 19:-1 20:-0.683775 21:-0.424323 22:-0.142856 23:0.687862 24:-0.714284 25:0.687862 26:-0.428568 27:0.976878 28:-0.0195157 29:-1 30:0.976878 31:0.576195 32:-1 33:-1 34:0.809248 35:-1 36:-1 37:0.751446 38:0.221402 39:-1 40:0.942196 41:-1 42:0.594594 43:-1 44:-0.377309 45:0.751446 46:-0.142856 47:0.513514 48:-0.499996 49:0.150505 50:-0.0782796 51:-1 52:-1 53:0.513514 54:0.200001 55:0.594594 56:-0.523986 57:0.513514 58:1 59:-0.523986 60:-0.375758 61:0.594594 62:-0.08487 63:0.108108 64:-0.07749 65:0.15493 66:1 67:0.594594 68:0.021276 69:-0.675676 70:1 71:0.487604 72:1 73:-1 74:-0.787878 75:1 76:-0.81081 77:-0.702128 78:-0.313654 79:-0.46121 80:0.487604 
5.17393845051346 1:-1 2:0.930636 3:-1 4:-0.112796 5:0.751446 6:-0.436964 7:-0.499996 8:0.757226 9:0.074784 10:-1 11:0.867052 12:0.341453 13:-0.25 14:1 15:-0.165223 16:0.774566 17:-0.200001 18:0.942196 19:-1 20:-0.158112 21:0.581274 22:-0.428572 23:0.976878 24:-0.714284 25:0.930636 26:-0.428568 27:0.774566 28:1 29:-1 30:0.861272 31:-0.355049 32:-0.21602 33:-1 34:0.976878 35:-1 36:-1 37:0.445086 38:0.608856 39:-1 40:0.867052 41:-1 42:0.594594 43:-1 44:-0.5583 45:0.867052 46:-0.714284 47:0.108108 48:-0.499996 49:-0.769553 50:-0.00196299 51:0.152522 52:0.33333 53:0.594594 54:-1 55:0.486486 56:0.220172 57:1 58:0.486486 59:0.221402 60:0.769696 61:-0.675676 62:0.221402 63:0.081082 64:0.246002 65:-0.887324 66:0.021276 67:-0.756756 68:1 69:0.486486 70:-0.486486 71:0.338842 72:-0.756756 73:-0.140496 74:-0.224242 75:-0.65058 76:0.081082 77:-0.702128 78:0.220172 79:0.644472 80:-0.619834 
2.98194388890742 1:-1 2:0.976878 3:-1 4:-0.212751 5:1 6:-0.49523 7:-1 8:0.67052 9:-0.110221 10:-1 11:0.907514 12:0.679037 13:-0.25 14:1 15:-0.578329 16:0.976878 17:-1 18:0.809248 19:-0.499996 20:0.861999 21:-0.424323 22:-0.142856 23:0.867052 24:-1 25:0.942196 26:-0.428568 27:0.809248 28:1 29:-1 30:0.907514 31:1 32:0.419013 33:-1 34:0.976878 35:-0.333333 36:-1 37:0.867052 38:0.02214 39:-0.714284 40:0.867052 41:-1 42:0.486486 43:-1 44:-0.561447 45:0.751446 46:-0.714284 47:-0.243244 48:-1 49:-0.501911 50:0.383557 51:0.221402 52:-1 53:0.81081 54:-0.200001 55:0.594594 56:0.254612 57:1 58:-0.135136 59:0.246002 60:0.733334 61:0.513514 62:0.221402 63:1 64:-0.07749 65:-0.97183 66:-0.716312 67:1 68:0.276596 69:0.486486 70:-0.135136 71:0.256198 72:0.513514 73:0.487604 74:-1 75:-0.893708 76:-0.675676 77:-0.574468 78:0.221402 79:1 80:0.256198 
3.681030209382729 1:-0.333333 2:0.751446 3:-0.714284 4:-0.212751 5:0.809248 6:0.0095393 7:-1 8:0.976878 9:0.0798768 10:-1 11:0.930636 12:0.463813 13:-0.749999 14:-0.334098 15:1 16:0.780346 17:-0.599998 18:0.751446 19:-1 20:0.978506 21:-0.332748 22:-0.714284 23:0.867052 24:-1 25:0.890174 26:-1 27:0.757226 28:-0.299655 29:-0.714284 30:0.780346 31:-0.917934 32:-0.427696 33:-0.499996 34:0.907514 35:-0.666664 36:-1 37:-1 38:1 39:-1 40:0.687862 41:1 42:0.108108 43:-0.142856 44:0.766808 45:0.751446 46:-1 47:1 48:-0.499996 49:0.150505 50:-0.388453 51:1 52:-1 53:0.513514 54:-0.599998 55:0.45946 56:0.555966 57:-0.135136 58:0.081082 59:0.246002 60:-0.569696 61:0.45946 62:0.02214 63:0.45946 64:-0.626076 65:0.40845 66:0.276596 67:-1 68:-0.404256 69:0.162162 70:-1 71:-0.041322 72:0.108108 73:-0.09091 74:-0.266666 75:-0.764202 77:-1 78:-0.626076 79:-0.351252 80:-0.09091 
2.386189454294497 1:-0.333333 2:0.907514 3:-0.428572 4:0.150022 5:0.942196 6:-0.386954 7:-0.499996 8:0.867052 9:-0.110221 10:-1 11:0.861272 12:-0.11506 13:-0.25 14:0.738818 15:-0.258929 16:0.867052 17:-1 18:0.809248 19:-1 20:1 21:0.388684 22:-0.714284 23:0.942196 24:-0.714284 25:0.445086 26:0.142856 27:0.751446 28:0.833831 29:-1 30:0.809248 31:1 32:1 33:-1 34:0.890174 35:-0.666664 36:-1 37:0.867052 38:-0.08487 39:-1 40:0.890174 41:-1 42:0.486486 43:-0.714284 44:1 45:0.976878 46:-1 47:0.486486 48:-1 49:-0.498083 50:0.438357 51:0.246002 52:-1 53:-0.675676 54:-0.200001 55:1 56:-1 58:-0.486486 59:0.254612 60:-0.587878 61:0.513514 62:0.555966 63:-0.135136 64:0.221402 65:0.464788 66:-0.574468 67:0.486486 68:-0.219858 70:0.513514 71:-0.619834 72:0.45946 73:0.338842 74:-1 75:0.485644 76:0.594594 77:-0.574468 78:0.02214 79:-0.893708 80:-0.140496 
3.977786938636347 1:-1 2:0.907514 3:-0.428572 4:-0.220912 5:0.809248 6:0.0095393 7:-0.499996 8:-1 9:-0.380188 10:-1 11:0.976878 12:0.959305 13:-1 14:0.6542 15:-0.60785 16:0.890174 17:-1 18:0.890174 19:-1 20:0.783634 21:-0.108355 22:-0.714284 23:0.757226 24:-1 25:1 26:-1 27:0.687862 28:-0.433927 29:-0.428572 30:0.780346 31:-0.175883 32:-0.157091 33:-0.499996 34:-1 35:-0.666664 36:-1 37:0.809248 38:1 39:-0.714284 40:0.809248 41:7.00001e-006 42:0.513514 43:-1 44:1 45:0.861272 46:-1 47:0.108108 48:-0.499996 49:0.150505 50:0.178087 51:0.555966 52:-1 53:0.513514 54:0.200001 55:-0.486486 56:-0.686346 57:0.108108 58:1 59:-0.313654 60:-0.587878 62:-0.289052 63:-0.135136 64:0.608856 65:0.464788 66:-1 68:-0.219858 69:0.513514 70:-1 71:0.487604 72:0.162162 73:0.190082 74:0.6 75:-0.764202 76:0.81081 77:1 78:0.02214 79:-0.893708 80:-0.09091 
10.97347218271994 1:-1 2:0.445086 3:-1 4:-0.569063 5:0.786128 6:-0.468934 7:-1 8:0.751446 9:0.111588 10:-0.499996 11:0.687862 12:0.738353 13:-0.749999 14:0.594123 15:-0.110941 16:0.976878 17:-1 18:0.445086 19:-1 20:0.491678 21:-0.424323 22:-0.714284 23:0.786128 24:-0.142856 25:0.867052 26:-1 27:0.809248 28:-0.425223 29:-1 30:0.757226 31:-0.0602961 32:0.419013 33:-1 34:0.751446 35:-1 36:0.33333 37:0.751446 38:-0.313654 39:-1 40:0.445086 41:-1 42:0.45946 43:-0.714284 44:-0.408002 45:0.751446 46:-0.142856 47:0.594594 48:-0.499996 49:-0.791794 50:0.383557 51:0.221402 52:-1 53:-0.27027 54:-0.599998 55:0.594594 56:0.246002 57:0.594594 58:-0.81081 59:0.562116 60:-0.224242 61:0.594594 62:-0.07749 63:0.594594 64:-0.07749 65:0.323944 66:-0.702128 67:1 68:-0.702128 69:0.594594 70:0.108108 71:-0.206612 72:0.513514 73:0.487604 74:-0.569696 75:-0.46121 76:0.486486 77:-0.404256 78:-1 79:-0.27917 80:-0.471074 
4.928857108034219 1:-1 2:0.907514 3:-1 4:-0.411815 5:0.976878 6:-0.384894 7:-1 8:0.445086 9:0.074784 10:-1 11:1 12:0.729186 13:-1 14:0.24948 15:-0.258929 16:1 17:-1 18:0.786128 19:-1 20:0.410539 21:0.388684 22:0.142856 23:0.445086 24:0.142856 25:0.445086 26:-1 27:1 28:0.126353 29:-1 30:0.976878 31:-0.465622 32:-0.902389 33:-1 34:0.751446 35:-0.666664 36:-0.33333 37:0.445086 38:0.221402 39:-0.142856 40:0.976878 41:-1 42:0.594594 43:-0.714284 44:1 45:0.976878 46:-1 47:0.594594 48:-1 49:0.947863 50:0.353229 51:-0.686346 52:-1 53:1 54:-1 55:1 56:-1 57:0.45946 58:0.81081 59:-1 60:-0.587878 61:-0.27027 62:-0.626076 63:-0.135136 64:0.221402 65:0.464788 66:-0.702128 67:0.81081 68:-0.219858 69:1 70:1 71:0.603306 72:0.81081 73:0.603306 74:-0.224242 75:1 76:0.594594 77:-0.702128 78:0.02214 79:-0.893708 80:0.487604 
3.641602745535967 1:-1 2:0.867052 3:-1 4:-0.205443 5:0.751446 6:-0.183807 7:-1 8:0.942196 9:0.0532512 10:-0.499996 11:0.907514 12:0.679037 13:-0.500001 14:0.767028 15:-0.228077 16:0.976878 17:-0.599998 18:0.976878 19:-1 20:0.137312 21:0.40755 22:-0.142856 23:0.930636 24:-1 25:0.751446 26:-0.428568 27:0.976878 28:0.187016 29:-0.714284 30:0.751446 31:-0.16085 32:0.419013 33:-0.499996 34:0.867052 35:-0.666664 36:-1 37:0.687862 38:-0.07749 39:-1 40:-1 41:-1 42:0.162162 43:-0.428572 44:0.651796 45:0.687862 46:-0.714284 47:-0.675676 48:-1 49:-0.641295 50:-0.0782796 51:0.221402 52:-1 53:0.45946 54:-1 55:-0.81081 56:-0.626076 57:0.486486 58:-0.135136 59:0.220172 60:-1 61:1 62:0.246002 63:0.486486 64:-0.523986 65:1 66:0.120568 67:1 68:-0.574468 69:0.108108 70:0.594594 71:0.256198 72:1 73:0.487604 74:-0.618182 75:-0.918142 76:0.45946 77:-0.886524 78:0.246002 79:-0.962126 80:1 
5.553904881551835 1:-1 2:0.445086 3:-0.714284 4:0.181806 5:0.809248 6:-0.386954 7:-1 8:0.445086 9:-0.110221 10:-1 11:0.687862 12:0.256052 13:-0.749999 14:-0.188266 15:-0.329205 16:0.809248 17:-1 18:0.687862 19:-0.499996 20:0.410539 21:0.715835 22:-1 23:0.809248 24:-0.428572 25:0.809248 26:-1 27:0.67052 28:0.126353 29:-1 30:0.809248 31:-0.098822 32:-0.201555 34:0.751446 35:-1 36:-1 37:0.867052 38:-0.08487 39:-1 40:0.751446 41:-1 42:0.486486 43:-0.714284 44:-0.408002 45:0.890174 46:-0.714284 47:0.594594 48:-1 49:0.150505 50:-0.0724124 51:-0.08487 52:-1 53:0.513514 54:1 56:-0.08487 57:0.45946 58:0.162162 59:-0.08487 60:-0.224242 61:0.162162 62:-0.626076 63:0.594594 64:0.555966 65:0.323944 66:-0.702128 67:0.513514 68:-0.702128 69:0.594594 70:0.513514 71:-0.23967 72:-0.243244 73:-0.140496 74:-1 75:0.485644 76:0.513514 77:-0.574468 78:-1 79:-0.27917 80:-0.140496 
0.6779226096827615 1:-0.333333 2:0.976878 3:-0.714284 4:0.181806 5:0.687862 6:-0.183807 7:-0.499996 8:0.907514 9:1 10:-1 11:0.751446 12:0.3062 13:-0.500001 14:0.594123 15:-0.110941 16:0.976878 17:-1 18:0.907514 19:-1 20:-0.260746 21:0.581274 22:-0.142856 23:0.809248 24:-0.714284 25:0.867052 26:-1 27:0.861272 28:1 29:-1 30:0.751446 31:-0.137358 32:0.419013 33:-0.499996 34:0.976878 35:-0.333333 36:-1 37:0.890174 38:-0.07749 39:-1 40:0.445086 41:-1 43:-1 44:-0.561447 45:0.867052 46:-0.428572 47:-0.135136 48:-1 49:0.427532 50:-0.167323 51:0.221402 52:-1 53:0.162162 54:-0.599998 55:0.486486 56:0.246002 57:1 58:0.594594 59:-0.08487 60:0.733334 61:-0.135136 62:0.221402 63:1 64:0.246002 65:-0.97183 66:-0.219858 67:1 68:0.276596 69:0.594594 70:0.594594 71:1 72:-0.486486 73:0.487604 74:-0.569696 75:-0.918142 76:0.486486 77:-0.248226 78:0.221402 79:1 80:1 
12.24930779797531 1:-1 2:0.751446 3:-1 4:-0.220912 5:0.976878 6:-0.5272 7:-0.499996 8:1 9:0.074784 10:-1 11:0.809248 12:-0.276399 13:-0.749999 14:0.24948 15:-0.242928 16:0.930636 17:-0.599998 18:0.976878 19:-1 20:-0.0159495 21:-0.332748 22:0.142856 23:0.757226 24:-0.714284 25:0.861272 26:-1 27:0.976878 28:0.187016 29:-1 30:1 31:-0.16085 32:-0.41902 33:-1 34:0.867052 35:-1 36:-1 37:0.445086 38:-0.686346 39:-0.428572 40:0.976878 41:-1 42:0.594594 43:-0.428572 44:0.766808 45:0.751446 46:-1 47:0.81081 48:-0.499996 49:0.947863 50:-0.0782796 51:0.220172 52:-1 53:1 54:-0.599998 55:0.45946 56:0.608856 57:0.486486 58:0.513514 59:-0.313654 60:-0.569696 61:1 62:0.246002 63:0.45946 64:-0.626076 65:0.40845 66:-0.262412 67:0.081082 68:-0.404256 69:1 70:0.81081 71:-0.140496 72:1 73:-0.041322 74:-0.224242 75:0.110568 76:-0.486486 77:-0.702128 78:-0.626076 79:-0.351252 80:0.603306 
4.410407295294808 1:-0.333333 2:0.751446 3:-0.428572 4:0.150022 5:0.890174 6:-0.386954 7:-1 8:0.757226 9:-0.380188 10:-1 11:0.751446 12:-0.0462897 13:-1 14:0.24948 15:1 16:0.976878 17:-1 18:0.907514 19:-1 20:-0.158112 21:0.39252 22:-0.428572 23:0.942196 24:-1 25:0.890174 26:-0.428568 27:1 28:-0.140851 29:-1 30:0.809248 31:-0.137358 32:0.419013 33:-1 34:0.786128 35:-0.333333 36:-0.33333 37:0.809248 38:-0.08487 39:-0.714284 40:0.976878 41:-1 42:0.513514 43:-0.714284 44:-0.575215 45:0.907514 46:-0.714284 47:0.108108 48:-0.499996 49:0.754611 50:0.353229 51:0.221402 52:-1 54:-0.200001 55:-0.135136 56:0.555966 57:-0.27027 58:0.45946 59:0.254612 60:-0.787878 61:-0.135136 62:0.562116 63:0.594594 64:0.02214 65:0.71831 66:0.021276 67:1 68:-0.702128 69:1 70:0.513514 71:-0.603306 72:0.81081 73:0.487604 74:0.6 75:0.485644 77:1 78:-0.07749 79:-0.918142 80:-0.140496 
2.968536988494238 1:-0.333333 2:0.751446 3:-0.714284 4:-0.212751 5:0.751446 6:-0.183807 7:-1 8:0.757226 9:0.074784 10:-1 11:0.890174 12:1 13:-0.749999 14:0.24948 15:-0.711459 16:0.976878 17:-1 18:0.809248 19:-1 20:-0.158112 21:-0.424323 22:-0.142856 23:0.867052 24:-0.714284 25:0.907514 26:-1 27:-1 28:1 29:-0.714284 30:0.751446 31:1 32:0.419013 33:-1 34:0.976878 35:-0.666664 36:-1 37:0.445086 38:-0.07749 39:-1 40:0.976878 41:-1 42:0.594594 43:-0.714284 44:0.766808 45:0.751446 46:-0.142856 47:0.108108 48:-0.499996 49:-0.769553 50:1 51:0.221402 52:-1 53:0.594594 54:-0.599998 55:0.594594 56:0.02214 57:1 59:0.246002 60:-0.569696 61:0.513514 62:0.221402 63:0.45946 64:-0.07749 65:0.40845 66:0.021276 67:1 68:-0.404256 69:1 70:0.594594 71:0.190082 72:0.108108 73:0.487604 74:-0.224242 75:-0.918142 76:-0.135136 77:-0.702128 78:-0.626076 79:-0.351252 80:1 
3.452069708741489 1:-0.333333 2:0.890174 3:-0.428572 4:-0.205443 5:0.774566 6:0.128124 7:-1 8:0.930636 9:-0.529756 10:-1 11:0.867052 12:0.341453 13:-0.25 14:0.0680997 15:1 16:0.867052 17:-0.200001 18:0.751446 19:-1 20:-0.200416 21:0.478504 22:-0.714284 23:0.930636 24:-1 25:0.890174 26:-1 27:0.867052 28:1 29:-0.714284 30:-1 31:0.576195 32:1 33:-1 34:0.976878 35:-0.666664 36:-1 37:0.907514 38:-0.289052 39:-1 40:0.757226 41:-1 42:-0.135136 43:-1 44:-0.151877 45:0.757226 46:-0.714284 47:0.081082 49:-0.198815 50:0.884544 51:0.246002 52:-0.33333 53:-0.756756 54:-1 55:0.108108 56:0.555966 57:1 58:0.486486 59:0.220172 60:-0.569696 61:0.594594 62:0.221402 64:-0.313654 65:0.267606 66:1 67:0.486486 68:-0.248226 69:0.108108 70:0.108108 71:0.338842 72:0.486486 73:0.338842 74:-0.587878 75:-0.793524 77:-0.219858 78:0.555966 79:-1 80:-0.950414 
5.727415505432676 1:-1 2:0.751446 3:-1 4:-0.317296 5:0.67052 6:0.613822 7:-1 8:0.751446 9:-0.0569695 10:-1 11:0.976878 12:0.959305 13:-0.500001 14:0.24948 15:-0.199699 16:0.867052 17:-1 18:0.976878 20:0.491678 21:0.16078 22:0.142856 23:0.751446 24:-1 25:0.976878 26:-1 27:0.907514 28:-0.680829 29:-1 30:0.867052 31:-0.16085 32:1 33:-1 34:1 35:-0.666664 36:-1 37:0.751446 38:0.246002 39:-0.714284 40:0.976878 41:-1 42:0.594594 43:-0.714284 44:0.766808 45:0.67052 46:-0.142856 47:0.594594 48:-1 49:-0.840116 50:-1 51:0.246002 52:-1 53:-0.243244 54:-1 55:-0.243244 56:0.221402 57:0.81081 58:1 59:-0.07749 60:-0.569696 61:1 62:-0.686346 63:0.45946 64:-0.279212 65:0.40845 66:-0.702128 67:0.486486 68:-0.404256 69:1 70:0.486486 71:0.487604 72:-0.135136 73:0.338842 74:-0.787878 75:-0.962126 76:1 77:-0.702128 78:-0.626076 79:-0.351252 80:0.338842 
7.734253907354221 1:-1 2:0.687862 3:-0.714284 4:-0.411815 5:0.867052 6:0.128124 7:-1 8:0.976878 9:-0.0569695 10:-1 11:0.757226 12:0.287578 13:-0.749999 14:0.738818 15:-0.228077 16:0.809248 17:-1 18:0.757226 19:-1 20:0.978506 21:0.39252 22:-0.428572 23:0.445086 24:-0.714284 25:0.751446 26:-1 27:0.976878 28:-0.433927 29:-0.428572 30:-1 31:-1 32:-0.201555 33:-0.499996 34:-1 35:-0.666664 36:-1 37:0.751446 38:-0.289052 39:-1 40:0.890174 41:-1 42:0.594594 43:-0.714284 44:-0.271472 45:0.907514 46:-0.714284 47:1 49:0.546405 50:-0.0782796 51:-0.08487 52:-1 53:0.486486 54:-0.599998 55:-0.135136 56:-0.626076 57:0.108108 58:0.108108 59:-1 60:-0.618182 61:0.108108 62:-0.289052 63:0.162162 64:0.02214 65:0.605634 66:0.276596 67:0.513514 68:-0.886524 70:0.108108 71:-0.471074 72:1 73:-0.140496 74:-0.787878 75:-0.793524 76:0.45946 77:-0.702128 78:-0.377614 79:-0.918142 80:-0.950414 
5.736046988788083 1:-0.333333 2:1 3:-0.714284 4:-0.220912 5:0.867052 6:-0.183807 7:-1 8:0.930636 9:0.536217 10:-1 11:0.907514 12:0.679037 13:-0.749999 14:0.400368 15:1 16:0.976878 17:-0.599998 18:0.907514 19:-1 20:-0.200416 21:0.478504 22:-0.428572 23:0.757226 24:-1 25:0.890174 26:-1 27:0.757226 28:-0.680829 29:-1 30:0.751446 31:-0.137358 32:0.419013 33:-1 34:1 35:-0.333333 36:-1 37:0.976878 38:-0.07749 39:-0.142856 40:1 41:-1 42:1 43:-1 44:-0.00617097 45:0.757226 46:-0.714284 47:0.081082 48:0.500004 49:0.546405 50:-0.388453 51:0.221402 52:-1 53:0.486486 54:-1 55:0.108108 56:0.555966 57:0.81081 58:-0.135136 59:-0.313654 60:-0.048484 61:-0.135136 62:-0.686346 63:0.81081 64:-0.313654 65:-0.042254 66:1 67:1 68:-0.262412 69:0.81081 70:0.594594 71:0.256198 72:0.108108 73:0.487604 74:0.733334 75:-0.918142 77:0.276596 78:-0.686346 79:0.110568 80:1 
4.774573276827568 1:-1 2:0.976878 3:-0.428572 4:0.759966 5:0.687862 6:-0.217837 7:-1 8:0.867052 9:-0.371377 10:-0.499996 11:0.751446 12:-0.0462897 13:-0.749999 14:0.738818 15:-0.199699 16:0.751446 17:-0.599998 18:0.976878 19:-1 20:1 21:0.39252 22:-0.142856 23:-1 24:-1 25:0.976878 26:-1 27:0.890174 28:-0.433927 29:-0.428572 30:0.930636 31:-0.16085 32:-0.71873 33:-1 34:-1 35:-0.666664 36:-1 37:0.774566 38:0.220172 39:-1 40:0.890174 41:-1 42:-0.756756 43:-0.714284 44:-0.561447 45:0.907514 46:-0.714284 47:0.486486 48:-1 49:-0.0649999 50:0.142862 51:-0.07749 52:-0.33333 53:-0.81081 54:-1 55:-0.135136 56:0.221402 57:0.108108 58:0.45946 59:-0.289052 60:0.733334 61:1 62:-0.289052 63:1 64:0.02214 65:-0.97183 66:-0.574468 67:0.594594 68:0.276596 70:0.081082 71:-0.603306 73:1 74:0.157576 75:0.644472 76:1 77:-0.248226 78:0.221402 79:1 80:-0.041322 
1.34467960488568 1:0.333333 2:0.751446 3:0.142856 4:0.759966 5:0.890174 6:0.31838 7:-1 8:0.445086 9:1 10:-1 11:0.687862 12:0.256052 13:-0.749999 14:-1 15:1 16:0.890174 17:-1 18:0.687862 19:-1 20:0.410539 21:0.581274 22:-1 23:-1 24:-0.428572 25:0.890174 26:-1 27:0.445086 28:-0.433927 29:-0.428572 30:0.687862 31:-0.098822 32:-0.157091 33:0.500004 34:-1 35:-1 36:-1 37:0.890174 38:-0.377614 39:-1 40:0.751446 41:-1 43:-0.428572 44:0.766808 45:0.867052 46:-1 47:0.594594 48:-1 49:0.754611 50:-0.634056 51:0.555966 52:-1 54:-1 55:0.486486 56:0.555966 57:0.108108 58:0.162162 59:-0.289052 60:-0.569696 61:0.162162 62:-0.289052 63:0.45946 64:0.246002 65:0.40845 66:-0.702128 68:-0.404256 69:0.45946 70:0.162162 71:-0.23967 72:0.594594 73:0.190082 74:-0.569696 75:-0.918142 77:-0.248226 78:-0.626076 79:-0.351252 80:-0.23967 
6.125511234948413 1:-1 2:0.930636 3:-1 4:-0.212751 5:0.976878 6:-0.0513018 7:-1 8:0.687862 9:0.0532512 10:-1 11:0.867052 12:0.341453 13:-0.25 14:-0.188266 15:-0.435296 16:0.942196 17:-0.599998 18:0.751446 19:-1 20:-1 21:-0.332748 22:-0.714284 23:0.867052 24:-1 25:0.786128 26:0.142856 27:0.867052 28:0.117657 29:-1 30:0.942196 31:0.576195 32:-0.355208 34:0.757226 35:-1 36:-0.33333 37:0.687862 38:0.254612 39:-1 40:0.751446 41:-1 42:0.162162 43:-0.714284 44:-0.5583 45:0.751446 46:-0.428572 47:0.162162 48:-0.499996 49:0.947863 50:0.884544 51:0.254612 52:-1 53:1 54:-1 55:0.45946 56:0.562116 57:0.108108 58:0.486486 59:0.246002 60:0.769696 61:0.594594 62:-0.313654 63:0.081082 64:-0.626076 65:-0.887324 66:-0.886524 67:-0.675676 68:1 69:0.594594 70:-0.675676 71:0.338842 72:0.486486 73:0.768596 74:-0.618182 75:-0.55284 76:-0.27027 77:-0.886524 78:0.220172 79:0.644472 80:0.768596 
2.832575331593733 1:-0.333333 2:0.445086 3:-0.428572 4:0.150022 5:0.751446 6:-0.183807 7:-1 8:0.976878 9:1 10:-1 11:0.867052 12:0.341453 13:-0.749999 14:0.24948 15:-0.199699 16:0.809248 17:-1 18:-1 19:-1 20:0.978506 21:0.715835 22:-0.142856 23:0.942196 24:-0.714284 25:0.976878 26:-0.428568 27:0.687862 28:0.126353 29:-0.714284 30:0.751446 31:-0.190917 32:-0.201555 33:-0.499996 34:0.751446 35:-1 36:-1 37:0.890174 38:-0.07749 39:-1 40:0.976878 41:-1 43:-0.714284 44:-0.408002 45:0.890174 46:-0.428572 47:1 48:-1 49:-0.769553 50:0.178087 51:-0.08487 52:-1 53:0.594594 54:-0.599998 56:0.221402 57:0.45946 58:0.486486 59:0.254612 60:-0.224242 61:0.108108 62:-0.626076 63:0.594594 64:0.555966 65:0.323944 66:0.276596 67:0.513514 68:-0.702128 69:1 70:0.594594 71:0.338842 72:0.162162 73:-0.140496 74:-0.569696 75:-0.918142 76:1 77:-0.248226 78:-1 79:-0.27917 80:1 
8.871247378489917 1:-0.333333 2:0.757226 3:-0.714284 4:-0.112796 5:0.867052 6:-0.183807 7:-1 8:0.751446 9:0.074784 10:-1 11:0.890174 12:1 13:-0.749999 14:-1 15:-1 16:0.751446 17:-1 18:0.976878 19:-1 20:0.491678 21:0.388684 22:-0.142856 23:0.976878 24:-0.714284 25:0.687862 26:-1 27:0.687862 28:-0.00367794 29:-1 30:0.751446 31:-0.16085 32:-0.71873 34:0.774566 35:-1 36:-1 37:0.445086 38:-0.07749 39:-1 40:0.751446 41:-1 42:0.594594 43:-0.714284 44:-0.377309 45:0.976878 46:-0.142856 47:0.594594 48:-0.499996 49:0.546405 50:0.178087 51:-0.07749 52:-0.33333 53:0.486486 54:-1 55:1 56:-0.377614 57:-0.756756 59:0.221402 60:-0.375758 61:1 62:0.152522 63:0.108108 64:0.221402 65:0.15493 66:-0.702128 67:0.594594 68:0.021276 69:0.45946 70:0.594594 71:0.190082 72:0.162162 73:1 74:-0.224242 75:-0.918142 76:0.162162 77:-0.702128 78:-0.313654 79:-0.46121 80:1 
10.41775644909395 1:-0.333333 2:1 3:-0.714284 4:-0.112796 5:0.907514 6:-0.49523 7:-1 8:0.890174 9:-0.534849 10:-1 11:0.445086 12:-0.0333847 13:-1 14:-0.188266 15:-0.228077 16:0.809248 17:-0.599998 18:0.757226 19:-0.499996 20:0.91886 21:0.478504 22:-0.428572 23:0.976878 24:-0.714284 25:0.751446 26:-1 27:0.67052 28:1 29:-1 30:0.907514 31:-1 32:-0.201555 33:-1 34:0.976878 35:-0.333333 36:-1 37:0.930636 38:0.02214 39:-0.714284 40:0.751446 41:-1 42:0.081082 43:-0.714284 44:-0.00617097 45:0.757226 46:-0.714284 49:-0.481399 50:-0.0724124 51:-0.08487 52:-1 53:-0.135136 54:-0.599998 55:0.108108 56:-0.626076 57:1 58:0.594594 59:0.221402 60:-0.048484 61:0.108108 62:0.221402 63:0.81081 64:-0.313654 65:-0.042254 66:-0.248226 67:0.513514 68:-0.262412 69:0.594594 70:-0.135136 71:-1 72:-0.243244 73:-0.140496 74:0.769696 75:-0.893708 76:0.45946 77:1 78:-0.686346 79:0.110568 80:0.256198 
4.507207081807696 1:-1 2:0.867052 3:-0.714284 4:-0.411815 5:0.445086 6:0.31838 7:-1 8:1 9:-0.62608 10:-1 11:1 12:0.729186 13:-0.500001 14:0.767028 15:-0.110941 16:0.976878 17:-1 18:0.890174 19:-1 20:-0.0159495 21:0.897243 22:-0.714284 23:0.445086 24:-0.428572 25:0.867052 26:-0.428568 27:1 28:-0.680829 29:-0.714284 30:0.687862 31:-0.175883 32:0.419013 33:-0.499996 34:1 35:-1 36:-1 37:1 38:-0.377614 39:0.428572 40:-1 41:-1 42:0.81081 43:-1 44:0.651796 45:0.942196 46:-1 47:0.81081 48:-1 49:-0.871742 50:0.353229 51:0.221402 52:-1 53:0.594594 54:-1 55:-0.675676 56:0.246002 57:0.81081 58:0.81081 59:-1 60:-1 62:-0.686346 63:0.486486 64:0.254612 65:1 66:-0.262412 67:1 68:-0.574468 69:0.108108 70:0.162162 71:0.603306 72:0.81081 73:0.487604 74:-0.048484 75:-0.918142 76:0.486486 77:-0.262412 78:0.246002 79:-0.962126 80:-0.23967 
8.753105280268429 1:-1 2:0.67052 3:-0.428572 4:-1 5:0.861272 6:-1 7:-0.499996 8:1 9:0.111588 10:-1 11:-1 12:0.107607 13:-1 14:0.738818 15:-0.352636 16:0.942196 17:-0.599998 18:0.890174 19:-0.499996 20:-0.0159495 21:-0.332748 22:-1 23:0.751446 24:-1 25:-1 26:-0.428568 27:0.930636 28:-0.680829 29:-0.428572 30:0.751446 31:-0.175883 32:-0.355208 33:-1 34:1 35:-1 36:-1 37:0.751446 38:-0.626076 39:-0.428572 40:0.890174 41:-1 42:0.45946 43:0.142856 44:-0.125776 45:0.751446 46:-1 47:0.81081 48:-1 49:-0.931179 50:-0.638941 51:0.254612 52:-1 53:-0.486486 54:-1 55:0.45946 56:-0.289052 57:0.81081 58:0.108108 59:-0.626076 60:-0.59394 62:-0.686346 63:-0.243244 64:-0.626076 65:0.43662 66:-0.262412 67:-0.675676 68:-0.716312 70:0.45946 71:-0.950414 72:0.081082 73:0.768596 74:-0.569696 75:-0.351252 76:0.108108 77:-0.404256 78:-0.279212 79:-0.750764 80:-0.603306 
4.618093688688219 1:0.333333 2:0.751446 3:-0.428572 4:-1 5:0.751446 6:1 7:-0.499996 8:0.757226 9:0.111588 10:-1 11:0.890174 12:1 13:-1 14:-1 15:-0.228077 16:1 17:-1 18:0.774566 19:-1 20:-0.158112 21:0.388684 22:-0.714284 23:0.751446 24:-1 25:0.751446 26:-1 27:0.751446 28:-0.228948 29:-1 30:0.890174 31:-0.673295 32:-0.902389 33:-1 34:0.861272 35:-1 36:-1 37:0.751446 38:0.555966 39:-0.714284 40:0.751446 41:-1 42:0.45946 43:1 44:0.766808 45:0.976878 46:-1 47:0.108108 48:-0.499996 49:-0.641295 50:0.438357 51:-0.686346 52:-0.33333 53:0.45946 54:-1 55:1 56:-0.626076 57:-0.486486 59:-0.626076 60:-0.569696 61:-0.756756 62:0.608856 63:0.45946 64:0.221402 65:0.40845 66:0.021276 67:0.81081 68:-0.404256 69:0.45946 71:0.190082 72:0.45946 73:0.603306 74:-0.569696 75:-1 76:0.45946 77:-0.404256 78:-0.626076 79:-0.351252 80:0.190082 
4.514364404766926 1:-1 2:0.67052 3:-1 4:-0.569063 5:0.687862 6:-0.384894 7:-1 8:0.867052 9:-0.62608 10:-1 11:0.930636 12:0.463813 13:-0.749999 14:0.607654 15:0.0197085 16:0.774566 17:-0.599998 18:-1 19:-0.499996 20:1 21:0.21496 22:-0.714284 23:0.786128 24:-0.714284 25:0.774566 26:-1 27:0.751446 28:-0.299655 29:-0.714284 30:0.976878 31:-0.190917 32:-0.21602 33:-0.499996 34:0.907514 35:-0.666664 36:0.33333 37:1 38:0.221402 39:-0.714284 40:0.786128 41:-1 42:0.81081 43:-1 44:-0.125776 45:0.445086 46:-0.714284 47:0.486486 48:-1 49:0.427532 50:-0.945211 51:0.152522 52:0.33333 53:0.162162 54:-1 55:0.594594 56:0.152522 57:-0.135136 58:0.081082 59:0.562116 60:-0.59394 61:0.108108 62:0.02214 63:-0.243244 64:-1 65:0.43662 66:-0.574468 67:-0.756756 68:-0.716312 69:-0.27027 70:1 71:-0.041322 72:0.594594 73:-0.140496 74:-0.048484 75:1 76:-0.756756 77:-0.262412 78:-0.279212 79:-0.750764 80:0.487604 
2.31104766952256 1:-1 2:0.976878 3:-0.714284 4:-0.301827 5:0.751446 6:0.613822 7:-1 8:0.67052 9:0.111588 10:-1 11:0.757226 12:0.287578 13:-0.749999 14:0.24948 15:-0.95429 16:0.751446 17:-1 18:0.890174 19:-0.499996 20:0.861999 21:0.902834 22:-0.142856 23:1 24:-1 25:0.751446 26:-1 27:0.751446 28:1 29:-1 30:0.867052 31:-0.175883 32:-0.354308 33:-1 34:0.976878 35:-1 36:-1 37:0.751446 38:0.246002 39:-0.714284 40:0.976878 41:-1 42:0.45946 43:-0.142856 44:-0.561447 45:0.774566 46:-0.428572 47:-0.243244 48:-0.499996 49:-0.769553 50:0.438357 51:-0.626076 52:-0.33333 53:0.594594 54:-1 55:-0.756756 56:-0.07749 57:1 58:0.108108 59:-0.686346 60:0.733334 62:0.221402 63:1 64:0.152522 65:-0.97183 66:-0.716312 67:0.45946 68:0.276596 69:1 70:0.486486 71:-0.471074 72:0.45946 73:-0.603306 74:-0.569696 75:-0.962126 76:0.594594 77:-0.404256 78:0.221402 79:1 80:0.338842 
1.545485172010325 1:0.333333 2:0.890174 3:-0.142856 4:1 5:0.687862 6:1 7:-1 8:0.757226 9:-0.826356 10:-0.499996 11:0.809248 12:-0.276399 13:-0.500001 14:0.6542 15:0.0197085 16:0.757226 17:-1 18:0.809248 19:-1 20:-0.158112 21:0.581274 22:-1 23:0.890174 24:-1 25:0.774566 26:-1 27:0.687862 28:0.187016 29:-1 30:0.890174 31:1 32:-0.619131 33:-0.499996 34:0.867052 35:-1 36:-1 37:0.757226 38:0.555966 39:-1 40:0.809248 41:-1 42:0.108108 43:-1 44:-0.151877 45:0.867052 46:-1 47:0.108108 48:0.500004 49:-0.0649999 50:0.178087 51:-0.313654 52:-0.33333 53:-0.81081 54:0.200001 55:0.486486 56:0.152522 57:0.486486 58:0.513514 59:0.555966 60:-0.569696 61:0.513514 62:0.246002 64:0.246002 65:0.267606 66:0.021276 67:0.108108 68:-0.248226 69:0.513514 71:-0.140496 72:0.162162 73:-0.471074 74:-0.375758 75:-1 76:-0.756756 77:0.021276 78:0.555966 79:-1 80:0.190082 
2.941230168299813 1:-0.333333 2:0.809248 3:-0.428572 4:-0.112796 5:0.809248 6:-0.265272 7:-1 8:0.809248 9:0.111588 10:-1 11:0.976878 12:0.959305 13:-1 14:0.0607607 15:1 16:0.757226 17:-1 18:0.445086 19:-0.499996 20:-0.683775 21:0.715835 22:-0.428572 23:0.976878 24:-0.714284 25:0.890174 26:-1 27:0.809248 28:0.126353 29:-1 30:0.786128 31:-0.0602961 32:-0.619131 33:-1 34:0.751446 35:-1 36:-0.33333 37:0.751446 38:0.562116 39:-1 40:0.67052 41:-1 42:0.45946 43:-0.428572 44:-0.769965 45:0.890174 46:-1 47:0.513514 48:-0.499996 49:0.150505 50:0.383557 51:-0.313654 52:-1 53:0.513514 54:0.599998 56:0.555966 57:0.45946 58:1 59:0.221402 60:0.6 61:0.594594 62:-0.626076 63:0.513514 64:0.555966 65:-0.746478 66:1 67:0.108108 68:1 69:-0.243244 70:-0.27027 71:0.487604 72:0.513514 73:-0.471074 74:-0.569696 75:0.309712 77:-0.404256 78:-0.08487 79:0.485644 80:0.206612 
3.430719128580906 1:-0.333333 2:0.890174 3:-0.428572 4:1 5:0.445086 6:-0.410675 7:-1 8:0.751446 9:0.0532512 10:-1 11:0.907514 12:0.679037 13:-0.749999 14:1 15:-0.258929 16:0.907514 17:-1 18:0.445086 19:-1 20:-0.0977827 21:0.403702 22:-1 23:0.890174 24:0.428572 25:0.445086 26:-1 27:0.809248 28:-0.49459 29:-0.714284 30:0.445086 31:-0.0602961 32:-0.571766 33:-0.499996 34:0.445086 35:-0.333333 36:-1 37:0.687862 38:-1 39:-1 40:0.867052 41:-1 42:0.162162 43:-0.714284 44:-0.151877 45:-1 46:-1 47:0.45946 48:-1 49:-0.871742 50:0.383557 51:0.02214 52:-1 53:0.594594 54:-0.599998 55:0.108108 56:-1 57:0.594594 58:-0.135136 59:0.555966 60:-0.569696 61:0.594594 62:-1 64:-0.289052 65:0.267606 66:-0.404256 67:-0.135136 68:-0.248226 69:0.486486 70:0.594594 71:0.256198 72:0.513514 73:0.256198 74:-0.618182 75:-0.27917 76:0.594594 77:-0.886524 78:0.555966 79:-1 80:-1 
1.270879625609412 1:0.333333 2:1 3:-0.142856 4:1 5:-1 6:0.128124 7:-1 8:-1 9:-0.380188 10:-1 11:0.890174 12:1 13:-1 14:0.767028 15:-0.352636 16:0.757226 17:-1 18:0.751446 19:-1 20:0.783634 21:0.902834 22:-1 23:0.890174 24:-1 25:-1 26:-1 27:0.890174 28:-0.140851 29:0.428572 30:-1 31:0.576195 32:-0.619131 33:-1 34:0.786128 35:-1 36:-0.33333 37:0.809248 38:-0.289052 39:-0.714284 40:-1 41:-1 42:0.513514 43:-1 44:-0.00617097 45:0.774566 46:-0.714284 47:0.108108 48:-0.499996 49:1 50:0.142862 51:-0.313654 52:-0.33333 53:0.108108 54:-0.599998 55:-0.756756 56:-0.289052 57:-0.27027 59:0.555966 60:-0.048484 61:0.594594 62:0.562116 63:0.81081 64:0.152522 65:-0.042254 66:-1 67:0.108108 68:-0.262412 69:0.108108 70:0.108108 71:0.190082 73:-0.471074 74:0.6 75:-0.793524 76:0.108108 77:1 78:-0.686346 79:0.110568 80:-0.950414 
4.639785755310907 1:-0.333333 2:0.751446 3:-0.714284 4:1 5:0.445086 6:-0.384894 7:-0.499996 8:0.757226 9:-0.5881 10:-1 11:-1 12:0.107607 13:-1 14:0.400368 15:-0.60785 16:0.67052 17:-1 18:0.751446 19:-0.499996 20:-0.158112 21:0.388684 22:-0.428572 23:0.890174 24:-0.714284 25:1 26:-1 27:0.751446 28:-0.0195157 29:-0.714284 30:0.976878 31:-0.917934 32:-0.535978 33:-1 34:0.809248 35:-1 36:-1 37:0.861272 38:0.221402 39:-0.428572 40:1 41:-1 42:-0.486486 43:-0.428572 44:-0.575215 45:0.976878 46:-0.714284 47:0.108108 48:-0.499996 49:-0.871742 50:0.438357 51:-0.279212 52:-1 53:0.594594 54:-0.599998 55:1 56:-0.686346 57:0.513514 58:0.108108 59:0.555966 60:-0.787878 61:0.45946 62:-0.08487 63:0.594594 64:0.221402 65:0.71831 66:0.021276 67:-0.243244 68:-0.702128 69:0.81081 70:1 71:-0.950414 72:0.45946 73:-0.70248 74:0.175758 75:1 76:0.81081 77:0.602836 78:-0.07749 79:-0.918142 80:0.487604 
4.903568092960962 1:-1 2:0.445086 3:-1 4:-0.112796 5:0.757226 6:-0.384894 7:-1 8:0.867052 9:-0.529756 10:-1 11:0.751446 12:-0.0462897 13:-0.500001 14:0.607654 15:-0.521573 16:0.976878 17:-0.599998 18:0.809248 19:-1 20:1 21:1 22:-0.142856 23:0.976878 24:-0.428572 25:0.757226 26:-1 27:0.867052 28:-0.49459 29:-1 30:0.976878 31:1 32:0.419013 33:-1 34:0.445086 35:-0.666664 36:-0.33333 37:0.907514 38:0.221402 39:-1 40:0.786128 41:-1 42:-0.135136 43:-0.714284 44:-0.408002 45:0.930636 46:-1 47:0.486486 49:-1 50:0.884544 51:0.221402 52:-1 53:0.108108 54:-0.599998 55:0.081082 56:-0.313654 57:0.594594 58:0.45946 59:0.221402 60:-0.224242 61:0.513514 62:-1 63:0.594594 64:0.220172 65:0.323944 66:-0.574468 67:1 68:-0.702128 69:-0.27027 70:1 71:-0.603306 72:0.486486 73:0.487604 74:-0.587878 75:1 76:0.108108 77:-0.219858 78:-1 79:-0.27917 80:0.487604 
3.86858735233287 1:-0.333333 2:0.751446 3:-0.714284 4:-0.411815 5:-1 6:1 7:-0.499996 8:0.867052 9:-0.110221 10:-1 11:0.861272 12:-0.11506 13:-1.75e-006 14:1 15:-0.165223 16:0.751446 17:-0.599998 18:0.942196 19:-1 20:1 21:0.581274 22:-1 23:0.445086 24:-0.714284 25:0.930636 26:-0.428568 27:-1 28:-0.433927 29:-0.142856 30:0.890174 31:-0.355049 32:-0.354308 33:-1 34:-1 35:-1 36:-1 37:0.867052 38:0.555966 39:-1 40:0.867052 41:-1 42:0.486486 43:-0.714284 44:-0.575215 45:0.867052 46:-0.714284 47:0.486486 48:-1 49:1 50:1 51:-0.626076 52:-1 53:0.108108 54:-1 55:0.486486 56:0.220172 57:0.108108 58:-0.486486 59:-1 60:-0.787878 61:-0.675676 62:-0.289052 63:0.594594 64:0.246002 65:0.71831 66:-0.574468 67:0.45946 68:-0.702128 69:0.486486 71:-0.619834 72:0.108108 73:-0.603306 74:-1 75:-1 76:0.081082 77:-0.574468 78:-0.07749 79:-0.918142 80:0.190082 
12.260162 1:-1 2:1 3:-1 4:-0.112796 5:0.751446 6:-0.265272 7:-1 8:0.757226 9:-0.0569695 10:-1 11:0.67052 12:-1 13:-1 14:0.400368 15:-0.95429 16:0.930636 17:-0.200001 18:0.930636 19:-0.499996 20:-0.158112 21:0.39252 22:-0.428572 23:0.976878 24:-1 25:0.751446 26:-1 27:0.809248 28:1 29:-1 30:0.786128 31:-0.894441 32:-0.41902 33:-1 34:0.976878 35:-0.666664 36:-0.33333 37:0.751446 38:0.562116 39:-0.428572 40:1 41:-1 42:0.594594 43:-0.714284 44:-0.00617097 45:0.907514 46:-0.428572 47:0.108108 48:-0.499996 49:-0.641295 50:0.383557 51:0.220172 52:-1 53:0.45946 54:-0.599998 55:-0.135136 56:-0.07749 57:1 58:-0.243244 59:0.221402 60:-0.048484 61:0.081082 62:0.221402 63:0.81081 64:0.02214 65:-0.042254 66:0.021276 67:0.081082 68:-0.262412 69:0.81081 70:-0.27027 71:-0.70248 72:0.513514 73:-0.041322 74:-0.787878 75:0.309712 76:0.594594 77:-0.702128 78:-0.686346 79:0.110568 80:0.206612 
12.00191468816026 1:-1 2:0.687862 3:-1 4:-0.273607 5:0.687862 6:-0.49523 7:-0.499996 8:0.786128 9:-0.735125 10:-0.499996 11:1 12:0.729186 13:-1 14:0.1135 15:-0.165223 16:0.907514 17:-0.599998 18:0.757226 20:-0.0617217 21:-0.108355 22:-1 23:0.67052 24:-1 25:0.930636 26:-1 27:0.809248 28:-0.0195157 29:-1 30:0.907514 31:-1 32:-0.571766 34:0.809248 35:-0.333333 36:-0.33333 37:0.67052 38:0.02214 39:-0.714284 40:0.687862 41:-1 42:-0.243244 43:-1 44:-0.271472 45:0.861272 46:-1 47:-0.27027 48:-0.499996 49:0.427532 50:0.383557 51:0.02214 52:-1 53:0.162162 54:-0.200001 55:-0.486486 56:0.220172 57:0.513514 58:0.81081 59:-0.279212 60:-0.618182 61:0.108108 62:-0.08487 63:0.162162 64:0.608856 65:0.605634 66:0.205674 67:-0.135136 68:-0.886524 69:-0.81081 70:-0.135136 71:0.603306 72:0.513514 73:0.256198 74:-0.59394 75:-0.893708 76:0.081082 77:-0.716312 78:-0.377614 79:-0.918142 80:0.256198 
5.809886826101113 1:-1 2:0.976878 3:-0.714284 4:-1 5:0.867052 6:-0.468934 7:-1 8:0.930636 9:-0.0569695 10:-1 11:0.942196 12:0.131681 13:-0.749999 14:0.767028 15:-0.199699 16:0.445086 17:-0.599998 18:0.780346 19:-0.499996 20:-0.200416 21:0.715835 22:-0.428572 23:0.751446 24:-0.714284 25:0.976878 26:-0.428568 27:0.67052 28:-0.140851 29:-0.714284 30:0.757226 31:0.222869 32:-1 33:-1 34:0.786128 35:-1 36:-0.33333 37:0.751446 38:-0.313654 39:-1 40:-1 41:7.00001e-006 42:0.594594 43:-0.714284 44:-0.561447 45:0.890174 46:-0.714284 47:0.081082 48:-0.499996 49:0.546405 50:-0.0724124 51:-1 52:-1 53:0.486486 54:-1 56:0.221402 57:-0.27027 58:-0.675676 59:-0.626076 60:0.733334 61:-1 62:0.562116 63:1 64:0.555966 65:-0.97183 66:1 67:0.594594 68:0.276596 69:0.108108 70:0.108108 71:0.768596 72:-0.243244 73:-1 74:-0.787878 75:-0.46121 76:1 77:-0.702128 78:0.221402 79:1 80:-0.471074 
2.343437369593425 1:0.333333 2:0.751446 3:-0.428572 4:1 5:0.809248 6:0.31838 7:-1 8:0.867052 9:1 10:-1 11:0.809248 12:-0.276399 13:-0.749999 14:0.767028 15:-0.329205 16:0.757226 17:-1 18:0.907514 19:-1 20:1 21:0.21496 22:-1 23:0.890174 24:-0.428572 25:0.809248 26:-1 27:0.445086 28:-0.433927 29:-0.428572 30:0.687862 31:-0.137358 32:-0.619131 33:-0.499996 34:-1 35:-0.666664 36:-1 37:0.890174 38:-0.377614 39:-1 40:-1 41:-1 43:-0.714284 44:0.766808 45:0.445086 46:-1 47:0.486486 48:-0.499996 49:0.150505 50:-0.634056 51:-0.313654 52:-1 53:0.513514 54:0.200001 55:0.594594 56:-0.08487 57:0.108108 58:0.513514 59:0.555966 60:-0.569696 61:-0.135136 62:-0.289052 63:0.45946 64:-1 65:0.40845 66:-0.574468 67:0.108108 68:-0.404256 69:0.108108 70:0.162162 71:-0.140496 72:0.594594 73:-0.471074 74:-0.569696 75:-0.918142 76:0.513514 77:-0.248226 78:-0.626076 79:-0.351252 80:-0.23967 
2.125644629771844 1:1 2:0.867052 3:-0.142856 4:-0.212751 5:-1 6:-0.0513018 7:-1 8:0.890174 9:0.111588 10:-1 11:0.890174 12:1 13:-0.500001 14:0.6542 15:1 16:0.751446 17:-1 18:0.751446 19:-1 20:0.91886 21:-0.332748 22:-0.714284 23:0.867052 24:-1 25:0.890174 26:-0.428568 27:0.976878 28:-0.0195157 29:-0.714284 30:0.942196 31:-0.917934 32:-0.354308 33:-1 34:0.809248 35:-1 36:-1 37:0.751446 38:0.254612 39:-1 40:0.809248 41:-1 42:0.45946 43:0.142856 44:0.651796 45:0.751446 46:-1 48:-1 49:1 50:-0.0782796 51:-0.626076 52:-1 53:0.108108 54:-0.200001 55:0.45946 56:0.555966 57:0.513514 59:0.246002 60:-1 61:0.45946 62:-0.08487 63:0.486486 64:-0.626076 65:1 66:-0.248226 67:0.45946 68:-0.574468 69:0.513514 70:-0.675676 71:0.190082 72:1 73:-0.603306 74:-0.569696 75:-0.55284 77:-0.404256 78:0.246002 79:-0.962126 80:0.768596 
3.186639205208597 1:-0.333333 2:0.757226 3:-0.714284 4:0.181806 5:0.867052 6:1 7:-1 8:-1 9:-0.826356 10:-1 11:0.867052 12:0.341453 13:-0.25 14:0.0680997 15:-0.352636 16:0.867052 17:-1 18:-1 19:-1 20:0.783634 21:0.403702 22:-1 23:0.809248 24:-1 25:-1 26:-0.428568 27:0.757226 28:-0.448425 29:0.142856 30:0.890174 31:-0.190917 32:1 33:-1 34:0.942196 35:-1 36:-1 37:0.757226 38:0.555966 39:-1 40:0.757226 41:-1 42:0.108108 43:-1 44:-0.377309 45:-1 46:-1 47:0.108108 48:1 49:0.546405 50:-0.388453 51:0.246002 52:-1 53:0.486486 54:-0.599998 55:0.108108 56:-0.289052 57:-0.675676 58:0.486486 59:-0.08487 60:-0.375758 61:0.108108 62:0.254612 63:0.108108 64:-0.289052 65:0.15493 66:-1 67:0.486486 68:0.021276 69:0.108108 71:0.338842 72:0.108108 73:0.338842 74:-0.375758 75:-1 76:0.108108 77:0.021276 78:-0.313654 79:-0.46121 80:0.190082 
6.97660333996618 1:-1 2:1 3:-0.714284 4:-0.301827 5:0.890174 6:-0.217837 7:-1 8:0.809248 9:-0.371377 10:-1 11:0.786128 12:-0.361801 13:-1 14:0.805088 15:0.0197085 16:0.445086 17:-0.599998 18:1 19:-1 20:-0.683775 21:-1 22:-1 23:1 24:-0.714284 25:0.774566 26:-0.428568 27:0.751446 28:0.117657 29:-1 30:0.930636 31:0.30149 32:-1 33:-1 34:0.757226 35:-1 36:-0.33333 37:0.774566 38:0.220172 39:0.142856 40:0.942196 41:-1 42:-0.756756 43:-0.714284 44:-0.00617097 45:1 46:-1 47:0.513514 48:-0.499996 49:0.754611 50:0.438357 51:-1 52:0.33333 54:-0.599998 55:0.81081 56:0.152522 57:0.108108 58:-0.27027 59:-0.686346 60:-0.048484 61:0.81081 62:-0.313654 63:0.81081 64:-0.686346 65:-0.042254 66:1 67:0.594594 68:-0.262412 69:-0.675676 70:0.081082 71:0.206612 72:0.45946 73:-1 74:0.157576 75:0.644472 76:-0.756756 77:-0.248226 78:-0.686346 79:0.110568 80:-0.041322 
3.004420067982013 1:-0.333333 2:0.942196 3:-0.714284 4:-0.301827 5:0.809248 6:0.613822 7:-1 8:-1 9:-0.110221 10:-1 11:0.930636 12:0.463813 13:-0.25 14:0.6542 15:1 16:0.751446 17:-0.599998 18:0.867052 19:-0.499996 20:0.783634 21:0.478504 22:-1 23:1 24:-1 25:0.890174 26:-0.428568 27:1 28:-0.390654 29:-0.714284 30:0.867052 31:-0.946441 32:-0.71873 33:-1 34:0.67052 35:-1 36:-1 37:0.867052 38:0.246002 39:-0.428572 40:0.809248 41:-1 42:0.486486 43:-1 44:-0.108852 45:0.757226 46:-0.714284 47:0.108108 48:-0.499996 49:0.150505 50:0.353229 51:-0.07749 52:-1 53:0.513514 54:-0.200001 55:0.108108 56:0.555966 57:-0.243244 58:0.081082 59:-0.686346 60:0.60606 61:0.486486 62:-0.279212 63:-0.675676 64:-0.313654 65:-0.774648 66:-1 67:0.594594 68:0.120568 69:0.513514 70:0.486486 71:-0.041322 72:0.81081 73:1 74:-1 75:-0.962126 77:-0.574468 78:0.254612 79:-0.55284 80:0.338842 
5.87124058041774 1:-1 2:0.751446 3:-0.714284 4:-0.301827 5:0.890174 6:-0.384894 7:-1 8:0.751446 9:-0.826356 10:-1 11:0.786128 12:-0.361801 13:-0.749999 14:0.594123 15:-0.199699 16:0.867052 17:-1 18:0.445086 19:-1 20:0.491678 21:0.388684 22:-0.142856 23:1 24:-0.428572 25:0.976878 26:-1 27:0.809248 28:-0.299655 29:-1 30:0.976878 31:-0.0602961 32:1 33:-1 34:0.907514 35:-0.666664 36:-0.33333 37:0.757226 38:0.221402 39:-0.714284 40:0.445086 41:-1 42:0.108108 43:-0.714284 44:0.766808 45:0.976878 46:-0.714284 47:0.594594 48:-0.499996 49:0.754611 50:0.383557 51:0.246002 52:-1 54:-0.599998 55:1 56:0.221402 57:-0.135136 58:-0.27027 59:-0.686346 60:-0.569696 61:0.594594 62:0.02214 63:0.45946 64:0.221402 65:0.40845 66:-0.702128 67:0.486486 68:-0.404256 69:0.594594 70:1 71:0.206612 72:0.513514 73:0.338842 74:-0.375758 75:1 76:1 77:0.021276 78:-0.626076 79:-0.351252 80:0.487604 
9.234573698530376 1:-1 2:0.687862 3:-0.714284 4:-0.112796 5:0.930636 6:0.31838 7:-1 8:0.751446 9:-0.62608 10:-1 11:0.687862 12:0.256052 13:-1 14:0.0680997 15:-0.247883 16:0.890174 17:-0.599998 18:0.751446 19:-1 20:0.491678 21:-0.332748 22:-0.714284 23:0.976878 24:-1 25:0.780346 26:-1 27:0.786128 28:0.117657 29:-1 30:0.687862 31:-0.917934 32:-0.157091 33:0.500004 34:0.757226 35:-1 36:-0.33333 37:1 38:-0.377614 39:-0.714284 40:0.757226 41:7.00001e-006 42:0.81081 43:-0.428572 44:-0.271472 45:0.751446 46:-0.714284 47:0.594594 49:-0.737927 50:0.0430548 51:0.555966 52:-1 53:0.081082 54:-1 55:0.45946 56:1 57:0.108108 58:0.162162 59:0.221402 60:-0.618182 61:0.45946 62:-0.313654 63:0.162162 64:-0.626076 65:0.605634 66:-0.702128 68:-0.886524 69:0.108108 70:0.162162 71:-0.23967 72:-0.27027 73:0.190082 74:-0.048484 75:-0.918142 76:-1 77:-0.262412 78:-0.377614 79:-0.918142 80:-0.23967 
1.669737824967704 1:-0.333333 2:0.867052 3:-0.428572 4:-0.51636 5:0.976878 6:-0.468934 7:-1 8:0.976878 9:-0.534849 10:-1 11:0.976878 12:0.959305 13:-0.500001 14:0.543906 15:-0.95429 16:0.786128 17:-0.599998 18:0.809248 19:-1 20:0.978506 21:0.715835 22:-0.142856 23:0.907514 24:-1 25:0.751446 26:-1 27:0.867052 28:0.833831 29:-1 30:0.757226 31:1 32:-0.399679 33:-1 34:0.890174 35:-0.666664 36:-0.33333 37:0.930636 38:-0.313654 39:-1 40:0.774566 41:-1 42:0.081082 43:-1 44:0.651796 45:0.890174 46:-0.714284 47:1 48:-0.499996 49:0.947863 50:0.884544 51:0.562116 52:-0.33333 53:1 54:-0.599998 56:-0.07749 58:1 59:0.02214 60:-1 61:0.513514 62:0.555966 63:0.486486 64:0.555966 65:1 66:0.276596 67:-0.27027 68:-0.574468 69:-0.756756 70:0.108108 71:0.487604 72:0.486486 73:0.206612 74:0.769696 75:-0.46121 76:0.594594 77:1 78:0.246002 79:-0.962126 80:-0.471074 
6.339322295067082 1:-1 2:0.907514 3:-0.714284 4:-1 5:0.890174 6:0.0095393 7:-1 8:0.751446 9:0.536217 10:-1 11:-1 12:0.107607 13:-1 14:0.607654 15:-0.199699 16:0.751446 17:-1 18:0.445086 19:-1 20:-0.0977827 21:0.388684 22:-0.142856 23:0.751446 24:-0.714284 25:0.976878 26:-1 27:0.751446 28:-0.0195157 29:-0.714284 30:0.780346 31:-0.0602961 32:-0.71873 33:-1 34:0.809248 35:-0.666664 36:-0.33333 37:0.976878 38:1 39:-1 40:0.786128 41:7.00001e-006 42:1 43:-0.428572 44:1 45:0.976878 46:-0.428572 47:0.45946 48:-1 49:0.754611 50:-0.945211 51:-0.07749 52:-1 54:-0.599998 55:1 56:0.221402 57:0.513514 58:0.108108 59:-0.626076 60:-0.587878 61:0.594594 62:-0.08487 63:-0.135136 64:0.221402 65:0.464788 66:-0.404256 67:0.594594 68:-0.219858 69:-0.27027 70:-1 71:-0.950414 72:0.594594 73:1 74:0.733334 75:-0.764202 76:1 77:0.276596 78:0.02214 79:-0.893708 80:-0.09091 
2.58491148061015 1:-0.333333 2:0.976878 3:-0.428572 4:1 5:1 6:-0.468934 7:-1 8:0.751446 9:-0.529756 10:-1 11:0.976878 12:0.959305 13:-1 14:0.738818 15:-0.435296 16:0.751446 17:-1 18:0.445086 19:-1 20:0.491678 21:0.21496 22:-0.428572 23:0.890174 24:-0.428572 25:0.786128 26:-1 27:0.780346 28:-0.0195157 29:-1 30:0.757226 31:-0.0602961 32:-0.71873 33:-1 34:0.809248 35:-0.666664 36:-0.33333 37:0.907514 38:-0.313654 39:-0.714284 40:0.890174 41:7.00001e-006 42:-0.135136 43:-1 44:-0.561447 45:0.445086 46:-0.428572 47:0.594594 48:-0.499996 49:-0.501911 50:-0.167323 51:-0.07749 52:-1 53:0.81081 54:-0.599998 55:0.594594 56:0.562116 57:0.513514 58:1 59:0.555966 60:0.733334 61:0.594594 62:-0.08487 63:1 64:-1 65:-0.97183 66:-0.702128 67:0.594594 68:0.276596 70:0.108108 71:0.487604 72:-1 73:1 74:-0.587878 75:-0.46121 76:-0.27027 77:-0.219858 78:0.221402 79:1 80:-0.471074 
3.980050615921345 1:0.333333 2:0.976878 3:1 4:1 5:0.890174 6:-0.384894 7:-0.499996 8:0.751446 9:-0.5881 10:-1 11:0.751446 12:-0.0462897 13:-1 14:0.738818 15:-0.199699 16:0.890174 17:-1 18:0.890174 19:-1 20:-0.0977827 21:0.312127 22:-0.142856 23:0.890174 24:-1 25:0.976878 26:-1 27:0.890174 28:0.833831 29:-1 30:0.976878 31:-0.175883 32:-0.157091 33:-1 34:0.890174 35:-1 36:-1 37:0.861272 38:0.221402 39:-1 40:0.890174 41:-1 42:-0.486486 43:-0.428572 44:-0.561447 45:0.809248 46:-1 47:0.45946 48:-1 49:0.754611 50:0.142862 51:0.555966 52:-1 54:-0.599998 55:0.513514 56:0.221402 58:0.45946 59:0.555966 60:0.733334 62:0.555966 63:1 64:-0.08487 65:-0.97183 66:-0.404256 68:0.276596 70:1 71:-0.603306 73:0.190082 74:0.175758 75:1 76:1 77:0.602836 78:0.221402 79:1 80:0.487604 
4.064886174553425 1:-1 2:0.890174 3:-0.428572 4:-0.273607 5:0.976878 6:0.128124 7:-1 8:0.976878 9:0.536217 10:-1 11:0.445086 12:-0.0333847 13:-1 14:0.607654 15:-0.329205 16:0.786128 17:-1 18:0.907514 19:-0.499996 20:0.978506 21:0.715835 22:-0.142856 23:0.67052 24:-0.428572 25:0.809248 26:-1 27:0.751446 28:-0.49459 29:-0.714284 30:-1 31:-0.137358 32:-0.399679 33:-1 34:0.445086 35:-0.666664 36:0.33333 37:0.976878 38:-0.289052 39:-1 40:0.786128 41:-1 42:1 43:-0.714284 44:-0.151877 45:0.890174 46:-1 47:1 48:-1 49:0.947863 50:0.438357 51:0.562116 52:-1 53:1 54:-0.599998 56:-0.08487 57:0.594594 58:0.594594 59:-0.279212 60:-0.569696 61:-0.135136 62:-1 64:0.555966 65:0.267606 66:0.276596 67:-0.27027 68:-0.248226 69:-0.27027 70:0.108108 71:-1 72:0.45946 73:0.206612 74:0.733334 75:-0.793524 76:0.513514 77:0.276596 78:0.555966 79:-1 80:-0.950414 
6.262360869430019 1:-0.333333 2:0.890174 3:-0.428572 4:-0.51636 5:0.907514 6:-0.384894 7:-1 8:0.890174 9:-0.62608 10:-1 11:0.976878 12:0.959305 13:-1 14:0.6542 15:-0.258929 16:0.809248 17:-1 18:1 19:-1 20:0.91886 21:0.112203 22:-0.428572 23:0.907514 24:-0.714284 25:0.445086 26:-1 27:0.780346 28:-0.680829 29:-1 30:0.976878 31:0.30149 32:-0.201555 33:-1 34:1 35:-0.333333 36:-0.33333 37:1 38:0.221402 39:-0.142856 40:0.809248 41:7.00001e-006 42:0.81081 43:-1 44:-0.151877 45:0.786128 46:-1 48:-1 49:-0.481399 50:-0.167323 51:-0.08487 52:-1 53:-0.135136 54:-0.200001 55:-0.27027 56:-1 57:0.81081 58:1 59:0.02214 60:-0.569696 61:0.81081 62:-0.686346 64:0.562116 65:0.267606 66:-0.248226 67:0.513514 68:-0.248226 69:0.513514 70:1 71:0.487604 72:-1 73:-0.140496 74:-0.048484 75:1 76:0.594594 77:-0.262412 78:0.555966 79:-1 80:0.487604 
1.165516770675698 1:0.333333 2:0.751446 3:-0.428572 4:-0.112796 5:0.757226 6:-0.384894 7:-1 8:0.890174 9:1 10:-1 11:0.757226 12:0.287578 13:-0.25 14:1 15:-0.95429 16:0.867052 17:-1 18:0.809248 19:-1 20:0.91886 21:0.312127 22:-0.428572 23:0.976878 24:-1 25:0.751446 26:-1 27:0.867052 28:-0.299655 29:-1 30:0.976878 31:1 32:1 33:-1 34:0.907514 35:-0.666664 36:-1 37:0.890174 38:0.221402 39:-1 40:0.867052 41:-1 43:-1 44:-0.575215 45:0.809248 46:-0.428572 49:-1 50:0.884544 51:0.246002 52:-1 53:0.108108 54:-0.200001 55:0.513514 56:-0.07749 57:-0.135136 58:0.108108 59:0.221402 60:-0.787878 61:0.513514 62:0.02214 63:0.594594 64:-0.08487 65:0.71831 66:-0.248226 67:0.486486 68:-0.702128 69:0.486486 70:1 71:-0.471074 72:0.486486 73:0.338842 74:-0.569696 75:1 76:0.594594 77:-0.248226 78:-0.07749 79:-0.918142 80:0.487604 
5.304347377603917 1:0.333333 2:1 3:-0.428572 4:-0.317296 5:0.751446 6:1 7:-1 8:0.907514 9:-0.380188 10:-1 11:0.930636 12:0.463813 13:-1 14:0.400368 15:-0.60785 16:0.774566 17:-0.599998 18:1 19:-1 20:-0.260746 21:-0.332748 22:-0.714284 23:0.751446 24:-1 25:1 26:-1 27:0.976878 28:0.833831 29:-1 30:0.890174 31:0.30149 32:-0.21602 33:-1 34:0.890174 35:-0.666664 36:-1 37:0.809248 38:0.555966 39:0.142856 40:1 41:-1 42:0.513514 43:-0.714284 44:-0.00617097 45:0.751446 46:-0.428572 47:-0.135136 48:-1 49:-0.769553 50:-0.0782796 51:0.152522 52:-0.33333 53:0.594594 54:-0.599998 55:0.45946 56:-0.686346 58:0.081082 59:-0.07749 60:-0.048484 61:0.81081 62:0.555966 63:0.81081 64:-0.626076 65:-0.042254 66:-0.219858 67:-0.756756 68:-0.262412 69:0.81081 71:-0.041322 72:1 73:-0.140496 74:0.6 75:-1 76:0.81081 77:1 78:-0.686346 79:0.110568 80:0.190082 
2.812170393405953 1:-1 2:0.757226 3:-1 4:-0.301827 5:0.976878 6:-1 7:-1 8:0.867052 9:0.0798768 10:-1 11:0.751446 12:-0.0462897 13:-0.749999 14:0.543906 15:-0.60785 16:0.809248 17:-1 18:0.809248 19:-1 20:1 21:0.897243 22:-0.714284 23:1 24:-1 25:1 26:-0.428568 27:1 28:-0.396457 29:-0.714284 30:0.751446 31:1 32:-0.201555 33:-1 34:0.780346 35:-1 36:-1 37:-1 38:-0.626076 39:-0.142856 40:0.774566 41:7.00001e-006 42:0.108108 43:-0.428572 44:-0.377309 45:0.942196 46:-1 47:0.486486 48:-0.499996 49:0.947863 50:0.353229 51:-0.08487 52:-0.33333 53:1 54:-0.200001 55:-0.675676 56:-0.686346 57:-1 58:0.45946 59:-0.686346 60:-0.375758 61:0.513514 62:1 63:0.108108 64:0.254612 65:0.15493 66:-0.574468 67:0.513514 68:0.021276 69:-0.756756 70:0.45946 71:-0.603306 72:0.81081 73:-0.140496 74:-0.266666 75:-0.351252 76:0.81081 77:-1 78:-0.313654 79:-0.46121 80:-0.603306 
4.389550307888282 1:-0.333333 2:0.445086 3:-0.714284 4:-0.51636 5:0.867052 6:0.31838 7:-1 8:1 9:-0.110221 10:-1 11:0.445086 12:-0.0333847 13:-0.25 14:0.24948 15:-0.199699 16:0.867052 17:-1 18:0.687862 19:-1 20:-0.0159495 21:-1 22:-0.428572 23:0.907514 24:-0.428572 25:0.976878 26:-1 27:0.751446 28:0.833831 29:-1 30:0.687862 31:-0.098822 32:1 34:0.890174 35:-0.666664 36:-1 37:0.867052 38:-0.377614 39:-0.428572 40:0.976878 41:-1 42:0.486486 43:-0.714284 44:-0.408002 45:1 46:-1 47:0.81081 48:-1 49:0.546405 50:0.438357 51:0.246002 52:-1 53:0.486486 54:-1 55:0.81081 56:0.221402 58:0.594594 59:0.02214 60:-0.224242 61:0.162162 62:0.555966 63:0.594594 64:-0.686346 65:0.323944 66:-0.262412 67:0.486486 68:-0.702128 69:1 70:0.162162 71:-1 72:0.45946 73:0.338842 74:-1 75:-0.918142 76:1 77:-0.574468 78:-1 79:-0.27917 80:-0.23967 
10.17461615578537 1:-1 2:0.67052 3:-0.714284 4:-1 5:0.890174 6:-0.5272 7:-1 8:1 9:0.111588 10:-1 11:0.867052 12:0.341453 13:-0.500001 14:0.24948 15:-0.165223 16:0.867052 17:-0.599998 18:0.751446 19:-0.499996 20:-0.0159495 21:-1 22:-0.714284 23:0.751446 24:-1 25:0.930636 26:-0.428568 27:0.751446 28:-0.448425 29:-1 30:1 31:0.576195 32:1 33:-1 34:0.942196 35:-1 36:-1 37:0.751446 38:-0.686346 39:-0.142856 40:0.976878 41:-1 42:0.45946 43:-0.142856 44:-0.125776 45:1 46:-0.714284 47:0.81081 48:-1 49:0.754611 50:0.438357 51:0.246002 52:-1 54:-1 55:0.81081 56:0.220172 57:-0.675676 58:0.486486 59:-0.626076 60:-0.59394 61:0.594594 62:0.254612 63:-0.243244 64:-0.686346 65:0.43662 66:-0.262412 67:0.486486 68:-0.716312 69:1 70:0.81081 71:0.338842 72:0.45946 73:0.338842 74:-0.569696 75:0.110568 76:0.081082 77:-0.404256 78:-0.279212 79:-0.750764 80:0.603306 
6.103904248130277 1:-0.333333 2:0.907514 3:-0.428572 4:-0.301827 5:1 6:-0.384894 7:-1 8:1 9:-0.347301 10:-1 11:0.890174 12:1 13:-0.749999 14:0.24948 15:-0.711459 16:-1 17:-1 18:-1 19:-1 20:-0.0159495 21:0.388684 22:-0.142856 23:1 24:-1 25:0.907514 26:-0.428568 27:0.890174 28:0.187016 29:-0.428572 30:0.976878 31:-0.190917 32:-0.388108 33:-1 34:0.867052 35:-0.333333 36:-1 37:0.942196 38:0.221402 39:-0.142856 40:0.976878 41:-1 42:-0.675676 43:-1 44:1 45:0.976878 46:-1 47:0.81081 48:-1 49:-0.501911 50:0.142862 51:-0.289052 52:-1 53:0.81081 54:-1 55:1 56:0.02214 57:0.486486 59:-0.686346 60:-0.587878 61:0.108108 62:0.246002 63:-0.135136 64:0.221402 65:0.464788 66:-0.262412 67:0.108108 68:-0.219858 69:1 70:1 71:0.190082 73:-0.950414 74:0.60606 75:1 76:-0.135136 77:0.120568 78:0.02214 79:-0.893708 80:0.487604 
8.408555258057081 1:-1 2:0.751446 3:-1 4:0.181806 5:0.751446 6:-1 7:-1 8:1 9:0.111588 10:-1 11:1 12:0.729186 13:-0.500001 14:0.6542 15:-0.228077 16:0.751446 17:-0.599998 18:0.687862 19:-1 20:-0.0159495 21:1 22:-1 23:0.809248 24:-1 25:0.751446 26:-1 27:0.867052 28:0.187016 29:-1 30:0.751446 31:-0.098822 32:-0.354308 33:-0.499996 34:0.867052 35:-1 36:-1 37:0.751446 38:-0.626076 39:-0.428572 40:0.809248 41:-1 42:0.45946 43:0.428572 44:-0.575215 45:0.930636 46:-0.714284 47:0.81081 48:-1 49:-0.641295 50:0.884544 51:-0.626076 52:-1 53:0.45946 54:-0.200001 55:0.081082 56:-0.626076 57:0.486486 58:0.81081 59:-0.08487 60:-0.787878 61:0.162162 62:0.246002 63:0.594594 64:0.220172 65:0.71831 66:-0.262412 67:0.45946 68:-0.702128 69:0.513514 70:0.45946 71:0.603306 72:0.486486 73:-0.603306 74:-0.569696 75:-0.351252 76:0.45946 77:-0.404256 78:-0.07749 79:-0.918142 80:-0.603306 
1.905001519412394 1:-1 2:0.751446 3:-0.714284 4:0.181806 5:0.890174 6:-0.49523 7:-1 8:0.976878 9:-0.0569695 10:-1 11:0.751446 12:0.3062 13:-1 14:0.805088 15:-0.95429 16:0.976878 17:-1 18:0.809248 19:-0.499996 20:0.978506 21:-0.424323 22:-0.142856 23:0.809248 24:-1 25:0.751446 26:-0.428568 27:0.786128 28:1 29:-1 30:0.67052 31:1 32:0.419013 33:-1 34:0.976878 35:-1 36:-0.33333 37:0.751446 38:-0.279212 39:-1 40:0.942196 41:-1 42:0.594594 43:-0.714284 44:0.766808 45:0.751446 46:0.142856 47:1 48:-1 49:0.754611 50:0.0430548 51:0.221402 52:-1 54:-0.200001 55:0.594594 56:-0.07749 57:1 58:0.594594 59:-0.08487 60:-0.569696 61:0.513514 62:0.221402 63:0.45946 64:-0.07749 65:0.40845 66:0.276596 67:1 68:-0.404256 69:-0.675676 70:-0.243244 71:1 72:-0.27027 73:0.487604 74:-0.787878 75:-0.750764 76:0.594594 77:-0.702128 78:-0.626076 79:-0.351252 80:-0.70248 
2.676391596375138 1:-1 2:0.751446 3:-1 4:-0.317296 5:0.976878 6:0.613822 7:-1 8:0.930636 9:0.536217 10:-1 11:0.907514 12:0.679037 13:-0.749999 14:0.767028 15:-0.60785 16:-1 17:-0.200001 18:0.786128 19:-0.499996 20:-0.200416 21:1 22:-0.428572 23:0.751446 24:-1 25:1 26:-1 27:0.757226 28:-0.390654 29:-0.428572 30:0.867052 31:-0.465622 32:-0.388108 33:-1 34:0.67052 35:-0.666664 36:-0.33333 37:0.976878 38:0.246002 39:-0.714284 40:-1 41:-1 42:1 43:-0.714284 44:0.766808 45:0.930636 46:-0.714284 47:0.081082 48:-0.499996 49:0.947863 50:-0.388453 51:-0.289052 52:-1 53:1 54:-1 55:0.081082 56:-0.686346 57:-0.243244 58:-0.135136 59:-0.07749 60:-0.569696 61:-0.27027 62:-0.279212 63:0.45946 64:0.220172 65:0.40845 66:1 67:0.108108 68:-0.404256 69:0.108108 70:0.486486 71:0.256198 72:0.108108 73:-0.950414 74:0.733334 75:-0.962126 76:0.81081 77:0.276596 78:-0.626076 79:-0.351252 80:0.338842 
2.31421721385601 1:-1 2:-1 3:-1 4:-0.276325 5:-1 6:-0.5272 7:-1 8:0.867052 9:0.0798768 10:-0.499996 11:0.687862 12:0.256052 13:-0.500001 14:0.767028 15:-0.228077 16:0.867052 17:-0.200001 18:0.445086 19:-1 20:1 21:1 22:-1 23:0.687862 24:-0.714284 25:0.751446 26:-1 27:-1 28:-1 29:0.428572 30:1 31:-0.0602961 32:1 33:-0.499996 34:0.930636 35:-1 36:-1 37:-1 38:-0.686346 39:-0.714284 40:-1 41:-1 42:0.108108 43:-0.714284 44:0.0153465 45:0.930636 46:-1 47:0.486486 48:-1 49:1 50:1 51:0.246002 52:-1 53:0.108108 54:-1 55:0.081082 56:-0.626076 57:0.081082 58:0.162162 59:-0.523986 60:-0.266666 61:0.594594 62:0.220172 63:0.108108 64:0.220172 65:0.605634 66:-0.574468 67:0.486486 68:-1 69:0.108108 70:0.81081 71:-0.23967 72:0.108108 73:0.338842 74:-0.266666 75:0.110568 76:0.45946 77:-1 78:-0.289052 79:-0.793524 80:0.603306 
9.99332261593398 1:-1 2:0.861272 3:-1 4:-0.112796 5:0.751446 6:-0.410675 7:-0.499996 8:0.751446 9:-0.380188 10:-1 11:0.774566 12:-0.0798173 13:-1 14:-0.188266 15:0.0197085 16:0.751446 17:-1 18:0.786128 19:-0.499996 20:-0.0977827 21:0.16078 22:-0.714284 23:0.976878 24:-0.714284 25:0.774566 26:-1 27:0.786128 28:-0.0195157 29:-1 30:0.445086 31:-0.465622 32:-0.354308 33:-1 34:0.809248 35:-1 36:0.33333 37:0.809248 38:-1 39:-1 40:0.751446 41:-1 42:0.513514 43:-0.428572 44:-0.567476 45:0.67052 46:-0.428572 47:0.45946 48:-1 49:-0.769553 50:0.0430548 51:-0.626076 52:0.33333 53:0.594594 54:-0.200001 55:-0.243244 56:0.152522 57:0.513514 58:-0.756756 59:0.221402 60:0.175758 61:-0.27027 62:-0.08487 63:-0.486486 64:-0.279212 65:-0.746478 66:-0.404256 67:0.45946 68:0.602836 69:0.594594 70:0.594594 71:-0.140496 72:-0.27027 73:-0.603306 74:0.6 75:-0.27917 76:-0.756756 77:1 78:0.608856 79:-0.65058 80:-1 
8.98275090981782 1:-1 2:0.757226 3:-1 4:-0.112796 5:1 6:-0.386954 7:-0.499996 8:0.751446 9:-0.0569695 10:-1 11:0.809248 12:-0.276399 13:-0.749999 14:0.6542 15:-0.329205 16:0.751446 17:-1 18:0.780346 19:-1 20:-0.0977827 21:0.581274 22:-0.714284 23:0.976878 24:-1 25:0.809248 26:-1 27:0.861272 28:0.126353 29:-1 30:0.809248 31:0.222869 32:-0.71873 33:-1 34:0.751446 35:-1 36:-1 37:0.751446 38:-0.08487 39:-0.714284 40:0.809248 41:7.00001e-006 42:0.594594 43:-0.428572 44:-0.377309 45:0.867052 46:-0.428572 47:0.45946 48:-0.499996 49:-0.501911 50:-0.167323 51:-0.07749 52:-1 53:0.81081 54:0.599998 55:0.486486 56:-0.08487 57:0.45946 58:0.513514 59:0.221402 60:-0.375758 61:-1 62:-0.626076 63:0.108108 64:0.246002 65:0.15493 66:-0.404256 67:0.594594 68:0.021276 69:0.513514 70:0.513514 71:-0.140496 72:-0.486486 73:1 74:-0.787878 75:0.485644 76:0.513514 77:-0.702128 78:-0.313654 79:-0.46121 80:-0.140496 
0.9900967130033714 1:-0.333333 2:0.867052 3:-0.714284 4:0.759966 5:-1 6:0.613822 7:-1 8:0.867052 9:1 10:-1 11:0.867052 12:0.341453 13:0.499997 14:0.24948 15:-0.199699 16:0.751446 17:-1 18:0.867052 19:-1 20:1 21:0.403702 22:-0.428572 23:-1 24:-1 25:0.976878 26:-1 27:0.867052 28:0.117657 29:-0.142856 30:0.867052 31:-0.946441 32:-0.354308 33:-1 34:0.757226 35:-1 36:-1 37:0.890174 38:0.246002 39:-1 40:0.976878 41:-1 43:-0.714284 44:0.651796 45:-1 46:-1 47:0.486486 48:-0.499996 49:1 50:0.884544 51:-0.626076 52:-1 53:0.108108 54:-1 55:0.108108 56:0.221402 57:0.108108 58:0.486486 59:-0.289052 60:-1 61:0.486486 62:-0.313654 63:0.486486 64:-0.289052 65:1 66:-0.574468 67:0.45946 68:-0.574468 69:1 70:0.486486 71:0.338842 72:0.486486 73:-0.603306 74:-0.569696 75:-0.962126 76:1 77:-0.248226 78:0.246002 79:-0.962126 80:0.338842 
10.23410899984227 1:-1 2:0.687862 3:-0.428572 4:-0.801782 5:0.890174 6:-0.49523 7:-1 8:0.976878 9:0.111588 10:-1 11:0.751446 12:0.3062 13:-0.749999 14:-0.188266 15:-0.110941 16:0.751446 17:-1 18:0.907514 19:-1 20:0.978506 21:0.39252 22:-0.428572 23:0.687862 24:-1 25:0.867052 26:-1 27:0.890174 28:1 29:-1 30:0.907514 31:-0.137358 32:-0.71873 34:0.976878 35:2.33334e-006 36:-1 37:0.751446 38:0.02214 39:-1 40:0.751446 41:-1 42:0.45946 43:-0.714284 44:-0.271472 45:0.907514 46:-0.142856 47:1 48:-1 49:0.754611 50:0.142862 51:-0.07749 52:-1 54:-1 55:-0.135136 56:0.246002 57:1 58:0.594594 59:-0.377614 60:-0.618182 61:-0.135136 62:0.221402 63:0.162162 64:0.02214 65:0.605634 66:0.276596 67:0.594594 68:-0.886524 69:0.594594 70:-0.135136 71:1 73:1 74:-0.569696 75:-0.893708 76:0.486486 77:-0.404256 78:-0.377614 79:-0.918142 80:0.256198 
4.827897908792164 1:-0.333333 2:0.751446 3:-0.428572 4:-0.51636 5:0.976878 6:-0.183807 7:-1 8:0.976878 9:-0.0569695 10:-1 11:0.751446 12:0.3062 13:-0.749999 14:-0.188266 15:-0.711459 16:0.890174 17:-1 18:0.809248 19:-1 20:0.978506 21:0.581274 22:-0.428572 23:0.907514 24:-1 25:0.907514 26:-1 27:0.751446 28:0.833831 29:-1 30:0.751446 31:1 32:-0.157091 33:-1 34:0.890174 35:-0.333333 36:-1 37:0.751446 38:-0.07749 39:-1 40:0.751446 41:-1 42:0.594594 43:-1 44:-0.575215 45:0.867052 46:0.714284 47:1 48:-1 49:0.947863 50:-0.945211 51:0.555966 52:-1 53:1 54:-0.599998 55:0.486486 56:0.02214 58:0.594594 59:0.02214 60:-0.787878 61:0.513514 62:0.555966 63:0.594594 64:0.246002 65:0.71831 66:0.276596 68:-0.702128 69:0.594594 70:0.594594 71:1 72:0.594594 73:0.190082 74:-0.787878 75:-0.918142 76:-0.135136 77:-0.702128 78:-0.07749 79:-0.918142 80:1 
5.338917454026368 1:-1 2:0.861272 3:-1 4:0.181806 5:0.687862 6:-0.5272 7:-0.499996 8:0.67052 9:-0.110221 10:-0.499996 11:0.751446 12:0.3062 13:-0.25 14:0.6542 15:-0.352636 16:0.867052 17:-1 18:0.687862 20:0.861999 21:0.16078 22:-1 23:0.809248 24:-1 25:-1 26:-1 27:0.867052 28:-0.425223 29:-0.714284 30:1 31:-0.514177 32:1 33:-0.499996 34:0.751446 35:-1 36:-1 37:0.867052 38:-0.686346 39:-0.714284 40:0.809248 41:-1 42:0.486486 43:-1 44:-0.567476 45:0.67052 46:-0.428572 47:-0.243244 48:-1 49:0.427532 50:0.884544 51:0.246002 52:-1 53:0.162162 54:-0.200001 55:-0.243244 56:-0.289052 57:0.594594 58:0.594594 59:-0.08487 60:0.175758 61:-0.81081 62:-0.07749 63:-0.486486 64:-0.279212 65:-0.746478 66:-0.716312 67:0.486486 68:0.602836 69:0.513514 70:0.81081 71:1 72:0.486486 73:0.338842 74:-1 75:0.110568 76:0.108108 77:-0.574468 78:0.608856 79:-0.65058 80:0.603306 
11.09909035218939 1:-1 2:0.809248 3:-1 4:-0.220912 5:0.67052 6:-0.217837 7:-1 8:0.976878 9:0.536217 10:-1 11:0.867052 12:0.341453 13:-0.749999 14:-0.188266 15:-0.95429 16:0.907514 17:-0.599998 18:0.976878 19:-0.499996 20:0.978506 21:0.388684 22:0.142856 23:0.757226 24:-0.714284 25:0.751446 26:-1 27:0.445086 28:-0.00367794 29:-1 30:0.930636 31:-0.16085 32:-0.571766 33:-1 34:0.774566 35:-0.666664 36:-1 37:0.976878 38:0.220172 39:-1 40:0.751446 41:-1 42:1 43:-1 44:-0.769965 45:0.976878 46:-0.428572 47:1 48:-0.499996 49:-0.840116 50:-0.634056 51:0.02214 52:-0.33333 53:-0.243244 54:-0.599998 55:1 56:-0.07749 57:-0.756756 58:0.486486 59:-0.313654 60:0.6 61:1 62:0.152522 63:0.513514 64:0.221402 65:-0.746478 66:0.276596 67:-0.135136 68:1 69:0.594594 70:0.081082 71:0.338842 72:0.594594 73:0.256198 74:0.733334 75:0.644472 76:0.594594 77:0.276596 78:-0.08487 79:0.485644 80:-0.041322 
6.066937609922753 1:-1 2:0.774566 3:-1 4:-0.112796 5:1 6:-1 7:-1 8:-1 9:-0.110221 10:-1 11:0.445086 12:-0.0333847 13:-0.500001 14:-0.188266 15:0.0197085 16:0.867052 17:-1 18:1 19:-1 20:0.783634 21:-1 22:-0.714284 23:0.976878 24:-0.714284 25:0.774566 26:-0.428568 27:0.942196 28:-0.299655 29:-0.714284 30:0.751446 31:0.30149 32:1 33:-1 34:0.907514 35:-0.666664 36:-1 37:0.867052 38:-0.626076 39:-0.142856 40:0.751446 41:-1 42:0.486486 43:-0.714284 44:-0.280658 45:1 46:-0.714284 47:0.108108 48:-1 49:-0.501911 50:-0.172208 51:0.246002 52:0.33333 53:0.81081 54:-1 55:0.81081 56:0.152522 57:-0.135136 58:0.594594 59:0.221402 60:0.157576 61:0.81081 62:0.02214 63:-0.756756 64:-0.686346 65:-0.042254 66:-1 67:0.486486 68:-0.248226 69:0.594594 70:0.45946 71:-1 72:-0.675676 73:0.338842 74:-1 75:-0.351252 76:-0.756756 77:-0.574468 78:0.152522 79:-0.975566 80:-0.603306 
3.613204107330629 1:-1 2:0.867052 3:-1 4:-0.212751 5:-1 6:0.31838 7:-1 8:0.687862 9:-0.534849 10:-0.499996 11:0.687862 12:0.738353 13:-0.25 14:1 15:-0.529002 16:0.809248 17:-0.599998 18:1 19:-0.499996 20:-1 21:0.902834 22:-0.714284 23:0.867052 24:-1 25:0.67052 26:-1 27:0.757226 28:1 29:-0.714284 30:0.687862 31:0.30149 32:-0.201555 34:0.976878 35:-1 36:-1 37:0.930636 38:-0.377614 39:-0.714284 40:0.867052 41:-1 42:0.081082 43:-1 44:0.651796 45:0.774566 46:-1 47:0.162162 48:-0.499996 49:1 50:-0.388453 51:-0.08487 52:-0.33333 53:0.108108 54:-0.599998 55:-0.756756 56:-0.279212 57:1 58:-0.81081 59:0.246002 60:-1 61:0.81081 62:0.221402 63:0.486486 64:0.152522 65:1 66:-0.886524 67:0.513514 68:-0.574468 69:0.486486 70:0.162162 71:-0.206612 72:0.108108 73:-0.140496 74:0.769696 75:-0.918142 76:-0.243244 77:1 78:0.246002 79:-0.962126 80:-0.23967 
8.781658584689323 1:-1 2:0.867052 3:-0.714284 4:-0.411815 5:0.751446 6:-0.384894 7:-1 8:-1 9:0.0532512 10:-1 11:1 12:0.729186 13:-0.749999 14:0.738818 15:-0.711459 16:0.976878 17:-0.599998 18:0.687862 19:-0.499996 20:0.783634 21:0.312127 22:-0.428572 23:0.445086 24:-0.714284 25:0.907514 26:-1 27:0.930636 28:-0.390654 29:-0.714284 30:0.976878 31:-0.098822 32:0.419013 34:0.67052 35:-0.666664 36:-1 37:0.687862 38:0.221402 39:-0.714284 40:0.890174 41:-1 42:0.162162 43:-0.714284 44:0.651796 45:0.809248 46:-1 47:0.108108 48:-1 49:-0.641295 50:-0.638941 51:0.221402 52:-1 53:0.45946 54:-0.599998 55:0.513514 56:0.02214 57:-0.243244 58:0.81081 59:-1 60:-1 61:0.162162 62:-0.279212 63:0.486486 64:-0.08487 65:1 66:-1 67:1 68:-0.574468 70:1 71:0.603306 72:0.081082 73:0.487604 74:-0.618182 75:1 76:-0.135136 77:-0.886524 78:0.246002 79:-0.962126 80:0.487604 
6.828039825089447 1:-1 2:0.976878 3:-1 4:-0.411815 5:0.445086 6:-0.5272 7:-1 8:0.445086 9:0.0798768 10:-1 11:-1 12:0.107607 13:-1 14:0.876175 15:-0.258929 16:0.751446 17:-1 18:0.907514 19:-1 20:0.410539 21:0.403702 22:-0.714284 23:0.445086 24:0.142856 25:0.445086 26:-1 27:1 28:0.117657 29:-0.142856 30:1 31:-0.137358 32:-0.354308 33:-1 34:0.757226 35:-0.333333 36:-1 37:-1 38:-0.686346 39:-0.428572 40:0.907514 41:-1 42:0.108108 43:-0.714284 44:-0.561447 45:-1 46:-1 47:0.594594 48:-0.499996 49:-0.871742 50:0.353229 51:-0.626076 52:-1 53:0.594594 54:-1 55:0.108108 56:-1 57:0.108108 58:0.108108 59:-1 60:0.733334 61:-0.135136 62:-0.313654 63:1 64:-0.289052 65:-0.97183 66:-0.702128 67:0.45946 68:0.276596 69:-0.135136 70:0.81081 71:-0.950414 72:0.81081 73:-0.603306 74:-0.266666 75:0.110568 76:0.594594 77:-1 78:0.221402 79:1 80:0.603306 
4.28886254015312 1:-1 2:0.942196 3:-1 4:-0.205443 5:0.786128 6:-0.49523 7:-1 8:0.67052 9:0.536217 10:-1 11:0.809248 12:-0.276399 13:-0.25 14:0.543906 15:-0.110941 16:0.67052 17:-0.599998 18:0.867052 19:0.500004 20:0.861999 21:0.897243 22:-0.714284 23:0.930636 24:-1 25:0.867052 26:0.142856 27:0.774566 28:0.187016 29:-1 30:0.67052 31:-0.946441 32:-0.535978 33:-1 34:0.867052 35:-1 36:-0.33333 37:0.976878 38:-0.279212 39:-1 40:0.774566 41:-1 42:1 43:-1 44:-0.108852 45:0.942196 46:-1 47:-0.243244 48:-1 49:-0.791794 50:-0.00196299 51:-0.279212 52:0.33333 53:-0.27027 54:-0.599998 55:-0.675676 56:0.246002 57:0.486486 58:0.513514 59:0.220172 60:0.60606 61:0.486486 62:0.246002 63:-0.675676 64:0.254612 65:-0.774648 66:-0.716312 67:-0.243244 68:0.120568 69:-0.756756 70:-0.243244 71:-0.140496 72:-0.756756 73:-0.70248 74:0.733334 75:-0.750764 76:0.486486 77:0.276596 78:0.254612 79:-0.55284 80:-0.70248 
2.371644329234951 1:-1 2:1 3:-1 4:-0.220912 5:0.809248 6:0.31838 7:-1 8:0.67052 9:0.0798768 10:-1 11:1 12:0.729186 13:-0.749999 14:0.400368 15:-0.199699 16:0.774566 17:-1 18:0.867052 19:-0.499996 20:0.861999 21:0.312127 22:-0.428572 23:0.757226 24:-1 25:0.976878 26:-1 27:1 28:1 29:-0.714284 30:0.687862 31:-0.946441 32:-0.21602 33:-0.499996 34:0.976878 35:-1 36:-1 37:-1 38:-0.377614 39:0.142856 40:1 41:-1 42:0.108108 43:-1 44:-0.00617097 45:0.809248 46:-1 47:-0.243244 48:-0.499996 49:0.150505 50:0.353229 51:0.152522 52:-0.33333 53:0.513514 54:-0.200001 55:0.513514 56:0.221402 57:1 58:0.81081 59:-0.313654 60:-0.048484 61:0.486486 62:0.221402 63:0.81081 64:-0.08487 65:-0.042254 66:-0.716312 67:-0.756756 68:-0.262412 69:0.81081 70:0.162162 71:0.603306 72:0.81081 73:-0.140496 74:-0.266666 75:-0.918142 76:1 77:-1 78:-0.686346 79:0.110568 80:-0.23967 
0.4086320393481386 1:-1 2:0.867052 3:-1 4:0.759966 5:0.867052 6:-0.183807 7:-0.499996 8:-1 9:0.0532512 10:-0.499996 11:0.687862 12:0.738353 13:-0.500001 14:-0.188266 15:-0.242928 16:0.976878 17:-1 18:1 19:-1 20:0.783634 21:0.403702 22:-0.428572 23:-1 24:-1 25:0.861272 26:-1 27:0.809248 28:1 29:-0.142856 30:0.751446 31:0.30149 32:0.419013 33:-0.499996 34:0.976878 35:-1 36:-1 37:0.687862 38:-0.07749 39:-0.714284 40:0.751446 41:-1 42:0.162162 43:-1 44:0.651796 45:-1 46:-0.428572 47:0.108108 48:-1 49:0.546405 50:0.383557 51:0.221402 52:-1 53:0.486486 54:-0.599998 55:0.108108 56:0.608856 57:1 58:-0.81081 59:-0.289052 60:-1 61:0.81081 62:0.221402 63:0.486486 64:-0.289052 65:1 66:-1 67:1 68:-0.574468 69:0.594594 70:0.594594 71:-0.206612 72:0.513514 73:0.487604 74:-0.618182 75:-0.918142 76:-0.486486 77:-0.886524 78:0.246002 79:-0.962126 80:1 
4.935590665584974 1:-1 2:0.751446 3:-1 4:-0.317296 5:0.976878 6:-0.0724405 7:-1 8:0.774566 9:0.536217 11:1 12:0.729186 13:-0.749999 14:-0.334098 15:-0.00866945 16:0.687862 17:-1 18:0.780346 19:-1 20:-0.0367594 21:0.581274 22:-0.428572 23:0.751446 24:-1 25:0.687862 26:-1 27:0.751446 28:0.126353 29:-1 30:0.774566 31:0.222869 32:-0.377443 33:-0.499996 34:0.751446 35:-1 36:-1 37:0.976878 38:0.152522 39:-0.714284 40:0.687862 41:7.00001e-006 42:1 43:-0.428572 44:-0.575215 45:0.867052 46:-0.428572 47:-0.756756 48:-1 49:0.947863 50:0.438357 51:-0.523986 52:0.33333 53:1 54:-1 55:0.486486 56:-0.523986 57:0.45946 58:0.81081 59:-0.07749 60:-0.787878 61:-1 62:-0.626076 63:0.594594 64:0.246002 65:0.71831 66:-0.248226 67:-0.81081 68:-0.702128 69:0.162162 70:-0.756756 71:0.603306 72:0.45946 73:-0.206612 74:0.733334 75:-0.975566 76:-0.81081 77:0.276596 78:-0.07749 79:-0.918142 80:-0.140496 
6.292856245097271 1:-1 2:0.67052 3:-1 4:-0.212751 5:0.976878 6:-0.0513018 7:-1 8:0.942196 9:-0.380188 10:-1 11:0.867052 12:0.341453 13:-0.500001 14:0.607654 15:-0.329205 16:0.942196 17:-0.599998 18:0.930636 19:-0.499996 20:0.137312 21:0.21496 22:-0.714284 23:0.867052 24:-0.714284 25:0.809248 26:0.714288 27:0.907514 28:-0.433927 29:-0.714284 30:0.942196 31:-0.894441 32:-0.355208 33:-1 34:-1 35:-0.666664 36:-0.33333 37:0.809248 38:0.254612 39:-1 40:0.786128 41:-1 42:0.513514 43:-1 44:-0.125776 45:0.445086 46:-1 47:-0.675676 48:-1 49:0.947863 50:-1 51:0.254612 52:-1 53:1 54:-0.200001 55:0.594594 56:-0.08487 57:0.108108 58:0.486486 59:0.246002 60:-0.59394 61:0.081082 62:-0.289052 63:-0.243244 64:-1 65:0.43662 66:0.120568 67:-0.675676 68:-0.716312 69:-0.27027 70:-0.675676 71:0.338842 72:-0.135136 73:0.768596 74:0.6 75:-0.55284 76:0.513514 77:1 78:-0.279212 79:-0.750764 80:0.768596 
8.707575913421691 1:-1 2:0.67052 3:-0.714284 4:-0.212751 5:0.930636 6:-0.49523 7:-0.499996 8:0.445086 9:0.536217 10:-0.499996 11:0.907514 12:0.679037 13:-0.749999 14:0.738818 15:-0.242928 16:0.687862 17:-0.599998 18:0.445086 20:0.410539 21:0.478504 22:-0.714284 23:0.867052 24:-0.428572 25:0.861272 26:-1 27:0.907514 28:-0.425223 29:-1 30:0.67052 31:-0.0602961 32:-0.377443 33:-1 34:0.751446 35:-0.333333 36:-1 37:0.976878 38:-0.279212 39:-1 40:0.890174 41:-1 42:1 43:-1 44:-0.125776 45:0.757226 46:-0.714284 47:0.594594 48:-0.499996 49:-0.737927 50:-1 51:-0.523986 52:-1 53:0.081082 54:-1 55:0.108108 56:0.608856 57:0.594594 58:-0.135136 59:0.246002 60:-0.59394 61:0.594594 62:-0.07749 63:-0.243244 64:-0.313654 65:0.43662 66:-0.702128 67:-0.81081 68:-0.716312 70:-0.243244 71:0.256198 72:-0.135136 73:-0.206612 74:0.733334 75:-0.750764 76:-0.486486 77:0.276596 78:-0.279212 79:-0.750764 80:-0.70248 
2.222437285526204 1:-1 2:0.907514 3:-1 4:-0.317296 5:0.907514 6:0.613822 7:-1 8:0.751446 9:0.536217 10:-0.499996 11:0.757226 12:0.287578 13:-0.25 14:1 15:-0.00866945 16:0.867052 17:-0.599998 18:0.757226 19:-1 20:0.491678 21:1 22:-0.714284 23:0.751446 24:-1 25:0.687862 26:-1 27:1 28:0.126353 29:-1 30:0.867052 31:-1 32:1 33:-1 34:0.751446 35:-0.333333 36:-1 37:0.976878 38:0.246002 39:-0.714284 40:0.867052 41:-1 42:1 43:-0.714284 44:1 45:0.930636 46:-0.428572 47:0.594594 49:-0.481399 50:0.353229 51:0.246002 52:-1 53:-0.135136 54:-1 55:0.081082 56:-0.523986 57:0.45946 58:0.108108 59:-0.07749 60:-0.587878 61:0.108108 62:-0.626076 63:-0.135136 64:0.220172 65:0.464788 66:-0.702128 67:0.486486 68:-0.219858 69:0.486486 70:0.486486 71:-0.471074 72:0.81081 73:0.338842 74:0.733334 75:-0.962126 76:-0.81081 77:0.276596 78:0.02214 79:-0.893708 80:0.338842 
2.997998985873157 1:-1 2:-1 3:-1 4:0.759966 5:0.867052 6:0.128124 7:-1 8:0.751446 9:0.0798768 10:-1 11:0.976878 12:0.959305 13:-0.25 14:0.767028 15:-0.352636 16:-1 17:-1 18:0.867052 19:-1 20:0.491678 21:-0.667245 22:-0.714284 23:-1 24:-1 25:-1 26:-1 27:0.687862 28:0.187016 29:1 30:-1 31:-0.946441 32:-0.388108 34:0.867052 35:-1 36:-1 37:-1 38:-0.289052 39:-1 40:-1 41:-1 42:0.108108 43:-1 44:0.0153465 45:0.687862 46:-0.714284 47:0.594594 48:-1 49:0.546405 50:0.178087 51:-0.289052 52:-1 53:0.486486 54:-1 55:0.162162 56:-0.289052 57:0.486486 58:1 59:-0.289052 60:-0.266666 61:0.486486 62:0.246002 63:0.108108 64:-0.377614 65:0.605634 66:-0.702128 67:0.108108 68:-1 69:0.108108 70:0.108108 71:0.487604 72:0.162162 73:-0.950414 74:-0.266666 75:-0.793524 76:0.108108 77:-1 78:-0.289052 79:-0.793524 80:-0.950414 
-1.387219136918065 1:-1 2:0.867052 3:-1 4:-0.276325 5:0.976878 6:-0.49523 7:-1 8:0.757226 9:0.0798768 10:-0.499996 11:0.757226 12:0.287578 13:-0.500001 14:0.24948 15:-0.329205 16:0.976878 17:-1 18:0.976878 19:-1 20:-0.158112 21:0.581274 22:0.142856 23:0.687862 24:-1 25:0.809248 26:-1 27:0.751446 28:-0.00367794 29:-0.714284 30:0.907514 31:-0.16085 32:0.419013 33:-1 34:0.774566 35:-0.666664 36:-1 37:-1 38:0.02214 39:-1 40:0.976878 41:-1 42:0.108108 43:-1 44:0.651796 45:0.867052 46:-0.714284 47:0.108108 49:0.947863 50:-0.945211 51:0.221402 52:-0.33333 53:1 54:-0.599998 55:0.486486 56:-0.08487 57:-0.756756 58:0.108108 59:-0.523986 60:-1 61:1 62:0.152522 63:0.486486 64:0.246002 65:1 66:0.021276 67:1 68:-0.574468 69:1 70:-0.135136 71:-0.471074 72:0.594594 73:0.487604 74:-0.266666 75:-0.893708 76:0.513514 77:-1 78:0.246002 79:-0.962126 80:0.256198 
-2 1:-1 2:0.809248 3:-1 4:-0.220912 5:1 6:-0.183807 7:-1 8:0.751446 9:0.111588 10:-1 11:0.976878 12:0.959305 13:-1 14:0.6542 15:-0.329205 16:0.907514 17:-1 18:0.907514 19:-1 20:-0.0977827 21:0.902834 22:-0.714284 23:0.757226 24:-1 25:0.809248 26:-1 27:0.907514 28:-0.140851 29:-1 30:0.751446 31:-0.137358 32:-0.571766 33:-1 34:0.786128 35:2.33334e-006 36:-0.33333 37:0.751446 38:-0.07749 39:-0.714284 40:0.809248 41:-1 42:0.45946 43:-0.428572 44:-0.769965 45:0.774566 46:-0.714284 47:0.45946 48:-0.499996 49:-0.501911 50:-1 51:0.02214 52:-0.33333 53:0.81081 54:0.200001 55:-0.756756 56:-0.08487 57:-0.27027 58:1 59:-0.313654 60:0.6 61:-0.135136 62:0.562116 63:0.513514 64:0.152522 65:-0.746478 66:-0.404256 67:-0.135136 68:1 69:0.513514 70:0.594594 71:0.487604 72:-0.135136 73:0.256198 74:-0.569696 75:-0.918142 76:0.513514 77:-0.404256 78:-0.08487 79:0.485644 80:1 
