svm_type c_svc
kernel_type rbf
gamma 0.03125
nr_class 2
total_sv 986
rho 4.89036
label 1 -1
probA -1.2318
probB 1.11672
nr_sv 229 757
SV
39.91122346897581 1:-0.714286 2:0.751446 3:-0.2 4:0.445086 5:-1 6:-0.942721 7:0.751446 8:-0.750099 9:-0.6 10:0.867052 11:-0.365022 12:0.867052 13:-1 14:-0.360161 15:0.890174 16:-1 17:0.976878 18:-0.804837 19:-0.636364 20:0.67052 21:-0.5 22:0.930636 23:-1 24:0.867052 25:-0.224577 26:0.445086 27:-0.599999 28:0.890174 29:-1 30:0.486486 31:0.930636 32:-0.333332 33:0.45946 34:0.332386 35:-1 36:0.751446 37:0.162162 38:-0.599996 39:0.751446 40:1 41:1 42:0.687862 43:-1 44:1 45:-0.539631 46:-0.41303 47:0.867052 48:-1 49:0.687862 50:-1 51:0.81081 52:0.0839324 53:0.751446 54:-0.428572 55:1 56:-1 57:-0.578124 58:0.445086 59:-0.777776 
53.392592 1:-0.714286 2:0.751446 3:-0.2 4:0.867052 5:-1 6:-0.534936 7:0.809248 8:-0.645839 9:-0.799998 10:0.786128 11:-0.365022 12:0.757226 13:-0.272728 14:-0.162032 15:0.809248 16:-1 17:0.445086 18:-0.856129 19:-0.454544 20:0.757226 21:-0.749997 22:0.976878 23:-1 24:0.751446 25:-1 26:0.751446 27:-0.866665 28:0.757226 29:-1 30:0.594594 31:0.751446 32:-0.555556 33:0.108108 34:-1 35:-1 36:0.757226 37:0.486486 38:-1 39:0.867052 40:-0.591348 41:-1 42:0.687862 43:-1 44:0.930636 45:-0.539239 46:0.0725148 47:0.809248 48:-0.249997 49:0.867052 50:-0.599996 51:0.081082 52:-0.0916814 53:0.890174 54:-0.714283 55:0.867052 56:-1 57:-0.134589 58:0.445086 59:-0.777776 
10.83662887884318 1:-0.714286 2:0.976878 3:-0.6 4:0.687862 5:-0.666663 6:-0.864267 7:0.907514 8:1 9:-0.6 10:0.757226 11:0.0506563 12:0.861272 13:-0.636364 14:-0.360161 15:0.890174 16:-1 17:0.976878 18:-0.268137 19:-1 20:0.687862 21:-0.749997 22:0.942196 23:-0.599996 24:0.751446 25:-0.375534 26:0.774566 27:-0.733334 28:0.930636 29:-0.499994 30:0.594594 31:0.757226 32:-1 34:-0.321463 35:-0.749997 36:0.890174 37:1 38:-1 39:-1 40:1 41:-0.485225 42:0.976878 43:-0.777776 44:0.867052 45:-0.881895 46:0.136079 47:0.867052 48:-1 49:0.976878 50:-1 51:0.486486 52:1 53:0.976878 54:-0.714283 55:0.976878 56:-0.499994 57:-0.814598 58:0.751446 59:0.333332 
21.30829381073798 1:-1 2:0.445086 3:-0.6 4:0.976878 5:-1 6:-0.583461 7:0.67052 8:-0.286328 9:-0.799998 10:-1 11:-0.436959 12:-1 13:-0.81818 14:-0.380081 15:0.867052 16:-1 17:0.861272 18:-0.257011 19:-0.636364 20:0.930636 21:-1 22:0.786128 23:-0.599996 24:0.890174 25:-0.255693 26:0.942196 27:-1 28:0.774566 29:-0.499994 31:0.930636 32:-0.333332 33:0.594594 34:-0.17465 35:-1 36:0.445086 37:0.486486 38:-0.200002 39:0.976878 40:-0.848198 41:-0.850109 42:0.67052 43:-0.555556 44:0.445086 45:-0.539631 46:0.353122 47:0.942196 48:-1 49:0.867052 50:-0.599996 51:0.594594 52:-0.261476 53:0.751446 54:-0.428572 55:0.751446 57:-1 58:0.757226 59:-0.555556 
1.27364984362244 1:-0.714286 2:0.867052 3:-0.399998 4:0.809248 5:-1 6:-0.92136 7:0.809248 8:-0.750099 9:-0.399998 10:0.867052 11:-0.826403 12:0.809248 13:-0.81818 14:-0.162032 15:0.867052 16:-1 17:0.445086 18:-0.257011 19:-0.454544 20:0.757226 21:-1 22:0.751446 23:-1 24:0.930636 25:-1 26:1 27:-1 28:0.930636 29:-1 30:0.081082 31:0.890174 32:-0.555556 33:0.594594 34:0.0373931 35:-1 36:0.445086 37:1 38:-1 39:0.809248 40:0.506985 41:-0.582745 42:0.751446 43:-1 44:1 45:-0.186475 46:-0.326851 47:0.890174 49:0.976878 50:-1 51:0.81081 52:1 53:1 54:-0.428572 55:0.890174 56:-1 57:-0.134589 58:0.751446 59:-0.777776 
3.713783501531587 1:-0.142858 2:0.861272 3:2.2e-006 4:0.930636 5:-1 6:-0.521483 7:0.907514 8:1 9:-0.799998 10:0.907514 11:-0.290135 12:0.907514 13:-1 14:-0.416313 15:1 16:-0.333328 17:0.780346 18:1 19:-1 20:0.867052 21:-1 22:0.861272 23:-0.200002 24:0.890174 25:1 26:0.809248 27:-1 28:0.976878 29:-0.499994 31:0.942196 32:-1 33:0.486486 34:0.347627 35:-0.249997 36:0.867052 37:0.486486 38:-1 39:0.774566 40:-0.985817 41:-0.507085 42:0.942196 43:-1 44:0.867052 45:-0.613447 46:-0.231763 47:0.976878 48:-0.749997 49:0.867052 50:-1 51:0.486486 52:0.00329879 53:0.930636 54:-0.428572 55:0.867052 57:-0.814598 58:1 59:-0.555556 
53.392592 1:-0.428572 2:0.930636 3:-0.6 4:0.907514 5:-1 6:-0.92136 7:0.687862 8:-0.763893 9:-1 10:0.867052 11:-0.365022 12:0.751446 13:-0.636364 14:-0.769122 15:0.445086 16:-1 17:0.757226 18:0.17126 19:-1 20:0.867052 21:-0.5 22:0.809248 23:-1 24:0.907514 25:1 26:0.976878 27:-0.599999 28:0.751446 29:-1 30:-0.135136 31:0.976878 32:-0.777776 33:1 34:-0.361392 35:-0.249997 36:0.976878 37:1 38:-1 39:0.751446 40:-0.985817 41:-0.550557 42:0.687862 43:-1 44:0.757226 45:-0.0955768 46:-0.41303 47:0.976878 48:-0.749997 49:0.976878 50:-1 51:0.108108 52:-1 53:1 54:-0.714283 55:0.907514 56:-1 57:-0.52893 58:0.976878 59:0.333332 
24.64831749563747 1:-0.714286 2:0.757226 3:-0.799998 4:0.907514 5:-0.666663 6:-0.691758 7:0.867052 8:-0.523177 9:-0.799998 10:0.751446 11:-0.292668 12:0.786128 13:-0.81818 14:-0.532666 15:0.751446 16:-1 17:0.809248 18:-0.488056 19:-0.636364 20:0.976878 21:-0.749997 22:1 23:-1 24:0.687862 25:-0.227124 26:1 27:-0.733334 28:0.890174 29:-1 30:0.162162 31:0.687862 32:-1 33:-0.135136 34:0.0373931 35:-0.249997 36:0.907514 37:0.81081 38:-1 39:0.809248 40:-0.985817 41:-0.255577 42:0.907514 43:-0.777776 44:0.976878 45:-0.459985 46:-0.326851 47:0.976878 48:-0.5 49:1 50:-0.599996 51:1 52:0.0839324 53:-1 54:-1 55:0.751446 56:-1 57:1 58:0.751446 59:-0.333332 
16.95300290711055 1:-0.428572 2:0.890174 3:-0.6 4:0.751446 5:-1 6:-0.251279 7:0.445086 8:-0.523177 9:-0.6 10:0.867052 11:-0.515178 12:0.67052 13:-0.81818 14:-0.626057 15:0.930636 16:-1 17:0.67052 18:-0.856129 19:-0.81818 20:0.930636 21:-1 22:1 23:-0.599996 24:0.930636 25:-0.255693 26:0.930636 27:-1 28:0.907514 29:-0.499994 30:0.081082 31:0.867052 32:-0.555556 33:0.108108 34:-0.297863 35:-0.749997 36:0.757226 37:0.513514 38:-0.200002 39:0.774566 40:-0.362477 41:-0.332686 42:0.861272 43:-0.777776 44:0.976878 45:1 46:-0.231763 47:-1 48:-0.749997 49:0.809248 50:-1 51:1 52:-0.479351 53:0.445086 54:0.142855 55:0.890174 56:-1 57:0.2348 58:0.976878 59:-0.555556 
8.667378617750391 1:-0.714286 2:0.687862 3:-0.6 4:0.687862 5:-1 6:-0.72703 7:0.976878 8:-0.269645 9:-0.6 10:0.976878 11:-0.553281 12:0.751446 13:-1 14:1 15:0.890174 16:-1 17:0.867052 18:-1 19:-0.81818 20:1 21:-0.5 22:1 23:-1 24:0.976878 25:-0.423219 26:0.890174 27:-0.599999 28:0.751446 29:-1 30:1 31:0.907514 32:-1 33:0.594594 34:1 35:-0.749997 36:0.751446 37:0.513514 38:-1 39:0.809248 40:-0.278134 41:-0.607254 42:1 43:-1 44:0.809248 45:-0.7941 46:-0.326851 47:0.751446 48:-0.249997 49:0.809248 50:-0.599996 51:0.513514 52:-1 53:0.786128 54:-1 55:0.867052 56:-1 57:-0.280702 58:0.976878 59:-0.111112 
10.0630352143991 1:-0.714286 2:0.930636 3:-0.399998 4:-1 5:-1 6:-0.521483 7:0.751446 8:-0.286328 9:-0.6 10:0.751446 11:-0.211743 12:-1 13:-0.81818 14:-1 15:0.867052 16:-1 17:0.751446 18:-0.268137 19:-0.090908 20:0.751446 21:-1 22:0.751446 23:-1 24:-1 25:-0.6068 26:0.930636 27:-0.866665 28:1 29:-1 30:0.108108 31:0.751446 32:-0.777776 34:-0.297863 35:-1 36:0.890174 37:0.486486 38:-1 39:0.867052 40:-0.362477 41:-0.850109 42:-1 43:0.333332 44:0.445086 45:-0.539239 46:0.0725148 47:-1 48:-1 49:0.867052 50:-1 51:0.594594 52:0.435565 53:0.757226 54:-0.428572 55:-1 56:-1 57:-0.371771 58:0.890174 59:-1 
17.30871110997103 1:-0.714286 2:1 3:-0.399998 4:0.751446 5:-1 6:-0.942721 7:1 8:-0.465523 9:-0.799998 10:0.757226 11:-1 12:0.774566 13:-0.636364 14:-0.551483 15:0.67052 16:-1 17:0.751446 18:1 19:-0.636364 20:1 21:-1 22:0.751446 23:-1 24:0.867052 25:-0.423219 26:0.890174 27:-0.466667 28:0.976878 29:-0.499994 30:0.486486 31:0.757226 32:-1 33:0.486486 34:1 35:-1 36:0.867052 37:0.081082 38:-0.599996 39:0.976878 40:1 41:-0.312274 42:0.751446 43:-1 44:0.942196 45:-0.881895 46:0.353122 47:0.867052 48:-1 49:0.930636 50:-1 51:-0.675676 52:0.00329879 53:0.751446 54:-0.714283 55:0.976878 56:-0.499994 57:0.0471669 58:0.751446 59:-0.333332 
10.22000806726799 1:-1 2:1 3:-0.2 4:0.867052 5:-1 6:-0.732288 7:0.445086 8:-0.286328 9:-0.6 10:0.751446 11:-0.553281 12:0.687862 13:-1 14:-0.360161 15:0.751446 16:-1 17:0.976878 18:-0.268137 19:-0.81818 20:-1 21:-0.249997 22:0.751446 23:-1 24:0.867052 25:-0.5167 26:0.687862 27:-0.599999 28:0.867052 29:-1 30:0.486486 31:0.751446 32:-0.333332 34:-0.00693806 35:-1 36:0.890174 37:1 38:-1 39:0.890174 40:-0.112515 41:-0.763625 42:1 43:-0.777776 44:0.445086 45:-0.539239 46:1 47:0.786128 48:-1 49:0.976878 50:-0.599996 51:0.594594 52:0.385927 53:0.687862 54:-1 55:0.445086 56:-1 57:0.2348 58:0.867052 59:-0.555556 
4.093891729866965 1:-0.428572 2:0.67052 3:0.2 4:0.867052 5:-1 6:1 7:0.809248 8:-0.830606 9:-0.799998 10:0.809248 11:-0.292668 12:0.976878 13:-1 14:-0.551483 15:0.809248 16:-1 17:0.751446 18:-0.257011 19:-0.81818 20:0.751446 21:-1 22:0.907514 23:-0.599996 24:0.67052 25:-0.803393 26:0.861272 27:-0.733334 28:0.867052 29:-0.499994 30:-0.243244 31:0.867052 32:-0.555556 33:0.594594 34:-0.123408 35:-0.5 36:0.445086 37:0.594594 38:-0.200002 39:0.751446 40:0.506985 41:-0.600526 42:0.907514 43:-1 44:0.774566 45:1 46:-0.41303 47:0.890174 48:-0.249997 49:0.445086 50:-1 51:-0.756756 52:0.385927 53:0.867052 54:-1 55:0.867052 56:-1 57:-0.134589 58:0.867052 59:-0.777776 
13.72917055621776 1:-0.714286 2:0.751446 3:-0.6 4:0.809248 5:-1 6:-0.694709 7:0.687862 8:-0.915484 9:-0.799998 10:0.751446 11:-0.436959 12:0.976878 13:-0.81818 14:-0.551483 15:0.942196 16:-1 17:0.751446 18:-0.488056 19:-0.81818 20:0.976878 21:-0.5 22:0.687862 23:-1 24:0.757226 25:-0.227124 26:0.890174 27:-0.599999 28:0.942196 29:-1 30:0.108108 31:0.867052 32:-1 33:-0.135136 34:1 35:-0.5 36:0.907514 37:-0.243244 38:-0.200002 39:0.976878 40:-0.362477 41:-0.600526 42:0.67052 43:-0.777776 44:0.907514 45:1 46:0.353122 47:-1 48:-0.749997 49:0.67052 50:-1 51:-0.135136 52:0.405315 53:0.942196 54:-1 55:0.751446 56:0.500006 57:-0.52893 58:0.867052 59:-0.333332 
13.18105304038214 1:-0.714286 2:0.867052 3:-0.2 4:0.757226 5:-1 6:-0.521483 7:0.445086 8:-0.763893 9:-1 10:0.751446 11:1 12:1 13:-0.636364 14:-0.662903 15:0.67052 16:-1 17:0.687862 18:-0.488056 19:-0.272728 20:0.907514 21:-0.749997 22:0.867052 23:-0.599996 24:0.867052 25:-0.249268 26:0.445086 27:-1 28:0.861272 29:-1 30:0.486486 31:0.751446 32:-0.555556 33:-0.135136 34:0.332386 35:-0.5 36:0.907514 37:0.81081 38:-0.599996 39:0.751446 40:-0.878087 41:-0.974538 42:0.867052 43:-0.777776 44:0.757226 45:-0.539239 46:-0.695235 47:0.751446 48:-1 49:1 50:-1 51:0.108108 52:-0.331279 53:0.930636 54:-0.714283 55:-1 56:-1 57:0.2348 58:0.976878 59:-0.777776 
30.15780360454361 1:-0.714286 2:0.687862 3:-0.799998 4:0.809248 5:-1 6:-0.864267 7:0.751446 8:-0.49925 9:-0.799998 10:0.780346 11:-0.430696 12:0.751446 13:-0.81818 14:-0.769122 15:0.976878 16:-0.333328 17:0.757226 18:-0.329146 19:-0.636364 20:0.867052 21:-0.749997 22:1 23:0.200002 24:-1 25:1 26:1 27:-0.733334 28:0.890174 29:-1 30:0.108108 31:0.67052 32:-0.777776 33:0.513514 34:0.0373931 35:-1 36:0.809248 37:0.594594 38:-0.599996 39:0.861272 40:-0.378956 41:-0.607254 42:0.445086 43:-0.777776 44:0.861272 45:-0.85975 46:-0.190245 47:0.861272 48:-0.5 49:0.751446 50:-1 51:-0.486486 52:0.0839324 53:0.976878 54:-1 55:0.751446 56:-1 57:-0.371771 58:0.976878 59:-0.333332 
2.282302161774477 1:-0.142858 2:0.687862 3:-0.2 4:0.445086 5:-0.666663 6:-0.92136 7:0.687862 8:1 9:-0.6 10:0.67052 11:-0.290135 12:0.907514 13:-0.81818 14:-0.34073 15:0.890174 16:-0.333328 17:0.942196 18:1 19:-0.81818 20:0.751446 21:-0.749997 22:1 23:-1 24:-1 25:-0.6068 26:0.751446 27:-0.733334 28:0.757226 29:-1 30:0.108108 31:0.976878 32:-0.777776 33:0.486486 34:0.702304 35:-0.749997 36:0.867052 38:-0.599996 39:0.867052 40:-0.560667 41:-0.507085 42:0.942196 43:-0.777776 44:0.867052 45:-0.0955768 46:0.0725148 47:0.780346 48:-1 49:0.890174 50:-1 51:0.486486 52:-0.0916814 53:1 54:-1 55:0.867052 57:-0.52893 58:0.751446 59:-0.777776 
10.19734414814893 1:-0.714286 2:0.976878 3:-0.6 4:0.976878 5:-1 6:-0.521483 7:0.867052 8:-0.915484 9:-0.799998 10:0.751446 11:-0.211743 12:0.751446 13:-0.81818 14:-0.360161 15:1 16:-1 17:0.976878 18:-0.488056 19:-0.81818 20:0.890174 21:-0.749997 22:1 23:-1 24:0.445086 25:-0.101004 26:0.445086 27:-0.733334 28:0.907514 29:-1 30:0.594594 31:0.976878 32:-0.555556 33:-0.135136 34:0.332386 35:-0.249997 36:0.907514 37:0.594594 38:-1 39:-1 40:-0.79222 41:-0.550557 42:-1 43:-0.555556 44:0.907514 45:-0.0955768 46:0.136079 47:1 48:-1 49:0.751446 50:-1 51:-0.135136 52:-0.479351 53:0.757226 54:-1 55:0.687862 56:-1 57:1 58:0.867052 59:-0.111112 
16.26085564631939 1:-0.714286 2:1 3:-0.2 4:0.867052 5:-1 6:-0.942721 7:0.867052 8:-0.286328 9:-0.799998 10:0.687862 11:-0.430696 12:0.907514 13:-0.454544 14:-0.532666 15:0.867052 16:-1 17:0.809248 18:-0.375414 19:-1 20:0.751446 21:-0.749997 22:0.867052 23:-1 24:0.890174 25:-0.6068 26:0.757226 27:-0.733334 28:1 29:-0.499994 31:0.757226 32:-0.333332 33:0.108108 34:-0.41138 35:-0.749997 36:-1 37:0.594594 38:-1 39:0.774566 40:-0.112515 41:-0.507085 42:0.445086 43:-0.555556 44:0.445086 45:-0.881895 46:-0.231763 47:0.786128 48:-0.749997 49:0.445086 50:-0.599996 51:0.594594 52:0.435565 53:0.751446 54:-1 55:-1 56:-1 57:1 58:0.757226 59:-1 
53.392592 1:-1 2:0.890174 3:-0.6 4:0.751446 5:-1 6:-0.583461 7:0.751446 8:-0.763893 9:-0.6 10:0.751446 11:-0.826403 12:0.930636 13:-0.272728 14:-0.0771352 15:0.867052 16:-1 17:0.890174 18:-0.806246 19:-0.272728 20:1 21:-0.5 22:-1 23:-1 24:0.67052 25:-0.423219 26:0.757226 27:-0.599999 28:0.757226 29:-1 30:-0.243244 31:0.751446 32:-1 33:0.162162 34:-0.41138 35:-0.749997 36:0.687862 37:0.486486 38:-0.599996 39:0.687862 40:-0.769991 41:-0.24094 42:0.751446 43:-0.777776 44:0.757226 45:-0.539239 46:-0.438271 47:0.907514 48:-1 49:0.867052 50:-1 51:0.108108 52:-0.0916814 53:0.751446 54:-0.714283 55:0.751446 56:-1 57:-0.578124 58:0.757226 59:-1 
53.392592 1:-1 2:1 3:-0.799998 4:0.809248 5:-0.666663 6:-0.521483 7:0.907514 8:-0.718865 9:-0.399998 10:0.786128 11:0.0506563 12:0.751446 13:-0.81818 14:-0.360161 15:0.751446 16:-1 17:0.976878 18:-0.329146 19:-0.636364 20:0.890174 21:-0.749997 22:0.687862 23:-1 24:0.890174 25:-0.101004 26:0.930636 27:-0.866665 28:0.774566 29:-0.499994 31:0.890174 32:-1 33:0.513514 34:-0.297863 35:-0.749997 36:0.809248 37:0.486486 38:-1 39:0.757226 40:-0.79222 41:-0.550557 42:0.976878 43:-1 44:0.687862 45:-0.186475 46:-0.514456 47:1 48:-0.5 49:0.867052 50:-0.599996 51:0.162162 52:-0.261476 53:0.930636 54:-0.428572 55:0.976878 56:-1 57:-0.814598 58:0.751446 59:-0.333332 
2.162736021966396 1:-0.428572 2:0.942196 3:-0.399998 4:-1 5:-1 6:-0.732288 7:0.774566 8:-0.645839 9:-0.799998 10:1 11:0.0506563 12:0.930636 13:-1 14:-0.769122 15:0.445086 16:-1 17:-1 18:1 19:-0.81818 20:0.867052 21:-0.749997 22:0.890174 23:-1 24:1 25:1 26:0.751446 27:-1 28:0.867052 29:-0.499994 30:0.81081 31:0.930636 32:-0.777776 33:0.486486 34:-1 35:-1 36:0.867052 37:0.81081 38:-1 39:0.930636 40:-0.985817 41:-0.24094 42:0.976878 43:-0.555556 44:0.930636 45:-0.539631 46:-0.0930166 47:0.976878 48:-1 49:1 50:-1 51:0.081082 52:0.385927 53:0.687862 54:0.428572 55:1 56:-0.499994 57:-0.311911 58:0.930636 59:-0.555556 
43.50097623128195 1:-0.714286 2:0.867052 3:-0.6 4:0.751446 5:-1 6:-0.605281 7:0.809248 8:-0.269645 9:-0.799998 10:0.976878 11:-0.826403 12:0.67052 13:-0.272728 14:-0.769122 15:0.757226 16:-1 17:0.757226 18:-0.488056 19:-0.81818 20:0.867052 21:-0.749997 22:0.757226 23:-0.599996 24:0.809248 25:1 26:0.687862 27:-0.866665 28:0.757226 29:-1 30:0.513514 31:0.67052 32:-0.777776 33:-0.135136 34:-0.00693806 35:-0.5 36:0.907514 37:0.081082 38:-0.200002 39:0.890174 40:-0.476324 41:-0.332686 42:0.751446 43:-1 44:0.809248 45:-0.85975 46:1 47:0.445086 48:-0.249997 49:0.930636 50:-1 51:0.513514 52:-0.0916814 53:0.907514 54:-0.714283 55:0.861272 56:-1 57:-0.134589 58:0.976878 59:-0.555556 
4.588264147913584 1:-0.714286 2:0.751446 3:-0.399998 4:0.867052 5:-1 6:-0.534936 7:0.867052 8:0.0308549 9:-0.399998 10:0.930636 11:-0.467081 12:0.751446 13:-1 14:-0.162032 15:0.687862 16:-1 17:0.445086 18:0.17126 19:-0.454544 20:0.890174 21:-0.249997 22:0.976878 23:-1 24:0.751446 25:-0.101004 26:0.751446 27:-0.866665 28:0.976878 29:-1 30:0.45946 31:0.67052 32:-0.555556 33:1 34:0.702304 35:-1 36:0.976878 37:0.486486 38:-0.599996 39:0.687862 40:-0.912222 41:-0.607254 42:0.786128 43:-1 44:0.890174 45:-0.85975 46:-0.438271 47:0.687862 48:-1 49:0.867052 50:-0.599996 52:0.00329879 53:0.890174 54:-0.714283 55:0.445086 56:-1 57:1 58:0.976878 59:-0.111112 
33.06483740806118 1:-0.714286 2:0.867052 3:2.2e-006 4:0.861272 5:-1 6:-0.529492 7:0.930636 8:-0.523177 9:-1 10:0.867052 11:-0.467081 12:0.780346 13:-1 14:-0.43535 15:0.930636 16:-0.333328 17:0.907514 18:-0.329146 19:-0.81818 20:-1 21:-0.749997 22:0.809248 23:-0.599996 24:0.867052 25:-0.5167 26:0.976878 27:-1 28:0.867052 29:-1 30:0.486486 31:0.687862 32:-1 33:0.513514 34:-0.361392 35:-0.749997 36:0.809248 37:-0.243244 38:-0.599996 39:0.809248 40:-0.985817 41:-0.501329 42:0.786128 43:-0.777776 44:0.976878 45:-0.498836 46:-0.326851 47:0.976878 49:0.67052 50:-0.599996 51:1 52:0.385927 53:0.809248 54:-0.428572 55:0.751446 56:-1 57:-0.0567444 58:0.867052 59:-0.333332 
20.90947334291995 1:-0.142858 2:0.907514 3:-0.2 4:0.867052 5:-0.666663 6:-0.732288 7:0.751446 8:1 9:-0.799998 10:0.867052 11:-0.0737158 12:0.751446 13:-0.81818 14:-0.195568 15:0.809248 16:-1 17:0.930636 18:-1 19:-0.81818 20:0.907514 21:-0.5 22:0.67052 23:-1 24:0.890174 25:-0.249268 26:0.687862 27:-0.466667 28:0.907514 29:-1 31:0.786128 32:-1 33:0.594594 34:-0.00693806 35:-0.249997 36:0.751446 37:0.594594 38:-0.200002 39:0.867052 40:-0.597464 41:-0.550557 42:0.757226 43:-1 44:0.867052 45:-0.366752 46:0.0725148 47:0.67052 48:-0.749997 49:0.751446 50:-0.599996 51:0.486486 52:-0.479351 53:0.687862 54:-0.714283 55:0.751446 56:-1 57:-0.371771 58:0.687862 59:-1 
46.64927235364995 1:-0.428572 2:0.976878 3:2.2e-006 4:0.67052 5:-1 6:-0.942721 7:0.757226 8:-0.396869 9:-0.799998 10:0.907514 11:-0.499718 12:0.867052 13:-0.81818 14:-0.360161 15:0.687862 16:-1 17:0.976878 18:-0.520324 19:-0.636364 20:0.890174 21:-0.749997 22:0.867052 23:-1 24:0.751446 25:-0.101004 26:0.867052 27:-0.599999 28:0.867052 29:-1 30:0.594594 31:0.867052 32:-1 33:-0.27027 34:-0.251943 35:-0.5 36:0.786128 37:-0.243244 38:-0.200002 39:0.751446 40:-0.985817 41:1 42:0.930636 43:-1 44:0.751446 45:1 46:-0.695235 47:0.976878 48:-1 49:0.67052 50:-0.599996 51:0.594594 52:0.385927 53:0.751446 54:-0.714283 55:0.751446 56:-1 57:-0.0780219 58:0.907514 59:-0.333332 
53.392592 1:-0.714286 2:0.907514 3:-0.6 4:0.976878 5:-0.666663 6:-0.942721 7:0.687862 8:0.0308549 9:-0.799998 10:0.867052 11:-0.586508 12:0.751446 13:-0.81818 14:-0.195568 15:0.976878 16:-1 17:0.930636 18:-0.610728 19:-0.636364 20:0.67052 21:-1 22:0.867052 23:-1 24:0.445086 25:-0.224577 26:0.751446 27:-0.466667 28:0.751446 29:-0.499994 30:0.594594 31:0.809248 32:-0.777776 33:-0.756756 34:0.702304 35:-0.749997 36:0.774566 37:0.45946 38:-0.599996 39:0.757226 40:-0.278134 41:-0.607254 42:0.809248 43:-1 44:0.890174 45:-0.757192 46:-0.514456 47:0.751446 48:-0.5 49:0.751446 50:-0.599996 52:-1 53:0.751446 54:-0.714283 55:0.786128 56:-1 57:-0.448881 58:0.976878 59:-0.333332 
53.392592 1:-0.714286 2:0.976878 3:-0.6 4:0.930636 5:-0.666663 6:-0.864267 7:0.687862 8:-0.718865 9:-0.6 10:0.890174 11:0.0506563 12:0.751446 13:-1 14:-0.43535 15:0.751446 16:-1 17:0.907514 18:-0.804837 19:-0.81818 20:0.687862 21:-0.249997 22:0.67052 23:-1 24:0.687862 25:-0.375534 26:0.907514 27:-0.599999 28:0.774566 30:0.162162 31:0.751446 32:-1 33:0.45946 34:-0.304745 35:-0.249997 36:0.751446 37:0.486486 38:-0.599996 39:0.867052 40:-0.0508066 41:-0.550557 42:0.976878 43:-1 44:0.687862 45:-0.474748 46:0.0725148 47:0.774566 48:-1 49:0.867052 50:-1 51:0.162162 52:-0.261476 53:0.976878 54:-0.714283 55:0.907514 56:-1 57:-0.52893 58:0.890174 59:-0.333332 
21.53700042350603 1:-0.428572 2:0.907514 3:-0.399998 4:0.976878 5:-0.666663 6:-0.767733 7:0.867052 8:-1 9:-1 10:0.751446 11:-0.449487 12:0.976878 13:-0.636364 14:-0.489406 15:0.67052 16:-0.333328 17:0.786128 18:0.17126 19:-0.636364 20:0.757226 21:-1 22:0.942196 23:-1 24:0.751446 25:-1 26:0.751446 27:-0.333332 28:0.751446 29:-1 30:0.594594 31:0.976878 32:-1 33:1 34:0.702304 35:-0.749997 36:0.976878 37:0.45946 38:-0.599996 39:0.867052 40:1 41:-0.600526 42:0.780346 43:-1 44:0.751446 45:-0.0955768 46:0.0725148 47:0.867052 48:-1 49:0.751446 50:-0.599996 51:0.45946 52:-1 53:0.687862 54:-1 55:0.757226 56:-0.499994 57:1 58:0.751446 59:-0.111112 
23.4544509713215 1:-1 2:0.751446 3:-0.799998 4:0.751446 5:-0.666663 6:-0.767733 7:0.751446 8:-0.750099 9:-1 10:-1 11:-1 12:0.907514 13:-1 14:-0.12019 15:0.751446 16:-1 17:1 18:-0.375414 19:-0.636364 20:-1 21:-1 22:0.751446 23:-1 24:0.976878 25:-0.5167 26:1 27:-0.333332 28:0.907514 29:-0.499994 30:1 31:0.751446 32:-0.777776 33:0.108108 34:0.0373931 35:-0.249997 36:-1 37:0.594594 38:-1 39:0.907514 40:-0.0508066 41:-0.507085 42:0.751446 43:-0.333332 44:1 45:-0.474748 46:-1 47:0.774566 48:-1 49:0.445086 50:-1 51:0.81081 52:-0.479351 53:0.687862 54:-1 55:1 56:-1 57:-0.371771 58:0.867052 59:-0.777776 
1.41611438506995 1:0.142855 2:0.890174 3:0.6 4:0.867052 5:-1 6:-0.942721 7:1 8:1 9:-0.799998 10:0.867052 11:-0.211743 12:0.867052 13:-1 14:-0.537851 15:0.687862 16:-1 17:0.774566 18:-1 19:-1 20:0.867052 21:-0.749997 22:0.867052 23:-1 24:-1 25:1 26:0.867052 27:-0.599999 28:0.445086 29:-0.499994 30:0.108108 31:0.751446 32:-0.777776 33:0.594594 34:-0.251943 35:-0.749997 36:0.751446 37:-0.135136 38:-1 39:-1 40:-0.79222 41:1 42:-1 43:-0.333332 44:0.867052 45:-0.474748 46:0.136079 47:1 48:-1 49:0.907514 50:-1 51:0.486486 52:-0.600317 53:0.751446 54:-1 55:1 56:-1 57:0.0471669 58:0.867052 59:-1 
8.126359809713717 1:-1 2:-1 3:-0.799998 4:0.976878 5:-0.666663 6:-0.864267 7:0.861272 8:-0.523177 9:-0.2 10:0.976878 11:-0.550747 12:0.867052 13:-0.81818 14:-0.551483 15:0.751446 16:-1 17:0.751446 18:-0.438543 19:-1 20:0.890174 21:-1 22:0.907514 23:-0.599996 24:0.976878 25:-0.101004 26:0.757226 27:-0.733334 28:0.907514 29:-1 30:1 31:1 32:-1 33:0.081082 34:-0.41138 35:-0.5 36:0.930636 37:0.513514 38:-1 39:0.890174 40:-0.591348 41:1 42:0.890174 43:-0.777776 44:0.976878 45:-0.155005 46:1 47:0.809248 48:-0.5 49:0.809248 50:-1 51:1 52:-0.479351 53:0.976878 54:-0.714283 55:0.687862 56:-1 57:-0.278879 58:0.890174 59:0.111112 
17.33004284300616 1:-0.428572 2:0.867052 3:2.2e-006 4:0.687862 5:-1 6:-0.84335 7:0.890174 8:-0.396869 9:-0.799998 10:-1 11:-0.586508 12:0.867052 13:-0.81818 14:-0.532666 15:0.445086 16:-1 17:0.809248 18:-0.520324 19:-0.81818 20:0.867052 21:-0.749997 22:0.751446 23:-1 24:0.976878 25:1 26:0.757226 27:-0.733334 28:0.774566 30:1 31:0.786128 32:-0.777776 33:-0.27027 34:-0.41138 35:-0.749997 36:0.786128 37:0.45946 38:-1 39:0.867052 40:1 41:1 42:0.809248 43:-0.777776 44:0.751446 45:-0.366752 46:0.0725148 47:0.867052 48:-0.5 49:0.751446 50:-0.200002 51:0.594594 52:-0.261476 53:0.774566 54:-1 55:1 56:-1 57:-0.155867 58:0.907514 59:-0.777776 
34.25752868577883 1:-0.714286 2:0.930636 3:-0.399998 4:0.809248 5:-1 6:-0.583461 7:0.867052 8:-0.718865 9:-1 10:0.809248 11:0.0506563 12:0.751446 13:-0.81818 14:-0.626057 15:0.751446 16:-1 17:0.67052 18:0.17126 19:-0.636364 20:0.757226 21:-0.5 22:0.809248 23:-1 24:0.687862 25:-1 26:0.751446 27:-0.599999 28:0.67052 29:-1 30:0.162162 31:0.751446 32:-1 33:1 34:0.702304 35:-0.749997 36:0.976878 37:0.486486 38:-0.200002 39:0.907514 40:1 41:-0.607254 42:0.976878 43:-1 44:0.687862 45:-0.474748 46:-1 47:0.867052 49:0.867052 50:-1 51:0.162162 52:-0.192855 53:0.751446 54:-0.714283 55:1 56:-1 57:1 58:0.809248 59:-0.555556 
12.41897182253965 1:-0.714286 2:0.687862 3:-0.6 4:0.890174 5:-0.666663 6:-0.521483 7:0.890174 8:-0.269645 9:-0.6 10:0.907514 11:-0.292668 12:0.751446 13:-0.81818 14:-0.531641 15:-1 16:-1 17:0.687862 18:-0.438543 19:-0.81818 20:0.907514 21:-0.5 22:1 23:-1 24:0.687862 25:-0.249268 26:0.867052 27:-0.866665 28:1 29:-1 30:0.162162 31:1 32:-1 33:0.081082 34:-0.251943 35:-0.249997 36:0.930636 37:1 38:-1 39:0.751446 40:1 41:-0.607254 42:0.907514 43:-0.777776 44:0.809248 45:-0.155005 46:-0.41303 47:0.867052 48:-0.749997 49:0.976878 50:-1 51:0.513514 52:0.435565 53:0.757226 54:-0.714283 55:0.976878 56:-1 57:-0.155867 58:0.976878 59:-0.333332 
23.78039578730009 1:-0.428572 2:0.861272 3:-0.2 4:0.867052 5:-1 6:-0.942721 7:0.867052 8:1 9:-0.799998 10:0.942196 11:0.0506563 12:0.687862 13:-1 14:-0.551483 15:0.751446 16:-1 17:0.751446 18:-0.438543 19:-1 20:0.907514 21:-0.749997 22:0.907514 23:-0.599996 24:0.867052 25:-0.249268 26:0.890174 27:-0.466667 28:0.976878 29:-1 30:0.486486 31:0.930636 32:-1 33:0.081082 34:1 36:0.930636 37:-0.135136 38:-1 39:0.751446 40:-0.95093 41:-0.763625 42:0.976878 43:-1 44:0.867052 45:-0.539631 46:-0.41303 47:0.930636 48:-1 49:0.907514 50:-1 51:0.486486 52:0.00329879 53:0.751446 54:-0.142855 55:0.907514 57:1 58:0.942196 59:-0.555556 
53.392592 1:-0.714286 2:0.751446 3:-0.6 4:0.976878 5:-1 6:-0.534936 7:0.861272 8:-0.269645 9:-0.6 10:0.907514 11:-0.436959 12:0.751446 13:-1 14:-1 15:0.751446 16:-1 17:0.751446 18:-0.469417 19:-0.636364 20:0.687862 21:-0.749997 22:0.890174 23:-0.599996 24:0.867052 25:-0.522613 26:0.751446 27:-0.599999 28:0.976878 29:-0.499994 30:0.486486 31:1 32:-1 33:0.81081 34:-1 35:-0.249997 36:1 37:-0.135136 38:-0.599996 39:0.867052 40:-0.0508066 41:-0.550557 42:0.67052 43:-1 44:0.809248 45:-0.155005 46:0.0725148 47:0.774566 48:-0.749997 49:0.907514 50:-1 51:0.513514 52:0.00329879 53:0.890174 54:-1 55:1 56:-1 57:-0.278879 58:0.907514 59:-0.555556 
37.23774831956182 1:-0.428572 2:0.867052 3:-0.399998 4:0.757226 5:-1 6:-0.864267 7:0.867052 8:-0.763893 9:-1 10:0.687862 11:-0.826403 12:0.780346 13:-0.454544 14:1 15:0.786128 16:-0.333328 17:0.867052 18:0.17126 19:-0.454544 20:0.774566 21:-0.749997 22:0.445086 23:-1 24:0.751446 25:-0.50925 26:0.67052 27:-0.866665 28:0.751446 29:-0.499994 30:0.45946 31:0.907514 32:-0.777776 33:1 34:-0.383739 35:-0.749997 36:0.976878 37:0.108108 38:-0.599996 39:0.976878 40:-0.278134 41:-0.501329 42:0.751446 43:-1 44:0.757226 45:-0.7941 46:0.353122 47:0.751446 48:-0.749997 49:0.757226 50:-0.599996 51:0.108108 52:-0.754614 53:0.976878 54:-1 55:0.976878 56:-1 57:1 58:0.809248 59:-0.111112 
17.871449417695 1:-1 2:0.751446 3:-0.399998 4:0.809248 5:-0.666663 6:-0.72703 7:0.890174 8:-0.286328 9:-0.399998 10:0.861272 11:-0.586508 12:0.867052 13:-1 14:-0.195568 15:0.751446 16:-1 17:0.930636 18:-0.438543 19:-0.454544 20:0.751446 21:-1 22:0.907514 23:-0.599996 24:0.867052 25:-0.803393 26:0.930636 27:-1 28:0.67052 29:-1 30:0.486486 31:0.687862 32:-0.777776 33:0.081082 34:-0.297863 35:-0.749997 36:0.930636 37:1 38:-0.200002 39:0.67052 40:1 41:1 42:0.809248 43:-1 44:0.445086 45:-0.459985 46:-0.620079 47:0.867052 48:-0.5 49:0.976878 50:-0.599996 51:0.594594 52:-0.192855 53:0.786128 54:-0.142855 55:0.890174 56:-1 57:-0.155867 58:0.890174 59:-0.777776 
5.796189496330573 1:-0.142858 2:0.751446 3:0.2 4:0.867052 5:-1 6:-0.583461 7:0.67052 8:0.0308549 9:-0.6 10:0.751446 11:-0.292668 12:0.976878 13:-1 14:1 15:0.861272 16:-1 17:0.867052 18:-0.329146 19:-0.636364 20:0.867052 21:-1 22:0.867052 23:-0.599996 24:0.751446 25:1 26:0.890174 27:-0.733334 28:0.942196 29:-1 30:0.594594 31:0.867052 32:-0.777776 33:0.513514 34:1 35:-0.749997 36:0.809248 37:1 38:-0.599996 39:0.976878 40:-0.476324 41:-0.600526 42:0.907514 43:-1 44:0.890174 45:1 46:0.353122 47:0.445086 48:-0.5 49:0.976878 50:-1 52:0.405315 53:0.751446 54:-1 55:0.867052 56:-0.499994 57:-1 58:0.809248 59:-0.333332 
10.22099973861333 1:0.428569 2:0.751446 3:0.400002 4:0.751446 5:-1 6:-0.521483 7:0.861272 8:-0.718865 9:-1 10:0.867052 11:1 12:0.687862 13:-0.454544 14:1 15:0.867052 16:-1 17:0.867052 18:1 19:-0.454544 20:0.757226 21:-0.5 22:0.751446 23:-0.200002 24:0.751446 25:-1 26:0.757226 27:-0.733334 28:0.867052 29:-1 30:0.594594 31:0.867052 32:-1 33:0.486486 34:-0.41138 35:-1 36:0.867052 37:-0.243244 38:-0.599996 39:0.861272 40:-0.878087 41:-0.763625 42:0.867052 43:-1 44:0.687862 45:1 46:-0.190245 47:0.751446 48:-1 49:0.67052 50:-1 51:0.162162 52:0.385927 53:0.757226 54:-1 55:1 56:-1 57:-0.278879 58:1 59:-1 
15.73917877843797 1:-0.714286 2:0.786128 3:-0.799998 4:0.976878 5:-0.666663 6:-0.92136 7:0.687862 8:-0.523177 9:-0.799998 10:0.751446 11:-0.553281 12:0.786128 13:-1 14:-0.360161 15:0.67052 16:-1 17:0.976878 18:1 19:-0.81818 20:0.67052 21:-0.749997 22:0.907514 23:-1 24:0.930636 25:-0.224577 26:0.809248 27:-0.866665 28:0.976878 29:-1 30:0.081082 31:0.687862 32:-1 33:0.486486 34:0.347627 35:-0.749997 36:0.867052 37:-0.243244 38:0.200002 39:0.751446 40:0.506985 41:-0.255577 42:1 43:-1 44:0.976878 45:-0.498836 46:-0.695235 47:0.890174 48:-0.749997 49:0.67052 50:-0.200002 51:1 52:0.00329879 53:1 54:-0.428572 55:0.976878 56:-1 57:-0.448881 58:0.930636 59:0.111112 
27.66617103249809 1:-0.714286 2:0.867052 3:-0.2 4:0.867052 5:-1 6:-0.92136 7:0.751446 8:-0.396869 9:-0.799998 10:0.976878 11:0.0506563 12:0.687862 13:-1 14:-0.551483 15:0.907514 16:-1 17:0.751446 18:-0.682109 19:-0.636364 20:0.445086 21:-0.749997 22:0.751446 23:-0.599996 24:-1 25:-0.419487 26:0.890174 27:-0.599999 28:0.867052 29:-1 30:0.108108 31:0.867052 32:-0.777776 33:-0.486486 34:1 35:-0.749997 36:0.861272 37:0.081082 38:-1 39:1 40:-0.95093 41:-0.763625 42:0.976878 43:-0.777776 44:0.751446 45:1 46:-0.163433 47:0.930636 48:-1 49:0.930636 50:-0.599996 51:0.594594 52:0.385927 53:1 54:-0.428572 55:0.751446 56:-1 57:-0.371771 58:0.786128 59:-0.555556 
15.99684147347981 1:-0.714286 2:0.751446 3:-0.799998 4:0.67052 5:-1 6:-0.942721 7:-1 8:-0.269645 9:-0.799998 10:1 11:-1 12:0.930636 13:-1 14:-0.43535 15:0.890174 16:-1 17:0.907514 18:1 19:-0.454544 20:0.930636 21:-1 22:0.67052 23:-1 24:1 25:-0.255693 26:1 27:-0.733334 28:1 29:-1 30:0.81081 31:-1 32:-1 33:0.486486 34:0.0373931 35:-0.249997 36:0.867052 37:0.108108 38:-0.200002 39:0.751446 40:-0.769991 41:-0.24094 42:0.751446 43:-0.333332 44:0.809248 45:-0.498836 46:-0.695235 47:0.907514 48:-0.749997 49:-1 50:-1 51:0.513514 52:0.435565 53:0.751446 54:-0.428572 55:0.751446 56:-1 57:-0.622175 58:0.907514 59:-1 
2.55419894886204 1:-0.714286 2:0.867052 3:-0.399998 4:0.976878 5:-1 6:-0.691758 7:0.751446 8:0.0308549 9:0.2 10:0.907514 11:0.0506563 12:0.890174 13:-0.81818 14:-0.551483 15:0.907514 16:-1 17:0.751446 18:-0.856129 19:-0.81818 20:-1 21:-1 22:0.890174 23:-1 24:0.890174 25:-0.5167 26:0.751446 27:-0.599999 28:0.751446 29:-1 31:0.867052 32:-0.777776 33:0.108108 34:0.702304 35:-0.5 36:0.757226 37:0.594594 38:-1 39:0.890174 40:0.506985 41:0.231793 42:0.976878 43:-0.555556 44:0.890174 45:1 46:1 47:0.890174 48:-1 49:0.445086 50:-1 52:-0.754614 53:-1 54:-0.714283 55:0.867052 56:-1 57:-0.578124 58:0.930636 59:-0.555556 
6.631437012386769 1:-0.428572 2:0.687862 3:2.2e-006 4:0.867052 5:-1 6:1 7:0.751446 8:1 9:-1 10:0.687862 11:-0.292668 12:0.867052 13:-1 14:-0.769122 15:1 16:-1 17:-1 18:-0.469417 19:-0.454544 20:-1 21:-0.5 22:0.976878 23:-1 24:0.867052 25:-0.5167 26:0.751446 27:-0.599999 28:0.751446 29:-1 30:0.486486 31:0.751446 32:-1 33:0.81081 34:0.702304 35:-0.749997 36:1 37:1 38:-1 39:1 40:-0.591348 41:1 42:0.907514 43:-0.555556 44:0.867052 45:-0.539239 46:-0.163433 47:0.809248 48:-0.749997 49:0.976878 50:-1 51:0.486486 52:-0.754614 53:0.867052 54:-1 55:0.751446 56:-1 57:-0.578124 58:0.751446 59:-0.555556 
0.9729756182553833 1:-0.714286 2:0.786128 3:-0.399998 4:0.751446 5:-0.666663 6:-0.583461 7:0.687862 8:-0.645839 9:-0.799998 10:0.907514 11:-0.0737158 12:0.757226 13:-0.636364 14:-0.0771352 15:0.751446 16:-1 17:0.890174 18:0.17126 19:-0.81818 20:0.867052 21:-0.749997 22:0.867052 23:-0.599996 24:0.687862 25:1 26:0.976878 27:-0.599999 28:0.751446 29:-1 30:-0.81081 31:1 32:-1 33:1 34:-0.361392 35:-0.749997 36:0.976878 37:0.486486 38:-1 39:0.809248 40:-0.378956 41:-1 42:0.757226 43:-1 44:0.930636 45:-0.155005 46:-0.326851 47:0.861272 48:-0.749997 49:0.867052 50:-0.599996 51:0.081082 52:-1 53:0.751446 54:-0.714283 55:0.976878 56:-1 57:-0.52893 58:0.976878 59:-0.111112 
4.036541009701456 1:-1 2:0.809248 3:-1 4:0.809248 5:-0.333333 6:-0.251279 7:0.976878 8:-0.42392 9:-0.799998 10:0.890174 11:-0.553281 12:0.445086 13:-1 14:-0.195568 15:0.67052 16:-1 17:0.930636 18:-0.438543 19:-1 20:0.907514 21:-0.5 22:0.687862 23:-1 24:0.687862 25:-0.249268 26:0.751446 27:-0.866665 28:0.930636 29:-0.499994 30:-0.81081 31:0.687862 32:-0.333332 33:0.081082 34:0.702304 35:-0.5 36:0.930636 37:-0.756756 38:-0.599996 39:0.786128 40:-0.769991 41:-0.390831 42:1 43:-0.777776 44:-1 45:-0.498836 46:-0.499749 47:0.907514 48:-0.5 49:0.774566 50:-0.599996 51:0.108108 52:1 53:0.445086 54:-0.142855 55:0.687862 56:-1 57:-0.280702 58:0.445086 59:-0.777776 
7.730342172923622 1:-0.714286 2:0.907514 3:-0.399998 4:0.942196 5:-1 6:-0.534936 7:0.890174 8:-0.396869 9:-0.2 10:0.930636 11:-0.550747 12:0.867052 13:-1 14:-0.532666 15:0.867052 16:-1 17:0.809248 18:0.17126 19:-1 20:0.867052 21:-0.749997 22:0.687862 23:-1 24:0.976878 25:1 26:0.751446 27:-0.733334 28:0.907514 29:-1 30:1 31:-1 32:-1 33:1 34:0.702304 36:0.976878 37:-0.135136 38:-1 39:0.890174 40:-0.985817 41:1 42:0.890174 43:-0.777776 44:0.751446 45:-0.498836 46:1 47:0.976878 48:-0.5 49:0.907514 50:-1 51:0.594594 52:-0.479351 53:0.890174 54:-0.714283 55:0.907514 56:-0.499994 57:-0.155867 58:0.809248 59:-0.333332 
45.37207035309464 1:-0.714286 2:0.867052 3:-0.399998 4:0.867052 5:-0.666663 6:-0.864267 7:0.930636 8:-0.718865 9:-0.799998 10:0.976878 11:-1 12:0.861272 13:-0.81818 14:1 15:0.976878 16:-1 17:0.867052 18:-1 19:-1 20:0.751446 21:-0.249997 22:0.890174 23:-0.599996 24:0.976878 25:-0.6068 26:0.687862 27:-0.599999 28:0.809248 29:-1 30:1 31:0.687862 32:-1 33:0.594594 34:-0.00693806 35:-1 36:0.751446 37:1 38:-1 39:0.757226 40:-0.95093 41:-0.485225 42:0.751446 43:-1 44:0.687862 45:-0.459985 46:-0.514456 47:0.930636 48:-0.749997 49:0.976878 50:-1 51:0.162162 52:-0.701117 53:0.976878 54:-0.428572 55:0.942196 56:-0.499994 57:-0.0567444 58:0.687862 59:0.111112 
6.067873512683617 1:-1 2:0.786128 3:-0.799998 4:0.687862 5:-0.666663 6:-0.691758 7:0.445086 8:-0.286328 9:-0.799998 10:0.861272 11:-0.464339 12:0.809248 13:-1 14:-0.12019 15:0.67052 16:-1 17:1 18:-0.520324 19:-1 20:0.976878 21:-0.5 22:0.942196 23:-0.200002 24:0.861272 25:-0.227124 26:0.445086 27:-1 28:1 29:-1 30:-0.486486 31:0.930636 32:-0.333332 33:-0.27027 34:0.332386 35:-1 36:0.786128 37:0.513514 38:-0.599996 39:0.890174 40:1 41:-0.582745 42:0.687862 43:-0.777776 44:0.445086 45:-0.539631 46:1 47:0.867052 48:-0.5 49:0.809248 50:-0.200002 51:0.594594 52:0.435565 53:-1 54:-0.428572 55:0.687862 56:-0.499994 57:0.2348 58:0.930636 59:-0.777776 
2.392176875836797 1:-1 2:0.751446 3:-1 4:0.445086 5:-1 6:-0.534936 7:0.942196 8:0.0308549 9:0.2 10:0.809248 11:-0.211743 12:0.774566 13:-0.81818 14:-0.360161 15:0.930636 16:-1 17:0.976878 18:-0.804837 19:-0.81818 20:1 21:-0.749997 22:0.890174 23:-1 24:0.751446 25:-0.423219 26:0.757226 27:-0.733334 28:0.930636 29:-0.499994 30:0.594594 31:0.890174 32:-0.777776 33:0.45946 34:-0.41138 35:-1 36:0.751446 38:-1 39:0.809248 40:0.506985 41:-0.312274 42:-1 43:-0.777776 44:0.890174 45:-0.186475 46:-0.326851 47:0.890174 48:-0.5 49:0.890174 50:-1 52:1 53:0.890174 54:-0.142855 55:0.687862 56:-0.499994 57:0.0126658 58:0.930636 59:-0.777776 
4.669633154053438 1:-0.428572 2:0.751446 3:-0.6 4:0.942196 5:-1 6:-0.864267 7:0.867052 8:-0.718865 9:-0.399998 10:0.751446 11:0.0506563 12:0.751446 13:-0.81818 14:-0.12019 15:0.786128 16:-1 17:1 18:-0.375414 19:-0.454544 20:0.809248 21:-0.749997 22:-1 23:-1 24:0.751446 25:-0.832987 26:0.751446 27:-0.733334 28:0.809248 29:-1 30:0.594594 31:0.867052 32:-1 33:0.108108 34:0.702304 35:-1 36:-1 38:-1 39:0.890174 40:0.506985 41:-0.607254 42:0.976878 43:-0.555556 44:0.687862 45:1 46:1 47:0.890174 48:-0.5 49:0.890174 50:-0.599996 51:0.162162 52:-0.701117 53:0.976878 54:-1 55:0.757226 56:-0.499994 57:1 58:1 59:-0.555556 
9.940115027210297 1:-1 2:0.809248 3:-0.799998 4:0.751446 5:-1 6:-0.529492 7:0.445086 8:-0.269645 9:-1 10:1 11:-0.467081 12:0.445086 13:-1 14:-0.162032 15:0.774566 16:-1 17:0.445086 18:-0.257011 19:-0.636364 20:0.67052 21:-1 22:0.942196 23:-1 24:1 25:-0.224577 26:0.445086 27:-0.866665 28:0.867052 29:-0.499994 30:0.81081 31:0.751446 32:0.111112 33:0.594594 34:0.332386 35:-1 36:0.445086 37:0.513514 38:-0.599996 39:0.976878 40:-0.362477 41:-0.390831 42:0.786128 43:-0.777776 44:0.809248 45:-0.474748 46:0.353122 47:-1 49:0.809248 50:-0.599996 51:0.513514 52:0.385927 53:0.809248 54:-1 55:0.976878 56:-0.499994 57:0.2348 58:0.751446 59:-0.555556 
16.12254686454583 1:-0.714286 2:0.976878 3:-0.6 4:0.930636 5:-1 6:-0.864267 7:0.930636 8:-0.645839 9:-0.799998 10:0.890174 11:-0.430696 12:0.867052 13:-0.81818 14:-0.43535 15:0.930636 16:-1 17:0.907514 18:-1 19:-0.81818 20:-1 21:-1 22:0.757226 23:-0.599996 24:0.861272 25:-0.5167 26:0.445086 27:-0.866665 28:1 29:-1 30:-0.486486 31:0.867052 32:-0.333332 33:0.594594 34:0.332386 35:-0.749997 36:0.751446 37:0.513514 38:-1 39:1 40:-0.591348 41:1 42:0.445086 43:-0.777776 44:0.930636 45:1 46:-0.163433 47:0.809248 48:-0.5 49:0.809248 50:-1 51:0.081082 52:0.435565 53:0.976878 54:0.142855 55:0.445086 56:-1 57:-0.0567444 58:0.751446 59:-0.555556 
53.392592 1:-1 2:0.751446 3:-1 4:0.890174 5:-0.666663 6:-0.92136 7:0.687862 8:-0.523177 9:-0.6 10:0.976878 11:-0.292668 12:0.976878 13:-0.81818 14:-1 15:1 16:-1 17:0.751446 18:-0.268137 19:-0.454544 20:0.751446 21:-0.749997 22:0.751446 23:-0.599996 24:0.907514 25:-0.803393 26:0.786128 27:-0.866665 28:0.757226 29:-1 30:-0.135136 31:0.942196 32:-0.777776 34:0.289392 35:-0.5 36:0.890174 37:0.081082 38:-1 39:0.445086 40:-0.378956 41:-0.600526 42:0.907514 43:-1 44:0.976878 45:-0.613447 46:-0.753572 47:0.861272 48:-0.749997 49:0.930636 50:-0.599996 51:1 52:-0.0916814 53:1 54:-0.714283 55:0.687862 56:-0.499994 57:-0.52893 58:0.809248 59:-0.333332 
17.09591249756413 1:-0.714286 2:0.774566 3:-0.799998 4:0.786128 5:-1 6:-0.521483 7:0.67052 8:-0.523177 9:-0.399998 10:0.687862 11:-0.290135 12:0.930636 13:-0.81818 14:-0.769122 15:0.890174 16:-1 17:-1 18:-0.375414 19:-1 20:0.930636 21:-0.5 22:-1 23:-0.599996 24:0.751446 25:-0.255693 26:0.867052 27:-0.733334 28:0.751446 29:-0.499994 30:0.594594 31:0.861272 32:-1 33:0.108108 34:-0.251943 35:-1 36:-1 38:-0.200002 39:0.687862 40:0.506985 41:-0.24094 42:0.942196 43:-0.333332 44:0.976878 45:-0.551667 46:-0.438271 47:0.890174 48:-1 49:0.890174 50:-0.599996 51:1 52:-1 53:0.757226 54:-0.142855 55:0.67052 56:-0.499994 57:-1 58:0.930636 59:-0.777776 
53.392592 1:-0.714286 2:0.907514 3:-0.799998 4:1 5:-1 6:-0.251279 7:0.930636 8:-0.286328 9:-0.6 10:0.976878 11:-1 12:1 13:-0.81818 14:-0.360161 15:0.780346 16:-0.333328 17:0.976878 18:-0.257011 19:-0.81818 20:0.751446 21:-0.749997 22:0.976878 23:-1 24:0.445086 25:-0.803393 26:0.867052 27:-0.599999 28:0.757226 29:-1 30:0.594594 31:1 32:-0.111112 33:0.594594 34:-0.251943 35:-0.749997 36:0.445086 37:0.162162 38:-1 39:0.751446 40:-0.278134 41:-0.974538 42:0.751446 43:-1 44:0.445086 45:-0.155005 46:-0.41303 47:0.751446 48:-1 49:0.687862 50:-1 51:0.594594 52:-0.0916814 53:0.445086 54:-0.714283 55:0.890174 56:-1 57:-0.0567444 58:0.890174 59:-0.333332 
35.53486754839994 1:-0.714286 2:-1 3:-0.399998 4:0.930636 5:-1 6:-0.251279 7:0.890174 8:-0.915484 9:-0.399998 10:0.786128 11:-0.586508 12:0.976878 13:-1 14:-0.380081 15:0.907514 16:-1 17:0.861272 18:-0.438543 19:-1 20:0.67052 21:-0.5 22:0.890174 23:-0.200002 24:0.890174 25:-0.224577 26:0.867052 27:-1 28:0.861272 29:-1 31:1 32:-0.777776 33:0.081082 34:-0.251943 35:-0.5 36:0.930636 37:0.486486 38:-0.599996 39:0.930636 40:-0.912222 41:-0.600526 42:0.809248 43:-0.777776 44:0.907514 45:-0.155005 46:-0.0930166 47:0.687862 48:-0.749997 49:0.867052 50:-0.599996 51:-0.135136 52:-0.331279 53:0.445086 54:-0.142855 55:0.687862 56:-1 57:-0.155867 58:0.867052 59:-0.777776 
3.061038942380724 1:-0.428572 2:0.445086 3:-0.399998 4:0.757226 5:-1 6:1 7:0.867052 8:-0.42392 9:-0.6 10:0.890174 11:0.0506563 12:1 13:-0.81818 14:-0.34073 15:-1 16:-1 17:0.942196 18:0.17126 19:-0.81818 20:0.809248 21:-1 22:0.930636 23:-0.599996 24:1 25:-0.832987 26:0.861272 27:-1 28:0.930636 29:-1 30:0.81081 31:-1 32:-0.777776 33:1 34:-0.123408 35:-0.749997 36:0.976878 37:0.81081 38:-1 39:0.907514 40:0.506985 41:-0.974538 42:0.976878 43:-0.333332 44:-1 45:-0.498836 46:-1 47:0.890174 48:-0.749997 49:1 50:-1 51:0.108108 52:1 53:0.867052 54:-0.428572 55:0.751446 56:-0.499994 57:1 58:0.867052 59:-0.555556 
27.87014487356674 1:-1 2:0.751446 3:-0.799998 4:0.976878 5:-1 6:-1 7:0.976878 8:-0.523177 9:-0.6 10:0.757226 11:-0.550747 12:0.907514 13:-0.81818 14:-0.0771352 15:0.930636 16:-1 17:0.890174 18:-0.707235 19:-1 20:0.976878 21:-0.749997 22:0.930636 23:-1 24:0.942196 25:-0.227124 26:0.751446 27:-0.466667 28:0.867052 29:-1 30:-0.675676 31:0.751446 32:-1 33:-0.243244 34:0.702304 35:-0.749997 36:0.67052 37:-0.675676 38:-0.200002 39:0.687862 40:-0.362477 41:-0.507085 42:0.890174 43:-0.777776 44:0.976878 45:-0.474748 46:-0.438271 47:-1 48:-1 49:0.942196 50:-0.599996 51:1 52:0.385927 53:0.67052 54:-0.428572 55:0.786128 57:-0.280702 58:0.751446 59:-0.111112 
28.95080130245119 1:-1 2:0.751446 3:-1 4:0.890174 5:-1 6:-0.534936 7:0.774566 8:-0.523177 9:-0.399998 10:0.942196 11:-0.0737158 12:0.67052 13:-0.636364 14:-1 15:0.976878 16:-1 17:0.751446 18:-0.268137 19:-0.636364 20:0.786128 21:-0.749997 22:1 23:-1 24:0.757226 25:-0.48289 26:0.687862 27:-0.733334 28:0.942196 29:-0.499994 30:0.108108 31:0.976878 32:-0.777776 34:-0.00693806 35:-1 36:0.890174 37:1 38:-0.599996 39:0.445086 40:-0.878087 41:-0.332686 42:0.757226 43:-1 44:0.976878 45:-0.0955768 46:-0.753572 47:0.751446 48:-1 49:0.976878 50:-0.599996 51:1 52:0.405315 53:0.890174 54:-1 55:0.751446 57:-0.311911 58:0.976878 59:0.111112 
6.846331495867361 1:-0.428572 2:0.751446 3:-0.6 4:0.809248 5:-1 6:-0.529492 7:0.809248 8:-0.645839 9:-0.6 10:0.867052 11:-0.365022 12:0.890174 13:-1 14:-0.551483 15:0.809248 16:-1 17:0.751446 18:-0.488056 19:-0.81818 20:0.930636 21:-0.5 22:0.445086 23:-1 24:0.687862 25:-0.255693 26:0.445086 27:-0.733334 28:0.809248 29:-1 30:0.162162 31:0.867052 32:-0.333332 33:-0.135136 34:0.332386 35:-0.749997 36:0.907514 37:0.45946 38:-0.599996 39:0.67052 40:0.506985 41:0.231793 42:0.687862 43:-1 44:0.930636 45:1 46:-0.620079 47:0.890174 48:0.5 49:0.751446 50:-1 51:0.081082 52:-0.701117 53:0.809248 54:-0.428572 55:0.809248 56:-1 57:-0.134589 58:0.445086 59:-1 
20.98772760531195 1:0.714286 2:0.867052 3:0.400002 4:0.976878 5:-1 6:1 7:0.867052 8:1 9:-0.6 10:0.751446 11:-0.550747 12:0.67052 13:-1 14:-0.195568 15:1 16:-1 17:0.930636 18:-0.268137 19:-1 20:0.867052 21:-1 22:0.907514 23:-1 24:0.930636 25:1 26:0.976878 27:-0.599999 28:0.942196 29:-1 30:0.081082 31:0.867052 32:-0.777776 34:-0.361392 35:-0.749997 36:0.890174 37:0.594594 38:-0.599996 39:0.867052 40:-0.79222 41:-0.332686 42:0.890174 43:-1 44:0.867052 45:1 46:0.0725148 47:1 48:-1 49:0.445086 50:-1 51:0.486486 52:0.405315 53:0.867052 54:-0.428572 55:0.751446 56:-0.499994 57:1 58:0.751446 59:-0.555556 
6.163556035651164 1:0.142855 2:0.757226 3:2.2e-006 4:0.751446 5:-1 6:-0.251279 7:0.757226 8:-0.750099 9:-0.799998 10:0.751446 11:-0.211743 12:0.751446 13:-0.636364 14:1 15:0.867052 16:-1 17:0.867052 18:-1 19:-0.454544 20:0.867052 21:-1 22:0.907514 23:-1 24:-1 25:1 26:0.867052 27:-0.599999 28:0.809248 29:-1 30:0.108108 31:0.890174 32:-0.555556 33:0.594594 34:-0.251943 35:-0.5 36:0.751446 37:0.594594 38:-1 39:0.867052 40:-0.878087 41:-0.550557 42:-1 43:-0.555556 44:1 45:-0.186475 46:0.0725148 47:0.751446 48:-0.749997 49:0.445086 50:-1 51:0.81081 52:-0.701117 53:0.445086 54:-1 55:0.907514 56:-1 57:-0.0780219 58:0.751446 59:-1 
1.197629675158438 1:-1 2:0.751446 3:-0.6 4:0.757226 5:-1 6:-0.251279 7:0.751446 8:-0.763893 9:-0.6 10:0.687862 11:-0.436959 12:0.867052 13:-0.272728 14:-0.489406 15:0.867052 16:-1 17:0.786128 18:-0.438543 19:-1 20:0.890174 21:-0.5 22:-1 23:-1 24:1 25:-0.101004 26:0.786128 27:-0.733334 28:0.687862 29:-1 30:0.81081 31:0.890174 32:-0.777776 33:0.081082 34:0.289392 35:-1 36:0.930636 37:-0.27027 38:-0.599996 39:0.942196 40:-1 41:1 42:0.67052 43:-0.777776 44:0.757226 45:-0.186475 46:-0.508145 47:0.757226 48:-1 49:0.786128 50:0.200002 51:0.108108 52:-0.612703 53:0.445086 54:-0.714283 55:0.976878 56:-0.499994 57:-0.578124 58:0.757226 59:-0.777776 
50.94891341043314 1:-1 2:0.786128 3:-1 4:0.751446 5:-1 6:-0.72703 7:0.809248 8:-0.269645 9:-1 10:0.757226 11:-0.586508 12:0.809248 13:-0.636364 14:-0.12019 15:0.751446 16:-1 17:1 18:-0.707235 19:-0.81818 20:1 21:-0.749997 22:0.809248 23:-1 24:0.757226 25:-0.423219 26:0.809248 27:-0.733334 28:0.751446 29:-1 30:0.108108 31:0.687862 32:-1 33:-0.243244 34:0.347627 35:-1 36:0.67052 37:-0.243244 38:-0.200002 39:0.930636 40:-0.95093 41:-0.582745 42:0.809248 43:-0.777776 44:0.809248 45:-0.498836 46:-0.0930166 47:0.930636 48:0.5 49:0.67052 50:-0.200002 51:0.513514 52:-1 53:0.786128 54:-0.428572 55:-1 56:-1 57:-0.134589 58:1 59:-1 
16.73328419198935 1:-1 2:0.890174 3:-1 4:0.757226 5:-0.666663 6:-0.521483 7:0.687862 8:-0.523177 9:-0.799998 10:-1 11:-0.430696 12:0.786128 13:-0.636364 14:-0.195568 15:0.976878 16:-1 17:0.930636 18:-0.329146 19:-0.81818 20:0.930636 21:-0.5 22:0.751446 23:-1 24:0.976878 25:-0.255693 26:0.976878 27:-0.866665 28:0.445086 29:-1 30:1 31:0.687862 32:-0.333332 33:0.513514 34:-0.361392 35:-1 36:0.809248 37:0.162162 38:-1 39:0.445086 40:-0.278134 41:-0.255577 42:0.445086 43:-0.333332 44:0.976878 45:-0.498836 46:-0.753572 47:0.751446 48:-0.749997 49:0.687862 50:-0.599996 51:1 52:-0.600317 53:0.757226 54:-0.428572 55:-1 56:-1 57:-0.448881 58:-1 59:-0.111112 
9.043555157739363 1:-0.428572 2:1 3:-0.6 4:0.907514 5:-1 6:-0.732288 7:0.867052 8:-0.396869 9:-0.799998 10:0.907514 11:-0.586508 12:0.976878 13:-1 14:-0.360161 15:1 16:-1 17:0.976878 18:-0.682109 19:-1 20:0.867052 21:-0.749997 22:1 23:-0.599996 24:0.751446 25:1 26:0.751446 27:-0.599999 28:0.890174 29:-1 30:0.594594 31:0.976878 32:-0.777776 33:-0.486486 34:0.702304 36:0.861272 37:1 38:-1 39:0.976878 40:-0.476324 41:-0.600526 42:0.809248 43:-1 44:0.751446 45:-0.0955768 46:0.353122 47:0.445086 48:-0.749997 49:0.976878 50:-1 51:0.594594 52:0.0839324 53:0.687862 54:-1 55:0.907514 56:-1 57:1 58:0.907514 59:0.111112 
31.20455445124226 1:-0.714286 2:0.976878 3:-0.799998 4:1 5:-0.666663 6:-0.605281 7:1 8:1 9:-0.799998 10:0.786128 11:-0.553281 12:0.809248 13:-1 14:-0.532666 15:0.890174 16:-1 17:0.809248 18:-0.684613 19:-1 20:0.751446 21:-0.749997 22:0.67052 23:-1 24:0.930636 25:-0.6068 26:0.774566 27:-0.866665 28:0.907514 29:-0.499994 30:0.081082 31:0.976878 32:-0.777776 33:-0.81081 34:-0.321463 36:0.687862 37:0.594594 38:-0.599996 39:0.687862 40:-0.769991 41:-0.582745 42:1 43:-1 44:0.867052 45:-0.0955768 46:-0.438271 47:0.907514 48:-0.249997 49:0.445086 50:-0.599996 51:0.486486 52:-0.479351 53:0.907514 54:-0.714283 55:0.907514 56:-1 57:0.0471669 58:0.809248 59:-0.555556 
0.6120123717163708 1:-0.142858 2:0.774566 3:-0.2 4:0.751446 5:-1 6:1 7:0.751446 8:1 9:-0.6 10:0.867052 11:-0.586508 12:1 13:-1 14:-0.43535 15:0.976878 16:-1 17:0.907514 18:-0.804837 19:-0.454544 20:0.930636 21:-0.749997 22:0.976878 23:-0.599996 24:0.861272 25:-0.255693 26:0.907514 27:-0.866665 28:0.687862 29:-0.499994 30:-0.486486 31:0.890174 32:-1 33:0.45946 34:-0.304745 35:-0.5 36:0.751446 37:0.081082 38:-1 39:0.930636 40:1 41:-0.974538 42:0.809248 43:-1 44:0.867052 45:-0.186475 46:-0.0930166 47:0.867052 48:-0.749997 49:0.930636 50:-1 51:0.486486 52:-0.612703 53:0.867052 54:-0.142855 55:0.890174 56:-1 57:-0.371771 58:0.751446 59:-0.555556 
4.149011564835408 1:-0.142858 2:0.751446 3:0.400002 4:1 5:-1 6:1 7:-1 8:1 9:-1 10:0.867052 11:-0.553281 12:1 13:-1 14:-0.162032 15:1 16:-1 17:0.445086 18:-0.469417 19:-0.81818 20:0.976878 21:-1 22:0.867052 23:-1 24:0.867052 25:-0.227124 26:0.751446 27:-0.866665 28:0.867052 29:-1 30:0.486486 31:1 32:-0.777776 33:0.81081 34:0.702304 35:-1 36:1 37:0.486486 38:-1 39:-1 40:-0.79222 41:-0.974538 42:1 43:-0.333332 44:0.867052 45:-0.155005 46:0.136079 47:1 48:-1 49:0.867052 50:-1 51:0.486486 52:0.385927 53:0.867052 54:-1 55:1 56:-1 57:-0.622175 58:-1 59:-0.777776 
4.302209973251963 1:-0.142858 2:1 3:0.400002 4:-1 5:-1 6:-0.529492 7:1 8:0.0308549 9:-0.799998 10:0.867052 11:-0.0737158 12:0.867052 13:-0.636364 14:-0.12019 15:0.757226 16:-1 17:1 18:1 19:-1 20:1 21:-1 22:1 23:-1 24:-1 25:-0.423219 26:-1 27:-1 28:1 29:-1 30:0.108108 31:0.809248 32:-1 33:0.486486 34:-0.436318 35:-1 36:0.867052 37:0.108108 38:-1 39:0.867052 40:1 41:1 42:0.757226 43:-0.111112 44:0.890174 45:-0.757192 46:0.0725148 47:0.867052 48:-0.5 49:-1 50:-1 52:0.435565 53:0.809248 54:-1 55:0.867052 56:-1 57:0.0471669 58:0.867052 59:-1 
11.79620914287297 1:-0.714286 2:-1 3:-0.2 4:0.867052 5:-1 6:1 7:0.786128 8:-0.763893 9:-0.799998 10:0.757226 11:-0.499718 12:0.976878 13:-0.636364 14:-0.12019 15:0.890174 16:-1 17:1 18:-0.488056 19:-0.636364 20:0.907514 21:-1 22:0.976878 23:-1 24:0.867052 25:-0.249268 26:1 27:-1 28:1 29:-1 30:0.486486 31:-1 32:-0.777776 33:-0.135136 34:0.0373931 35:-0.5 36:0.907514 37:0.486486 38:-1 39:0.751446 40:-0.476324 41:-0.600526 42:0.930636 43:-0.555556 44:0.757226 45:-0.498836 46:-0.695235 47:0.445086 48:-1 49:0.867052 50:-0.599996 51:0.108108 52:0.435565 53:0.867052 54:-0.714283 55:0.751446 56:-1 57:-0.686089 58:0.976878 59:-0.333332 
25.25984486291835 1:-1 2:1 3:-1 4:1 5:-0.666663 6:-0.534936 7:0.751446 8:-0.42392 9:-0.2 10:0.757226 11:-0.499718 12:1 13:-0.81818 14:-0.162032 15:0.687862 16:-1 17:0.445086 18:-0.268137 19:-0.454544 20:0.809248 21:-1 22:0.976878 23:-1 24:0.445086 25:-0.832987 26:0.751446 27:-0.866665 28:0.890174 29:-0.499994 30:0.594594 31:0.751446 32:-0.555556 34:0.702304 35:-1 36:0.890174 37:-0.756756 38:-1 39:0.751446 40:0.506985 41:-0.974538 42:0.930636 43:-0.777776 44:-1 45:-0.539239 46:-0.695235 47:0.890174 48:-0.249997 49:0.774566 50:-1 51:0.108108 52:0.0839324 53:0.890174 54:-0.714283 55:0.809248 56:-1 57:-0.371771 58:0.809248 59:-0.777776 
6.854162725887282 1:-0.428572 2:0.751446 3:2.2e-006 4:0.774566 5:-1 6:-0.864267 7:0.890174 8:-0.42392 9:-0.799998 10:0.867052 11:-0.365022 12:0.867052 13:-0.81818 14:-0.360161 15:0.445086 16:-1 17:0.976878 18:-0.488056 19:-0.81818 20:0.786128 21:-0.749997 22:0.774566 23:-1 24:0.976878 25:-0.48289 26:0.757226 27:-1 28:0.867052 30:1 31:-1 32:-0.555556 33:-0.135136 34:-0.41138 35:-0.749997 36:0.907514 37:0.594594 38:-0.599996 39:0.867052 40:1 41:1 42:0.687862 43:-0.555556 44:-1 45:-0.498836 46:0.0725148 47:0.867052 48:-0.749997 49:0.445086 50:-0.599996 51:0.108108 52:0.385927 53:0.976878 54:-1 55:0.809248 56:-1 57:-0.155867 58:0.67052 59:-0.333332 
5.933412389809776 1:-1 2:0.751446 3:-0.399998 4:0.907514 5:-1 6:-0.605281 7:0.942196 8:0.0308549 9:-0.6 10:1 11:-0.553281 12:0.867052 13:-1 14:-0.43535 15:0.890174 16:-1 17:0.907514 18:-0.804837 19:-0.636364 20:1 21:-1 22:0.976878 23:-0.599996 24:0.751446 25:-0.423219 26:0.809248 27:-0.733334 28:0.861272 29:-1 30:0.594594 31:0.751446 32:-1 33:0.45946 34:0.347627 36:0.751446 37:0.081082 38:-1 39:0.976878 40:1 41:1 42:1 43:-1 44:0.890174 45:-0.539239 46:0.353122 47:0.867052 48:-0.749997 49:0.930636 50:-1 52:-0.331279 53:0.907514 54:-0.714283 55:0.867052 56:-0.499994 57:0.0126658 58:0.907514 59:-0.555556 
7.33696285151776 1:-0.714286 2:0.976878 3:-0.6 4:0.976878 5:-1 6:-0.583461 7:0.809248 8:-0.269645 9:-0.799998 10:1 11:-1 12:0.786128 13:-1 14:1 15:0.687862 16:-0.333328 17:0.867052 18:-0.806246 19:-0.636364 20:0.786128 21:-0.5 22:0.751446 23:-1 24:0.930636 25:-0.48289 26:1 27:-0.866665 28:0.867052 29:-1 30:0.081082 31:0.780346 32:-0.777776 33:0.162162 34:0.0373931 35:-1 36:0.687862 37:1 38:-1 39:0.809248 40:0.506985 41:-0.255577 42:0.751446 43:-1 44:0.809248 45:-0.483681 46:-0.326851 47:0.890174 49:0.976878 50:-0.200002 51:0.513514 52:0.385927 53:0.751446 54:-0.714283 55:0.809248 56:-1 57:-0.134589 58:0.445086 59:-0.333332 
20.45959422026214 1:-0.142858 2:0.751446 3:2.2e-006 4:0.751446 5:-1 6:-0.864267 7:0.907514 8:-0.828112 9:-0.6 10:0.867052 11:-0.449487 12:0.751446 13:-1 14:-0.551483 15:0.976878 16:-0.333328 17:0.751446 18:1 19:-1 20:0.445086 21:-1 22:0.867052 23:-1 24:0.907514 25:-0.419487 26:1 27:-0.200001 28:0.890174 29:-1 30:-0.135136 31:0.890174 32:-0.777776 33:0.486486 34:0.0373931 35:-0.5 36:0.867052 37:0.594594 38:-0.200002 39:0.867052 40:1 41:-0.550557 42:0.780346 43:-1 44:0.67052 45:-0.186475 46:0.0725148 47:0.867052 48:-1 49:0.751446 50:-1 51:-0.243244 52:0.0839324 53:0.976878 54:-1 55:0.751446 56:-1 57:-0.814598 58:0.67052 59:-0.555556 
9.057129815699643 1:-0.714286 2:0.930636 3:-0.6 4:0.930636 5:-1 6:-0.691758 7:0.687862 8:-0.645839 9:-0.399998 10:0.890174 11:-0.499718 12:0.809248 13:-0.81818 14:-0.769122 15:0.976878 16:-1 17:0.757226 18:1 19:-1 20:0.890174 21:-0.749997 22:0.774566 23:-0.599996 24:0.907514 25:-0.101004 26:0.930636 27:-0.866665 28:0.867052 29:-0.499994 30:-0.135136 31:0.890174 32:-1 33:0.486486 34:-0.297863 35:-0.749997 36:0.867052 37:-0.486486 38:-1 39:0.809248 40:-0.278134 41:-0.582745 42:0.930636 43:-0.555556 44:0.930636 45:-0.186475 46:-0.326851 47:0.751446 48:-0.249997 49:0.861272 50:-1 51:0.081082 52:0.385927 53:-1 54:0.428572 55:0.809248 56:-1 57:-0.52893 58:-1 59:-0.777776 
9.29347793752229 1:-0.714286 2:0.751446 3:-0.799998 4:1 5:-1 6:-0.942721 7:1 8:-0.750099 9:-0.399998 10:1 11:-0.550747 12:0.890174 13:-0.81818 14:-0.43535 15:1 16:-1 17:0.907514 18:-0.520324 19:-0.81818 20:0.751446 21:-1 22:-1 23:-0.599996 24:0.861272 25:-0.803393 26:0.890174 27:-0.733334 28:1 29:-1 30:-0.486486 31:0.867052 32:-1 33:-0.27027 34:1 35:-0.749997 36:0.786128 37:-0.27027 38:-0.200002 39:0.67052 40:-0.79222 41:0.231793 42:0.890174 43:-0.777776 44:1 45:1 46:-0.620079 47:1 48:-1 49:0.786128 50:-0.200002 51:0.81081 52:0.435565 53:0.751446 54:-1 55:0.757226 56:-1 57:0.0471669 58:0.67052 59:-1 
9.524502048786129 1:-0.714286 2:0.751446 3:-0.799998 4:0.890174 5:-1 6:-0.794725 7:0.751446 8:-0.875633 9:-0.6 10:0.867052 11:-0.550747 12:0.751446 13:-0.454544 14:-0.537851 15:0.757226 16:-1 17:0.774566 18:-0.375414 19:-0.454544 20:0.751446 21:-1 22:1 23:-0.599996 24:0.751446 25:-0.803393 26:-1 27:-0.733334 28:-1 29:-0.499994 30:0.45946 31:-1 32:-0.777776 33:0.108108 34:-0.436318 35:-1 36:-1 37:0.594594 38:-1 39:0.757226 40:-0.362477 41:-0.607254 42:0.890174 43:0.333332 44:0.786128 45:-0.498836 46:-0.514456 47:-1 48:-1 49:0.445086 50:-0.599996 51:-0.27027 52:-0.212647 53:0.861272 54:-1 55:-1 56:-1 57:-0.578124 58:0.757226 59:-1 
0.7814781188323063 1:0.142855 2:0.757226 3:0.2 4:0.976878 5:-1 6:1 7:0.867052 8:-0.396869 9:-0.799998 10:0.780346 11:-1 12:0.890174 13:-0.81818 14:-0.380081 15:0.67052 16:-0.333328 17:0.861272 18:1 19:-1 20:0.867052 21:-1 22:0.930636 23:-0.599996 24:0.907514 25:1 26:0.907514 27:-0.466667 28:0.867052 29:-1 30:-0.135136 31:1 32:-1 33:0.486486 34:-0.304745 35:-0.5 36:0.867052 37:0.594594 38:-0.200002 39:0.751446 40:-0.95093 41:0.231793 42:0.751446 43:-1 44:0.751446 45:-0.155005 46:-0.41303 47:0.930636 48:-1 49:0.751446 50:-1 51:0.594594 52:0.385927 53:0.867052 54:-0.428572 55:0.67052 56:-1 57:1 58:0.867052 59:-0.777776 
42.80723289473291 1:-0.714286 2:0.751446 3:-0.6 4:0.976878 5:-1 6:-0.534936 7:0.930636 8:-0.269645 9:-0.6 10:0.867052 11:0.0506563 12:1 13:-0.81818 14:-0.532666 15:0.67052 16:-1 17:0.809248 18:-0.682109 19:-1 20:0.907514 21:-1 22:0.757226 23:-0.599996 24:0.751446 25:-0.249268 26:0.907514 27:-0.466667 28:0.809248 29:-0.499994 30:0.594594 31:0.976878 32:-1 33:-0.486486 34:-0.304745 35:-0.5 36:0.861272 37:0.486486 38:-0.599996 39:0.774566 40:0.506985 41:-0.974538 42:0.976878 43:-1 44:0.809248 45:-0.0955768 46:-0.231763 47:0.890174 48:-0.249997 49:0.867052 50:-1 51:0.513514 52:-0.701117 53:0.890174 54:-0.714283 55:0.751446 56:-1 57:-0.0567444 58:0.751446 59:-0.333332 
37.25433175541092 1:-1 2:0.757226 3:-0.6 4:0.867052 5:-1 6:-0.732288 7:0.757226 8:-0.915484 9:-0.799998 10:0.976878 11:0.0506563 12:0.867052 13:-0.636364 14:-0.195568 15:0.861272 16:-1 17:0.930636 18:-0.707235 19:-0.636364 20:1 21:-0.749997 22:0.930636 23:-0.599996 24:0.751446 25:-0.423219 26:0.809248 27:-0.466667 28:0.751446 29:-1 30:0.45946 31:0.976878 32:-1 33:-0.243244 34:0.347627 35:-0.749997 36:0.67052 37:0.594594 38:-0.599996 39:0.751446 40:0.506985 41:1 42:0.976878 43:-1 44:0.907514 45:-0.0955768 46:-0.41303 47:0.890174 48:-0.749997 49:0.751446 50:-1 51:-0.135136 52:-0.754614 53:0.687862 54:-0.428572 55:0.751446 56:-1 57:-0.0780219 58:0.751446 59:-0.333332 
9.486781931243851 1:-0.428572 2:0.976878 3:-0.399998 4:0.867052 5:-1 6:-0.864267 7:0.751446 8:0.0308549 9:-0.399998 10:1 11:-0.292668 12:0.687862 13:-1 14:1 15:0.687862 16:-1 17:0.867052 18:0.17126 19:-0.81818 20:0.890174 21:-0.5 22:0.445086 23:-0.599996 24:0.976878 25:-0.101004 26:0.67052 27:-0.866665 28:0.976878 29:-1 30:1 31:0.867052 32:-0.777776 33:1 34:-0.383739 35:-0.749997 36:0.976878 37:0.45946 38:-0.599996 39:1 40:-0.378956 41:-0.763625 42:0.907514 43:-1 44:0.890174 45:1 46:-0.163433 47:0.861272 48:-1 49:0.751446 50:-1 52:0.00329879 53:0.976878 54:-1 55:0.890174 56:-1 57:-0.578124 58:1 59:0.111112 
20.95343310805468 1:-0.428572 2:0.751446 3:-0.399998 4:0.67052 5:-1 6:-0.864267 7:0.687862 8:-0.750099 9:-0.799998 10:0.867052 11:-0.292668 12:0.976878 13:-0.81818 14:-0.43535 15:0.751446 16:-1 17:0.907514 18:0.17126 19:-0.81818 20:0.930636 21:-0.5 22:0.890174 23:-1 24:0.751446 25:-0.255693 26:0.757226 27:-0.599999 28:0.687862 29:-1 30:0.594594 31:0.976878 32:-1 33:1 34:-0.41138 35:-0.5 36:0.976878 37:1 38:-0.599996 39:0.867052 40:1 41:-0.600526 42:0.907514 43:-1 44:1 45:-0.0955768 46:0.0725148 47:0.867052 48:-1 49:0.976878 50:-1 51:0.81081 52:-0.612703 53:0.976878 54:-0.714283 55:1 56:-1 57:-0.52893 58:0.751446 59:0.111112 
33.37173772272013 1:-1 2:0.445086 3:-0.799998 4:0.861272 5:-1 6:-0.534936 7:0.445086 8:-0.396869 9:-0.2 10:0.930636 11:-0.826403 12:-1 13:-1 14:-0.662903 15:0.780346 16:-0.333328 17:0.687862 18:-0.806246 19:-0.81818 20:0.751446 21:-0.249997 22:0.867052 23:-0.599996 24:0.890174 25:-0.6068 26:0.976878 27:-0.733334 28:0.976878 29:-1 31:0.930636 32:-0.555556 33:0.162162 34:-0.361392 35:-1 36:0.687862 38:-1 39:0.786128 40:-0.912222 41:-0.850109 42:0.751446 43:-0.777776 44:0.751446 45:-0.539631 46:-0.499749 47:0.687862 48:-1 49:0.890174 50:-0.599996 51:0.594594 52:0.00329879 53:0.890174 54:-0.142855 55:0.890174 56:-1 57:0.2348 58:0.930636 59:-0.555556 
10.94716843924621 1:-0.714286 2:0.780346 3:-0.399998 4:0.751446 5:-1 6:-0.529492 7:-1 8:-0.269645 9:-0.6 10:0.751446 11:-0.292668 12:-1 13:-1 14:-0.0771352 15:0.976878 16:-0.333328 17:0.890174 18:0.17126 19:-0.81818 20:0.687862 21:-0.749997 22:0.867052 23:-0.200002 24:0.861272 25:-0.522613 26:0.774566 27:-0.866665 28:0.976878 29:-0.499994 30:-0.486486 31:0.890174 32:-1 33:1 34:-0.321463 35:-0.5 36:0.976878 37:-0.486486 38:-1 39:0.867052 40:1 41:-0.850109 42:0.907514 43:-0.333332 44:0.809248 45:-0.186475 46:0.0725148 47:0.867052 48:-0.5 49:0.861272 50:-1 51:0.513514 52:0.00329879 53:0.809248 54:-1 55:0.907514 56:-1 57:-0.622175 58:-1 59:-0.333332 
12.3626821934121 1:-0.714286 2:0.751446 3:-0.799998 4:1 5:-1 6:-0.529492 7:0.757226 8:-0.269645 9:-1 10:-1 11:-0.553281 12:0.751446 13:-0.81818 14:-0.769122 15:0.67052 16:-1 17:-1 18:-0.469417 19:-0.272728 20:0.976878 21:-1 22:0.751446 23:-1 24:1 25:-0.227124 26:0.942196 27:-1 28:0.751446 29:-1 30:0.81081 31:0.867052 32:-0.555556 33:0.81081 34:-0.17465 35:-1 36:1 37:1 38:-0.599996 39:0.809248 40:-0.476324 41:-0.607254 42:1 43:-0.333332 44:0.809248 45:1 46:-0.326851 47:0.445086 48:-0.249997 49:0.976878 50:-1 51:0.513514 52:-0.754614 53:0.809248 54:-1 55:-1 56:-0.499994 57:-0.0780219 58:0.445086 59:-0.555556 
17.12023591250075 1:-0.714286 2:1 3:-0.799998 4:1 5:-1 6:-0.605281 7:1 8:-0.718865 9:-0.2 10:0.890174 11:0.0506563 12:0.890174 13:-1 14:-0.12019 15:0.976878 16:-1 17:1 18:-1 19:-0.81818 20:0.867052 21:-0.5 22:0.751446 23:-1 24:0.890174 25:1 26:0.890174 27:-0.333332 28:0.907514 29:-1 31:0.751446 32:-1 33:0.594594 34:1 35:-0.249997 36:0.751446 37:-0.135136 38:-1 39:0.751446 40:-0.278134 41:0.231793 42:0.976878 43:-1 44:0.687862 45:-0.539239 46:-0.41303 47:0.751446 48:-1 49:0.907514 50:-1 51:0.162162 52:-0.479351 53:0.907514 54:-1 55:0.751446 56:-1 57:0.0471669 58:0.687862 59:-0.555556 
4.322719220715259 1:-0.428572 2:0.751446 3:0.2 4:0.867052 5:-1 6:-0.92136 7:1 8:-0.750099 9:-1 10:0.751446 11:0.0506563 12:0.751446 13:-1 14:-0.769122 15:0.809248 16:-1 17:-1 18:1 19:-0.636364 20:0.867052 21:-1 22:0.809248 23:-1 24:0.867052 25:1 26:0.751446 27:-0.599999 28:-1 29:-1 30:0.486486 31:-1 32:-1 33:0.486486 34:-1 35:-1 36:0.867052 37:0.108108 38:-1 39:0.976878 40:1 41:-0.550557 42:0.976878 43:-0.111112 44:1 45:-0.498836 46:0.353122 47:0.867052 48:-0.5 49:-1 50:-1 51:0.81081 52:-0.212647 53:1 54:-1 55:0.751446 56:-1 57:0.0471669 58:0.867052 59:-0.555556 
11.92518980544427 1:-0.714286 2:-1 3:-0.799998 4:-1 5:-1 6:-0.521483 7:-1 8:1 9:-1 10:0.445086 11:-0.0737158 12:0.445086 13:-0.090908 14:-0.769122 15:1 16:-1 17:0.757226 18:-0.856129 19:-0.636364 20:0.445086 21:-1 22:0.809248 23:-0.599996 24:0.861272 25:-0.419487 26:1 27:-1 28:0.809248 29:-1 30:-0.486486 31:1 32:-0.333332 33:0.108108 34:0.0373931 35:-1 36:0.757226 37:0.45946 38:-1 39:0.757226 40:-0.362477 41:-0.390831 42:0.757226 43:-0.111112 44:0.867052 45:-0.155005 46:-0.514456 47:-1 48:-0.5 49:0.751446 50:-1 51:0.486486 52:-0.701117 53:0.757226 54:-1 55:0.976878 56:-1 57:-0.622175 58:0.751446 59:-0.777776 
53.392592 1:-1 2:0.445086 3:-1 4:0.907514 5:-1 6:-0.864267 7:0.930636 8:-0.523177 9:-0.6 10:0.687862 11:-1 12:0.907514 13:-1 14:-0.380081 15:0.809248 16:-1 17:0.861272 18:-0.438543 19:-0.454544 20:0.687862 21:-0.5 22:0.751446 23:-0.599996 24:0.890174 25:-0.522613 26:0.809248 27:-0.733334 28:0.930636 29:-1 31:0.751446 32:-0.777776 33:0.081082 34:0.347627 35:-0.5 36:0.930636 37:0.45946 38:-1 39:0.751446 40:-0.112515 41:-0.507085 42:0.751446 43:-1 44:0.976878 45:-0.539239 46:-0.695235 47:0.786128 48:-0.5 49:0.751446 50:-0.599996 51:1 52:1 53:0.976878 54:-0.142855 55:1 56:-1 57:-0.0567444 58:0.890174 59:-0.555556 
17.58107873369951 1:-0.428572 2:0.687862 3:-0.6 4:0.786128 5:-0.666663 6:-1 7:0.67052 8:-0.763893 9:-0.799998 10:0.976878 11:0.0506563 12:0.809248 13:-0.636364 14:-0.34073 15:1 16:-1 17:0.942196 18:0.17126 19:-0.81818 20:0.867052 21:-1 22:0.930636 23:-1 24:0.67052 25:1 26:0.67052 27:-0.866665 28:-1 29:-0.499994 30:-0.243244 31:0.867052 32:-1 33:1 34:-0.383739 35:-1 36:0.976878 37:0.45946 38:0.599996 39:0.751446 40:-0.0508066 41:-0.582745 42:0.976878 43:-0.777776 44:0.757226 45:1 46:-0.41303 47:0.774566 48:-0.749997 49:0.751446 50:-0.599996 51:0.108108 52:-0.212647 53:0.67052 54:-0.714283 55:0.890174 56:-0.499994 57:-1 58:0.757226 59:-0.333332 
18.8239141667607 1:-0.142858 2:0.751446 3:-0.399998 4:0.809248 5:-1 6:-0.732288 7:0.976878 8:-1 9:-0.799998 10:0.809248 11:-0.826403 12:0.930636 13:-1 14:1 15:0.751446 16:-1 17:0.867052 18:-0.329146 19:-0.636364 20:0.751446 21:-0.5 22:0.809248 23:-1 24:0.930636 25:-0.6068 26:0.867052 27:-0.466667 28:0.67052 29:-1 30:0.081082 31:0.867052 32:-1 33:0.513514 34:-0.251943 35:-1 36:0.809248 37:0.594594 38:-0.200002 39:0.890174 40:-0.985817 41:-0.24094 42:0.751446 43:-1 44:0.751446 45:1 46:1 47:0.976878 49:0.751446 50:-1 51:0.45946 52:-0.192855 53:0.687862 54:-0.428572 55:0.67052 56:-1 57:-0.280702 58:0.687862 59:-0.555556 
30.02132293201538 1:-0.428572 2:0.687862 3:-0.2 4:0.976878 5:-1 6:-0.942721 7:0.867052 8:-0.396869 9:-0.799998 10:0.861272 11:-0.826403 12:0.890174 13:-1 14:-0.360161 15:0.445086 16:-1 17:0.976878 18:-0.804837 19:-0.636364 20:0.976878 21:-0.249997 22:1 23:-0.200002 24:0.930636 25:-0.227124 26:0.976878 27:-0.733334 28:0.861272 29:-1 30:0.081082 31:0.687862 32:-0.777776 33:0.45946 34:-0.361392 35:-1 36:0.751446 37:0.486486 38:-1 39:0.867052 40:-0.912222 41:0.231793 42:0.751446 43:-0.777776 44:0.751446 45:-0.498836 46:0.0725148 47:0.687862 48:-1 49:0.867052 50:-1 51:0.594594 52:-0.331279 53:0.751446 54:-0.714283 55:-1 56:-1 57:1 58:0.867052 59:-0.111112 
15.38456831458532 1:-0.142858 2:0.930636 3:-0.2 4:0.445086 5:-1 6:1 7:0.867052 8:-0.396869 9:-1 10:0.861272 11:-0.292668 12:0.867052 13:-0.81818 14:-0.380081 15:0.861272 16:-1 17:0.861272 18:-0.856129 19:-1 20:0.751446 21:-1 22:0.445086 23:0.200002 24:0.751446 25:-0.6068 26:0.867052 27:-0.466667 28:0.976878 29:-0.499994 30:0.594594 31:0.751446 32:-0.333332 33:0.108108 34:-0.251943 35:-0.749997 36:0.757226 37:0.594594 38:-1 39:0.976878 40:-0.79222 41:1 42:0.907514 43:-1 44:0.751446 45:-0.474748 46:0.353122 47:1 48:-0.749997 49:0.445086 50:-1 51:0.594594 52:0.00329879 53:0.867052 54:-0.714283 55:0.809248 56:-1 57:1 58:0.774566 59:-0.555556 
53.392592 1:-0.714286 2:0.751446 3:-0.399998 4:0.861272 5:-1 6:-0.583461 7:0.751446 8:-0.915484 9:-0.799998 10:0.751446 11:-0.430696 12:0.751446 13:-0.81818 14:-0.34073 15:0.890174 16:-1 17:0.942196 18:-0.488056 19:-0.454544 20:0.907514 21:-0.749997 22:0.930636 23:-0.200002 24:0.867052 25:-0.249268 26:0.867052 27:-0.466667 28:0.867052 29:-1 30:0.486486 31:0.757226 32:-0.777776 33:-0.135136 34:-0.251943 35:-0.249997 36:0.907514 37:0.594594 38:-1 39:1 40:-0.912222 41:-0.550557 42:0.445086 43:-1 44:0.907514 45:-0.881895 46:-0.163433 47:0.687862 48:-1 49:0.751446 50:-1 51:-0.135136 52:0.385927 53:0.751446 54:-0.714283 55:0.751446 56:-0.499994 57:-0.371771 58:0.861272 59:-1 
48.81993441436504 1:-0.714286 2:0.942196 3:-0.799998 4:0.757226 5:-1 6:-0.529492 7:0.930636 8:-0.750099 9:-0.799998 10:0.867052 11:-0.292668 12:0.751446 13:-0.636364 14:-0.489406 15:0.907514 16:-1 17:0.786128 18:-0.804837 19:-0.81818 20:0.930636 21:-1 22:1 23:-1 24:0.907514 25:-0.255693 26:0.890174 27:-0.733334 28:0.786128 29:-0.499994 30:-0.135136 31:0.976878 32:-1 33:0.45946 34:1 35:-0.249997 36:0.751446 37:0.594594 38:-1 39:0.786128 40:-0.0508066 41:-0.550557 42:0.907514 43:-1 44:1 45:-0.0955768 46:-0.499749 47:0.774566 48:-0.749997 49:0.751446 50:0.200002 51:0.81081 52:-0.187813 53:0.809248 54:-0.428572 55:0.976878 56:-0.499994 57:-0.0567444 58:0.757226 59:-0.555556 
19.22904398921147 1:-0.714286 2:0.751446 3:-0.6 4:0.942196 5:-1 6:-0.605281 7:0.445086 8:-0.523177 9:-0.799998 10:0.751446 11:-0.826403 12:0.976878 13:-1 14:-0.380081 15:0.976878 16:-1 17:0.861272 18:1 19:-0.81818 20:0.751446 21:-0.749997 22:0.976878 23:-0.599996 24:0.867052 25:-0.6068 26:0.976878 27:-0.466667 28:0.890174 29:-1 30:0.486486 31:0.976878 32:-0.777776 33:0.486486 34:-0.361392 35:-0.749997 36:0.867052 37:0.594594 38:-1 39:0.976878 40:-0.985817 41:-0.600526 42:0.751446 43:-1 44:0.976878 45:-0.0955768 46:0.353122 47:0.976878 48:-1 49:0.751446 50:-1 51:1 52:0.0839324 53:0.907514 54:-0.714283 55:0.930636 56:-0.499994 57:0.2348 58:0.687862 59:0.777776 
1.407629789415397 1:-0.714286 2:0.907514 3:-0.6 4:0.786128 5:-1 6:-0.864267 7:0.976878 8:-0.396869 9:-0.799998 10:0.890174 11:1 12:1 13:-1 14:-0.195568 15:0.751446 16:-1 17:0.930636 18:0.17126 19:-1 20:0.942196 21:-0.749997 22:0.774566 23:-1 24:0.445086 25:-0.254171 26:0.976878 27:-0.599999 28:1 29:-0.499994 30:0.594594 31:0.751446 32:-0.555556 33:1 34:-0.361392 35:-0.5 36:0.976878 37:0.486486 38:-1 39:0.687862 40:-0.476324 41:-0.974538 42:0.867052 43:-1 44:0.751446 45:-0.474748 46:-0.438271 47:0.445086 48:-1 49:0.867052 50:-0.599996 51:0.594594 52:0.435565 53:0.976878 54:-0.714283 55:0.976878 56:-0.499994 57:-0.280702 58:0.907514 59:0.111112 
22.41721125029817 1:-1 2:0.786128 3:-0.799998 4:0.751446 5:-1 6:-0.251279 7:0.809248 8:-0.396869 9:-0.799998 10:0.687862 11:-0.553281 12:-1 13:-0.636364 14:-0.0771352 15:0.687862 16:-1 17:0.890174 18:-0.257011 19:-0.636364 20:0.757226 21:-0.249997 22:0.867052 23:-0.599996 24:0.930636 25:-1 26:0.809248 27:-0.733334 28:0.930636 29:-1 30:0.081082 31:0.861272 32:-0.555556 33:0.594594 34:0.347627 35:-1 36:0.445086 37:0.162162 38:-1 39:0.757226 40:-0.878087 41:-0.850109 42:1 43:-0.777776 44:0.751446 45:-0.551667 46:-0.514456 47:0.751446 48:-0.5 49:0.687862 50:-0.599996 51:0.594594 52:1 53:0.445086 54:-0.142855 55:0.751446 56:-1 57:-0.134589 58:0.930636 59:-1 
4.204999128583513 1:-0.142858 2:0.751446 3:-0.2 4:0.976878 5:-1 6:-0.694709 7:0.930636 8:1 9:-1 10:0.867052 11:-0.211743 12:0.867052 13:-1 14:-0.34073 15:0.942196 16:-0.333328 17:0.942196 18:1 19:-0.454544 20:-1 21:-1 22:0.445086 23:-1 24:-1 25:-0.5167 26:0.976878 27:-0.866665 28:-1 29:-1 30:0.108108 31:0.780346 32:-0.555556 33:0.486486 34:-0.361392 35:-1 36:0.867052 37:-0.27027 38:-1 39:0.751446 40:-0.878087 41:1 42:-1 43:-0.111112 44:0.867052 45:-0.483681 46:-0.695235 47:0.751446 48:-1 49:0.786128 50:-0.599996 51:0.486486 52:-0.212647 53:0.942196 54:-0.714283 55:0.445086 56:0.500006 57:-0.0567444 58:0.751446 59:-0.555556 
0.9255975856934922 1:-0.142858 2:-1 3:2.2e-006 4:0.786128 5:-1 6:1 7:0.867052 8:-0.42392 9:-1 10:0.445086 11:0.0506563 12:0.867052 13:-1 14:-0.162032 15:0.751446 16:-1 17:0.445086 18:1 19:-1 20:0.976878 21:-1 22:0.867052 23:-1 24:0.930636 25:-0.227124 26:0.751446 27:-0.733334 28:0.942196 29:-0.499994 30:0.081082 31:0.445086 32:-0.333332 33:0.486486 34:0.702304 35:-1 36:0.867052 37:-0.675676 38:-1 39:-1 40:-0.0508066 41:1 42:0.976878 43:-0.111112 44:-1 45:-1 46:0.136079 47:0.774566 48:-1 49:0.942196 50:-0.599996 51:0.108108 52:0.405315 53:0.867052 54:-0.714283 55:1 57:1 58:-1 59:-0.555556 
6.857556364499194 1:-0.428572 2:0.67052 3:-0.399998 4:0.809248 5:-1 6:-0.521483 7:0.751446 8:1 9:-1 10:-1 11:-0.211743 12:0.67052 13:-0.81818 14:-0.489406 15:0.942196 16:-1 17:0.786128 18:-0.610728 19:-0.81818 20:0.942196 21:-0.749997 22:0.976878 23:-1 24:0.867052 25:-0.254171 26:0.942196 27:-0.866665 28:-1 29:-0.499994 30:0.486486 31:0.786128 32:-1 33:-0.756756 34:-0.17465 35:-1 36:0.774566 37:0.081082 38:-0.200002 39:0.867052 40:-0.912222 41:-0.332686 42:-1 43:-0.333332 44:0.867052 45:-0.366752 46:0.0725148 47:0.687862 48:-0.749997 49:0.930636 50:-0.200002 51:0.486486 52:-0.212647 53:0.757226 54:-0.714283 55:0.976878 56:0.500006 57:-0.578124 58:0.751446 59:-0.555556 
8.581785416886701 1:-0.142858 2:1 3:0.2 4:-1 5:-1 6:-0.691758 7:0.751446 8:-1 9:-1 10:-1 11:-0.586508 12:0.751446 13:-1 14:1 15:0.809248 16:-1 17:0.867052 18:-0.469417 19:-0.454544 20:0.867052 21:-0.749997 22:0.867052 23:-1 24:0.751446 25:1 26:0.786128 27:-0.466667 28:0.867052 29:-1 30:0.45946 31:0.687862 32:-1 33:0.81081 34:0.289392 35:-1 36:1 37:0.594594 38:-1 39:0.867052 40:-0.878087 41:-0.550557 42:0.809248 43:-0.333332 44:0.751446 45:-0.498836 46:0.0725148 47:0.751446 48:-0.5 49:0.751446 50:-0.599996 51:0.45946 52:0.385927 53:-1 54:-1 55:0.867052 56:-1 57:-0.578124 58:0.751446 59:-1 
1.366797594236442 1:0.142855 2:-1 3:0.400002 4:0.867052 5:-1 6:-0.92136 7:1 8:-0.396869 9:-1 10:0.751446 11:-0.211743 12:0.867052 13:-1 14:1 15:0.809248 16:-1 17:0.867052 18:1 19:-1 20:-1 21:-1 22:1 23:-1 24:0.809248 25:-0.5167 26:0.751446 27:-0.200001 28:0.751446 29:-1 30:0.513514 31:0.867052 32:-1 33:0.486486 34:0.702304 35:-1 36:0.867052 37:0.108108 38:-1 39:0.867052 40:-0.278134 41:1 42:-1 43:-0.111112 44:0.751446 45:1 46:0.0725148 47:0.751446 48:-0.5 49:-1 50:-1 51:0.594594 52:-1 53:1 54:-1 55:0.751446 56:-1 57:0.0471669 58:0.867052 59:-1 
31.27300826078421 1:-1 2:0.445086 3:-1 4:0.774566 5:-1 6:-0.942721 7:0.976878 8:-0.396869 9:-0.399998 10:0.907514 11:-0.0737158 12:0.757226 13:-0.636364 14:-0.43535 15:0.890174 16:-1 17:0.907514 18:-0.804837 19:-0.636364 20:0.907514 21:-1 22:0.445086 23:-0.599996 24:0.976878 25:-0.249268 26:0.861272 27:-0.599999 28:0.774566 30:1 31:0.976878 32:-0.555556 33:0.45946 34:-0.123408 35:-0.249997 36:0.751446 37:0.594594 38:-1 39:0.890174 40:-0.878087 41:-1 42:0.757226 43:-1 44:0.751446 45:-0.0955768 46:1 47:0.751446 48:-1 49:0.751446 50:-1 51:0.594594 52:-0.261476 53:0.751446 54:-0.714283 55:0.930636 56:-1 57:-0.280702 58:0.890174 59:-0.333332 
7.148433801234112 1:0.428569 2:0.751446 3:0.2 4:0.751446 5:-1 6:1 7:1 8:1 9:-0.799998 10:0.687862 11:1 12:0.976878 13:-1 14:1 15:0.780346 16:-0.333328 17:0.867052 18:-0.469417 19:-0.090908 20:0.687862 21:-0.5 22:0.751446 23:-0.599996 24:0.786128 25:-0.522613 26:0.867052 27:-0.866665 28:0.809248 29:-1 30:-0.27027 31:0.751446 32:-1 33:0.81081 34:-0.251943 35:-1 36:1 37:0.486486 38:-1 39:0.751446 40:-0.378956 41:-0.600526 42:0.867052 43:-1 44:0.867052 45:-0.539239 46:-0.695235 47:0.861272 48:-0.749997 49:0.867052 50:-0.599996 51:0.486486 52:-0.701117 53:0.867052 54:-1 55:0.890174 56:-1 57:0.0471669 58:0.751446 59:-0.777776 
1.629731944989228 1:-0.142858 2:0.687862 3:-0.399998 4:0.751446 5:-1 6:-0.92136 7:0.930636 8:1 9:-0.6 10:0.67052 11:1 12:0.890174 13:-0.81818 14:1 15:0.976878 16:-1 17:0.867052 18:0.17126 19:-0.272728 20:0.751446 21:-0.749997 22:0.751446 23:-1 24:0.976878 25:-0.803393 26:0.890174 27:-1 28:-1 29:-1 30:1 31:0.976878 32:-1 33:1 34:1 35:-1 36:0.976878 37:0.108108 38:-0.599996 39:0.751446 40:-0.362477 41:0.231793 42:0.867052 43:-0.111112 44:0.867052 45:-0.0955768 46:-0.695235 47:-1 48:-1 49:-1 50:-1 51:0.486486 52:-0.212647 53:1 54:-0.714283 55:0.757226 56:-1 57:-0.0567444 58:-1 59:-0.111112 
1.921467525402647 1:-0.428572 2:0.751446 3:-0.6 4:0.976878 5:-1 6:1 7:0.930636 8:-1 9:-0.399998 10:0.890174 11:-0.436959 12:0.786128 13:-1 14:1 15:-1 16:-1 17:0.867052 18:-0.438543 19:-0.636364 20:0.751446 21:-0.749997 22:0.809248 23:-1 24:0.890174 25:-0.6068 26:0.976878 27:-0.733334 28:0.445086 29:-1 31:0.907514 32:-0.555556 33:0.081082 34:-0.361392 35:-0.749997 36:0.930636 37:0.513514 38:-0.599996 39:0.445086 40:-0.878087 41:-0.255577 42:0.67052 43:-0.777776 44:0.751446 45:-0.7941 46:-0.753572 47:0.751446 48:-0.5 49:0.809248 50:-0.599996 51:0.45946 52:-0.600317 53:0.867052 54:-0.428572 55:0.687862 56:-1 57:-0.0567444 58:0.890174 59:-0.555556 
50.37131835817867 1:-1 2:0.809248 3:-0.799998 4:1 5:-1 6:-0.92136 7:0.976878 8:-0.718865 9:-0.6 10:0.809248 11:-0.0737158 12:0.751446 13:-0.81818 14:-0.34073 15:0.861272 16:-1 17:0.942196 18:-0.469417 19:-0.81818 20:1 21:-0.5 22:0.687862 23:-0.599996 24:0.907514 25:-0.423219 26:1 27:-0.733334 28:0.751446 29:-1 30:-0.135136 31:0.67052 32:-1 33:0.81081 34:0.0373931 35:-0.749997 36:1 37:1 38:-0.599996 39:0.890174 40:0.506985 41:-0.607254 42:0.757226 43:-1 44:0.687862 45:-0.85975 46:1 47:0.890174 48:-0.5 49:0.976878 50:-1 51:0.162162 52:-1 53:1 54:-1 55:0.867052 56:-0.499994 57:-0.280702 58:0.751446 59:-0.555556 
0.126546233053205 1:1 2:0.751446 3:0.800002 4:0.751446 5:-1 6:1 7:0.867052 8:1 9:-1 10:0.751446 11:1 12:0.751446 13:-0.81818 14:1 15:0.757226 16:-1 17:0.867052 18:-1 19:-0.81818 20:0.751446 21:-0.749997 22:0.687862 23:-1 24:0.976878 25:-0.6068 26:0.867052 27:-0.333332 28:0.930636 29:-1 30:1 31:0.867052 32:-1 33:0.594594 34:-0.251943 35:-1 36:0.751446 37:0.081082 38:-1 39:0.809248 40:1 41:-0.550557 42:0.867052 43:-1 44:0.867052 45:1 46:-0.326851 47:0.867052 48:-0.749997 49:0.930636 50:-1 51:0.486486 52:1 53:0.867052 54:-0.428572 55:1 56:-1 57:1 58:0.867052 59:-0.777776 
17.80848147458974 1:-1 2:0.757226 3:-1 4:0.757226 5:-1 6:-0.691758 7:0.445086 8:-0.465523 9:-0.799998 10:0.907514 11:-0.211743 12:0.809248 13:-0.454544 14:-0.532666 15:0.907514 16:-1 17:0.809248 18:-0.257011 19:-1 20:0.976878 21:-1 22:0.774566 23:-1 24:1 25:-0.227124 26:0.809248 27:-1 28:0.757226 29:-0.499994 30:0.81081 31:0.890174 32:-0.333332 33:0.594594 34:0.347627 35:-0.5 36:0.445086 37:0.81081 38:-1 39:0.930636 40:-0.95093 41:-0.582745 42:-1 43:-0.555556 44:0.942196 45:-0.186475 46:-0.0930166 47:0.930636 48:-0.249997 49:1 50:-1 51:-0.675676 52:-0.0916814 53:-1 54:-0.428572 55:1 56:-0.499994 57:0.2348 58:0.445086 59:-0.777776 
53.392592 1:-0.714286 2:0.809248 3:-0.6 4:0.890174 5:-1 6:-0.605281 7:0.445086 8:-0.750099 9:-0.6 10:0.890174 11:-0.499718 12:0.907514 13:-0.81818 14:-0.12019 15:0.751446 16:-1 17:1 18:-1 19:-1 20:0.976878 21:-1 22:0.867052 23:-1 24:0.907514 25:-0.227124 26:0.976878 27:-0.466667 28:0.751446 29:-1 30:-0.135136 31:1 32:-0.777776 33:0.594594 34:-0.361392 35:-0.249997 36:0.751446 37:0.594594 38:-1 39:0.867052 40:-0.985817 41:-0.507085 42:0.930636 43:-1 44:1 45:-0.155005 46:0.0725148 47:0.976878 48:-0.749997 49:0.751446 50:-1 51:0.81081 52:-1 53:0.907514 54:-0.714283 55:0.757226 56:-1 57:0.2348 58:0.976878 59:-0.111112 
31.88613149758884 1:-0.714286 2:0.751446 3:-0.6 4:0.907514 5:-1 6:-0.605281 7:0.751446 8:-0.619798 9:-1 10:0.907514 11:-1 12:1 13:-0.81818 14:-0.12019 15:0.907514 16:-0.333328 17:1 18:1 19:-0.81818 20:0.976878 21:-1 22:0.757226 23:-1 24:0.976878 25:-0.227124 26:0.445086 27:-0.466667 28:0.867052 29:-1 30:1 31:0.751446 32:-0.777776 33:0.486486 34:0.332386 36:0.867052 37:-0.27027 38:-1 39:0.976878 40:-0.278134 41:-0.974538 42:0.751446 43:-1 44:0.780346 45:-0.474748 46:0.353122 47:0.751446 48:-1 49:0.786128 50:-0.200002 51:-1 52:0.385927 53:0.907514 54:-1 55:0.976878 56:-1 57:-0.578124 58:0.786128 59:-0.111112 
32.99483681040727 1:-0.714286 2:0.809248 3:-0.799998 4:0.809248 5:-1 6:-0.251279 7:0.757226 8:-0.750099 9:-1 10:0.809248 11:-0.499718 12:0.751446 13:-0.81818 14:-0.769122 15:0.445086 16:-1 17:-1 18:-0.329146 19:-0.454544 20:0.976878 21:-1 22:0.751446 23:-1 24:0.67052 25:-0.227124 26:0.930636 27:-0.866665 28:0.976878 29:-1 30:-0.243244 31:1 32:-0.555556 33:0.513514 34:-0.297863 35:-1 36:0.809248 37:0.45946 38:-0.599996 39:0.867052 40:-0.79222 41:-0.607254 42:0.930636 43:-0.777776 44:1 45:-0.155005 46:0.0725148 47:1 49:0.751446 50:-1 51:0.81081 52:0.00329879 53:0.445086 54:-0.428572 55:0.751446 56:-1 57:-0.0780219 58:0.976878 59:-0.333332 
32.30411030993977 1:-1 2:0.687862 3:-0.799998 4:0.890174 5:-1 6:-0.583461 7:0.890174 8:-0.915484 9:-0.399998 10:0.757226 11:-0.550747 12:0.976878 13:-0.81818 14:-1 15:1 16:-1 17:0.751446 18:-0.329146 19:-0.090908 20:0.751446 21:-0.749997 22:0.751446 23:-1 24:0.867052 25:-0.6068 26:0.976878 27:-0.599999 28:0.751446 29:-1 30:0.486486 31:0.976878 32:-1 33:0.513514 34:-0.361392 35:-0.749997 36:0.809248 37:0.108108 38:-1 39:0.751446 40:-0.278134 41:-0.600526 42:0.890174 43:-0.555556 44:0.907514 45:-0.0955768 46:-0.695235 47:0.751446 48:-0.749997 49:-1 50:-1 51:-0.135136 52:-0.754614 53:0.751446 54:-1 55:-1 56:-1 57:-0.155867 58:0.751446 59:-0.333332 
8.497154853077698 1:-1 2:0.687862 3:-1 4:0.890174 5:-1 6:-0.691758 7:0.890174 8:-1 9:0.400002 10:0.890174 11:-1 12:-1 13:-1 14:-0.162032 15:0.751446 16:-1 17:0.445086 18:-0.257011 19:-0.272728 20:0.445086 21:-0.749997 22:-1 23:-1 24:0.890174 25:-0.419487 26:0.890174 27:-0.866665 28:0.890174 29:-1 31:0.751446 32:-0.333332 33:0.594594 34:1 35:-1 36:0.445086 37:0.108108 38:-1 39:0.751446 40:0.506985 41:-0.850109 42:0.751446 43:0.333332 44:0.751446 45:-0.539239 46:-0.695235 47:0.890174 48:-1 49:-1 50:-1 51:0.45946 52:0.0839324 53:-1 54:-1 55:-1 56:-1 57:-0.155867 58:-1 59:-1 
8.700710466107726 1:-0.428572 2:0.751446 3:-0.6 4:0.687862 5:-1 6:-0.529492 7:0.867052 8:-0.42392 9:-0.6 10:0.445086 11:0.0506563 12:-1 13:-1 14:-0.360161 15:0.976878 16:-1 17:0.976878 18:-0.520324 19:-0.636364 20:0.867052 21:-0.5 22:0.907514 23:-1 24:0.976878 25:1 26:0.445086 27:-0.866665 28:0.687862 29:-1 30:1 31:0.751446 32:-0.555556 33:-0.27027 34:0.332386 35:-0.749997 36:0.786128 37:0.594594 38:-1 39:0.890174 40:0.506985 41:-0.850109 42:0.976878 43:-0.555556 44:-1 45:-0.539239 46:1 47:0.890174 48:-0.749997 49:0.751446 50:-0.599996 51:0.108108 52:-0.612703 53:0.809248 54:-0.714283 55:0.976878 56:-1 57:1 58:0.930636 59:0.111112 
53.392592 1:-1 2:0.890174 3:-0.799998 4:0.867052 5:-1 6:-0.605281 7:0.930636 8:-0.915484 9:-0.6 10:0.786128 11:-0.430696 12:0.786128 13:-0.454544 14:-0.195568 15:0.67052 16:-1 17:0.930636 18:-0.329146 19:-1 20:0.774566 21:-0.749997 22:0.786128 23:-0.599996 24:0.890174 25:-0.50925 26:0.687862 27:-0.866665 28:0.757226 29:-0.499994 31:0.757226 32:-0.333332 33:0.513514 34:-0.00693806 35:-0.5 36:0.809248 37:0.108108 38:-0.599996 39:0.861272 40:-0.278134 41:-0.255577 42:0.445086 43:-1 44:0.907514 45:-0.881895 46:-0.190245 47:0.751446 48:-0.749997 49:0.757226 50:0.200002 51:-0.135136 52:-0.0916814 53:0.907514 54:-0.428572 55:0.445086 56:-1 57:-0.0567444 58:0.445086 59:-1 
2.828353421054238 1:-0.142858 2:0.907514 3:-0.2 4:0.867052 5:-1 6:-0.583461 7:0.867052 8:-1 9:-0.799998 10:-1 11:-0.826403 12:0.890174 13:-1 14:1 15:0.751446 16:-1 17:0.867052 18:-0.438543 19:-0.272728 20:0.930636 21:-0.749997 22:1 23:-1 24:0.930636 25:-0.255693 26:0.445086 27:-1 28:0.786128 29:-0.499994 30:0.081082 31:0.867052 32:-0.555556 33:0.081082 34:0.332386 35:-0.749997 36:0.930636 37:0.513514 38:-1 39:-1 40:-0.476324 41:0.231793 42:0.751446 43:-0.555556 44:0.751446 45:1 46:0.136079 47:0.445086 48:-0.749997 49:0.809248 50:-0.599996 51:0.45946 52:-0.187813 53:0.751446 54:-0.142855 55:0.687862 56:-1 57:1 58:0.774566 59:-1 
6.876377324054479 1:-0.714286 2:0.757226 3:-0.6 4:0.890174 5:-1 6:-0.84335 7:0.751446 8:0.0308549 9:2.2e-006 10:0.976878 11:-0.292668 12:0.867052 13:-0.81818 14:1 15:0.809248 16:-1 17:0.867052 18:-0.670982 19:-1 20:0.890174 21:-1 22:0.976878 23:-1 24:0.445086 25:-0.101004 26:0.907514 27:-0.466667 28:0.890174 29:-0.499994 30:0.594594 31:0.751446 32:-0.777776 33:-0.675676 34:-0.304745 35:-0.5 36:0.942196 37:0.81081 38:-1 39:0.751446 40:-0.278134 41:1 42:0.907514 43:-1 44:0.890174 45:-0.474748 46:-0.41303 47:0.751446 48:-0.749997 49:1 50:-1 52:0.0839324 53:0.774566 54:-1 55:0.890174 56:-0.499994 57:-0.578124 58:0.976878 59:-0.333332 
14.09124835421991 1:-0.428572 2:0.751446 3:-0.2 4:0.976878 5:-1 6:-0.521483 7:0.751446 8:-0.915484 9:-1 10:0.774566 11:0.0506563 12:0.751446 13:-0.636364 14:1 15:0.930636 16:-1 17:0.867052 18:1 19:-0.272728 20:0.942196 21:-1 22:0.67052 23:-1 24:0.751446 25:-0.254171 26:0.751446 27:-0.599999 28:0.930636 29:-0.499994 30:0.45946 31:0.751446 32:-1 33:0.486486 34:-1 35:-0.749997 36:0.867052 37:0.45946 38:-0.599996 39:0.757226 40:1 41:-0.607254 42:0.976878 43:-1 44:0.907514 45:-0.474748 46:-0.514456 47:0.867052 48:-1 49:0.751446 50:-1 51:-0.135136 52:1 53:0.757226 54:-0.428572 55:0.867052 56:-0.499994 57:-0.578124 58:0.976878 59:-0.333332 
3.169261399389451 1:-0.714286 2:0.976878 3:-0.6 4:1 5:-1 6:-0.583461 7:-1 8:1 9:-0.799998 10:0.930636 11:-0.467081 12:1 13:-1 14:-0.195568 15:0.867052 16:-1 17:0.930636 18:-0.375414 19:-0.81818 20:-1 21:-0.749997 22:0.890174 23:-1 24:0.445086 25:-0.5167 26:0.445086 27:-0.866665 28:0.786128 29:-1 30:0.594594 31:0.445086 32:-0.333332 33:0.108108 34:0.332386 35:-1 36:-1 37:0.594594 38:-1 39:0.687862 40:-0.362477 41:-0.974538 42:0.786128 43:-0.111112 44:0.867052 45:-1 46:-0.438271 47:-1 48:-1 49:0.751446 50:-0.200002 51:0.486486 52:-0.187813 53:0.751446 54:-0.142855 55:0.930636 56:-0.499994 57:-0.622175 58:0.942196 59:-0.777776 
11.72791235399088 1:-0.714286 2:0.861272 3:-0.799998 4:0.687862 5:-0.666663 6:-0.251279 7:0.907514 8:-0.763893 9:-1 10:-1 11:0.0506563 12:0.809248 13:-0.636364 14:-0.769122 15:0.687862 16:-1 17:0.757226 18:-0.469417 19:-0.81818 20:0.867052 21:-0.749997 22:0.809248 23:-0.599996 24:0.976878 25:1 26:-1 27:-1 28:0.751446 29:-0.499994 30:1 31:0.774566 32:-0.555556 33:0.81081 34:-0.436318 35:-0.749997 36:1 37:0.108108 38:-1 39:0.930636 40:-0.476324 41:-0.582745 42:0.976878 43:-0.333332 44:0.757226 45:-0.551667 46:-0.0930166 47:0.445086 48:-0.249997 49:-1 50:-1 51:0.108108 52:-0.754614 53:0.445086 54:-0.714283 55:1 56:-1 57:-0.814598 58:0.809248 59:-0.555556 
14.53119948271684 1:-0.428572 2:0.976878 3:-0.6 4:1 5:-1 6:-0.521483 7:0.930636 8:-0.523177 9:-1 10:0.930636 11:1 12:0.809248 13:-0.454544 14:-0.662903 15:0.930636 16:-1 17:0.687862 18:1 19:-0.81818 20:0.774566 21:-0.749997 22:0.809248 23:-1 24:0.757226 25:-0.50925 26:0.445086 27:-1 28:0.751446 29:-0.499994 30:0.108108 31:0.809248 32:-0.555556 33:0.486486 34:0.332386 35:-1 36:0.867052 37:0.108108 38:-1 39:1 40:-1 41:-0.582745 42:0.867052 43:-0.777776 44:0.976878 45:-0.757192 46:-0.163433 47:0.757226 48:-0.249997 49:-1 50:-1 51:1 52:-0.754614 53:0.930636 54:0.142855 55:0.445086 56:-1 57:-0.0567444 58:0.757226 59:-0.555556 
41.67199448271568 1:-0.714286 2:0.751446 3:-0.6 4:0.445086 5:-0.666663 6:-0.251279 7:0.687862 8:-0.645839 9:-0.6 10:0.867052 11:-0.430696 12:0.976878 13:-0.81818 14:-0.195568 15:0.890174 16:-1 17:0.930636 18:-0.257011 19:-0.454544 20:0.890174 21:-1 22:0.751446 23:-1 24:0.867052 25:-0.101004 26:0.751446 27:-0.866665 28:0.809248 29:-1 30:0.486486 31:0.445086 32:0.111112 33:0.594594 34:0.702304 35:-0.749997 36:0.445086 37:0.45946 38:-0.599996 39:0.786128 40:-0.597464 41:-0.600526 42:0.445086 43:-1 44:0.930636 45:-1 46:-0.499749 47:0.67052 48:-0.749997 49:0.751446 50:-0.599996 51:0.081082 52:-0.701117 53:0.445086 54:-0.428572 55:0.757226 56:-1 57:-0.448881 58:0.907514 59:-0.777776 
28.88323602263048 1:-1 2:0.445086 3:-0.799998 4:0.976878 5:-1 6:-0.864267 7:0.907514 8:-0.523177 9:-0.399998 10:0.890174 11:-0.211743 12:0.751446 13:-0.81818 14:-0.0771352 15:0.890174 16:-1 17:0.890174 18:-0.806246 19:-0.636364 20:0.976878 21:-0.5 22:0.687862 23:-1 24:0.867052 25:-0.227124 26:0.786128 27:-1 28:0.445086 29:-0.499994 30:0.486486 31:0.774566 32:-0.555556 33:0.162162 34:0.289392 35:-0.749997 36:0.687862 37:1 38:-1 39:0.757226 40:-0.878087 41:-0.607254 42:-1 43:-0.777776 44:0.976878 45:-0.551667 46:-0.514456 47:0.751446 48:-0.749997 49:0.976878 50:-0.599996 51:1 52:-0.600317 53:0.976878 54:-1 55:0.809248 56:-1 57:-0.814598 58:1 59:0.111112 
13.62810703744685 1:-1 2:0.890174 3:-1 4:-1 5:-0.666663 6:-0.521483 7:0.751446 8:-0.645839 9:-0.2 10:0.890174 11:-0.430696 12:0.687862 13:-0.81818 14:-0.0771352 15:-1 16:-1 17:0.890174 18:-0.329146 19:-0.636364 20:0.930636 21:-1 22:-1 23:-1 24:0.67052 25:-0.255693 26:0.757226 27:-0.866665 28:0.976878 29:-1 30:-0.243244 31:0.445086 32:-0.555556 33:0.513514 34:-0.41138 35:-1 36:0.809248 37:-0.675676 38:-0.599996 39:0.751446 40:-0.278134 41:-0.440553 42:0.445086 43:-0.333332 44:0.930636 45:-1 46:-0.695235 47:0.751446 48:-0.749997 49:0.942196 50:-1 51:0.081082 52:0.00329879 53:0.930636 54:-0.142855 55:0.890174 56:-0.499994 57:-0.371771 58:0.976878 59:-0.555556 
18.32449182315799 1:-0.428572 2:0.751446 3:2.2e-006 4:0.867052 5:-1 6:-0.942721 7:0.867052 8:-0.523177 9:-1 10:0.751446 11:-0.436959 12:0.907514 13:-0.81818 14:-0.551483 15:0.751446 16:-1 17:0.751446 18:1 19:-0.81818 20:0.751446 21:-1 22:0.867052 23:-1 24:0.751446 25:-0.6068 26:0.751446 27:0.0666659 28:0.976878 29:-1 30:0.594594 31:0.757226 32:-1 33:0.486486 34:-1 35:-0.5 36:0.867052 37:1 38:-0.599996 39:0.786128 40:1 41:-0.507085 42:0.67052 43:-1 44:0.976878 45:-0.881895 46:-0.499749 47:0.867052 48:-1 49:0.976878 50:-0.599996 51:1 52:0.00329879 53:0.751446 54:-1 55:0.907514 56:-1 57:1 58:0.751446 59:-0.333332 
27.85756631849559 1:-0.714286 2:0.751446 3:-0.399998 4:0.942196 5:-1 6:-0.605281 7:0.867052 8:-0.396869 9:-0.799998 10:0.809248 11:-0.436959 12:0.786128 13:-1 14:-0.43535 15:0.751446 16:-1 17:0.907514 18:0.17126 19:-1 20:0.687862 21:-0.749997 22:0.67052 23:-0.599996 24:0.907514 25:-0.522613 26:0.907514 27:-0.466667 28:0.751446 29:-1 30:-0.135136 31:0.861272 32:-1 33:1 34:-0.304745 36:0.976878 37:0.486486 38:0.599996 39:0.67052 40:0.506985 41:-0.255577 42:0.67052 43:-1 44:0.751446 45:-0.551667 46:-0.620079 47:0.890174 48:-0.749997 49:0.867052 50:-0.599996 51:0.594594 52:-1 53:0.907514 54:-1 55:0.867052 56:-0.499994 57:1 58:0.67052 59:-0.777776 
53.392592 1:-0.714286 2:0.907514 3:-0.6 4:0.942196 5:-1 6:-0.732288 7:0.751446 8:-0.396869 9:-0.799998 10:0.976878 11:-0.553281 12:0.751446 13:-0.81818 14:-0.662903 15:0.976878 16:-1 17:0.687862 18:1 19:-0.81818 20:0.445086 21:-0.249997 22:0.786128 23:-1 24:0.907514 25:-0.419487 26:0.687862 27:-0.466667 28:0.890174 29:-1 30:-0.135136 31:0.751446 32:-0.777776 33:0.486486 34:-0.00693806 35:-0.249997 36:0.867052 37:0.486486 38:-1 39:1 40:-1 41:-0.550557 42:1 43:-1 44:0.751446 45:-0.474748 46:-0.163433 47:0.757226 48:-1 49:0.867052 50:-0.599996 51:0.594594 52:0.0839324 53:0.687862 54:-1 55:0.907514 56:-0.499994 57:-0.578124 58:0.751446 59:-0.555556 
1.27711127985361 1:-0.428572 2:0.445086 3:-0.2 4:0.751446 5:-1 6:-0.534936 7:0.751446 8:1 9:-0.6 10:0.751446 11:-0.553281 12:0.751446 13:-1 14:-0.12019 15:0.809248 16:-1 17:1 18:-0.804837 19:-0.454544 20:0.942196 21:-0.749997 22:0.67052 23:-1 24:1 25:-0.254171 26:0.890174 27:-0.733334 28:0.976878 29:-0.499994 30:0.81081 31:0.867052 32:-0.555556 33:0.45946 34:1 35:-1 36:0.751446 37:0.486486 38:-0.599996 39:0.445086 40:-0.0508066 41:-0.607254 42:1 43:-1 44:0.867052 45:1 46:-0.753572 47:0.774566 48:-0.749997 49:0.867052 50:-1 51:0.486486 52:0.00329879 53:0.890174 54:-1 55:0.867052 56:-0.499994 57:-0.578124 58:0.687862 59:-0.777776 
15.07599702727285 1:-1 2:0.867052 3:-0.799998 4:1 5:-1 6:-0.864267 7:0.976878 8:-0.465523 9:2.2e-006 10:0.890174 11:-1 12:0.751446 13:-1 14:-0.0771352 15:0.942196 16:-1 17:0.890174 18:0.17126 19:-1 20:0.976878 21:-0.749997 22:0.445086 23:-1 24:0.751446 25:-0.227124 26:0.786128 27:-0.466667 28:0.687862 29:-0.499994 30:0.594594 31:0.751446 32:-0.777776 33:1 34:0.289392 35:-0.749997 36:0.976878 38:-1 39:0.890174 40:0.506985 41:-0.550557 42:0.751446 43:-1 44:0.942196 45:-0.474748 46:1 47:0.890174 48:-1 49:0.890174 50:-0.599996 51:-0.675676 52:-0.612703 53:0.976878 54:-1 55:0.774566 57:-0.280702 58:0.907514 59:-0.111112 
6.583610990659441 1:-1 2:1 3:-0.799998 4:0.907514 5:-1 6:-0.691758 7:0.976878 8:-0.645839 9:-0.6 10:0.976878 11:-0.499718 12:0.867052 13:-1 14:-0.34073 15:0.67052 16:-1 17:0.942196 18:-0.804837 19:-0.636364 20:0.751446 21:-1 22:0.445086 23:-1 24:0.751446 25:-0.6068 26:0.890174 27:-0.733334 28:0.786128 29:-1 30:0.594594 31:0.890174 32:-0.777776 33:0.45946 34:1 35:-0.749997 36:0.751446 37:-0.675676 38:-0.599996 39:0.751446 40:-0.362477 41:1 42:0.930636 43:-0.555556 44:0.930636 45:-0.186475 46:-0.695235 47:-1 48:-0.749997 49:0.942196 50:-0.599996 51:0.081082 52:-0.187813 53:-1 54:-0.142855 55:0.930636 57:-0.280702 58:0.809248 59:-0.555556 
9.56456795426695 1:-0.428572 2:0.976878 3:-0.2 4:0.751446 5:-1 6:-0.583461 7:0.751446 8:-0.763893 9:-1 10:0.907514 11:-0.553281 12:0.867052 13:-0.454544 14:1 15:1 16:-1 17:0.867052 18:-1 19:-0.454544 20:0.930636 21:-0.749997 22:1 23:-1 24:0.867052 25:-0.255693 26:0.757226 27:-0.733334 28:-1 29:-1 30:0.486486 31:0.867052 32:-1 33:0.594594 34:-0.41138 35:-0.749997 36:0.751446 37:0.162162 38:-1 39:0.751446 40:-1 41:1 42:1 43:-0.777776 44:0.757226 45:1 46:-0.41303 47:0.757226 48:-0.749997 49:0.687862 50:-1 51:0.108108 52:-0.212647 53:0.751446 54:-0.714283 55:0.809248 56:-1 57:-0.371771 58:0.976878 59:-0.555556 
4.888697835422289 1:-0.428572 2:1 3:-0.399998 4:0.867052 5:-1 6:-0.521483 7:0.809248 8:-0.42392 9:-1 10:0.867052 11:-0.211743 12:0.445086 13:0.090908 14:1 15:0.757226 16:-1 17:0.867052 18:-0.469417 19:-0.81818 20:0.976878 21:-1 22:0.976878 23:-1 24:0.757226 25:-0.227124 26:0.751446 27:-0.866665 28:0.757226 29:-1 30:0.108108 31:-1 32:-0.777776 33:0.81081 34:-1 35:-1 36:1 37:0.81081 38:-1 39:0.757226 40:-1 41:-0.390831 42:-1 43:-0.111112 44:-1 45:-0.498836 46:-0.514456 47:0.757226 48:-0.749997 49:1 50:-1 51:0.108108 52:-0.0916814 53:0.757226 54:-1 55:-1 56:-1 57:-0.134589 58:0.751446 59:-0.555556 
5.310869203198391 1:-0.142858 2:0.757226 3:-0.2 4:0.890174 5:-1 6:1 7:0.942196 8:0.0308549 9:-0.399998 10:0.757226 11:-0.211743 12:0.867052 13:0.090908 14:-0.532666 15:-1 16:-1 17:0.809248 18:-0.268137 19:-0.81818 20:-1 21:-1 22:0.751446 23:-1 24:0.757226 25:-0.5167 26:0.867052 27:-1 28:0.757226 29:-1 30:0.108108 31:0.867052 32:-1 34:-0.251943 35:-1 36:0.890174 37:0.108108 38:-1 39:-1 40:-0.362477 41:1 42:-1 43:0.111112 44:0.890174 45:1 46:0.136079 47:-1 48:-0.749997 49:0.757226 50:-1 52:-0.0916814 53:0.867052 54:-1 55:0.942196 57:0.0126658 58:0.757226 59:-1 
7.574369816386721 1:-0.714286 2:0.930636 3:-0.6 4:0.786128 5:-1 6:-0.583461 7:0.867052 8:-0.269645 9:-0.399998 10:0.751446 11:0.0506563 12:0.445086 13:-1 14:-0.0771352 15:1 16:-1 17:0.890174 18:-1 19:-0.636364 20:0.751446 21:-0.749997 22:0.890174 23:-1 24:0.445086 25:-0.6068 26:0.890174 27:-0.599999 28:0.867052 29:-1 30:0.594594 31:0.976878 32:-0.555556 33:0.594594 34:1 35:-1 36:0.751446 37:0.513514 38:-0.599996 39:0.687862 40:-0.597464 41:-0.390831 42:0.976878 43:-1 44:0.809248 45:-0.0955768 46:-0.438271 47:0.67052 48:-0.5 49:0.809248 50:-0.599996 51:0.513514 52:0.385927 53:0.751446 54:-0.714283 55:0.751446 56:-1 57:1 58:0.976878 59:-0.333332 
5.625303769289348 1:0.428569 2:0.751446 3:1 4:0.867052 5:-1 6:-0.942721 7:0.867052 8:-0.396869 9:-1 10:1 11:1 12:0.867052 13:-1 14:1 15:0.751446 16:-1 17:0.867052 18:-0.375414 19:-0.81818 20:0.67052 21:-1 22:0.751446 23:-1 24:0.67052 25:-0.224577 26:0.867052 27:-0.466667 28:0.867052 29:-1 30:-0.243244 31:0.445086 32:-0.555556 33:0.108108 34:-0.251943 35:-1 36:-1 37:0.108108 38:-0.200002 39:0.867052 40:1 41:1 42:0.867052 43:-0.555556 44:0.751446 45:-1 46:0.0725148 47:0.867052 48:-1 49:-1 50:-1 51:0.594594 52:0.385927 53:0.751446 54:-1 55:0.445086 56:-1 57:1 58:0.867052 59:-1 
16.48103120599698 1:-1 2:0.942196 3:-1 4:0.976878 5:-1 6:-0.864267 7:0.751446 8:0.0308549 9:2.2e-006 10:0.687862 11:0.0506563 12:0.445086 13:-0.81818 14:-0.532666 15:0.890174 16:-1 17:0.809248 18:-0.856129 19:-0.81818 20:0.890174 21:-0.749997 22:0.809248 23:-1 24:0.751446 25:-0.101004 26:0.445086 27:-0.599999 28:0.890174 29:-1 30:0.594594 31:0.976878 32:-0.555556 33:0.108108 34:0.332386 35:-1 36:0.757226 37:0.594594 38:-1 39:0.751446 40:-0.79222 41:-0.390831 42:0.976878 43:-1 44:0.890174 45:-0.0955768 46:-0.41303 47:1 48:-0.5 49:0.751446 50:-1 52:0.0839324 53:0.976878 54:-1 55:0.890174 56:-0.499994 57:-0.371771 58:0.976878 59:0.111112 
15.56030512457662 1:-0.428572 2:0.445086 3:-0.399998 4:0.809248 5:-0.666663 6:-0.529492 7:1 8:-0.396869 9:-0.6 10:0.867052 11:-0.290135 12:0.890174 13:-0.636364 14:-0.769122 15:0.867052 16:-1 17:0.757226 18:-0.329146 19:-1 20:0.890174 21:-1 22:0.976878 23:-1 24:0.757226 25:-0.101004 26:-1 27:-0.866665 28:0.687862 29:-1 30:0.108108 31:0.867052 32:-0.777776 33:0.513514 34:-0.436318 35:-1 36:0.809248 37:0.81081 38:-0.200002 39:0.67052 40:-0.597464 41:0.231793 42:0.942196 43:-0.777776 44:0.751446 45:1 46:-0.620079 47:0.67052 48:-0.249997 49:1 50:-1 51:0.594594 52:-0.411135 53:0.809248 54:-0.714283 55:0.930636 56:-0.499994 57:0.0471669 58:0.976878 59:-0.555556 
6.812474005098419 1:-0.714286 2:0.890174 3:-0.399998 4:0.976878 5:-1 6:-0.583461 7:0.976878 8:-0.42392 9:-0.6 10:0.867052 11:-0.826403 12:0.751446 13:-1 14:-0.12019 15:0.867052 16:-1 17:1 18:0.17126 19:-0.090908 20:0.976878 21:-1 22:0.751446 23:-0.599996 24:0.809248 25:-0.227124 26:0.976878 27:-1 28:1 29:-1 30:0.513514 31:0.751446 32:-0.777776 33:1 34:-0.361392 35:-1 36:0.976878 37:0.486486 38:-1 39:0.861272 40:0.506985 41:-0.607254 42:0.751446 43:-0.555556 44:-1 45:-0.539239 46:-0.190245 47:0.890174 48:-0.749997 49:0.867052 50:-1 51:0.108108 52:0.435565 53:0.751446 54:-1 55:-1 56:-1 57:-0.280702 58:0.445086 59:0.111112 
10.90175926428134 1:-1 2:0.751446 3:-0.799998 4:0.930636 5:-1 6:-0.529492 7:0.445086 8:-0.915484 9:-0.2 10:0.890174 11:-0.550747 12:-1 13:-1 14:-0.195568 15:-1 16:-1 17:0.930636 18:-0.268137 19:-0.81818 20:0.687862 21:-0.749997 22:0.890174 23:-1 24:0.930636 25:-0.522613 26:0.67052 27:-1 28:0.976878 29:-1 30:0.081082 31:0.786128 32:-0.777776 34:-0.383739 35:-0.749997 36:0.890174 37:0.513514 38:-0.599996 39:0.976878 40:1 41:-0.850109 42:0.890174 43:-0.333332 44:0.907514 45:-0.366752 46:0.353122 47:0.867052 48:-0.249997 49:0.809248 50:-0.599996 51:-0.135136 52:0.00329879 53:0.809248 54:-0.142855 55:0.809248 56:-1 57:0.2348 58:-1 59:-0.555556 
25.86510143793863 1:-0.714286 2:1 3:-0.6 4:1 5:-1 6:1 7:0.757226 8:-0.645839 9:-0.6 10:0.890174 11:-0.553281 12:0.907514 13:-0.636364 14:-0.662903 15:0.976878 16:-1 17:0.687862 18:-0.469417 19:-1 20:0.976878 21:-0.749997 22:1 23:-1 24:1 25:-0.227124 26:1 27:-1 28:0.809248 29:-1 30:0.81081 31:0.757226 32:-0.777776 33:0.81081 34:0.0373931 35:-0.5 36:1 37:0.81081 38:-1 39:0.445086 40:1 41:-0.507085 42:1 43:-1 44:0.930636 45:-0.881895 46:-0.753572 47:0.867052 48:-0.749997 49:1 50:-1 51:0.081082 52:-0.701117 53:0.867052 54:-0.714283 55:0.890174 56:-1 57:-0.0780219 58:0.907514 59:-0.555556 
27.97802444940527 1:-0.714286 2:0.976878 3:-0.6 4:0.751446 5:-1 6:-0.72703 7:0.867052 8:-0.750099 9:-0.799998 10:0.757226 11:-0.553281 12:0.867052 13:-0.81818 14:-0.0771352 15:0.976878 16:-1 17:0.890174 18:-0.438543 19:-0.636364 20:0.751446 21:-0.749997 22:0.774566 23:-1 24:0.809248 25:-0.803393 26:0.687862 27:-0.733334 28:1 30:0.513514 31:0.976878 32:-0.777776 33:0.081082 34:-0.00693806 35:-1 36:0.930636 37:0.594594 38:-1 39:0.751446 40:-0.278134 41:1 42:1 43:-1 44:1 45:-0.0955768 46:-0.695235 47:0.751446 48:-0.749997 49:0.445086 50:-0.200002 51:0.81081 52:0.435565 53:0.786128 54:-0.714283 55:0.774566 56:-1 57:1 58:0.786128 59:-0.333332 
53.392592 1:-0.714286 2:0.809248 3:-0.6 4:0.67052 5:-1 6:-0.605281 7:0.907514 8:-0.396869 9:-1 10:0.867052 11:-0.499718 12:0.861272 13:-0.81818 14:-0.551483 15:0.751446 16:-0.333328 17:0.751446 18:-0.682109 19:-1 20:0.942196 21:-0.749997 22:0.780346 23:-0.200002 24:1 25:-0.254171 26:0.907514 27:-0.333332 28:0.867052 29:-1 30:0.81081 31:0.751446 32:-1 33:-0.486486 34:-0.304745 35:-0.249997 36:0.861272 37:-0.243244 38:-0.200002 39:0.757226 40:-0.278134 41:-0.485225 42:0.930636 43:-1 44:0.751446 45:-0.474748 46:-0.514456 47:0.751446 48:-0.749997 49:0.67052 50:-1 51:0.594594 52:0.385927 53:0.907514 54:-0.714283 55:0.687862 56:-0.499994 57:-0.814598 58:0.976878 59:-0.777776 
17.49536619996538 1:-0.714286 2:1 3:-0.6 4:0.786128 5:-0.666663 6:-0.529492 7:0.774566 8:-1 9:-1 10:0.907514 11:0.0506563 12:0.751446 13:-1 14:-0.531641 15:0.751446 16:-1 17:0.687862 18:-0.329146 19:-0.636364 20:0.445086 21:-1 22:-1 23:-1 24:1 25:-0.419487 26:1 27:-0.733334 28:0.786128 29:-0.499994 30:0.81081 31:0.867052 32:-0.555556 33:0.513514 34:0.0373931 35:-0.749997 36:0.809248 37:0.594594 38:-1 39:1 40:-0.848198 41:-0.550557 42:0.976878 43:-0.777776 44:0.751446 45:1 46:-0.163433 47:0.942196 48:-0.5 49:0.445086 50:-0.200002 51:0.45946 52:-0.187813 53:0.809248 54:-1 55:0.867052 56:-0.499994 57:-0.311911 58:0.751446 59:-0.777776 
16.41419008121132 1:-0.428572 2:0.867052 3:0.6 4:0.445086 5:-1 6:-0.942721 7:1 8:-0.750099 9:-1 10:0.867052 11:-0.515178 12:0.687862 13:-1 14:-0.162032 15:0.867052 16:-1 17:0.445086 18:-0.375414 19:-1 20:0.942196 21:-0.749997 22:0.867052 23:-0.599996 24:0.867052 25:-0.254171 26:0.867052 27:-0.866665 28:1 29:-1 30:0.486486 31:0.809248 32:-0.555556 33:0.108108 34:-0.251943 35:-1 36:-1 37:0.81081 38:-1 39:1 40:1 41:-0.763625 42:0.861272 43:-0.777776 44:1 45:-0.757192 46:-0.163433 47:0.867052 48:-0.5 49:1 50:-1 51:0.81081 52:0.435565 53:0.751446 54:-1 55:0.809248 56:-0.499994 57:0.0471669 58:0.867052 59:-1 
41.35418956916784 1:-1 2:0.907514 3:-1 4:0.751446 5:-0.666663 6:-0.92136 7:0.890174 8:-0.396869 9:-0.399998 10:0.861272 11:-0.0737158 12:0.976878 13:-0.81818 14:-0.662903 15:0.67052 16:-1 17:0.687862 18:0.17126 19:-0.636364 20:0.976878 21:-0.5 22:1 23:-0.599996 24:0.809248 25:-0.227124 26:-1 27:-0.866665 28:0.890174 29:-1 30:0.513514 31:0.976878 32:-1 33:1 34:-0.436318 35:-0.749997 36:0.976878 38:-0.599996 39:0.809248 40:-0.912222 41:-0.600526 42:0.757226 43:-0.777776 44:0.751446 45:-0.0955768 46:-0.326851 47:0.687862 48:-0.5 49:0.890174 50:-1 51:0.594594 52:0.0839324 53:1 54:-1 55:0.687862 56:-1 57:-0.155867 58:0.751446 59:-0.111112 
15.60951878727251 1:-0.714286 2:0.751446 3:-0.2 4:0.867052 5:-1 6:1 7:0.757226 8:-0.49925 9:-1 10:0.907514 11:-0.826403 12:0.976878 13:-0.81818 14:-0.769122 15:0.809248 16:-0.333328 17:-1 18:-0.610728 19:-0.636364 20:0.751446 21:-0.749997 22:0.867052 23:-0.200002 24:0.907514 25:-0.6068 26:0.687862 27:-0.866665 28:0.780346 30:-0.135136 31:0.861272 32:-1 33:-0.756756 34:-0.00693806 35:-0.5 36:0.774566 37:0.486486 38:-1 39:0.976878 40:-0.0508066 41:-0.600526 42:0.751446 43:-0.777776 44:0.861272 45:-0.551667 46:0.353122 47:0.774566 48:-0.749997 49:0.867052 50:-1 51:-0.486486 52:-0.0397411 53:0.867052 54:-1 55:0.976878 56:-1 57:-0.0780219 58:1 59:-0.333332 
27.98815428000569 1:-1 2:0.445086 3:-0.799998 4:0.942196 5:-1 6:-0.694709 7:0.976878 8:0.0308549 9:-0.399998 10:0.751446 11:-0.430696 12:0.930636 13:-1 14:-0.532666 15:0.751446 16:-1 17:0.809248 18:-0.804837 19:-0.636364 20:0.976878 21:-1 22:0.976878 23:-1 24:0.445086 25:-0.227124 26:0.890174 27:-0.599999 28:0.867052 29:-1 30:0.594594 31:0.907514 32:-0.333332 33:0.45946 34:1 35:-0.749997 36:0.751446 37:0.594594 38:-1 39:0.930636 40:-0.985817 41:-0.24094 42:0.445086 43:-1 44:0.890174 45:-0.7941 46:-0.0930166 47:0.976878 48:-0.749997 49:0.751446 50:-1 52:0.385927 53:0.942196 54:-0.428572 55:0.890174 57:-0.280702 58:0.751446 59:-0.111112 
