svm_type c_svc
kernel_type rbf
gamma 0.03125
nr_class 2
total_sv 339
rho 7.64134
label 1 -1
probA -1.25503
probB 1.14724
nr_sv 78 261
SV
8.945666196377427 1:0.74192 2:-0.428572 3:1 4:-1 5:-0.799998 6:1 7:0.840695 8:-1 9:0.867052 10:1 11:-0.205973 12:0.642634 13:-1 14:0.445086 15:-0.757366 16:-1 17:0.890174 18:-0.266982 19:-1 20:-0.618248 21:-1 22:-1 23:0.594594 24:-0.100286 25:0.276354 26:0.809248 27:-0.749997 28:-0.284561 29:0.976878 30:-0.36944 31:1 32:-1 34:-0.428572 35:-1 36:-1 37:0.478428 
7.231149122378626 1:1 2:-0.142855 3:0.751446 4:-0.666667 5:-0.6 6:0.809248 7:-0.692629 8:-0.666663 9:1 10:-0.387946 11:0.199999 12:1 13:-1 14:-1 15:0.190474 16:-1 17:0.867052 18:0.563589 19:-0.599996 20:0.579966 21:0.976878 22:-1 23:0.108108 24:0.150775 25:-0.565523 26:0.867052 27:-0.749997 28:1 29:0.757226 30:-0.227738 31:0.890174 32:-1 33:0.486486 34:-0.142855 35:0.907514 36:-0.732573 37:0.120262 
19.21411740373645 1:0.197828 2:-0.714283 3:0.786128 4:-1 5:-0.2 6:0.867052 7:1 8:-0.666663 9:-1 10:-1 11:-0.0507464 12:0.585407 13:-1 14:0.867052 15:0.190474 16:-0.666663 17:0.751446 18:0.476046 19:-0.200002 20:-0.461924 21:0.67052 22:-1 23:0.486486 24:-0.51433 25:0.0128212 26:0.867052 27:-1 28:0.252324 29:0.751446 30:1 31:0.976878 32:-1 33:0.594594 34:-0.428572 35:1 36:-0.900875 37:-0.920267 
18.53446924683935 1:0.962243 2:-0.714283 3:0.809248 4:-0.666667 5:2.2e-006 6:0.867052 7:-0.255239 8:-0.666663 9:0.751446 10:-0.615177 11:0.361192 12:0.725854 13:-1 14:0.930636 15:-0.20635 16:-1 17:0.976878 18:-1 19:-1 20:-0.860084 21:0.890174 22:-1 23:0.081082 24:0.150775 25:0.284899 26:0.774566 27:-0.749997 28:-0.528833 29:0.867052 30:1 31:-1 32:-1 33:1 34:-0.714283 35:0.809248 36:1 37:-1 
1.375603477763564 1:-0.643135 2:-0.142855 3:0.976878 4:-0.666667 5:-0.6 6:0.687862 7:0.617902 8:-1 9:0.445086 10:-0.633467 11:0.229849 12:0.642634 13:-0.599996 14:1 15:-1 16:-1 17:0.751446 18:0.720386 19:-1 20:-0.860084 21:0.867052 22:-1 23:0.81081 24:-0.100286 25:0.445871 26:0.445086 27:-0.749997 28:1 29:0.445086 30:-0.0498403 31:0.890174 32:-0.599996 33:0.45946 34:-1 35:0.809248 36:-0.306139 37:0.556865 
0.3212293196619367 1:0.74192 2:0.714283 3:0.687862 4:-0.333335 5:-1 6:0.890174 7:0.778845 8:-1 9:1 10:-0.387946 11:1 12:0.73635 13:-1 14:0.976878 15:-1 16:-0.333333 17:0.890174 18:-0.0126257 19:-1 20:-0.381889 21:0.445086 22:-1 23:1 24:1 25:-0.243588 26:0.445086 27:-0.249997 28:0.210168 29:0.861272 30:0.675036 31:0.751446 32:-0.200002 34:-1 35:0.890174 36:-0.364994 37:0.120262 
6.42058850209271 1:-0.386606 2:-1 3:1 4:-1 5:-0.399998 6:0.861272 7:0.840695 8:-0.666663 9:0.867052 10:1 11:0.170148 12:0.725854 13:-0.599996 14:0.445086 15:-1 16:3.66667e-006 17:0.774566 18:0.205577 19:-1 20:0.0634794 21:0.67052 22:-1 23:0.594594 24:-0.256691 25:0.276354 26:0.445086 27:-0.5 28:-0.213889 29:0.942196 30:-0.185944 31:0.757226 32:-1 33:-0.756756 34:-1 35:0.976878 36:-0.379451 37:1 
18.87631190981911 1:-0.100595 2:-0.714283 3:0.867052 4:-1 5:-0.399998 6:0.757226 7:0.287808 8:-1 9:0.751446 10:-0.567324 11:0.361192 12:0.618398 13:-1 14:0.751446 15:-0.481861 16:-1 17:0.942196 18:0.563589 19:-1 20:0.0634794 21:0.445086 22:-1 23:0.594594 24:-0.382342 25:0.658119 26:0.907514 27:-1 28:-0.765655 29:0.67052 30:-0.530526 31:0.907514 32:-1 33:-0.675676 34:-0.428572 35:0.976878 36:-0.593186 37:0.0679713 
34.56530664077719 1:-0.100595 2:-0.714283 3:0.976878 4:-0.666667 5:-0.2 6:0.907514 7:0.287808 8:-1 9:0.757226 10:-0.308542 11:0.229849 12:0.725854 13:-1 14:0.751446 15:0.190474 16:-1 17:0.942196 18:1 19:-1 20:-0.767376 21:0.976878 22:-1 23:0.594594 24:-0.708317 25:0.445871 26:0.867052 27:-0.5 28:-0.284561 29:0.751446 30:-0.636048 31:1 32:-0.200002 33:-0.675676 34:-0.714283 35:0.751446 36:-0.900875 37:-0.920267 
0.192589722406793 1:0.197828 2:-0.428572 3:0.751446 4:-1 5:0.800002 6:0.867052 7:0.840695 8:-1 9:0.867052 10:1 11:0.170148 12:0.725854 13:-1 14:0.445086 15:-0.394556 16:-1 17:0.751446 18:0.834066 19:-1 20:0.579966 21:1 22:-1 23:0.594594 24:0.336542 25:-0.232194 26:-1 27:-0.5 28:-0.0229391 29:0.867052 30:1 31:0.809248 32:-1 33:0.594594 34:-0.714283 35:0.907514 36:1 37:1 
32.62990710193106 1:-0.86243 2:-0.142855 3:0.774566 4:-1 5:-0.6 6:0.930636 7:-0.500761 8:-0.333333 9:0.930636 10:0.0144026 11:0.199999 12:-1 13:-1 14:0.907514 15:1 16:-0.333333 17:0.907514 18:0.205577 19:-1 20:-0.187273 21:0.687862 22:-1 23:-0.135136 24:0.336542 25:-0.625352 26:0.890174 27:-0.749997 28:-0.401118 29:0.445086 30:-0.224931 31:0.687862 32:-0.200002 33:-0.135136 34:-0.142855 35:0.774566 36:-0.306139 37:1 
14.19627373028977 1:-0.521596 2:-0.428572 3:1 4:-1 5:-0.799998 6:0.930636 7:0.778845 8:-1 9:0.867052 10:1 11:-0.0805969 12:0.73635 13:-1 14:0.976878 15:-1 16:-0.666663 17:1 18:1 19:-1 20:-0.365481 21:0.809248 22:-1 23:1 24:-0.0709242 25:0.276354 26:0.445086 27:-0.749997 28:-0.284561 29:-1 30:-0.224931 31:1 32:-1 33:0.81081 34:-0.714283 35:0.67052 36:-0.642742 37:-0.454904 
16.38118324792013 1:-0.197828 2:0.142855 3:1 4:-1 5:-1 6:0.687862 7:-0.172304 8:-1 9:0.780346 10:-0.535777 11:-0.838806 12:-0.0580976 13:-1 14:0.687862 15:1 16:-1 17:0.809248 18:1 19:-1 20:0.579966 21:0.780346 22:0.333328 23:0.162162 24:1 25:0.276354 26:0.890174 27:-0.749997 28:0.252324 29:0.751446 30:0.133421 31:0.976878 32:-0.200002 33:0.513514 34:-0.714283 35:0.907514 36:-0.208054 37:0.556865 
7.470377343281752 1:-0.521596 2:-0.428572 3:1 4:-0.666667 5:-0.799998 6:0.445086 7:0.617902 8:-1 9:1 10:-0.387946 11:0.170148 12:0.73635 13:-1 14:1 15:0.221089 16:-1 17:1 18:0.476046 19:-1 20:0.579966 21:0.809248 22:-1 23:0.81081 24:1 25:0.276354 26:0.757226 27:-0.749997 28:-0.213889 29:0.751446 30:-0.466557 31:0.757226 32:-1 33:0.81081 34:-0.142855 35:0.907514 36:-0.900875 37:0.120262 
41.58343682666574 1:-0.643135 2:-0.428572 3:0.687862 4:-1 5:-0.799998 6:0.751446 7:0.617902 8:-1 9:1 10:-0.387946 11:-0.0805969 12:0.585407 13:-1 14:1 15:-0.72222 16:-1 17:0.751446 18:0.834066 19:-0.599996 20:0.0634794 21:0.786128 22:-1 23:0.81081 24:-0.0709242 25:-0.243588 26:0.976878 27:-0.749997 28:-0.49659 29:0.890174 30:0.122216 31:0.930636 32:-0.599996 33:0.45946 34:-0.714283 35:0.976878 36:0.278265 37:-0.454904 
22.76556360445789 1:1 2:-1 3:0.867052 4:-0.666667 5:-0.399998 6:0.809248 7:0.287808 8:-0.666663 9:0.687862 10:-0.732685 11:-0.773138 12:-0.0580976 13:-1 14:0.751446 15:0.190474 16:-1 17:0.867052 18:1 19:-0.200002 20:-0.187273 21:0.976878 22:-0.333328 23:0.594594 24:-0.708317 25:0.658119 26:0.867052 27:-0.5 28:0.210168 29:0.907514 30:-0.227738 31:0.751446 32:-0.599996 33:0.486486 34:-0.714283 35:0.774566 36:-0.276197 37:-0.264056 
9.672047381309886 1:0.74192 2:-0.428572 3:0.976878 4:-0.666667 5:-0.799998 6:1 7:0.126859 8:-1 9:0.687862 10:-0.732685 11:0.229849 12:0.177813 13:-1 14:0.757226 15:1 16:-0.666663 17:0.890174 18:1 19:-1 20:1 21:-1 22:-1 23:0.108108 24:-0.788168 25:0.445871 26:0.890174 27:-1 28:-0.213889 29:0.861272 30:-0.36944 31:0.757226 32:-0.200002 34:-0.428572 35:0.757226 36:-0.364994 37:-0.155555 
24.32151177905487 1:0.74192 2:-0.142855 3:0.930636 4:-1 5:-0.799998 6:1 7:0.778845 8:-1 9:0.976878 10:-0.394953 11:0.229849 12:0.642634 13:-1 14:0.976878 15:1 16:-1 17:0.890174 18:-0.398951 19:0.200002 20:-0.325458 21:0.890174 22:-1 23:1 24:0.336542 25:-0.471506 26:0.890174 27:-1 28:-1 29:0.786128 30:-0.36944 31:0.751446 32:-0.599996 34:-0.714283 35:0.786128 36:-0.310274 37:-1 
23.23525428853321 1:-0.397466 2:-0.142855 3:0.890174 4:-0.666667 5:-0.399998 6:0.890174 7:-0.222676 8:-0.666663 9:0.67052 10:-0.813611 11:0.229849 12:-0.169057 13:-1 14:0.786128 15:-0.72222 16:-0.666663 17:0.930636 18:0.834066 19:-0.599996 20:-0.618248 21:0.867052 22:-1 23:-0.27027 24:1 25:1 26:0.976878 27:-1 28:0.292004 29:0.687862 30:0.675036 31:0.867052 32:-0.200002 33:0.081082 34:-1 35:-1 36:-0.6128 37:-0.155555 
19.51856817755423 1:0.426431 2:-1 3:0.751446 4:-0.666667 5:-0.6 6:0.867052 7:0.617902 8:-1 9:0.930636 10:0.0144026 11:-0.78508 12:1 13:-1 14:1 15:-0.303856 16:-1 17:0.757226 18:0.141989 19:0.200002 20:-0.325458 21:0.867052 22:-1 23:0.81081 24:-0.51433 25:-0.232194 26:0.786128 27:-0.749997 28:0.210168 29:0.445086 30:1 31:0.751446 32:0.200002 33:0.108108 34:-1 35:0.786128 36:-0.306139 37:-0.155555 
4.277349584511907 1:-0.197828 2:-0.142855 3:0.907514 4:-0.666667 5:-0.399998 6:0.890174 7:0.840695 8:-1 9:-1 10:-1 11:-0.0805969 12:0.725854 13:-1 14:0.445086 15:-0.679136 16:-0.666663 17:0.809248 18:0.834066 19:-0.599996 20:1 21:0.890174 22:-0.333328 23:0.594594 24:-0.382342 25:-0.524211 26:0.67052 27:-1 28:1 29:0.751446 30:0.675036 31:0.890174 32:-1 33:0.513514 34:-0.428572 35:0.757226 36:-0.900875 37:-0.244443 
19.20469147112995 1:0.962243 2:-0.142855 3:0.890174 4:-1 5:-1 6:0.890174 7:0.840695 8:-1 9:0.809248 10:-0.359141 11:-0.0507464 12:-0.262772 13:-1 14:0.445086 15:-0.481861 16:-1 17:0.976878 18:-0.186408 19:-1 20:-0.860084 21:0.751446 22:-1 23:0.594594 24:-0.708317 25:1 26:0.907514 27:-0.5 28:-0.765655 29:0.890174 30:0.675036 31:0.907514 32:-1 33:1 34:0.142855 35:0.809248 36:0.278265 37:-0.155555 
7.877320317595432 1:0.74192 2:-0.428572 3:0.867052 4:-1 5:-0.6 6:0.774566 7:0.617902 8:-0.333333 9:0.907514 10:-0.978206 11:-0.617912 12:0.725854 13:-1 14:1 15:-0.20635 16:-1 17:0.890174 18:1 19:-0.599996 20:-0.381889 21:0.786128 22:-1 23:0.81081 24:-0.100286 25:0.658119 26:0.774566 27:-1 28:0.252324 29:0.445086 30:-0.18875 31:0.976878 32:-1 34:-0.714283 35:0.890174 36:-0.306139 37:-0.155555 
4.986957019817715 1:1 2:-0.714283 3:0.751446 4:-0.666667 5:1 6:0.867052 7:1 8:-1 9:0.867052 10:1 11:-0.588061 12:0.725854 13:-1 14:0.867052 15:0.0612227 16:-1 17:0.867052 18:0.834066 19:-1 20:-0.618248 21:0.867052 22:-1 23:0.486486 24:-0.100286 25:-0.565523 26:1 27:-0.5 28:0.292004 29:0.867052 30:1 31:0.867052 32:-1 33:0.486486 34:-1 35:-1 36:1 37:-0.275818 
46.8 1:0.962243 2:-0.428572 3:0.976878 4:-1 5:-1 6:0.751446 7:0.126859 8:-1 9:0.809248 10:-0.359141 11:-0.588061 12:0.0528539 13:-0.599996 14:0.757226 15:-0.72222 16:-1 17:0.976878 18:0.720386 19:-1 20:-0.565563 21:0.942196 22:-1 23:0.108108 24:-0.453974 25:0.445871 26:0.976878 27:-0.749997 28:-0.0229391 29:0.809248 30:-1 31:0.809248 32:-1 33:1 34:-0.714283 35:0.751446 36:-0.479604 37:0.556865 
31.30559729463638 1:-0.397466 2:-0.714283 3:1 4:-1 5:-0.6 6:0.867052 7:0.617902 8:-1 9:0.751446 10:-0.615177 11:-0.0805969 12:0.727602 13:-1 14:1 15:-0.504532 16:-1 17:0.930636 18:-0.322734 19:-0.599996 20:0.818056 21:0.809248 22:-1 23:0.81081 24:0.150775 25:0.276354 26:0.930636 27:-0.5 28:-0.910727 29:0.809248 30:1 31:0.445086 32:-0.599996 33:0.081082 34:-0.714283 35:0.867052 36:-0.479604 37:-0.275818 
45.96752353373881 1:0.197828 2:-0.142855 3:0.890174 4:-1 5:-0.799998 6:0.445086 7:-0.255239 8:-1 9:1 10:-0.387946 11:0.170148 12:0.73635 13:-1 14:0.930636 15:-0.790249 16:-0.666663 17:0.751446 18:-0.186408 19:-0.599996 20:0.123656 21:0.861272 22:0.333328 23:0.081082 24:-0.364256 25:1 26:0.751446 27:-0.249997 28:0.210168 29:0.890174 30:-0.466557 31:0.751446 32:-0.200002 33:0.594594 34:-1 35:0.780346 36:0.278265 37:-1 
46.8 1:-0.538662 2:-0.142855 3:0.751446 4:-0.666667 5:-0.6 6:0.976878 7:0.598455 8:-1 9:0.890174 10:-0.696107 11:0.361192 12:-0.262772 13:-1 14:0.890174 15:-0.303856 16:-1 17:0.445086 18:-0.266982 19:-0.599996 20:-0.578236 21:0.809248 22:-1 24:0.336542 25:-0.232194 26:0.786128 27:-0.5 28:-1 29:0.757226 30:0.499945 31:0.751446 32:-0.599996 33:0.594594 34:-0.714283 35:0.687862 36:-0.732573 37:-0.454904 
36.31043850585977 1:0.962243 2:-1 3:0.930636 4:-1 5:-0.2 6:0.687862 7:0.287808 8:-1 9:0.751446 10:-0.567324 11:-0.0805969 12:0.727602 13:-1 14:0.751446 15:-0.72222 16:-0.666663 17:0.976878 18:-0.322734 19:-1 20:-0.565563 21:0.867052 22:-1 23:0.594594 24:0.336542 25:-0.471506 26:0.976878 27:-0.749997 28:-0.592068 29:0.867052 30:0.133421 31:0.67052 32:-0.599996 33:1 34:-0.428572 35:0.751446 36:1 37:-0.230067 
6.783788811283007 1:-0.538662 2:-0.428572 3:0.976878 4:-1 5:-0.2 6:0.930636 7:0.617902 8:-1 9:0.976878 10:-0.394953 11:0.229849 12:0.585407 13:-1 14:1 15:1 16:-1 17:0.445086 18:1 19:-1 20:-0.381889 21:0.751446 22:-1 23:0.81081 24:-0.511041 25:0.445871 26:0.890174 27:-0.749997 28:-0.510231 29:0.867052 30:-0.224931 31:0.942196 32:-0.599996 33:0.594594 34:-1 35:0.890174 36:1 37:1 
8.652737535842649 1:1 2:-0.428572 3:0.890174 4:-1 5:-0.6 6:0.809248 7:-0.172304 8:-1 9:0.786128 10:-0.0595125 11:0.361192 12:0.642634 13:-1 14:0.687862 15:-0.630383 16:-0.333333 17:0.867052 18:0.720386 19:-0.599996 20:-0.461924 21:0.751446 22:-1 23:0.162162 24:0.178489 25:1 26:0.861272 27:-0.749997 28:-0.528833 29:0.861272 30:-0.227738 31:-1 32:0.200002 33:0.486486 34:-1 35:1 36:-0.364994 37:-0.275818 
21.12511060215594 1:0.197828 2:-1 3:0.757226 4:-1 5:-0.2 6:0.751446 7:1 8:-1 9:0.445086 10:-0.633467 11:0.361192 12:-0.174309 13:-1 14:0.867052 15:-0.790249 16:-1 17:0.751446 18:0.0953877 19:-1 20:0.0634794 21:0.751446 22:-1 23:0.486486 24:-0.0709242 25:-0.776351 26:0.751446 27:-0.5 28:0.252324 29:0.976878 30:0.122216 31:0.976878 32:-1 33:0.594594 34:-0.714283 35:0.976878 36:-1 37:1 
14.14034677787593 1:-0.521596 2:-0.428572 3:0.976878 4:-0.666667 5:-0.6 6:0.751446 7:1 8:-1 9:0.445086 10:-0.633467 11:0.199999 12:-0.262772 13:-1 14:0.867052 15:-0.504532 16:-1 17:1 18:0.720386 19:-1 20:-0.565563 21:-1 22:-1 23:0.486486 24:1 25:0.445871 26:0.930636 27:-0.749997 28:-1 29:0.751446 30:0.122216 31:0.751446 32:-1 33:0.81081 34:-1 35:0.751446 36:-0.208054 37:-0.454904 
46.8 1:-0.197828 2:-0.714283 3:0.445086 4:-0.666667 5:-0.799998 6:0.757226 7:0.598455 8:-1 9:0.67052 10:-0.813611 11:0.170148 12:0.0528539 13:-1 14:0.890174 15:-0.534015 16:-1 17:0.809248 18:-0.813588 19:-1 20:-0.578236 21:0.930636 22:-1 24:0.150775 25:0.175213 26:0.751446 27:-0.249997 28:0.210168 29:0.751446 30:-0.530526 31:0.751446 32:-0.599996 33:0.513514 34:-0.714283 35:0.687862 36:-0.900875 37:1 
22.72201663530754 1:-0.100595 2:-1 3:0.930636 4:-1 5:-0.399998 6:0.942196 7:0.482958 8:-0.666663 9:0.687862 10:-0.732685 11:0.194031 12:0.73635 13:-1 14:0.809248 15:0.190474 16:-1 17:0.942196 18:0.563589 19:-1 20:-0.767376 21:0.976878 22:-1 23:0.513514 24:0.178489 25:-0.471506 26:0.867052 27:-0.5 28:0.292004 29:0.867052 30:0.116845 31:0.867052 32:0.599996 33:-0.675676 34:-1 35:0.751446 36:1 37:-0.275818 
28.64536692645696 1:-0.197828 2:-0.714283 3:0.67052 4:-0.666667 5:-0.399998 6:0.867052 7:0.778845 8:-1 9:0.751446 10:-0.615177 11:-0.617912 12:0.73635 13:-1 14:0.976878 15:-0.790249 16:-1 17:0.809248 18:0.834066 19:-0.599996 20:-0.565563 21:0.751446 22:-1 23:1 24:-0.838657 25:-0.101134 26:0.751446 27:0.250003 28:0.210168 29:0.786128 30:1 31:0.751446 32:-0.599996 33:0.513514 34:-0.714283 35:0.751446 36:-0.310274 37:0.556865 
10.90593092551087 1:0.962243 2:-0.714283 3:0.867052 4:-0.666667 5:-0.2 6:0.867052 7:-0.172304 8:-1 9:-1 10:-1 11:0.170148 12:0.727602 13:-1 14:0.687862 15:-0.394556 16:-1 17:0.976878 18:1 19:-1 20:0.579966 21:0.757226 22:-1 23:0.162162 24:-0.51433 25:0.658119 26:-1 27:-0.5 28:-0.284561 29:0.809248 30:1 31:1 32:-0.599996 33:1 34:-0.714283 35:0.907514 36:-0.479604 37:0.120262 
5.682114269067832 1:-0.197828 2:-1 3:-1 4:-0.333335 5:-0.2 6:0.867052 7:0.482958 8:-1 9:1 10:-0.387946 11:1 12:1 13:-1 14:0.809248 15:-0.757366 16:-1 17:0.809248 18:0.834066 19:-0.599996 20:-0.70548 21:0.751446 22:-1 23:0.513514 24:-0.100286 25:-1 26:0.809248 27:-0.749997 28:-0.401118 29:0.930636 30:1 31:0.687862 32:-0.599996 33:0.513514 34:-1 35:0.445086 36:-0.375322 37:0.478428 
26.70576011688456 1:1 2:-1 3:0.976878 4:-1 5:0.2 6:1 7:-0.0828121 8:-1 9:0.867052 10:1 11:-0.78508 12:0.585407 13:-0.599996 14:0.687862 15:-0.790249 16:-1 17:0.867052 18:-0.322734 19:-1 20:0.0634794 21:0.976878 22:-1 23:-0.81081 24:0.178489 25:0.445871 26:0.751446 27:-0.749997 28:-0.910727 29:0.687862 30:-0.36944 31:0.445086 32:-0.200002 33:0.486486 34:-1 35:0.976878 36:-0.6128 37:0.0679713 
41.03508655876986 1:1 2:-0.714283 3:0.67052 4:-1 5:2.2e-006 6:0.687862 7:0.0504881 8:-0.666663 9:0.687862 10:-0.732685 11:-0.773138 12:0.725854 13:-0.599996 14:0.67052 15:0.0612227 16:-0.666663 17:0.867052 18:0.720386 19:-1 20:0.234491 21:0.67052 22:-1 23:-0.243244 24:-0.788168 25:-0.101134 26:1 27:-1 28:0.292004 29:0.687862 30:0.133421 31:0.867052 32:-0.200002 33:0.486486 34:-1 35:0.930636 36:-0.453792 37:-1 
9.79733161661736 1:0.962243 2:-0.428572 3:0.976878 4:-1 5:-0.399998 6:0.942196 7:0.840695 8:-1 9:1 10:-0.387946 11:-0.588061 12:-0.174309 13:-0.599996 14:0.445086 15:0.0612227 16:-1 17:0.976878 18:-0.0592335 19:-1 20:-0.578236 21:0.890174 22:-1 23:0.594594 24:0.336542 25:0.445871 26:1 27:-0.5 28:0.252324 29:1 30:0.116845 31:0.976878 32:-0.599996 33:1 34:-0.714283 35:0.687862 36:-0.603507 37:-0.275818 
41.34100057635769 1:-0.521596 2:-0.428572 3:0.445086 4:-1 5:-1 6:0.751446 7:-0.692629 8:-0.666663 9:0.890174 10:-0.696107 11:0.199999 12:0.73635 13:-1 14:-1 15:-0.72222 16:3.66667e-006 17:1 18:-0.266982 19:-0.599996 20:-0.70548 21:0.976878 22:-1 23:0.108108 24:-0.382342 25:0.175213 26:0.976878 27:-0.5 28:-0.31556 29:0.786128 30:0.122216 31:0.861272 32:-1 33:0.81081 34:-1 35:0.445086 36:-0.310274 37:-0.155555 
7.196704537487464 1:0.197828 2:-1 3:0.907514 4:1 5:-0.2 6:0.751446 7:0.840695 8:-1 9:0.867052 10:1 11:1 12:0.725854 13:-1 14:0.445086 15:0.221089 16:-1 17:0.751446 18:-0.813588 19:-1 20:1 21:0.751446 22:-1 23:0.594594 24:0.178489 25:-0.524211 26:0.757226 27:-0.749997 28:0.292004 29:0.809248 30:-1 31:0.867052 32:-0.599996 33:0.594594 34:-0.714283 35:0.757226 36:-0.479604 37:-0.264056 
6.748061966938478 1:1 2:-1 3:0.867052 4:-0.333335 5:-0.2 6:-1 7:0.126859 8:-1 9:0.867052 10:1 11:0.194031 12:-0.0580976 13:-1 14:0.757226 15:-0.394556 16:-1 17:0.867052 18:0.563589 19:-1 20:-0.618248 21:0.757226 22:-1 23:0.108108 24:-0.100286 25:0.658119 26:-1 27:-1 28:-0.528833 29:0.757226 30:-0.883273 31:-1 32:-1 33:0.486486 34:-1 35:-1 36:-0.732573 37:-0.454904 
46.8 1:1 2:-0.714283 3:1 4:-0.666667 5:-0.2 6:0.930636 7:1 8:-1 9:0.445086 10:-0.633467 11:-0.773138 12:-0.262772 13:-1 14:0.867052 15:-0.303856 16:-0.666663 17:0.867052 18:-0.807922 19:-0.599996 20:-0.860084 21:0.867052 22:-1 23:0.486486 24:-0.453974 25:0.276354 26:0.786128 27:-0.749997 28:-0.401118 29:0.930636 30:-0.224931 31:0.687862 32:-0.599996 33:0.486486 34:-1 35:0.809248 36:-0.375322 37:0.478428 
10.47095176480474 1:0.962243 2:0.142855 3:1 4:-1 5:-1 6:0.751446 7:0.840695 8:-0.666663 9:0.786128 10:-0.0595125 11:-0.474627 12:0.275024 13:-1 14:0.445086 15:-0.534015 16:-1 17:0.976878 18:-0.266982 19:-0.599996 20:0.579966 21:0.67052 22:-0.333328 23:0.594594 24:-0.382342 25:0.276354 26:0.751446 27:-0.749997 28:1 29:-1 30:0.122216 31:0.890174 32:-1 33:1 34:-0.714283 35:0.907514 36:-0.642742 37:0.478428 
4.889080133152046 1:-0.643135 2:-0.714283 3:0.751446 4:-0.666667 5:2.2e-006 6:0.867052 7:0.778845 8:-1 9:0.867052 10:1 11:-0.617912 12:0.73635 13:-1 14:0.976878 15:-0.303856 16:-1 17:0.751446 18:0.834066 19:-0.200002 20:1 21:0.687862 22:-1 23:1 24:0.336542 25:-0.565523 26:0.786128 27:-0.249997 28:1 29:1 30:1 31:0.890174 32:-0.200002 33:0.45946 34:-1 35:0.757226 36:-0.603507 37:-0.275818 
3.141969379347232 1:1 2:-0.714283 3:0.786128 4:-1 5:-0.399998 6:0.867052 7:0.482958 8:-0.666663 9:0.751446 10:-0.567324 11:0.361192 12:0.0528539 13:-0.599996 14:0.809248 15:-0.757366 16:-1 17:0.867052 18:0.141989 19:-0.599996 20:-0.565563 21:0.67052 22:-1 23:0.513514 24:-0.453974 25:0.0128212 26:0.809248 27:-0.5 28:0.252324 29:0.751446 30:1 31:0.976878 32:-1 33:0.486486 34:-1 35:0.751446 36:-0.208054 37:-0.218305 
18.25511370756431 1:-0.386606 2:-0.428572 3:0.890174 4:-1 5:-1 6:0.976878 7:0.0504881 8:-0.333333 9:0.930636 10:0.0144026 11:-0.205973 12:1 13:-1 14:0.67052 15:-0.303856 16:0.333333 17:0.774566 18:0.205577 19:-0.200002 20:-0.461924 21:0.976878 22:-1 23:-0.243244 24:-0.256691 25:1 26:0.786128 27:-1 28:0.252324 29:0.861272 30:0.499945 31:0.976878 32:-1 33:-0.756756 34:-1 35:1 36:-0.364994 37:-0.244443 
6.6868617147578 1:-0.197828 2:0.428572 3:0.976878 4:-0.666667 5:-0.6 6:-1 7:-1 8:-1 9:0.751446 10:-0.615177 11:0.170148 12:0.642634 13:-1 14:0.751446 15:0.190474 16:-1 17:-1 18:0.563589 19:-1 20:-0.618248 21:0.757226 22:-1 23:0.45946 24:-0.0709242 25:0.445871 26:0.867052 27:0.250003 28:1 29:0.890174 30:-0.883273 31:0.890174 32:-1 33:0.108108 34:-1 35:-1 36:0.278265 37:-0.275818 
11.35024930850395 1:0.74192 2:-0.142855 3:0.757226 4:-1 5:-0.6 6:0.890174 7:-1 8:-1 9:0.867052 10:1 11:0.194031 12:0.389479 13:-1 14:0.751446 15:-0.790249 16:-1 17:0.890174 18:0.720386 19:-1 20:-0.461924 21:-1 22:-1 23:0.45946 24:0.336542 25:-0.776351 26:0.751446 27:-0.249997 28:0.252324 29:-1 30:0.675036 31:0.976878 32:-1 34:-1 35:1 36:-0.642742 37:-1 
21.3616681250409 1:0.74192 2:-0.714283 3:0.757226 4:-0.666667 5:-0.799998 6:0.751446 7:0.287808 8:-1 9:1 10:-0.387946 11:0.194031 12:0.177813 13:-1 14:0.751446 15:0.221089 16:-1 17:0.890174 18:0.141989 19:-1 20:0.123656 21:0.751446 22:0.333328 23:0.594594 24:0.336542 25:-0.776351 26:0.757226 27:-0.5 28:-0.528833 29:0.780346 30:-1 31:-1 32:-0.599996 34:-0.428572 35:0.780346 36:-0.572531 37:0.120262 
13.39910925407701 1:-0.197828 2:-0.714283 3:0.445086 4:-0.666667 5:-0.399998 6:0.976878 7:0.778845 8:-1 9:0.867052 10:1 11:-0.0507464 12:0.0528539 13:-1 14:0.976878 15:-0.303856 16:-0.666663 17:-1 18:-0.266982 19:-0.200002 20:-0.618248 21:0.809248 22:-1 23:1 24:-0.788168 25:0.175213 26:0.786128 27:-0.749997 28:0.292004 29:0.757226 30:0.499945 31:0.867052 32:-1 33:0.108108 34:-1 35:-1 36:-0.732573 37:-0.405228 
40.51596917628532 1:-0.197828 2:-0.142855 3:0.751446 4:-0.666667 5:-0.6 6:0.774566 7:0.778845 8:-0.666663 9:0.890174 10:-0.696107 11:1 12:-0.174309 13:-1 14:0.976878 15:-0.504532 16:-1 17:0.809248 18:0.476046 19:-1 20:-0.381889 21:1 22:-1 23:1 24:-0.100286 25:-0.565523 26:0.930636 27:-0.249997 28:0.292004 29:0.976878 30:-0.18875 31:0.867052 32:-1 33:0.513514 34:-0.714283 35:0.890174 36:-1 37:-0.275818 
35.13408545015374 1:-0.86243 2:-0.142855 3:0.751446 4:-0.333335 5:-1 6:0.445086 7:0.598455 8:-1 9:0.890174 10:-0.696107 11:-0.588061 12:0.618398 13:-1 14:0.890174 15:-0.534015 16:3.66667e-006 17:0.907514 18:-0.807922 19:-1 20:1 21:0.809248 22:-1 24:-0.256691 25:-0.565523 26:0.751446 27:-0.749997 28:1 29:0.67052 30:-0.466557 31:0.890174 32:-1 33:-0.135136 34:-0.714283 35:0.757226 36:-0.593186 37:0.0679713 
27.14440247727443 1:0.426431 2:-1 3:0.907514 4:-0.666667 5:-0.6 6:0.751446 7:-0.222676 8:-1 9:0.867052 10:1 11:0.199999 12:0.642634 13:-0.599996 14:0.786128 15:-0.481861 16:-0.666663 17:0.757226 18:-0.266982 19:-0.599996 20:0.234491 21:0.687862 22:-1 23:-0.27027 24:-0.788168 25:-0.524211 26:0.907514 28:0.0948558 29:0.751446 30:-1 31:0.687862 32:-0.599996 33:0.108108 34:-0.142855 35:0.930636 36:-0.208054 37:-0.264056 
19.91787334913684 1:-0.643135 2:-1 3:0.687862 4:-0.333335 5:-0.399998 6:0.687862 7:-0.172304 8:-0.666663 9:0.867052 10:1 11:1 12:0.157065 13:-1 14:0.687862 15:-0.790249 16:-1 17:0.751446 18:0.476046 19:-1 20:-0.767376 21:0.930636 22:-1 23:0.162162 24:-0.382342 25:-0.243588 26:0.751446 27:-0.249997 28:0.292004 29:0.751446 30:0.133421 31:0.867052 32:0.200002 33:0.45946 34:-0.714283 35:0.751446 36:-0.900875 37:1 
11.10558526041623 1:0.426431 2:-0.142855 3:0.809248 4:-0.666667 5:-0.799998 6:0.786128 7:-0.172304 8:-1 9:0.809248 10:-0.359141 11:-0.205973 12:-0.174309 13:-1 14:0.687862 15:-0.394556 16:-0.666663 17:0.757226 18:-0.322734 19:-0.599996 20:-0.70548 21:0.809248 22:-1 23:0.162162 24:1 25:0.284899 26:-1 27:-1 28:-0.0229391 29:0.907514 30:0.250149 31:0.809248 32:-0.599996 33:0.108108 34:-0.714283 35:0.445086 36:-0.276197 37:1 
13.46983070714641 1:0.197828 2:-0.714283 3:-1 4:-0.666667 5:2.2e-006 6:0.809248 7:0.617902 8:-1 9:0.867052 10:1 11:-0.52836 12:-0.0580976 13:-1 14:1 15:0.190474 16:-0.666663 17:0.751446 18:-0.266982 19:-1 20:1 21:0.930636 22:-1 23:0.81081 24:-0.788168 25:-1 26:0.867052 27:-0.749997 28:-0.0229391 29:0.867052 30:-0.227738 31:0.809248 32:-1 33:0.594594 34:-1 35:0.757226 36:1 37:1 
16.30038933179698 1:-0.643135 2:-0.714283 3:0.445086 4:-1 5:-0.399998 6:0.751446 7:0.778845 8:-1 9:0.976878 10:-0.394953 11:0.361192 12:0.177813 13:-1 14:0.976878 15:-0.790249 16:-1 17:0.751446 18:0.563589 19:-0.599996 20:-0.578236 21:0.867052 22:-1 23:1 24:-0.838657 25:0.175213 26:0.751446 27:-0.5 28:-0.0229391 29:0.809248 30:0.122216 31:0.809248 32:-0.599996 33:0.45946 34:-0.428572 35:0.687862 36:-0.479604 37:1 
27.60098916791625 1:-0.197828 2:-1 3:0.930636 4:-1 5:-0.6 6:0.867052 7:0.287808 8:-0.333333 9:0.751446 10:-0.567324 11:0.170148 12:-0.174309 13:-0.599996 14:0.751446 15:-0.403625 16:-0.666663 17:-1 18:0.170302 19:-1 20:0.818056 21:0.751446 22:-0.333328 23:0.594594 24:-0.382342 25:-0.471506 26:0.687862 27:-0.5 28:-0.213889 29:0.809248 30:1 31:0.757226 32:-1 33:0.108108 34:-1 35:0.867052 36:-0.479604 37:0.120262 
38.85548524832551 1:-0.643135 2:-0.714283 3:0.67052 4:-1 5:-0.399998 6:0.976878 7:0.482958 8:-1 9:0.976878 10:-0.394953 11:-0.838806 12:-1 13:-1 14:0.809248 15:-0.679136 16:-1 17:0.751446 18:-0.266982 19:-1 20:-0.365481 21:0.867052 22:-1 23:0.513514 24:1 25:-0.101134 26:0.67052 27:0.250003 28:-1 29:0.930636 30:0.499945 31:0.751446 32:-1 33:0.45946 34:-1 35:0.67052 36:-0.375322 37:-0.264056 
10.93531627907152 1:0.426431 2:-1 3:0.809248 4:-0.333335 5:-0.399998 6:0.786128 7:0.617902 8:-0.666663 9:0.907514 10:-0.978206 11:0.199999 12:0.642634 13:-0.599996 14:1 15:-0.705213 16:-1 17:0.757226 18:0.834066 19:-0.200002 20:0.0634794 21:0.687862 22:-1 23:0.81081 24:0.178489 25:0.284899 26:0.687862 27:-0.749997 28:-0.659024 29:0.867052 30:0.250149 31:0.786128 32:-0.200002 33:0.108108 34:-0.428572 35:0.976878 36:1 37:0.292809 
7.570814330895736 1:1 2:-1 3:0.976878 4:-1 5:0.800002 6:-1 7:1 8:-1 9:0.976878 10:-0.394953 11:0.194031 12:0.177813 13:-1 14:0.867052 15:-0.394556 16:-1 17:0.867052 18:-0.266982 19:-1 20:0.818056 21:0.867052 22:-1 23:0.486486 24:-0.708317 25:0.445871 26:-1 27:-0.5 28:-0.0229391 29:0.867052 30:-0.883273 31:0.809248 32:-1 33:0.486486 34:-0.142855 35:0.867052 36:1 37:-1 
46.8 1:-0.643135 2:-0.714283 3:0.890174 4:-1 5:-0.399998 6:0.687862 7:0.126859 8:-1 9:0.930636 10:0.0144026 11:-0.838806 12:0.389479 13:-1 14:0.757226 15:-0.72222 16:-1 17:0.751446 18:0.0953877 19:-1 20:-0.767376 21:0.445086 22:-1 23:0.108108 24:-0.453974 25:1 26:0.976878 27:-0.249997 28:0.292004 29:0.67052 30:0.133421 31:0.867052 32:-0.599996 33:0.45946 34:-0.714283 35:0.751446 36:-0.593186 37:-0.230067 
46.8 1:-0.397466 2:-0.428572 3:0.751446 4:-1 5:-0.799998 6:0.757226 7:0.287808 8:-1 9:0.687862 10:-0.736949 11:0.199999 12:0.73635 13:-0.599996 14:0.751446 15:-0.705213 16:-1 17:0.930636 18:-0.813588 19:-1 20:0.234491 21:0.809248 22:-1 23:0.594594 24:-0.807662 25:-0.565523 26:0.687862 27:-0.749997 28:-0.592068 29:0.890174 30:-0.530526 31:0.67052 32:-0.599996 33:0.081082 34:-0.714283 35:0.930636 36:0.278265 37:1 
9.218873746857739 1:1 2:-0.428572 3:0.687862 4:-1 5:-0.399998 6:1 7:0.617902 8:-0.666663 9:0.751446 10:-0.615177 11:0.199999 12:0.73635 13:-1 14:1 15:0.190474 16:-1 17:0.867052 18:0.476046 19:-1 20:0.818056 21:0.907514 22:-1 23:0.81081 24:-0.838657 25:-0.243588 26:0.867052 27:-0.749997 28:0.252324 29:0.976878 30:-0.36944 31:0.976878 32:-0.599996 33:0.486486 34:0.428572 35:0.867052 36:-1 37:-0.230067 
10.23622266638327 1:-0.397466 2:-0.428572 3:0.445086 4:-0.666667 5:-0.6 6:0.757226 7:-0.255239 8:-0.666663 9:0.751446 10:-0.567324 11:-0.0507464 12:0.727602 13:-1 14:0.930636 15:1 16:-1 17:0.930636 18:-0.807922 19:-1 20:0.818056 21:0.976878 22:-1 23:0.081082 24:0.150775 25:0.175213 26:0.890174 27:-1 28:-0.213889 29:0.867052 30:-0.530526 31:0.757226 32:-1 33:0.081082 34:-1 35:0.867052 36:1 37:-1 
28.6973955227438 1:1 2:-0.428572 3:0.751446 4:-1 5:-0.6 6:0.976878 7:-0.255239 8:-1 9:0.930636 10:0.0144026 11:0.361192 12:0.585407 13:-1 14:0.930636 15:-0.679136 16:-0.666663 17:0.867052 18:0.205577 19:-1 20:-0.860084 21:0.890174 22:-1 23:0.081082 24:-0.382342 25:-0.565523 26:0.67052 27:-0.5 28:-1 29:0.687862 30:0.499945 31:0.751446 32:-0.200002 33:0.486486 34:-0.428572 35:0.809248 36:-0.6128 37:0.556865 
25.36849875593259 1:0.426431 2:-0.428572 3:0.930636 4:-0.666667 5:-0.6 6:0.907514 7:-0.277962 8:-0.333333 9:0.786128 10:-0.0595125 11:-0.78508 12:-0.0580976 13:-0.599996 14:0.774566 15:1 16:-1 17:0.757226 18:-0.266982 19:-0.599996 20:-0.860084 21:0.867052 22:-1 23:-0.756756 24:-0.511041 25:-0.471506 26:0.890174 27:-0.749997 28:-0.0229391 29:0.445086 30:-0.636048 31:0.809248 32:-1 33:0.108108 34:-0.714283 35:0.809248 36:-0.306139 37:0.292809 
24.32118107124617 1:-0.197828 2:-0.714283 3:0.809248 4:-1 5:-0.799998 6:1 7:0.617902 8:-0.666663 9:1 10:-0.387946 11:0.199999 12:0.585407 13:-0.599996 14:1 15:-0.705213 16:-1 17:-1 18:0.476046 19:-1 20:0.0634794 21:0.976878 22:-1 23:0.81081 24:0.336542 25:0.284899 26:0.687862 27:-1 28:-0.0229391 29:-1 30:-0.36944 31:0.809248 32:-0.200002 33:0.108108 34:-0.714283 35:0.976878 36:-0.642742 37:0.292809 
46.8 1:0.74192 2:-0.714283 3:0.867052 4:-0.666667 5:-0.6 6:0.976878 7:0.482958 8:-1 9:0.757226 10:-0.308542 11:-0.0507464 12:0.00962562 13:-0.599996 14:0.809248 15:-0.534015 16:-1 17:0.890174 18:-0.813588 19:-1 20:-0.565563 21:0.67052 22:-1 23:0.513514 24:-0.453974 25:0.658119 26:0.751446 27:-0.749997 28:0.252324 29:0.976878 30:0.499945 31:0.976878 32:-0.599996 34:-1 35:0.751446 36:-1 37:-0.454904 
9.454729321941109 1:-0.196794 2:-0.714283 3:0.687862 4:-0.666667 5:-1 6:0.687862 7:0.0504881 8:-1 9:0.757226 10:-0.308542 11:-0.78508 12:1 13:0.200002 14:0.67052 15:1 16:-1 17:0.780346 18:-0.186408 19:-0.599996 20:-0.767376 21:0.687862 22:-0.333328 23:-0.243244 24:-0.227337 25:0.358978 26:0.890174 27:-0.5 28:0.210168 29:0.445086 30:0.133421 31:0.751446 32:-0.200002 33:-1 34:-0.714283 35:0.751446 36:-0.306139 37:0.478428 
10.27248041854494 1:-0.521596 2:-0.214286 3:0.867052 4:-1 5:-0.725 6:0.976878 7:0.33021 8:-1 9:0.751446 10:-0.615177 11:0.229849 12:0.568162 13:-1 15:-0.790249 16:-1 17:1 18:1 19:-1 20:-0.381889 21:0.890174 22:-1 24:-0.00563778 25:0.658119 26:0.751446 27:-0.312499 28:-0.401118 29:0.907514 30:0.499945 31:0.687862 32:0.0999987 33:0.81081 34:-0.214286 35:0.890174 36:-0.276197 37:-0.454904 
46.8 1:0.197828 2:-0.428572 3:0.907514 4:-1 5:-0.6 6:0.786128 7:-0.277962 8:-0.333333 9:0.751446 10:-0.615177 11:-0.617912 12:0.389479 13:-0.200002 14:0.774566 15:0.0612227 16:-1 17:0.751446 18:-0.322734 19:-0.599996 20:-0.187273 21:1 22:-0.333328 23:-0.756756 24:0.178489 25:-0.524211 26:1 27:-0.249997 28:0.0948558 29:0.687862 30:0.250149 31:0.687862 32:-0.599996 33:0.594594 34:-0.714283 35:0.774566 36:-0.453792 37:-0.275818 
46.8 1:-0.465739 2:-0.714283 3:0.786128 4:-1 5:-0.6 6:0.687862 7:0.287808 8:-1 9:0.445086 10:-0.633467 11:-0.0507464 12:0.725854 13:-0.599996 14:0.751446 15:-0.630383 16:3.66667e-006 17:0.861272 18:-0.813588 19:-0.599996 20:-0.418166 21:0.867052 22:-1 23:0.594594 24:-0.788168 25:0.0128212 26:0.861272 27:-1 28:-0.284561 29:0.67052 30:-0.0498403 31:1 32:-0.599996 33:-0.486486 34:-1 35:0.861272 36:-0.593186 37:0.556865 
20.15345895977819 1:-0.197828 2:-0.428572 3:0.751446 4:-1 5:-0.399998 6:0.809248 7:-1 8:-1 9:0.976878 10:-0.394953 11:0.199999 12:-1 13:-0.599996 14:0.751446 15:-0.534015 16:-1 17:-1 18:-0.442074 19:-1 20:0.818056 21:0.687862 22:-1 23:0.45946 24:-0.511041 25:-0.232194 26:0.751446 27:-0.5 28:1 29:1 30:-0.227738 31:0.890174 32:-0.599996 33:0.108108 34:-1 35:0.867052 36:-0.603507 37:1 
10.72507529882426 1:-0.643135 2:-0.428572 3:0.687862 4:-0.666667 5:-0.399998 6:0.751446 7:0.482958 8:-0.666663 9:0.809248 10:-0.359141 11:0.194031 12:0.618398 13:-0.200002 14:0.809248 15:-0.757366 16:-1 17:0.751446 18:1 19:-1 20:-0.565563 21:0.757226 22:-1 23:0.513514 24:-0.382342 25:0.358978 26:0.809248 27:-0.5 28:0.0948558 29:0.867052 30:0.122216 31:0.687862 32:-1 33:0.45946 34:-1 35:0.751446 36:1 37:-0.264056 
-8 1:-0.531422 2:-1 3:0.809248 4:-1 5:-0.799998 6:0.757226 7:1 8:-0.333333 9:0.930636 10:0.0144026 11:0.229849 12:0.157065 13:-1 14:0.867052 15:-0.504532 16:-0.333333 17:0.67052 18:0.141989 19:-0.599996 20:0.579966 21:0.861272 22:-1 23:0.486486 24:-0.511041 25:0.284899 26:0.930636 27:-1 28:-0.284561 29:0.861272 30:-0.530526 31:1 32:-0.200002 33:-0.243244 34:-0.714283 35:0.907514 36:-0.364994 37:-0.218305 
-8 1:-0.386606 2:0.428572 3:0.907514 4:-1 5:-0.799998 6:0.890174 7:0.126859 8:-0.333333 9:0.942196 10:-0.751732 11:-0.52836 12:0.0528539 13:-1 14:0.757226 15:0.0612227 16:-1 17:0.774566 18:0.720386 19:-0.599996 20:0.234491 21:0.867052 22:-1 23:0.108108 24:1 25:-0.524211 26:1 27:-1 28:-0.49659 29:0.976878 30:0.675036 31:0.930636 32:-1 33:-0.756756 34:-0.714283 35:0.930636 36:-1 37:0.556865 
-8 1:-0.197828 2:-0.714283 3:0.976878 4:-1 5:-0.2 6:0.867052 7:1 8:-1 9:0.930636 10:0.0144026 11:-0.773138 12:-0.262772 13:-1 14:0.867052 15:-0.303856 16:-1 17:-1 18:0.720386 19:-0.599996 20:-0.618248 21:0.907514 22:-1 23:0.486486 24:0.178489 25:0.445871 26:0.786128 27:-0.749997 28:0.292004 29:0.687862 30:1 31:0.867052 32:-0.200002 33:0.108108 34:-0.714283 35:-1 36:-0.6128 37:-0.264056 
-6.659100874581095 1:-0.538662 2:-0.714283 3:0.757226 4:-1 5:-0.799998 6:0.976878 7:0.126859 8:-1 9:0.67052 10:-0.813611 11:-0.205973 12:0.727602 13:-1 14:0.757226 15:-0.394556 16:-0.666663 17:0.445086 18:0.205577 19:-1 20:0.234491 21:1 22:-1 23:0.108108 24:0.150775 25:-0.776351 26:-1 27:-0.5 28:-0.528833 29:0.907514 30:0.499945 31:-1 32:-1 33:0.594594 34:-0.428572 35:0.930636 36:-0.276197 37:1 
-8 1:-0.86243 2:-0.142855 3:0.445086 4:-1 5:-0.799998 6:0.751446 7:-0.500761 8:-0.666663 9:0.976878 10:-0.394953 11:-0.0507464 12:0.275024 13:-0.599996 14:0.907514 15:-0.72222 16:-1 17:0.907514 18:0.476046 19:-1 20:-0.461924 21:0.890174 22:-0.333328 23:-0.135136 24:-0.100286 25:0.175213 26:0.976878 27:-1 28:-0.0229391 29:0.687862 30:0.122216 31:0.809248 32:-1 33:-0.135136 34:-0.142855 35:1 36:-0.453792 37:1 
-3.730624600953701 1:-0.197828 2:-0.142855 3:0.890174 4:-1 5:-1 6:0.757226 7:-0.692629 8:-1 9:0.751446 10:-0.567324 11:0.194031 12:1 13:-1 14:-1 15:-0.72222 16:-0.666663 17:-1 18:-0.0126257 19:-0.599996 20:-0.381889 21:0.861272 22:-0.333328 23:0.108108 24:-0.788168 25:1 26:0.976878 27:-1 28:-0.0229391 29:0.890174 30:-0.530526 31:0.809248 32:-1 33:0.108108 34:-1 35:0.890174 36:0.278265 37:-0.155555 
-8 1:-0.197828 2:-0.714283 3:0.751446 4:-1 5:-1 6:0.687862 7:0.840695 8:-1 9:0.976878 10:-0.394953 11:0.170148 12:-0.0580976 13:-1 14:0.445086 15:-0.790249 16:-1 17:-1 18:-0.398951 19:-0.599996 20:-0.767376 21:0.687862 22:-1 23:0.594594 24:-0.100286 25:-0.565523 26:0.751446 28:-0.0229391 29:0.67052 30:0.133421 31:0.809248 32:-0.200002 33:0.108108 34:-1 35:0.751446 36:-0.593186 37:0.478428 
-8 1:1 2:0.142855 3:0.890174 4:-1 5:-0.799998 6:0.890174 7:0.840695 8:-1 9:0.67052 10:-0.813611 11:-0.617912 12:0.0528539 13:-1 14:0.445086 15:-0.757366 16:-0.666663 17:0.867052 18:-0.442074 19:-1 20:-0.860084 21:0.890174 22:-0.333328 23:0.594594 24:-0.511041 25:1 26:0.809248 27:-0.749997 28:-0.213889 29:0.809248 30:0.675036 31:0.757226 32:-0.599996 33:0.486486 34:-1 35:0.809248 36:-0.479604 37:-0.244443 
-8 1:1 2:-0.142855 3:0.751446 4:-1 5:-0.6 6:0.861272 7:0.778845 8:-0.666663 9:0.890174 10:-0.696107 11:0.199999 12:0.389479 13:-1 14:0.976878 15:-0.504532 16:-0.333333 17:0.867052 18:0.205577 19:-0.599996 20:-0.461924 21:0.774566 22:-1 23:1 24:1 25:-0.565523 26:0.930636 27:-0.5 28:-0.765655 29:0.976878 30:-0.185944 31:0.907514 32:-1 33:0.486486 34:-0.428572 35:1 36:-1 37:-0.275818 
-8 1:1 2:-0.428572 3:1 4:-1 5:-0.6 6:0.757226 7:-0.500761 8:-0.666663 9:0.774566 10:-0.861463 11:-0.773138 12:-0.169057 13:-0.599996 14:0.907514 15:1 16:-0.333333 17:0.867052 18:1 19:-0.599996 20:-0.383619 21:0.907514 22:-1 23:-0.135136 24:1 25:0.276354 26:0.890174 27:-0.5 28:0.292004 29:0.751446 30:-0.530526 31:0.867052 32:-1 33:0.486486 34:-0.142855 35:0.942196 36:-0.208054 37:-0.155555 
-8 1:1 2:-0.142855 3:0.867052 4:-0.666667 5:0.2 6:0.890174 7:0.0504881 8:-1 9:0.867052 10:1 11:0.170148 12:-0.169057 13:-1 14:0.67052 15:-0.790249 16:-0.666663 17:0.867052 18:-0.807922 19:-1 20:-0.381889 21:0.867052 22:-1 23:-0.243244 24:0.336542 25:0.658119 26:0.751446 28:0.252324 29:0.751446 30:0.675036 31:0.976878 32:-1 33:0.486486 34:-0.714283 35:0.890174 36:-0.208054 37:-0.275818 
-7.421279770372797 1:0.197828 2:-1 3:0.867052 4:-0.666667 5:0.400002 6:-1 7:-0.692629 8:-1 9:0.867052 10:1 11:-0.588061 12:0.725854 13:-1 14:-1 15:0.190474 16:-1 17:0.751446 18:0.834066 19:-1 20:-0.578236 21:0.867052 22:-1 23:0.108108 24:0.336542 25:0.658119 26:0.867052 27:-0.5 28:0.210168 29:1 30:-0.883273 31:0.751446 32:-0.200002 33:0.594594 34:-1 35:0.687862 36:-0.603507 37:-0.454904 
-8 1:0.74192 2:-0.142855 3:0.786128 4:-1 5:-1 6:0.890174 7:0.0504881 8:-0.666663 9:0.445086 10:-0.633467 11:-0.78508 12:-0.169057 13:-1 14:0.67052 15:-0.504532 16:-1 17:0.890174 18:-0.0126257 19:-0.599996 20:-0.365481 21:0.445086 22:-1 23:-0.243244 24:-0.382342 25:0.0128212 26:0.930636 27:-0.749997 28:1 29:-1 30:0.675036 31:0.890174 32:-0.599996 34:-1 35:0.67052 36:-0.642742 37:-0.264056 
-2.245946251241105 1:0.74192 2:-0.428572 3:0.930636 4:-1 5:-0.799998 6:-1 7:0.482958 8:-0.666663 9:0.751446 10:-0.615177 11:0.170148 12:-0.169057 13:-0.599996 14:0.809248 15:-0.403625 16:-1 17:0.890174 18:-0.813588 19:-1 20:0.818056 21:0.890174 22:-0.333328 23:0.513514 24:-0.453974 25:-0.471506 26:0.687862 27:-0.249997 28:-0.910727 29:0.751446 30:-0.883273 31:0.445086 32:-1 34:-1 35:0.867052 36:-0.208054 37:-0.920267 
-7.887887614055168 1:-0.86243 2:-0.428572 3:0.976878 4:-1 5:-0.6 6:0.780346 7:0.482958 8:-0.666663 9:0.809248 10:-0.359141 11:-0.838806 12:0.585407 13:-1 14:0.809248 15:-0.534015 16:-0.666663 17:0.907514 18:0.834066 19:-1 20:0.818056 21:0.861272 22:-0.333328 23:0.513514 24:-0.807662 25:0.445871 26:0.751446 27:-0.5 28:1 29:0.774566 30:-0.485933 31:0.890174 32:-0.599996 33:-0.135136 34:-0.714283 35:0.867052 36:-0.839958 37:-0.920267 
-0.6617416668701779 1:-0.397466 2:-0.428572 3:0.757226 4:-1 5:-0.2 6:0.809248 7:0.598455 8:-1 9:0.867052 10:1 11:-0.205973 12:0.725854 13:-1 14:0.890174 15:-0.705213 16:-1 17:0.930636 18:-0.322734 19:-1 20:0.0634794 21:0.687862 22:-1 24:-0.838657 25:-0.776351 26:0.687862 27:-0.749997 28:-0.401118 29:1 30:-0.227738 31:0.687862 32:0.599996 33:0.081082 34:-0.714283 35:0.976878 36:-0.603507 37:0.0679713 
-8 1:0.197828 2:-0.428572 3:0.907514 4:-1 5:-0.6 6:0.687862 7:-1 8:-1 9:0.687862 10:-0.732685 11:-0.205973 12:-0.0580976 13:-0.599996 14:0.751446 15:1 16:-0.333333 17:0.751446 18:-0.322734 19:-1 20:0.0634794 21:0.687862 22:-1 23:0.45946 24:-0.0709242 25:-0.524211 26:0.890174 27:-0.749997 28:-0.284561 29:0.867052 30:0.133421 31:1 32:-0.200002 33:0.594594 34:-0.428572 35:0.976878 36:1 37:-0.244443 
-8 1:0.197828 2:0.714283 3:0.751446 4:-1 5:-0.799998 6:0.751446 7:0.778845 8:-1 9:0.751446 10:-0.567324 11:-0.205973 12:0.0528539 13:-1 14:0.976878 15:1 16:-1 17:0.751446 18:0.720386 19:-1 20:-0.461924 21:0.942196 22:-1 23:1 24:1 25:-0.232194 26:0.890174 27:-1 28:-0.401118 29:0.907514 30:0.122216 31:0.687862 32:-0.599996 33:0.594594 34:-0.428572 35:1 36:-0.276197 37:-1 
-8 1:-0.643135 2:-0.714283 3:0.751446 4:-1 5:-0.6 6:0.687862 7:-0.172304 8:-0.666663 9:0.751446 10:-0.567324 11:0.199999 12:0.0528539 13:-0.200002 14:0.687862 15:-0.72222 16:-1 17:0.751446 18:-0.813588 19:-1 20:0.0634794 21:0.867052 22:-1 23:0.162162 24:-0.708317 25:-0.565523 26:0.976878 27:-0.249997 28:0.252324 29:0.67052 30:-0.0498403 31:0.976878 32:-0.200002 33:0.45946 34:-1 35:0.976878 36:-0.593186 37:0.556865 
-8 1:0.962243 2:-1 3:0.907514 4:-0.333335 5:-0.6 6:0.751446 7:0.617902 8:-1 9:0.687862 10:-0.732685 11:0.361192 12:-0.224537 13:-1 14:1 15:-0.679136 16:-0.666663 17:0.976878 18:0.0953877 19:-1 20:0.0634794 21:0.976878 22:-1 23:0.81081 24:-0.0709242 25:-0.524211 26:0.67052 27:-0.5 28:0.210168 29:0.757226 30:0.122216 31:0.751446 32:-0.599996 33:1 34:-0.714283 35:0.976878 36:-0.732573 37:-0.454904 
-0.06968569875574947 1:0.197828 2:-0.714283 3:0.867052 4:-1 5:-0.6 6:0.751446 7:-0.255239 8:-1 9:0.751446 10:-0.567324 11:-0.0805969 12:-1 13:-1 14:0.930636 15:0.190474 16:-1 17:0.751446 18:0.0953877 19:-1 20:-0.381889 21:1 22:-0.333328 23:0.081082 24:-0.788168 25:0.658119 26:0.867052 27:-0.5 28:-0.765655 29:0.751446 30:0.122216 31:0.907514 32:-1 33:0.594594 34:-0.142855 35:0.890174 36:-0.900875 37:0.120262 
-8 1:-1 2:-0.428572 3:0.930636 4:-1 5:-0.399998 6:1 7:1 8:-1 9:0.976878 10:-0.394953 11:0.361192 12:-0.174309 13:-1 14:0.867052 15:-0.705213 16:-1 17:0.687862 18:0.476046 19:-0.200002 20:0.0634794 21:0.890174 22:-1 23:0.486486 24:-0.0709242 25:-0.471506 26:0.687862 27:-0.5 28:0.210168 29:0.809248 30:-0.36944 31:0.751446 32:-0.200002 33:0.162162 34:-0.714283 35:0.976878 36:-0.479604 37:0.556865 
-8 1:-0.465739 2:-0.428572 3:0.757226 4:-1.83333e-006 5:-0.6 6:0.757226 7:-0.191752 8:-1 9:0.757226 10:-0.308542 11:0.199999 12:0.725854 13:-1 14:0.780346 15:1 16:-0.666663 17:0.861272 18:-0.807922 19:-1 20:1 21:0.890174 22:-0.333328 23:-1 24:0.178489 25:-0.776351 26:0.890174 27:-0.5 28:0.210168 29:0.751446 30:-0.530526 31:0.751446 32:-0.599996 33:-0.486486 34:-1 35:0.757226 36:-0.900875 37:-0.155555 
-8 1:1 2:-0.142855 3:0.907514 4:-0.666667 5:-0.2 6:0.976878 7:1 8:-1 9:0.890174 10:-0.696107 11:0.170148 12:0.73635 13:-1 14:0.867052 15:-0.534015 16:-1 17:0.867052 18:0.834066 19:-1 20:0.0634794 21:0.976878 22:-1 23:0.486486 24:-0.511041 25:-0.524211 26:0.751446 27:-0.5 28:0.210168 29:0.757226 30:0.499945 31:0.751446 32:-0.200002 33:0.486486 34:-0.714283 35:0.976878 36:-0.732573 37:-1 
-1.697223246835991 1:0.74192 2:-0.428572 3:0.687862 4:-1 5:-0.6 6:0.751446 7:0.778845 8:-1 9:0.867052 10:1 11:0.229849 12:0.73635 13:-0.599996 14:0.976878 15:-0.303856 16:-0.666663 17:0.890174 18:0.0953877 19:0.200002 20:-0.381889 21:0.445086 22:-1 23:1 24:-1 25:0.358978 26:0.786128 27:-0.749997 28:-0.528833 29:0.976878 30:-1 31:-1 32:-0.200002 34:-1 35:0.890174 36:-1 37:-1 
-8 1:0.197828 2:-0.714283 3:0.751446 4:-1 5:-0.799998 6:0.976878 7:0.0504881 8:-1 9:0.907514 10:-0.978206 11:0.170148 12:0.585407 13:-1 14:0.67052 15:0.0612227 16:-1 17:0.751446 18:0.720386 19:-1 20:0.818056 21:0.751446 22:-1 23:-0.243244 24:-0.0709242 25:-0.565523 26:1 28:-0.213889 29:0.751446 30:0.499945 31:0.757226 32:-1 33:0.594594 34:-0.428572 35:0.867052 36:-0.900875 37:-0.230067 
-8 1:1 2:-1 3:0.751446 4:-1 5:-0.2 6:0.867052 7:0.778845 8:-1 9:0.930636 10:0.0144026 11:-1 12:0.00962562 13:0.200002 14:0.976878 15:-0.504532 16:-0.666663 17:0.867052 18:0.205577 19:-0.599996 20:0.0634794 21:0.687862 22:-1 23:1 24:0.150775 25:-0.232194 26:0.930636 27:-0.749997 28:-0.592068 29:0.867052 30:1 31:0.67052 32:-0.599996 33:0.486486 34:-1 35:0.976878 36:1 37:0.478428 
-8 1:-0.379366 2:-0.428572 3:1 4:-0.333335 5:-1 6:0.976878 7:0.617902 8:-1 9:0.757226 10:-0.308542 11:0.170148 12:0.177813 13:-0.200002 14:1 15:-0.790249 16:-1 17:0.687862 18:0.720386 19:-1 20:-0.565563 21:0.751446 22:-1 23:0.81081 24:1 25:0.276354 26:0.751446 28:-0.284561 29:0.751446 30:0.499945 31:1 32:-1 33:-0.81081 34:-0.714283 35:0.751446 36:-0.900875 37:0.0679713 
-8 1:-0.538662 2:-0.714283 3:0.867052 4:-1 5:-0.2 6:0.751446 7:0.617902 8:-1 9:0.751446 10:-0.567324 11:0.361192 12:0.0528539 13:-1 14:1 15:-0.72222 16:-1 17:0.445086 18:1 19:-1 20:-0.381889 21:0.687862 22:-1 23:0.81081 24:0.336542 25:0.658119 26:0.976878 27:-0.749997 28:-1 29:0.809248 30:0.122216 31:0.751446 32:-0.200002 33:0.594594 34:-1 35:0.890174 36:-0.479604 37:0.120262 
-8 1:-0.521596 2:-1 3:0.751446 4:-1 5:-0.2 6:0.867052 7:0.126859 8:-1 9:0.751446 10:-0.567324 11:-0.588061 12:-0.169057 13:-1 14:0.757226 15:0.190474 16:-1 17:1 18:-0.266982 19:-1 20:-0.860084 21:0.907514 22:-1 23:0.108108 24:-0.382342 25:-0.232194 26:0.867052 27:-0.5 28:-0.765655 29:0.867052 30:1 31:0.907514 32:-1 33:0.81081 34:-0.428572 35:0.809248 36:1 37:-1 
-8 1:-1 2:-0.714283 3:0.751446 4:-1 5:-0.6 6:0.67052 7:-0.172304 8:-1 9:0.445086 10:-0.633467 11:0.361192 12:0.727602 13:-1 14:0.687862 15:0.0612227 16:-1 17:0.687862 18:0.563589 19:-1 20:-0.381889 21:1 22:-1 23:0.162162 24:-0.511041 25:-0.232194 26:1 27:-0.749997 28:-1 29:0.867052 30:-0.59986 31:0.751446 32:-0.200002 33:0.162162 34:-1 35:0.890174 36:1 37:0.478428 
-8 1:0.426431 2:-0.428572 3:0.687862 4:-0.333335 5:-0.6 6:0.786128 7:-0.255239 8:-1 9:0.445086 10:-0.633467 11:0.361192 12:0.725854 13:-1 14:0.930636 15:-0.504532 16:-1 17:0.757226 18:-0.807922 19:-0.200002 20:0.579966 21:0.976878 22:-0.333328 23:0.081082 24:-0.382342 25:-0.243588 26:0.930636 27:-1 28:-0.401118 29:0.780346 30:0.250149 31:0.687862 32:0.200002 33:0.108108 34:-0.714283 35:0.907514 36:-0.572531 37:0.556865 
-7.92151154886534 1:0.962243 2:-0.428572 3:0.687862 4:-0.666667 5:-1 6:1 7:-0.277962 8:-0.666663 9:-1 10:-1 11:0.170148 12:0.177813 13:-0.599996 14:0.774566 15:1 16:-1 17:0.976878 18:0.720386 19:-0.599996 20:0.0634794 21:0.809248 22:-1 23:-0.756756 24:-0.382342 25:0.358978 26:0.890174 27:-0.5 28:-0.659024 29:0.757226 30:-0.36944 31:0.786128 32:-0.599996 33:1 34:-0.428572 35:0.976878 36:-0.732573 37:-0.264056 
-1.687955936905626 1:-0.86243 2:-0.428572 3:0.867052 4:-1 5:2.2e-006 6:0.907514 7:0.287808 8:-1 9:0.976878 10:-0.394953 11:-0.205973 12:0.73635 13:-1 14:0.751446 15:0.190474 16:-1 17:0.907514 18:-0.813588 19:-1 20:-0.565563 21:0.867052 22:-1 23:0.594594 24:-0.51433 25:0.658119 26:0.867052 27:-1 28:-1 29:0.907514 30:-0.636048 31:0.751446 32:-1 33:-0.135136 34:0.142855 35:0.751446 36:-0.276197 37:-0.155555 
-8 1:-0.197828 2:-0.714283 3:0.867052 4:-0.333335 5:-0.399998 6:0.861272 7:0.778845 8:-1 9:0.445086 10:-0.633467 11:1 12:0.0528539 13:-1 14:0.976878 15:-0.705213 16:-0.333333 17:-1 18:0.720386 19:-1 20:-0.565563 21:-1 22:-1 23:1 24:0.336542 25:0.658119 26:0.687862 27:-0.5 28:-0.31556 29:0.757226 30:-0.185944 31:0.861272 32:-0.599996 33:0.108108 34:-1 35:0.751446 36:-0.732573 37:0.478428 
-5.710855407197026 1:0.197828 2:-0.428572 3:0.976878 4:-1 5:-1 6:0.751446 7:0.287808 8:-0.666663 9:0.976878 10:-0.394953 11:-0.0507464 12:0.727602 13:-1 14:0.751446 15:1 16:-1 17:0.751446 18:-0.813588 19:-0.599996 20:-0.381889 21:1 22:-1 23:0.594594 24:-0.51433 25:0.445871 26:0.890174 27:-0.249997 28:0.252324 29:0.751446 30:-1 31:0.976878 32:-1 33:0.594594 34:-0.428572 35:0.890174 36:-0.900875 37:-0.658825 
-6.248011903428267 1:0.74192 2:-0.714283 3:-1 4:-0.333335 5:-1 6:0.976878 7:0.482958 8:-0.666663 9:0.907514 10:-0.978206 11:0.199999 12:0.73635 13:-1 14:0.809248 15:-0.481861 16:-1 17:0.890174 18:0.0953877 19:-1 20:1 21:0.757226 22:-1 23:0.513514 24:-0.51433 25:-1 26:0.907514 27:-0.5 28:0.252324 29:0.976878 30:0.499945 31:0.976878 32:-0.599996 34:-0.428572 35:0.757226 36:-1 37:-0.275818 
-8 1:1 2:-0.142855 3:0.751446 4:-0.666667 5:-0.6 6:0.774566 7:0.778845 8:3.66667e-006 9:0.890174 10:-0.696107 11:0.199999 12:-0.262772 13:-1 14:0.976878 15:-1 16:-0.666663 17:0.867052 18:-0.266982 19:-1 20:-0.860084 21:0.687862 22:-1 23:1 24:-0.255051 25:-0.565523 26:0.445086 27:-0.5 28:0.252324 29:0.445086 30:-0.18875 31:0.976878 32:-0.599996 33:0.486486 34:-0.714283 35:0.809248 36:-0.306139 37:0.556865 
-8 1:0.74192 2:-0.142855 3:0.867052 4:-1 5:-0.6 6:1 7:0.840695 8:-1 9:0.445086 10:-0.633467 11:0.199999 12:0.0528539 13:-1 14:0.445086 15:-0.72222 16:-1 17:0.890174 18:-0.813588 19:-1 20:-0.578236 21:1 22:-1 23:0.594594 24:-0.51433 25:0.658119 26:0.976878 27:-1 28:-0.213889 29:1 30:-0.36944 31:0.757226 32:-0.599996 34:-0.428572 35:0.687862 36:-0.603507 37:-0.230067 
-3.656850291894247 1:-0.521596 2:0.142855 3:0.930636 4:-1 5:-1 6:0.751446 7:-1 8:-1 9:1 10:-0.387946 11:0.194031 12:0.642634 13:-1 14:0.751446 15:-0.790249 16:-1 17:1 18:-0.322734 19:-1 20:-0.381889 21:0.751446 22:-1 23:0.45946 24:1 25:-0.471506 26:0.751446 27:0.5 28:-0.528833 29:0.809248 30:-1 31:-1 32:-1 33:0.81081 34:-1 35:0.890174 36:-0.479604 37:0.556865 
-4.355921572660582 1:0.74192 2:-0.428572 3:0.780346 4:-1 5:-0.399998 6:0.867052 7:1 8:-1 9:0.445086 10:-0.633467 11:0.361192 12:0.618398 13:-1 14:0.867052 15:-0.394556 16:-1 17:0.890174 18:-0.322734 19:-0.599996 20:-0.618248 21:0.786128 22:-0.333328 23:0.486486 24:-0.51433 25:-0.307686 26:-1 27:-1 28:-0.213889 29:-1 30:1 31:0.757226 32:-0.599996 34:-1 35:-1 36:-0.642742 37:0.556865 
-8 1:-0.397466 2:-0.714283 3:0.809248 4:-0.666667 5:-0.6 6:0.976878 7:0.482958 8:-1 9:0.751446 10:-0.567324 11:-0.588061 12:0.585407 13:-1 14:0.809248 15:-1 16:-1 17:0.930636 18:0.834066 19:-1 20:0.0634794 21:0.942196 22:-1 23:0.513514 24:-0.838657 25:0.284899 26:0.445086 27:-0.5 28:0.210168 29:0.890174 30:0.499945 31:0.751446 32:-1 33:0.081082 34:-0.714283 35:0.976878 36:0.278265 37:0.120262 
-1.717681031960166 1:-0.196794 2:-0.428572 3:0.687862 4:-1 5:-1 6:-1 7:-0.255239 8:-1 9:0.445086 10:-0.633467 11:-0.0507464 12:0.73635 13:-0.599996 14:0.930636 15:-0.705213 16:3.66667e-006 17:0.780346 18:1 19:-1 20:-0.381889 21:0.861272 22:-0.333328 23:0.081082 24:-0.788168 25:-0.243588 26:0.687862 27:-1 28:0.252324 29:0.445086 30:-0.883273 31:0.976878 32:-0.200002 33:-1 34:-1 35:0.890174 36:-0.306139 37:-0.155555 
-8 1:-0.538662 2:-0.142855 3:0.890174 4:-1 5:-1 6:0.976878 7:0.778845 8:-0.666663 9:0.445086 10:-0.633467 11:-0.0507464 12:0.727602 13:-0.599996 14:0.976878 15:-0.403625 16:-0.333333 17:0.445086 18:0.720386 19:-1 20:-0.461924 21:0.861272 22:-0.333328 23:1 24:1 25:1 26:0.687862 27:-0.749997 28:-0.284561 29:0.861272 30:0.499945 31:1 32:-1 33:0.594594 34:-1 35:1 36:-0.364994 37:-0.275818 
-8 1:-0.197828 2:-0.714283 3:0.867052 4:-1 5:-0.6 6:0.751446 7:-0.329972 8:-0.666663 9:0.890174 10:-0.696107 11:-0.0805969 12:0.585407 13:-1 14:0.942196 15:-0.72222 16:-1 17:0.809248 18:-0.186408 19:-1 20:-0.365481 21:0.751446 22:-1 23:-0.675676 24:-0.100286 25:0.658119 26:0.976878 28:0.210168 29:0.867052 30:-1 31:0.751446 32:-1 33:0.513514 34:-0.428572 35:0.67052 36:1 37:-0.405228 
-8 1:0.74192 2:-0.714283 3:0.445086 4:-1 5:-1 6:0.757226 7:-0.255239 8:-1 9:0.976878 10:-0.394953 11:0.170148 12:0.727602 13:-0.599996 14:0.930636 15:-0.481861 16:-1 17:0.890174 18:0.476046 19:-1 20:-0.618248 21:0.687862 22:-1 23:0.081082 24:-0.100286 25:0.175213 26:0.907514 27:-0.749997 28:-1 29:0.751446 30:-0.530526 31:0.751446 32:-0.599996 34:-0.428572 35:-1 36:-0.900875 37:-0.264056 
-6.510771722251127 1:1 2:-1 3:0.976878 4:-1 5:-0.6 6:0.751446 7:0.0504881 8:-0.666663 9:1 10:-0.387946 11:-0.0507464 12:0.727602 13:-0.599996 14:0.67052 15:-0.790249 16:-0.666663 17:0.867052 18:0.563589 19:-0.599996 20:-0.618248 21:1 22:-1 23:-0.243244 24:-0.838657 25:0.445871 26:0.751446 27:-0.249997 28:-1 29:0.786128 30:-1 31:0.751446 32:-1 33:0.486486 34:-0.714283 35:-1 36:-0.310274 37:-0.244443 
-2.474079221172766 1:0.962243 2:-1 3:0.809248 4:-1 5:-0.799998 6:0.751446 7:0.482958 8:-1 9:0.867052 10:1 11:-0.0507464 12:0.618398 13:-0.599996 14:0.809248 15:-0.403625 16:-1 17:0.976878 18:-0.266982 19:-0.599996 20:0.0634794 21:0.809248 22:-1 23:0.513514 24:-1 25:0.284899 26:0.687862 27:-0.249997 28:-0.49659 29:0.809248 30:-1 31:0.930636 32:0.200002 33:1 34:-1 35:0.976878 36:-0.479604 37:-0.920267 
-8 1:1 2:-0.428572 3:0.751446 4:-1 5:-0.2 6:0.861272 7:0.0504881 8:-1 9:0.907514 10:-0.978206 11:-0.0805969 12:0.73635 13:-1 14:0.67052 15:0.190474 16:-0.666663 17:0.867052 18:1 19:-1 20:-0.565563 21:0.867052 22:-1 23:-0.243244 24:-0.838657 25:-0.232194 26:0.867052 27:-1 28:-0.765655 29:0.809248 30:-0.185944 31:0.907514 32:-1 33:0.486486 34:0.142855 35:0.751446 36:-0.479604 37:-0.920267 
-8 1:-0.86243 2:-0.428572 3:0.687862 4:-1 5:-0.399998 6:0.942196 7:0.287808 8:-1 9:0.890174 10:-0.696107 11:-0.0507464 12:-1 13:-1 14:0.751446 15:-0.534015 16:-1 17:0.907514 18:-0.813588 19:-0.599996 20:-0.365481 21:0.976878 22:-1 23:0.594594 24:-0.51433 25:-0.243588 26:0.751446 27:-0.5 28:0.292004 29:0.751446 30:0.116845 31:0.867052 32:-0.599996 33:-0.135136 34:-0.714283 35:0.67052 36:-0.900875 37:0.556865 
-8 1:-1 2:-0.714283 3:0.751446 4:-1 5:-0.399998 6:0.976878 7:0.617902 8:-1 9:0.751446 10:-0.615177 11:0.361192 12:0.00962562 13:-0.200002 14:1 15:-0.757366 16:-1 17:0.687862 18:0.0953877 19:-0.599996 20:-0.578236 21:0.907514 22:-1 23:0.81081 24:0.336542 25:-0.232194 26:0.809248 27:-0.749997 28:-1 29:0.930636 30:0.499945 31:0.751446 32:0.200002 33:0.162162 34:-0.714283 35:0.687862 36:-0.375322 37:0.556865 
-2.80582327861021 1:-0.197828 2:-0.142855 3:0.786128 4:-1 5:-1 6:0.751446 7:-0.692629 8:-1 9:0.786128 10:-0.0595125 11:0.229849 12:-0.174309 13:-1 14:-1 15:1 16:-0.666663 17:0.809248 18:-0.442074 19:-0.200002 20:-0.70548 21:0.890174 22:-1 23:0.108108 24:-0.788168 25:0.0128212 26:0.890174 27:-0.5 28:-0.213889 29:0.445086 30:-1 31:0.757226 32:-0.200002 33:0.513514 34:-0.714283 35:0.445086 36:-0.306139 37:-0.275818 
-1.577966833544476 1:-0.643135 2:-1 3:0.687862 4:-1 5:-0.6 6:0.867052 7:-0.277962 8:-0.666663 9:0.930636 10:0.0144026 11:-0.0507464 12:-0.0580976 13:-0.599996 14:0.774566 15:-0.403625 16:-0.666663 17:0.751446 18:0.0953877 19:-1 20:-0.565563 21:0.976878 22:-1 23:-0.756756 24:-0.382342 25:-0.243588 26:0.687862 27:-0.749997 28:-0.284561 29:0.930636 30:1 31:1 32:-0.200002 33:0.45946 34:-1 35:0.751446 36:-0.375322 37:0.0679713 
-0.2872032425928935 1:-0.197828 2:-0.714283 3:0.774566 4:-1 5:-0.399998 6:0.907514 7:-0.500761 8:-0.666663 9:0.976878 10:-0.394953 11:0.194031 12:0.727602 13:-1 14:0.907514 15:-0.757366 16:-1 17:-1 18:-0.186408 19:-1 20:-0.461924 21:0.751446 22:-1 23:-0.135136 24:-0.511041 25:-0.625352 26:0.809248 27:-1 28:1 29:0.751446 30:-0.636048 31:0.890174 32:-1 33:0.108108 34:-0.428572 35:1 36:-0.900875 37:-0.218305 
-8 1:0.74192 2:-0.714283 3:0.976878 4:-1 5:-0.799998 6:1 7:0.617902 8:-1 9:0.942196 10:-0.751732 11:0.199999 12:0.177813 13:-1 14:1 15:-0.534015 16:-1 17:0.890174 18:-0.0126257 19:-1 20:-0.767376 21:1 22:-1 23:0.81081 24:0.336542 25:0.445871 26:0.751446 27:-0.749997 28:-0.401118 29:0.751446 30:-0.36944 31:0.687862 32:-0.599996 34:-0.714283 35:0.751446 36:-0.900875 37:-1 
-2.33400381099558 1:1 2:-1 3:0.67052 4:-0.666667 5:-0.6 6:0.751446 7:-0.277962 8:3.66667e-006 9:0.774566 10:-0.861463 11:0.229849 12:0.00962562 13:-0.599996 14:0.774566 15:-0.790249 16:-1 17:0.867052 18:-1 19:-1 20:-0.565563 21:0.930636 22:-1 23:-0.756756 24:-0.100286 25:-0.101134 26:0.751446 27:-0.749997 28:-0.49659 29:0.67052 30:0.122216 31:0.930636 32:-0.599996 33:0.486486 34:-1 35:0.751446 36:-0.593186 37:0.292809 
-8 1:0.74192 2:-0.714283 3:0.930636 4:-0.333335 5:2.2e-006 6:0.867052 7:1 8:-1 9:0.751446 10:-0.567324 11:1 12:0.0528539 13:-1 14:0.867052 15:0.190474 16:-0.666663 17:0.890174 18:-0.807922 19:-1 20:0.0634794 21:0.751446 22:-1 23:0.486486 24:0.150775 25:-0.471506 26:0.867052 27:-0.749997 28:-1 29:0.861272 30:1 31:0.751446 32:-0.599996 34:-1 35:0.976878 36:-0.364994 37:-1 
-1.197254515301456 1:-0.86243 2:-0.714283 3:0.890174 4:-1 5:-0.6 6:-1 7:1 8:-1 9:0.867052 10:1 11:0.194031 12:0.0528539 13:-1 14:0.867052 15:-0.303856 16:-0.666663 17:0.907514 18:1 19:-0.599996 20:-0.461924 21:0.445086 22:-1 23:0.486486 24:-0.382342 25:1 26:0.786128 27:-0.249997 28:-0.0229391 29:-1 30:-0.883273 31:0.809248 32:-0.200002 33:-0.135136 34:-0.714283 35:1 36:-0.642742 37:-0.920267 
-4.949894000744791 1:0.962243 2:-1 3:0.930636 4:-0.666667 5:-0.6 6:0.976878 7:-0.329972 8:-0.333333 9:0.751446 10:-0.567324 11:-0.731346 12:0.725854 13:-0.200002 14:0.942196 15:-0.534015 16:-1 17:0.976878 18:-0.807922 19:-0.599996 20:-0.767376 21:0.930636 22:-1 23:-0.675676 24:-0.255051 25:-0.471506 26:0.751446 27:-0.749997 28:-0.90329 29:0.867052 30:0.499945 31:0.774566 32:-0.599996 33:1 34:-0.714283 35:0.751446 36:1 37:-1 
-8 1:-0.531422 2:0.142855 3:0.890174 4:-1 5:-0.399998 6:0.67052 7:1 8:-1 9:1 10:-0.387946 11:0.361192 12:-0.174309 13:-1 14:0.867052 15:0.0612227 16:-0.333333 17:0.67052 18:0.834066 19:-1 20:0.579966 21:0.976878 22:-1 23:0.486486 24:1 25:1 26:1 27:-0.749997 28:-0.49659 29:0.890174 30:-0.59986 31:0.930636 32:-1 33:-0.243244 34:-0.714283 35:0.907514 36:0.278265 37:-0.244443 
-1.627018385465231 1:-0.386606 2:0.142855 3:0.890174 4:-1 5:-0.6 6:0.890174 7:0.617902 8:-0.666663 9:0.751446 10:-0.615177 11:-0.0805969 12:-0.174309 13:-1 14:1 15:-0.394556 16:-1 17:0.774566 18:0.720386 19:-0.599996 20:-0.325458 21:0.976878 22:-1 23:0.81081 24:1 25:1 26:-1 27:-0.749997 28:-0.910727 29:0.976878 30:0.675036 31:0.445086 32:-1 33:-0.756756 34:-0.714283 35:0.786128 36:-1 37:-1 
-0.4359214232358846 1:-1 2:-0.428572 3:0.809248 4:-1 5:-0.799998 6:0.890174 7:-0.255239 8:-1 9:0.942196 10:-0.751732 11:-1 12:0.618398 13:-1 14:0.930636 15:0.0612227 16:-1 17:0.687862 18:1 19:-0.200002 20:0.234491 21:1 22:-0.333328 23:0.081082 24:-0.788168 25:0.284899 26:1 27:-0.5 28:0.252324 29:0.890174 30:0.675036 31:0.976878 32:0.200002 33:0.162162 34:-1 35:0.930636 36:0.278265 37:-1 
-8 1:0.74192 2:-0.714283 3:0.751446 4:-1 5:-0.399998 6:0.930636 7:1 8:-0.666663 9:0.976878 10:-0.394953 11:-1 12:0.725854 13:-0.599996 14:0.867052 15:-0.695012 16:-0.666663 17:0.890174 18:0.476046 19:-0.599996 20:-0.187273 21:1 22:-1 23:0.486486 24:-0.382342 25:-0.565523 26:0.942196 27:-0.749997 28:-0.49659 29:0.687862 30:-0.224931 31:0.930636 32:-0.599996 34:-0.714283 35:0.774566 36:-0.6128 37:0.120262 
-8 1:0.962243 2:-0.428572 3:0.809248 4:-1 5:-0.399998 6:0.809248 7:1 8:-1 9:0.930636 10:0.0144026 11:-0.205973 12:0.585407 13:-0.200002 14:0.867052 15:-0.72222 16:-1 17:0.976878 18:0.0953877 19:-0.599996 20:-1 21:0.930636 22:-1 23:0.486486 24:-0.708317 25:0.284899 26:0.976878 27:-0.749997 28:0.252324 29:0.890174 30:-0.227738 31:0.976878 32:-1 33:1 34:-1 35:0.687862 36:0.278265 37:1 
-8 1:0.962243 2:-0.714283 3:1 4:-1 5:-0.799998 6:0.687862 7:0.778845 8:-1 9:1 10:-0.387946 11:0.194031 12:0.642634 13:-1 14:0.976878 15:-1 16:-1 17:0.976878 18:-0.813588 19:-1 20:-0.860084 21:0.751446 22:-1 23:1 24:-0.530536 25:0.276354 26:0.445086 27:-1 28:0.292004 29:0.445086 30:0.133421 31:0.867052 32:-0.599996 33:1 34:-1 35:0.809248 36:-0.306139 37:-0.454904 
-0.9004913692728416 1:-0.255236 2:0.34694 3:0.976878 4:-1 5:-0.685712 6:0.757226 7:0.598455 8:-1 10:-0.605423 11:-0.462685 12:-1 13:-1 14:0.890174 15:-0.394556 16:-1 18:-0.236494 19:-1 20:-0.383619 22:0.0476225 24:0.336542 25:0.445871 26:-1 27:-0.60714 28:1 30:-0.530526 31:0.890174 32:-1 34:-1 35:0.942196 36:-0.592152 37:0.0679713 
-8 1:-0.386606 2:-0.142855 3:0.976878 4:-1 5:-0.399998 6:0.780346 7:0.617902 8:-0.666663 9:0.890174 10:-0.696107 11:0.229849 12:1 13:-1 14:1 15:0.190474 16:-1 17:0.774566 18:-0.266982 19:-0.200002 20:-0.381889 21:0.809248 22:-0.333328 23:0.81081 24:0.150775 25:0.445871 26:0.867052 27:-0.749997 28:1 29:0.930636 30:-0.485933 31:0.890174 32:-0.200002 33:-0.756756 34:-1 35:0.890174 36:-0.375322 37:-1 
-8 1:-0.643135 2:-0.428572 3:0.907514 4:-1 5:-0.799998 6:0.751446 7:-0.277962 8:-0.666663 9:0.867052 10:1 11:0.199999 12:0.00962562 13:-0.599996 14:0.774566 15:-0.72222 16:-1 17:0.751446 18:-0.813588 19:-1 20:0.0634794 21:0.751446 22:-1 23:-0.756756 24:-0.51433 25:-0.524211 26:0.976878 27:-0.249997 28:0.252324 29:0.751446 30:0.122216 31:0.976878 32:-1 33:0.45946 34:-0.428572 35:0.976878 36:-0.900875 37:0.556865 
-8 1:-0.521596 2:-0.714283 3:0.976878 4:-0.333335 5:-0.6 6:0.861272 7:-0.469836 8:-1 9:0.757226 10:-0.308542 11:0.199999 12:0.177813 13:-1 14:0.861272 15:-0.757366 16:3.66667e-006 17:1 18:0.834066 19:-1 20:-0.418166 21:0.757226 22:-1 23:-0.486486 24:0.336542 25:0.445871 26:0.809248 27:-0.5 28:0.252324 29:0.809248 30:-0.185944 31:0.976878 32:-1 33:0.81081 34:-0.714283 35:0.861272 36:-0.479604 37:0.478428 
-8 1:-0.197828 2:-0.428572 3:0.890174 4:-1 5:-0.799998 6:0.445086 7:0.482958 8:-1 9:-1 10:-1 11:0.361192 12:0.585407 13:-0.599996 14:0.809248 15:-0.72222 16:-1 17:0.809248 18:0.0953877 19:-0.599996 20:-0.578236 21:0.445086 22:-1 23:0.513514 24:-0.382342 25:1 26:0.976878 27:-1 28:0.252324 29:0.67052 30:-0.466557 31:0.976878 32:-0.599996 33:0.513514 34:-1 35:0.687862 36:-0.593186 37:-0.405228 
-6.272935503875848 1:-0.643135 2:-1 3:0.930636 4:-0.666667 5:-0.6 6:0.942196 7:0.482958 8:-1 9:0.907514 10:-0.978206 11:0.361192 12:-0.169057 13:-1 14:0.809248 15:-0.72222 16:-0.666663 17:0.751446 18:0.834066 19:-0.200002 20:-0.325458 21:0.757226 22:-1 23:0.513514 24:-0.256691 25:-0.471506 26:0.976878 27:-0.249997 28:0.210168 29:0.445086 30:0.116845 31:0.751446 32:-1 33:0.45946 34:-0.714283 35:0.786128 36:-0.306139 37:-0.454904 
-1.621051220805275 1:-0.197828 2:0.428572 3:0.751446 4:-0.333335 5:-1 6:0.890174 7:0.126859 8:-1 9:0.907514 10:-0.978206 11:-0.78508 12:0.585407 13:-1 14:0.757226 15:1 16:-1 17:-1 18:0.563589 19:-0.599996 20:-0.381889 21:0.890174 22:-1 23:0.108108 24:-1 25:-0.565523 26:0.890174 27:-0.5 28:-0.284561 29:0.67052 30:0.675036 31:1 32:-1 33:0.108108 34:-0.714283 35:0.890174 36:-0.593186 37:0.0679713 
-3.546728896684171 1:0.962243 2:-0.428572 3:0.976878 4:-1 5:-0.399998 6:0.751446 7:-1 8:-1 9:0.445086 10:-0.633467 11:0.229849 12:0.73635 13:-1 14:0.751446 15:-0.534015 16:-1 17:0.976878 18:-0.813588 19:-1 20:0.579966 21:1 22:-1 23:0.45946 24:0.336542 25:0.445871 26:0.751446 27:-0.249997 28:0.252324 29:0.751446 30:-1 31:0.976878 32:-0.599996 33:1 34:-0.428572 35:0.907514 36:-0.208054 37:0.0679713 
-8 1:1 2:-1 3:0.774566 4:-0.666667 5:-0.6 6:0.445086 7:0.482958 8:-0.666663 9:0.930636 10:0.0144026 11:0.199999 12:0.618398 13:-1 14:0.809248 15:0.0612227 16:-1 17:0.867052 18:0.563589 19:-1 20:0.579966 21:0.751446 22:-1 23:0.513514 24:-0.511041 25:-0.625352 26:1 27:-0.5 28:-0.0229391 29:0.757226 30:-0.466557 31:0.809248 32:-1 33:0.486486 34:-0.428572 35:0.907514 36:-0.732573 37:0.120262 
-8 1:0.74192 2:-0.142855 3:0.757226 4:-1 5:-0.2 6:0.687862 7:0.126859 8:-1 9:0.942196 10:-0.751732 11:-0.588061 12:0.0528539 13:-0.599996 14:0.757226 15:0.190474 16:-0.666663 17:0.890174 18:-0.813588 19:-0.599996 20:-0.461924 21:1 22:-1 23:0.108108 24:0.336542 25:-0.776351 26:0.867052 27:-0.749997 28:-0.213889 29:0.751446 30:-0.0498403 31:0.757226 32:-1 34:-1 35:1 36:-0.900875 37:1 
-8 1:0.197828 2:-1 3:0.867052 4:-1 5:-0.2 6:0.976878 7:-0.172304 8:-1 9:0.867052 10:1 11:0.199999 12:0.725854 13:-0.599996 14:0.687862 15:-0.790249 16:-0.666663 17:0.751446 18:-0.186408 19:-0.200002 20:0.234491 21:0.687862 22:-1 23:0.162162 24:-0.788168 25:0.658119 26:0.751446 27:-0.749997 28:-0.31556 29:0.67052 30:0.499945 31:0.861272 32:-0.200002 33:0.594594 34:-1 35:0.930636 36:-0.593186 37:-0.405228 
-8 1:-0.86243 2:-0.428572 3:0.786128 4:-1 5:-0.799998 6:0.976878 7:0.778845 8:-1 9:1 10:-0.387946 11:-0.0507464 12:0.73635 13:-1 14:0.976878 15:-0.504532 16:-0.333333 17:0.907514 18:-1 19:-0.599996 20:0.818056 21:0.861272 22:-1 23:1 24:0.150775 25:0.0128212 26:0.930636 27:-0.749997 28:-0.0229391 29:0.890174 30:0.499945 31:0.809248 32:-0.599996 33:-0.135136 34:-0.428572 35:0.867052 36:0.278265 37:-0.454904 
-8 1:-0.538662 2:-0.714283 3:-1 4:-1 5:-1 6:0.809248 7:0.482958 8:-0.666663 9:0.751446 10:-0.615177 11:-0.0507464 12:-0.169057 13:-1 14:0.809248 15:-0.630383 16:-0.666663 17:0.445086 18:-0.186408 19:-1 20:0.234491 21:1 22:-1 23:0.513514 24:-0.51433 25:-1 26:0.861272 27:-0.749997 28:-0.510231 29:0.976878 30:-0.227738 31:0.942196 32:-1 33:0.594594 34:-0.714283 35:0.930636 36:-1 37:0.292809 
-8 1:-0.379366 2:-1 3:0.67052 4:-0.666667 5:-0.6 6:0.445086 7:1 8:-0.666663 9:0.976878 10:-0.394953 11:-0.588061 12:1 13:-0.599996 14:0.867052 15:-0.72222 16:-0.666663 17:0.687862 18:0.205577 19:-0.599996 20:0.0634794 21:0.687862 22:-1 23:0.486486 24:-0.382342 25:-0.101134 26:0.976878 27:-1 28:-0.510231 29:0.867052 30:-0.466557 31:0.942196 32:-0.200002 33:-0.81081 34:-1 35:0.976878 36:1 37:0.478428 
-1.157775998646994 1:0.197828 2:-1 3:0.774566 4:-1 5:-0.6 6:0.867052 7:0.778845 8:-0.666663 9:-1 10:-1 11:-0.0805969 12:0.725854 13:-0.599996 14:0.976878 15:-0.679136 16:-1 17:0.751446 18:0.563589 19:-1 20:-0.618248 21:0.976878 22:-1 23:1 24:-0.838657 25:-0.625352 26:0.67052 27:-0.5 28:-0.213889 29:0.751446 30:1 31:0.757226 32:-1 33:0.594594 34:0.142855 35:-1 36:-0.208054 37:-0.264056 
-1.917495085426993 1:-0.197828 2:-0.714283 3:0.976878 4:-0.666667 5:-0.6 6:0.867052 7:-0.0828121 8:-0.666663 9:0.976878 10:-0.394953 11:1 12:-0.262772 13:-0.599996 14:0.687862 15:-0.757366 16:-1 17:0.809248 18:1 19:-1 20:-0.767376 21:0.445086 22:-1 23:-0.81081 24:-0.51433 25:0.445871 26:0.809248 27:-0.749997 28:1 29:0.976878 30:1 31:0.890174 32:-0.599996 33:0.513514 34:-1 35:0.751446 36:-1 37:-1 
-8 1:0.197828 2:-0.428572 3:0.867052 4:-1 5:-0.2 6:0.757226 7:0.126859 8:-1 9:0.687862 10:-0.732685 11:-1 12:-0.0580976 13:-1 14:0.757226 15:-0.303856 16:-1 17:0.751446 18:-0.186408 19:0.200002 20:-0.381889 21:0.942196 22:-1 23:0.108108 24:0.178489 25:0.658119 26:0.786128 27:-1 28:-0.592068 29:0.890174 30:-0.530526 31:0.67052 32:-0.200002 33:0.594594 34:-1 35:0.890174 36:0.278265 37:-0.658825 
-2.413434293002725 1:1 2:-0.714283 3:0.890174 4:-1 5:-0.2 6:0.751446 7:0.287808 8:-1 9:0.976878 10:-0.394953 11:-0.617912 12:0.177813 13:-1 14:0.751446 15:-0.303856 16:-0.666663 17:0.867052 18:-0.813588 19:-0.599996 20:0.123656 21:0.867052 22:-0.333328 23:0.594594 24:0.150775 25:1 26:0.786128 27:-1 28:-0.528833 29:0.976878 30:0.122216 31:-1 32:-0.599996 33:0.486486 34:-0.714283 35:0.780346 36:-1 37:-0.920267 
-8 1:0.197828 2:-1 3:0.780346 4:-0.333335 5:-0.799998 6:0.976878 7:-1 8:-1 9:0.757226 10:-0.308542 11:-0.838806 12:0.73635 13:-1 14:0.751446 15:0.0612227 16:-1 17:0.751446 18:0.563589 19:-1 20:-0.365481 21:0.687862 22:-0.333328 23:0.45946 24:0.336542 25:-0.307686 26:1 27:-0.5 28:0.210168 29:0.757226 30:0.499945 31:0.751446 32:-0.200002 33:0.594594 34:-1 35:0.67052 36:-0.732573 37:-0.264056 
-8 1:-0.86243 2:-1 3:0.67052 4:-1 5:-0.399998 6:0.751446 7:0.617902 8:-1 9:0.930636 10:0.0144026 11:0.170148 12:1 13:-1 14:1 15:-0.504532 16:-1 17:0.907514 18:0.834066 19:-0.200002 20:-0.565563 21:0.751446 22:-1 23:0.81081 24:-0.838657 25:-0.101134 26:0.930636 27:-0.5 28:-0.284561 29:0.809248 30:0.122216 31:1 32:-1 33:-0.135136 34:0.142855 35:0.751446 36:-0.479604 37:-0.454904 
-1.625454739512568 1:0.962243 2:-0.714283 3:0.976878 4:-0.666667 5:-0.799998 6:0.67052 7:-1 8:-1 9:0.942196 10:-0.751732 11:0.170148 12:0.642634 13:-1 14:0.751446 15:-0.600906 16:-1 17:0.976878 18:-1 19:-1 20:-0.860084 21:0.445086 22:-0.333328 23:0.45946 24:-0.453974 25:0.445871 26:0.780346 27:-0.249997 28:-0.528833 29:0.867052 30:-0.59986 31:-1 32:-0.599996 33:1 34:-1 35:0.809248 36:1 37:-0.920267 
-8 1:0.197828 2:-0.428572 3:0.976878 4:-1 5:-0.799998 6:0.809248 7:0.482958 8:-0.666663 9:1 10:-0.387946 11:-0.205973 12:0.618398 13:-1 14:0.809248 15:-0.705213 16:-1 17:0.751446 18:-0.266982 19:-1 20:0.818056 21:-1 22:-1 23:0.513514 24:-0.382342 25:0.445871 26:0.687862 27:-0.5 28:-1 29:0.890174 30:-0.227738 31:0.751446 32:-0.599996 33:0.594594 34:-1 35:0.867052 36:0.278265 37:0.478428 
-3.994127557973902 1:-0.465739 2:-0.428572 3:0.751446 4:-1 5:-0.799998 6:0.751446 7:0.598455 8:-1 9:-1 10:-1 11:-0.588061 12:1 13:-0.200002 14:0.890174 15:0.0612227 16:-0.333333 17:0.861272 18:0.205577 19:-0.599996 20:0.0634794 21:0.751446 22:-0.333328 24:-0.788168 25:-0.565523 26:1 27:-0.249997 28:0.0948558 29:0.687862 30:0.122216 31:0.687862 32:-0.599996 33:-0.486486 34:-1 35:0.976878 36:-0.453792 37:-0.920267 
-7.433179104866448 1:-0.197828 2:-0.428572 3:0.890174 4:-1 5:-0.6 6:-1 7:-0.255239 8:-1 9:0.809248 10:-0.359141 11:0.199999 12:0.73635 13:-1 14:0.930636 15:-1 16:-1 17:0.809248 18:0.834066 19:-0.599996 20:0.818056 21:0.445086 22:-1 23:0.081082 24:0.150775 25:1 26:0.445086 27:-1 28:-0.0229391 29:0.751446 30:-0.883273 31:0.809248 32:-1 33:0.513514 34:-1 35:0.867052 36:-0.900875 37:-0.658825 
-8 1:-0.643135 2:-0.714283 3:0.809248 4:-0.666667 5:-0.6 6:0.867052 7:0.840695 8:-1 9:0.861272 10:-0.861463 11:0.199999 12:0.0528539 13:-1 14:0.445086 15:-1 16:-0.666663 17:0.751446 18:-0.186408 19:-0.599996 20:-0.381889 21:1 22:-1 23:0.594594 24:-0.0709242 25:0.284899 26:0.445086 27:-0.5 28:-1 29:0.757226 30:1 31:0.751446 32:-1 33:0.45946 34:-1 35:0.890174 36:-0.732573 37:-0.454904 
-7.26730885675106 1:0.197828 2:-1 3:0.867052 4:-0.666667 5:-0.6 6:0.976878 7:-0.277962 8:-0.333333 9:0.867052 10:1 11:0.194031 12:0.727602 13:-0.599996 14:0.774566 15:-0.630383 16:-0.333333 17:0.751446 18:-0.445552 19:-1 20:-1 21:0.751446 22:-1 23:-0.756756 24:-0.453974 25:0.658119 26:0.861272 27:-0.5 28:-0.528833 29:0.751446 30:0.499945 31:-1 32:-1 33:0.594594 34:-1 35:0.687862 36:-0.208054 37:-1 
-3.297050852112339 1:-0.397466 2:-0.714283 3:0.687862 4:-0.666667 5:-0.2 6:0.976878 7:-0.255239 8:-1 9:0.976878 10:-0.394953 11:-0.588061 12:0.725854 13:-1 14:0.930636 15:-0.72222 16:-0.666663 17:0.930636 18:0.720386 19:-1 20:0.818056 21:0.751446 22:-1 23:0.081082 24:-0.382342 25:-0.243588 26:0.976878 27:-0.749997 28:-0.765655 29:0.757226 30:0.499945 31:0.907514 32:-0.599996 33:0.081082 34:-0.714283 35:0.867052 36:-0.732573 37:-0.405228 
-8 1:-0.197828 2:-1 3:0.751446 4:-1 5:-0.6 6:0.786128 7:0.778845 8:-1 9:0.751446 10:-0.567324 11:0.361192 12:-0.262772 13:-0.599996 14:0.976878 15:-0.481861 16:-1 17:0.809248 18:1 19:-0.599996 20:-0.565563 21:0.907514 22:-1 23:1 24:-0.100286 25:-0.565523 26:0.907514 27:-0.749997 28:0.252324 29:0.867052 30:0.250149 31:0.976878 32:-1 33:0.513514 34:-0.142855 35:0.751446 36:1 37:0.0679713 
-4.546353310066007 1:0.74192 2:-0.428572 3:0.890174 4:-1 5:-0.399998 6:0.867052 7:-0.172304 8:-1 9:0.930636 10:0.0144026 11:-0.617912 12:-1 13:-1 14:0.687862 15:-0.481861 16:3.66667e-006 17:0.890174 18:-0.813588 19:-1 20:-0.767376 21:0.67052 22:-1 23:0.162162 24:-0.256691 25:1 26:0.907514 27:-0.5 28:0.292004 29:0.445086 30:1 31:0.867052 32:-0.200002 34:-0.714283 35:0.751446 36:-0.306139 37:-0.454904 
-8 1:0.197828 2:-1 3:0.786128 4:-0.666667 5:-0.799998 6:1 7:0.0504881 8:-1 9:0.976878 10:-0.394953 11:-0.0507464 12:-1 13:-0.599996 14:0.67052 15:0.0612227 16:-0.666663 17:0.751446 18:-0.398951 19:-0.200002 20:-0.365481 21:1 22:-0.333328 23:-0.243244 24:-0.51433 25:0.0128212 26:1 27:-0.749997 28:0.0948558 29:0.757226 30:-0.36944 31:0.687862 32:-1 33:0.594594 34:-1 35:0.67052 36:-0.732573 37:1 
-3.06873966641057 1:-0.643135 2:-1 3:0.757226 4:-1 5:0.400002 6:0.867052 7:1 8:-1 9:0.861272 10:-0.861463 11:-0.773138 12:0.725854 13:-1 14:0.867052 15:-0.630383 16:3.66667e-006 17:0.751446 18:0.476046 19:-1 20:0.0634794 21:0.867052 22:-1 23:0.486486 24:-0.511041 25:-0.776351 26:0.861272 27:-0.5 28:-0.31556 29:0.751446 30:1 31:0.861272 32:-0.599996 33:0.45946 34:-0.714283 35:0.976878 36:-0.208054 37:1 
-7.405137851269109 1:-0.531422 2:-0.714283 3:0.861272 4:-1 5:-0.6 6:0.930636 7:0.482958 8:-0.666663 9:0.809248 10:-0.359141 11:0.194031 12:0.725854 13:-1 14:0.809248 15:-0.705213 16:-0.333333 17:0.67052 18:-0.445552 19:-0.200002 20:-0.565563 21:0.930636 22:-1 23:0.513514 24:-0.708317 25:-0.592593 26:0.687862 27:-0.5 28:-0.213889 29:0.751446 30:-0.224931 31:0.757226 32:-0.200002 33:-0.243244 34:-1 35:0.751446 36:-0.208054 37:-0.658825 
-8 1:0.197828 2:-0.428572 3:1 4:-1 5:-0.6 6:0.809248 7:0.617902 8:-1 9:1 10:-0.387946 11:0.361192 12:0.73635 13:-1 14:1 15:0.0612227 16:-1 17:0.751446 18:-0.322734 19:-1 20:-0.461924 21:0.867052 22:-1 23:0.81081 24:-0.838657 25:0.276354 26:1 27:-1 28:-0.0229391 29:0.445086 30:-0.227738 31:0.809248 32:-0.200002 33:0.594594 34:-0.714283 35:1 36:-0.306139 37:-0.920267 
-2.039489658947847 1:0.962243 2:-0.714283 3:0.976878 4:-1 5:-0.6 6:0.907514 7:-0.500761 8:-1 9:0.751446 10:-0.567324 11:0.199999 12:-0.262772 13:-1 14:0.907514 15:-0.72222 16:-1 17:0.976878 18:0.170302 19:-1 20:-0.381889 21:0.67052 22:-0.333328 23:-0.135136 24:0.150775 25:0.445871 26:0.976878 27:-1 28:-1 29:0.907514 30:-0.636048 31:0.751446 32:-1 33:1 34:0.142855 35:0.890174 36:-0.276197 37:-0.454904 
-1.08727078736927 1:-0.386606 2:-0.714283 3:0.751446 4:-0.333335 5:-0.799998 6:0.867052 7:0.287808 8:-0.666663 9:0.976878 10:-0.394953 11:-0.588061 12:0.177813 13:-1 14:0.751446 15:1 16:-1 17:0.774566 18:0.141989 19:-0.599996 20:-0.565563 21:0.751446 22:-1 23:0.594594 24:-0.51433 25:-0.232194 26:0.890174 27:-1 28:-1 29:0.757226 30:1 31:0.751446 32:0.200002 33:-0.756756 34:-0.714283 35:0.751446 36:-0.732573 37:-0.658825 
-6.397013054890025 1:0.74192 2:-0.714283 3:0.976878 4:-0.666667 5:-0.799998 6:0.757226 7:-0.500761 8:-1 9:0.976878 10:-0.394953 11:0.229849 12:0.725854 13:-1 14:0.907514 15:-0.394556 16:-1 17:0.890174 18:-1 19:-1 20:-0.860084 21:0.907514 22:-1 23:-0.135136 24:-0.100286 25:0.445871 26:-1 27:-0.749997 28:-0.401118 29:0.809248 30:-0.530526 31:0.687862 32:-0.200002 34:-0.428572 35:0.809248 36:-0.479604 37:-0.275818 
-8 1:-0.521596 2:-0.428572 3:0.809248 4:-1 5:-0.399998 6:0.687862 7:0.598455 8:-1 9:0.751446 10:-0.567324 11:-0.205973 12:0.585407 13:-0.599996 14:0.890174 15:-0.757366 16:-1 17:1 18:-0.266982 19:-1 20:-0.70548 21:0.976878 22:-1 24:-0.382342 25:0.284899 26:0.809248 27:-0.5 28:0.252324 29:0.809248 30:-0.0498403 31:0.976878 32:-1 33:0.81081 34:-0.714283 35:0.445086 36:-0.479604 37:-0.230067 
-8 1:-0.397466 2:-0.714283 3:0.751446 4:-1 5:-0.6 6:0.751446 7:0.778845 8:-0.666663 9:0.774566 10:-0.861463 11:0.199999 12:0.73635 13:-0.599996 14:0.976878 15:-0.534015 16:-0.666663 17:0.930636 18:0.834066 19:-0.599996 20:-1 21:0.751446 22:-1 23:1 24:-0.530536 25:-0.565523 26:0.751446 27:-0.5 28:0.292004 29:0.67052 30:0.122216 31:0.867052 32:-1 33:0.081082 34:-0.714283 35:0.687862 36:-0.593186 37:-0.405228 
-7.548786089803332 1:-0.197828 2:-1 3:1 4:-1 5:-0.6 6:0.67052 7:0.778845 8:-1 9:0.751446 10:-0.615177 11:0.361192 12:-0.0580976 13:-1 14:0.976878 15:-1 16:-1 17:0.809248 18:0.834066 19:-1 20:-0.365481 21:0.809248 22:-0.333328 23:1 24:-0.51433 25:0.276354 26:0.445086 27:0.250003 28:-0.49659 29:0.67052 30:-0.59986 31:0.930636 32:-1 33:0.513514 34:-1 35:0.67052 36:-0.593186 37:-0.275818 
-8 1:0.74192 2:-0.428572 3:0.445086 4:-1 5:-0.799998 6:0.890174 7:0.778845 8:-0.666663 9:-1 10:-1 11:-0.474627 12:0.585407 13:-0.200002 14:0.976878 15:-0.790249 16:-1 17:0.890174 18:0.834066 19:-0.599996 20:-0.461924 21:0.976878 22:-1 23:1 24:-0.807662 25:0.175213 26:0.751446 27:-0.5 28:-0.659024 29:0.445086 30:0.675036 31:0.786128 32:-0.599996 34:-1 35:1 36:-0.306139 37:-0.218305 
-8 1:-0.197828 2:-0.714283 3:0.930636 4:-1 5:-0.799998 6:0.687862 7:0.482958 8:-0.333333 9:1 10:-0.387946 11:-0.838806 12:0.725854 13:-0.599996 14:0.809248 15:-0.72222 16:-1 17:0.809248 18:1 19:-1 20:0.234491 21:0.67052 22:-1 23:0.513514 24:-0.708317 25:-0.471506 26:0.976878 27:-0.749997 28:0.252324 29:0.687862 30:0.133421 31:0.976878 32:-0.200002 33:0.513514 34:-1 35:0.930636 36:-0.453792 37:-0.155555 
-8 1:0.74192 2:-0.428572 3:0.751446 4:-1 5:-1 6:0.809248 7:0.287808 8:-1 9:0.976878 10:-0.394953 11:-0.773138 12:0.0528539 13:-1 14:0.751446 15:-0.481861 16:-0.666663 17:0.890174 18:0.141989 19:-0.599996 20:0.123656 21:0.687862 22:0.333328 23:0.594594 24:-0.51433 25:-0.232194 26:0.907514 27:-0.5 28:0.210168 29:0.780346 30:-0.227738 31:0.751446 32:-0.599996 34:-0.142855 35:0.780346 36:-0.572531 37:-0.230067 
-8 1:0.962243 2:-0.714283 3:0.976878 4:-1 5:-0.799998 6:0.751446 7:-0.172304 8:-0.666663 9:1 10:-0.387946 11:-0.474627 12:0.177813 13:-0.599996 14:0.687862 15:-0.790249 16:-1 17:0.976878 18:0.141989 19:-1 20:-0.767376 21:0.687862 22:-1 23:0.162162 24:-0.382342 25:0.445871 26:0.751446 27:-0.249997 28:-1 29:0.67052 30:0.122216 31:0.751446 32:-0.200002 33:1 34:-0.714283 35:0.751446 36:-0.593186 37:0.556865 
-8 1:0.962243 2:-0.714283 3:0.445086 4:-1 5:-1 6:0.445086 7:0.617902 8:-1 9:0.780346 10:-0.535777 11:0.170148 12:0.0528539 13:-1 14:1 15:0.0612227 16:-1 17:0.976878 18:-0.322734 19:-0.599996 20:-0.860084 21:0.751446 22:-0.333328 23:0.81081 24:-0.708317 25:0.175213 26:1 27:-0.5 28:-0.528833 29:1 30:-0.466557 31:-1 32:-0.599996 33:1 34:-1 35:0.809248 36:-0.603507 37:0.120262 
-8 1:1 2:-1 3:0.757226 4:-1 5:-0.2 6:0.445086 7:-1 8:-1 9:0.445086 10:-0.633467 11:0.199999 12:0.725854 13:-1 14:0.751446 15:-1 16:-1 17:0.867052 18:-0.398951 19:-0.599996 20:0.818056 21:0.67052 22:-1 23:0.45946 24:-0.382342 25:-0.776351 26:0.445086 27:-0.5 28:-0.213889 29:0.867052 30:-0.466557 31:0.757226 32:-0.599996 33:0.486486 34:-1 35:0.867052 36:1 37:0.0679713 
-8 1:-0.100595 2:-0.142855 3:0.867052 4:-1 5:-0.799998 6:0.890174 7:-0.329972 8:-1 9:0.976878 10:-0.394953 11:-0.205973 12:0.177813 13:-1 14:0.942196 15:-0.72222 16:-0.666663 17:0.942196 18:-0.442074 19:-1 20:-0.767376 21:1 22:-1 23:-0.675676 24:-0.708317 25:0.658119 26:0.976878 27:-0.5 28:0.252324 29:0.67052 30:0.675036 31:0.976878 32:-0.599996 33:-0.675676 34:-0.428572 35:0.751446 36:-0.593186 37:-0.454904 
-8 1:0.197828 2:-0.714283 3:0.867052 4:-1 5:-0.6 6:1 7:0.778845 8:-1 9:0.890174 10:-0.696107 11:0.361192 12:-0.224537 13:-1 14:0.976878 15:-0.534015 16:-0.666663 17:0.751446 18:0.563589 19:-1 20:-0.461924 21:0.907514 22:-1 23:1 24:-0.382342 25:0.658119 26:0.751446 27:-1 28:-0.765655 29:-1 30:-0.36944 31:0.907514 32:-1 33:0.594594 34:0.142855 35:1 36:-0.642742 37:-0.218305 
-8 1:-0.643135 2:-0.714283 3:1 4:-1 5:-0.2 6:0.751446 7:0.617902 8:-1 9:0.751446 10:-0.615177 11:0.229849 12:0.642634 13:-1 14:1 15:-0.394556 16:-1 17:0.751446 18:-0.322734 19:-1 20:0.579966 21:0.809248 22:-1 23:0.81081 24:-0.100286 25:0.276354 26:-1 27:-0.249997 28:0.210168 29:0.809248 30:0.122216 31:0.751446 32:-0.200002 33:0.45946 34:-0.714283 35:0.907514 36:-0.479604 37:0.556865 
-5.517948007378563 1:0.197828 2:-0.714283 3:0.867052 4:-1 5:-0.6 6:0.976878 7:0.598455 8:-0.666663 9:0.687862 10:-0.736949 11:0.199999 12:-0.169057 13:-0.599996 14:0.890174 15:-0.757366 16:-0.666663 17:0.751446 18:-0.266982 19:-0.599996 20:-0.565563 21:0.942196 22:-0.333328 24:-0.708317 25:0.658119 26:0.809248 28:-0.31556 29:0.67052 30:0.499945 31:0.861272 32:-1 33:0.594594 34:-1 35:0.751446 36:-0.593186 37:-0.920267 
-8 1:-0.197828 2:-1 3:1 4:-1.83333e-006 5:-0.6 6:0.809248 7:1 8:-1 9:0.867052 10:1 11:1 12:0.585407 13:-1 14:0.867052 15:-0.481861 16:-1 17:0.809248 18:-1 19:-1 20:-0.860084 21:0.907514 22:-1 23:0.486486 24:-0.788168 25:0.276354 26:0.907514 27:-1 28:-0.510231 29:0.757226 30:-0.227738 31:0.942196 32:-1 33:0.513514 34:-0.142855 35:0.809248 36:-0.732573 37:-0.264056 
-8 1:-0.538662 2:-0.714283 3:0.867052 4:-1 5:0.2 6:0.867052 7:1 8:-0.666663 9:0.751446 10:-0.615177 11:0.229849 12:0.725854 13:-1 14:0.867052 15:-1 16:-1 17:0.445086 18:-0.445552 19:-1 20:-0.70548 21:0.751446 22:-1 23:0.486486 24:0.336542 25:0.658119 26:0.445086 27:-0.749997 28:-0.0229391 29:0.942196 30:1 31:0.809248 32:-0.599996 33:0.594594 34:-1 35:0.445086 36:-0.379451 37:1 
-8 1:-0.538662 2:-1 3:0.751446 4:-1 5:-0.6 6:1 7:0.840695 8:-1 9:0.67052 10:-0.813611 11:-0.0507464 12:-0.0580976 13:-1 14:0.445086 15:-1 16:-1 17:0.445086 18:0.141989 19:-1 20:0.818056 21:1 22:-0.333328 23:0.594594 24:-0.453974 25:-0.232194 26:0.445086 27:-0.749997 28:0.292004 29:0.751446 30:-0.36944 31:0.867052 32:-1 33:0.594594 34:-0.714283 35:0.867052 36:-0.900875 37:0.478428 
-8 1:-0.379366 2:-0.714283 3:0.930636 4:-1 5:-0.799998 6:0.976878 7:0.126859 8:-1 9:0.890174 10:-0.696107 11:-0.0507464 12:0.618398 13:-0.599996 14:0.757226 15:0.0612227 16:-0.666663 17:0.687862 18:0.0953877 19:-0.599996 20:-0.767376 21:0.751446 22:-1 23:0.108108 24:-0.453974 25:-0.471506 26:1 27:-0.749997 28:-0.592068 29:0.687862 30:0.499945 31:0.67052 32:-0.599996 33:-0.81081 34:-0.714283 35:0.751446 36:-0.6128 37:-0.230067 
-8 1:-0.538662 2:-0.428572 3:0.976878 4:-0.666667 5:-0.799998 6:0.890174 7:0.287808 8:-1 9:0.976878 10:-0.394953 11:0.194031 12:-0.174309 13:-1 14:0.751446 15:-0.790249 16:-0.666663 17:0.445086 18:0.205577 19:-1 20:-0.618248 21:0.757226 22:-1 23:0.594594 24:0.336542 25:0.445871 26:0.751446 27:0.250003 28:0.210168 29:-1 30:0.675036 31:0.751446 32:-1 33:0.594594 34:-1 35:-1 36:-0.642742 37:-0.454904 
-4.429105667890458 1:-0.538662 2:-0.714283 3:0.907514 4:-1 5:-1 6:1 7:-0.692629 8:-1 9:0.687862 10:-0.732685 11:-0.0805969 12:0.727602 13:-0.599996 14:-1 15:-0.72222 16:-0.333333 17:0.445086 18:-0.266982 19:-1 20:-0.767376 21:0.687862 22:-1 23:0.108108 24:-0.0709242 25:-0.524211 26:0.976878 27:-0.249997 28:0.210168 29:0.930636 30:-0.36944 31:0.751446 32:-0.599996 33:0.594594 34:-0.142855 35:0.751446 36:-0.375322 37:0.556865 
-8 1:0.74192 2:-0.428572 3:0.907514 4:-1 5:-0.2 6:0.890174 7:0.287808 8:-1 9:0.976878 10:-0.394953 11:-0.773138 12:-0.169057 13:-1 14:0.751446 15:-0.790249 16:-1 17:0.890174 18:-0.186408 19:-1 20:-0.767376 21:0.867052 22:-1 23:0.594594 24:0.336542 25:-0.524211 26:0.751446 27:0.250003 28:-0.592068 29:0.751446 30:0.675036 31:0.67052 32:-1 34:-0.714283 35:0.751446 36:-0.208054 37:0.120262 
-8 1:0.197828 2:-0.428572 3:0.751446 4:-1 5:-0.799998 6:0.751446 7:-0.255239 8:-0.666663 9:1 10:-0.387946 11:0.170148 12:0.725854 13:-0.599996 14:0.930636 15:-0.403625 16:-1 17:0.751446 18:-0.813588 19:-1 20:0.0634794 21:0.890174 22:-1 23:0.081082 24:-0.382342 25:-0.232194 26:0.687862 27:-0.5 28:-0.401118 29:0.809248 30:0.122216 31:0.687862 32:-0.599996 33:0.594594 34:-1 35:0.976878 36:-0.479604 37:0.0679713 
-8 1:-0.397466 2:-0.714283 3:1 4:-0.666667 5:-0.399998 6:0.907514 7:0.287808 8:-1 9:0.687862 10:-0.732685 11:0.194031 12:-0.262772 13:-1 14:0.751446 15:0.0612227 16:-0.666663 17:0.930636 18:-0.807922 19:-1 20:0.818056 21:0.890174 22:-1 23:0.594594 24:-0.708317 25:0.276354 26:1 27:-0.749997 28:-0.284561 29:0.687862 30:-0.636048 31:1 32:-0.200002 33:0.081082 34:-0.428572 35:0.867052 36:-0.6128 37:1 
-8 1:0.962243 2:-1 3:0.751446 4:-0.666667 5:0.6 6:0.867052 7:1 8:-1 9:0.867052 10:1 11:0.361192 12:-0.0580976 13:-1 14:0.867052 15:0.0612227 16:-1 17:0.976878 18:-1 19:-1 20:0.818056 21:0.751446 22:-1 23:0.486486 24:-0.788168 25:-0.565523 26:1 27:-0.249997 28:-0.284561 29:1 30:1 31:1 32:-1 33:1 34:-1 35:0.867052 36:-0.603507 37:1 
-8 1:1 2:-0.428572 3:-1 4:-0.333335 5:0.6 6:0.757226 7:0.598455 8:-1 9:0.867052 10:1 11:0.194031 12:-0.262772 13:-1 14:0.890174 15:-0.790249 16:-1 17:0.867052 18:0.834066 19:-1 20:-0.618248 21:1 22:-1 24:-0.100286 25:-1 26:0.751446 27:-0.749997 28:0.292004 29:0.867052 30:-0.530526 31:0.867052 32:-1 33:0.486486 34:-1 35:-1 36:1 37:1 
-8 1:0.962243 2:-0.428572 3:0.867052 4:-1 5:2.2e-006 6:0.867052 7:-0.692629 8:-1 9:0.976878 10:-0.394953 11:-0.379108 12:0.727602 13:-1 14:-1 15:-0.481861 16:-1 17:0.976878 18:1 19:-1 20:-0.565563 21:0.445086 22:-0.333328 23:0.108108 24:-0.382342 25:0.658119 26:0.907514 27:-1 28:0.292004 29:0.867052 30:1 31:0.867052 32:-1 33:1 34:-0.428572 35:0.751446 36:1 37:-0.230067 
-0.02467748364867917 1:-0.465739 2:-1 3:1 4:-1 5:-0.799998 6:0.809248 7:-0.222676 8:-1 9:0.930636 10:0.0144026 11:-0.617912 12:0.177813 13:-1 14:0.786128 15:0.190474 16:-0.666663 17:0.861272 18:-0.266982 19:-0.200002 20:-0.578236 21:0.751446 22:-1 23:-0.27027 24:-1 25:0.276354 26:0.867052 27:-0.5 28:-0.592068 29:0.809248 30:-0.227738 31:0.67052 32:-0.599996 33:-0.486486 34:-0.428572 35:0.687862 36:-0.479604 37:0.0679713 
-8 1:-0.538662 2:-0.428572 3:0.890174 4:-1 5:-0.6 6:0.976878 7:-0.277962 8:-0.666663 9:0.687862 10:-0.736949 11:-0.0507464 12:0.177813 13:-0.200002 14:0.774566 15:-0.303856 16:-0.333333 17:0.445086 18:-0.266982 19:-0.599996 20:0.818056 21:0.751446 22:-1 23:-0.756756 24:-0.0709242 25:1 26:0.786128 27:-0.5 28:0.292004 29:0.687862 30:0.499945 31:0.867052 32:-1 33:0.594594 34:-0.714283 35:0.867052 36:-0.453792 37:-0.244443 
-8 1:-0.197828 2:-0.142855 3:0.867052 4:-1 5:2.2e-006 6:0.67052 7:-0.172304 8:-1 9:0.976878 10:-0.394953 11:-0.205973 12:0.0528539 13:-1 14:0.687862 15:0.0612227 16:-0.666663 17:-1 18:0.563589 19:-1 20:-0.381889 21:0.930636 22:-1 23:0.162162 24:0.336542 25:0.658119 26:1 27:-0.749997 28:-0.213889 29:0.890174 30:-0.59986 31:0.757226 32:-0.599996 33:0.108108 34:-1 35:0.890174 36:0.278265 37:1 
-8 1:-0.197828 2:-0.142855 3:0.809248 4:-0.333335 5:-1 6:0.890174 7:0.126859 8:-1 9:0.809248 10:-0.359141 11:0.194031 12:-0.174309 13:-1 14:0.757226 15:1 16:-0.666663 17:-1 18:-0.266982 19:-1 20:-0.381889 21:0.757226 22:-1 23:0.108108 24:-0.708317 25:0.284899 26:0.890174 27:-0.5 28:-0.31556 29:0.757226 30:0.675036 31:0.861272 32:-0.200002 33:0.108108 34:-1 35:0.890174 36:-0.732573 37:0.0679713 
-8 1:1 2:-0.714283 3:1 4:-0.666667 5:2.2e-006 6:0.867052 7:-0.329972 8:-1 9:0.751446 10:-0.567324 11:-0.205973 12:0.725854 13:-1 14:0.942196 15:-0.757366 16:-1 17:0.867052 18:-0.186408 19:-1 20:-0.565563 21:0.867052 22:-1 23:-0.675676 24:-0.100286 25:0.276354 26:0.809248 27:-0.749997 28:-0.528833 29:0.757226 30:1 31:-1 32:-1 33:0.486486 34:-0.714283 35:0.751446 36:-0.732573 37:-0.920267 
-5.014062715977319 1:-0.521596 2:-1 3:0.907514 4:-0.666667 5:-0.399998 6:0.757226 7:0.126859 8:-0.666663 9:0.867052 10:1 11:-0.474627 12:-0.262772 13:-1 14:0.757226 15:-0.72222 16:-1 17:1 18:-0.807922 19:-1 20:-0.860084 21:0.907514 22:-1 23:0.108108 24:0.336542 25:-0.524211 26:0.976878 27:-1 28:-1 29:0.867052 30:-0.530526 31:0.751446 32:-1 33:0.81081 34:-0.428572 35:0.809248 36:1 37:0.478428 
-8 1:-0.100595 2:-0.428572 3:0.445086 4:-0.666667 5:-0.6 6:0.976878 7:0.126859 8:-1 9:0.687862 10:-0.732685 11:1 12:0.725854 13:-1 14:0.757226 15:-0.504532 16:-1 17:0.942196 18:-0.322734 19:-0.599996 20:0.0634794 21:0.867052 22:-1 23:0.108108 24:-0.788168 25:0.175213 26:0.930636 27:-1 28:1 29:0.67052 30:0.499945 31:0.890174 32:-0.599996 33:-0.675676 34:-1 35:0.976878 36:-0.593186 37:0.0679713 
-8 1:0.74192 2:-0.142855 3:0.930636 4:-1 5:-0.799998 6:0.907514 7:-0.692629 8:-1 9:1 10:-0.387946 11:-0.0507464 12:0.727602 13:-0.599996 14:-1 15:-0.534015 16:-1 17:0.890174 18:0.563589 19:-1 20:0.0634794 21:0.976878 22:-0.333328 23:0.108108 24:-0.51433 25:-0.471506 26:0.751446 27:-1 28:0.292004 29:1 30:-0.636048 31:0.867052 32:-1 34:-0.714283 35:0.976878 36:-0.603507 37:-0.218305 
-8 1:-0.538662 2:-1 3:0.930636 4:-0.666667 5:-0.6 6:0.930636 7:1 8:-1 9:0.751446 10:-0.615177 11:0.194031 12:0.585407 13:-1 14:0.867052 15:0.190474 16:-1 17:0.445086 18:1 19:-1 20:-0.767376 21:0.445086 22:-1 23:0.486486 24:-0.530536 25:-0.471506 26:0.867052 27:-0.5 28:-0.0229391 29:0.976878 30:-0.224931 31:0.809248 32:-1 33:0.594594 34:-0.714283 35:0.751446 36:-1 37:-0.264056 
-4.448697951986445 1:-0.397466 2:-0.142855 3:0.687862 4:-1 5:-0.6 6:0.687862 7:-1 8:-1 9:0.751446 10:-0.567324 11:-0.205973 12:-0.174309 13:-1 14:0.751446 15:-0.757366 16:-1 17:0.930636 18:-0.322734 19:-1 20:0.579966 21:0.930636 22:-0.333328 23:0.45946 24:-0.0709242 25:-0.243588 26:0.809248 27:-0.749997 28:0.252324 29:0.780346 30:0.133421 31:0.976878 32:-0.200002 33:0.081082 34:-0.714283 35:0.907514 36:-0.572531 37:0.556865 
-8 1:0.197828 2:-1 3:0.809248 4:-1 5:-0.399998 6:0.976878 7:0.287808 8:-1 9:0.976878 10:-0.394953 11:0.170148 12:0.725854 13:-1 14:0.751446 15:-0.630383 16:-0.333333 17:0.751446 18:0.834066 19:-1 20:-0.565563 21:0.687862 22:-0.333328 23:0.594594 24:-0.382342 25:0.284899 26:0.861272 27:-0.749997 28:-0.528833 29:1 30:0.499945 31:-1 32:-0.599996 33:0.594594 34:-1 35:0.751446 36:-0.603507 37:-0.155555 
-8 1:-0.643135 2:-0.428572 3:0.751446 4:-1 5:-0.799998 6:0.751446 7:0.482958 8:-1 9:1 10:-0.387946 11:-0.78508 12:0.389479 13:-1 14:0.809248 15:-0.790249 16:-1 17:0.751446 18:-1 19:-0.599996 20:-0.325458 21:0.890174 22:-1 23:0.513514 24:-0.100286 25:-0.565523 26:0.751446 27:0.250003 28:-0.0229391 29:0.67052 30:-1 31:0.809248 32:-1 33:0.45946 34:-1 35:0.786128 36:-0.593186 37:0.478428 
-4.818251854697456 1:1 2:-1 3:0.867052 4:0.666664 5:2.2e-006 6:0.867052 7:-1 8:-1 9:0.67052 10:-0.813611 11:1 12:0.585407 13:-1 14:0.751446 15:-0.790249 16:-1 17:0.867052 18:0.834066 19:-1 20:0.579966 21:0.757226 22:-1 23:0.45946 24:-0.511041 25:0.658119 26:0.751446 27:-0.5 28:-0.910727 29:0.757226 30:1 31:0.445086 32:-0.599996 33:0.486486 34:-0.714283 35:0.907514 36:-0.732573 37:-0.454904 
-8 1:0.962243 2:-1 3:0.751446 4:-0.666667 5:-1 6:0.687862 7:0.482958 8:-0.666663 9:0.774566 10:-0.861463 11:-0.0507464 12:1 13:-0.599996 14:0.809248 15:-0.481861 16:-1 17:0.976878 18:0.563589 19:0.200002 20:-0.565563 21:0.809248 22:-1 23:0.513514 24:-0.0709242 25:-0.232194 26:0.907514 27:-0.749997 28:-0.213889 29:0.786128 30:0.133421 31:0.757226 32:0.200002 33:1 34:-0.714283 35:0.751446 36:-0.310274 37:-0.658825 
-5.471026611668735 1:-0.643135 2:-1 3:0.976878 4:-1 5:-0.399998 6:0.930636 7:0.287808 8:-1 9:0.751446 10:-0.615177 11:0.361192 12:0.642634 13:-1 14:0.751446 15:-1 16:-1 17:0.751446 18:-1 19:-1 20:0.579966 21:0.751446 22:-1 23:0.594594 24:-0.511041 25:0.445871 26:0.445086 27:-0.249997 28:-0.401118 29:0.976878 30:-0.224931 31:0.687862 32:-0.599996 33:0.45946 34:-0.714283 35:0.907514 36:-1 37:1 
-3.620780902512973 1:-0.86243 2:-0.428572 3:0.751446 4:-1 5:-0.799998 6:0.445086 7:-0.222676 8:-1 9:0.751446 10:-0.615177 11:-0.205973 12:0.0528539 13:-0.599996 14:0.786128 15:-0.534015 16:-1 17:0.907514 18:0.141989 19:-0.599996 20:-0.70548 21:0.687862 22:-1 23:-0.27027 24:0.336542 25:-0.232194 26:0.751446 27:-0.5 28:-0.401118 29:0.890174 30:-0.466557 31:0.687862 32:-0.200002 33:-0.135136 34:-0.714283 35:0.445086 36:0.278265 37:-0.218305 
-8 1:-0.465739 2:-0.714283 3:0.867052 4:-1 5:-0.6 6:0.907514 7:0.287808 8:-1 9:0.976878 10:-0.394953 11:0.170148 12:-0.174309 13:-1 14:0.751446 15:-0.72222 16:-0.666663 17:0.861272 18:0.563589 19:-1 20:-0.461924 21:0.942196 22:-1 23:0.594594 24:-0.382342 25:0.658119 26:0.976878 28:-1 29:0.687862 30:-0.636048 31:0.751446 32:-0.599996 33:-0.486486 34:-0.714283 35:1 36:-0.6128 37:0.0679713 
-0.8439822394334616 1:-0.379366 2:-0.428572 3:0.976878 4:-0.666667 5:-0.399998 6:0.757226 7:-0.0828121 8:-1 9:0.786128 10:-0.0595125 11:-0.588061 12:0.585407 13:-0.200002 14:0.687862 15:-0.757366 16:-1 17:0.687862 18:-0.322734 19:-0.599996 20:-0.381889 21:0.867052 22:-1 23:-0.81081 24:0.336542 25:0.445871 26:0.809248 27:-1 28:0.292004 29:0.907514 30:-0.530526 31:0.867052 32:-1 33:-0.81081 34:-0.428572 35:0.890174 36:-0.276197 37:-0.454904 
-8 1:-0.197828 2:-0.714283 3:0.751446 4:-1 5:-0.399998 6:0.751446 7:0.598455 8:-1 9:0.751446 10:-0.567324 11:-0.78508 12:0.725854 13:-1 14:0.890174 15:-0.481861 16:-1 17:0.809248 18:0.141989 19:-0.599996 20:-0.565563 21:0.907514 22:-1 24:0.178489 25:-0.232194 26:0.907514 27:-1 28:0.292004 29:0.67052 30:0.122216 31:0.867052 32:-0.599996 33:0.513514 34:-0.428572 35:0.751446 36:-0.593186 37:1 
-0.8658978992770322 1:-0.465739 2:-0.142855 3:0.751446 4:-0.666667 5:-0.399998 6:0.867052 7:1 8:-1 9:0.861272 10:-0.861463 11:-0.78508 12:0.725854 13:-1 14:0.867052 15:-0.504532 16:-0.333333 17:0.861272 18:0.720386 19:-1 20:-0.565563 21:0.751446 22:-1 23:0.486486 24:1 25:-0.232194 26:0.930636 27:-0.749997 28:-0.0229391 29:0.751446 30:1 31:0.809248 32:-0.599996 33:-0.486486 34:-1 35:0.751446 36:-0.900875 37:-1 
-8 1:-0.531422 2:-0.428572 3:0.687862 4:-0.666667 5:-0.799998 6:0.445086 7:0.126859 8:-1 9:0.809248 10:-0.359141 11:0.199999 12:0.0528539 13:-1 14:0.757226 15:-0.790249 16:-0.666663 17:0.67052 18:-0.442074 19:-0.599996 20:0.818056 21:0.67052 22:-1 23:0.108108 24:-0.256691 25:-0.243588 26:0.751446 27:-0.249997 28:1 29:0.757226 30:-0.466557 31:0.890174 32:0.200002 33:-0.243244 34:-1 35:0.867052 36:-0.732573 37:-0.275818 
-8 1:-0.197828 2:-1 3:0.445086 4:-1.83333e-006 5:-0.799998 6:0.930636 7:0.287808 8:-1 9:0.867052 10:1 11:-0.617912 12:0.727602 13:-0.599996 14:0.751446 15:0.0612227 16:-0.666663 17:0.809248 18:-1 19:-1 20:1 21:0.757226 22:-1 23:0.594594 24:-0.453974 25:0.175213 26:1 27:-0.749997 28:-0.213889 29:1 30:-0.224931 31:0.757226 32:-1 33:0.513514 34:-0.714283 35:0.757226 36:-0.603507 37:-1 
-0.7990744406537521 1:0.197828 2:-0.714283 3:0.890174 4:-1 5:-0.799998 6:1 7:-0.172304 8:-1 9:0.445086 10:-0.633467 11:0.199999 12:-1 13:-1 14:0.687862 15:-0.504532 16:-0.666663 17:0.751446 18:1 19:-0.599996 20:0.818056 21:1 22:-1 23:0.162162 24:-0.382342 25:1 26:0.930636 27:-0.249997 28:-0.31556 29:0.751446 30:-0.36944 31:0.861272 32:-0.599996 33:0.594594 34:-0.714283 35:0.867052 36:-0.208054 37:-0.230067 
-8 1:-0.531422 2:-0.714283 3:0.445086 4:-1 5:-0.6 6:0.867052 7:-0.255239 8:-0.666663 9:0.751446 10:-0.615177 11:0.170148 12:-0.0580976 13:-1 14:0.930636 15:-0.630383 16:-0.333333 17:0.67052 18:0.720386 19:-1 20:0.818056 21:0.67052 22:-0.333328 23:0.081082 24:-0.364256 25:0.175213 26:0.861272 28:-0.592068 29:0.861272 30:1 31:0.67052 32:-1 33:-0.243244 34:-1 35:0.867052 36:-0.364994 37:-0.264056 
-8 1:1 2:-0.428572 3:0.751446 4:-1 5:-0.6 6:0.687862 7:-0.172304 8:-0.666663 9:0.890174 10:-0.696107 11:0.361192 12:0.585407 13:-1 14:0.687862 15:-0.705213 16:-1 17:0.867052 18:0.0953877 19:-1 20:0.579966 21:0.930636 22:-1 23:0.162162 24:1 25:-0.565523 26:0.687862 28:-0.910727 29:0.67052 30:0.133421 31:0.445086 32:0.200002 33:0.486486 34:-0.142855 35:0.907514 36:-0.593186 37:0.120262 
-5.337819821050829 1:-0.86243 2:-0.428572 3:0.930636 4:-1 5:-0.2 6:1 7:0.287808 8:-0.666663 9:0.687862 10:-0.732685 11:0.361192 12:-0.174309 13:-1 14:0.751446 15:1 16:-1 17:0.907514 18:-1 19:-0.599996 20:-0.565563 21:0.445086 22:-1 23:0.594594 24:1 25:-0.471506 26:0.890174 27:-1 28:-0.284561 29:0.445086 30:-0.36944 31:1 32:-0.599996 33:-0.135136 34:-0.714283 35:0.751446 36:-0.306139 37:-0.454904 
-8 1:0.197828 2:-0.714283 3:0.67052 4:-0.666667 5:-0.399998 6:0.907514 7:0.287808 8:-0.666663 9:0.861272 10:-0.861463 11:0.199999 12:0.0528539 13:-1 14:0.751446 15:0.190474 16:-0.666663 17:0.751446 18:-0.807922 19:-1 20:-0.187273 21:0.751446 22:-0.333328 23:0.594594 24:-0.838657 25:-0.101134 26:0.867052 27:-1 28:-0.510231 29:0.809248 30:-0.636048 31:0.942196 32:-0.200002 33:0.594594 34:-0.428572 35:0.774566 36:-0.479604 37:0.556865 
-8 1:-0.521596 2:0.714283 3:0.976878 4:-1 5:-0.6 6:0.976878 7:0.598455 8:-1 9:0.445086 10:-0.633467 11:0.361192 12:1 13:-1 14:0.890174 15:1 16:-1 17:1 18:-0.322734 19:-0.599996 20:-0.461924 21:0.809248 22:-1 24:1 25:0.445871 26:0.890174 27:-1 28:0.252324 29:0.867052 30:0.499945 31:0.976878 32:-0.200002 33:0.81081 34:-1 35:1 36:1 37:0.556865 
-8 1:0.197828 2:-0.714283 3:0.867052 4:-0.666667 5:-0.6 6:0.67052 7:0.287808 8:-0.333333 9:0.786128 10:-0.0595125 11:-0.474627 12:0.157065 13:-1 14:0.751446 15:-0.504532 16:-1 17:0.751446 18:-0.807922 19:-0.200002 20:-0.767376 21:0.942196 22:-1 23:0.594594 24:-0.838657 25:0.658119 26:0.930636 27:-0.749997 28:0.292004 29:0.809248 30:-0.59986 31:0.867052 32:-1 33:0.594594 34:-0.428572 35:0.751446 36:-0.479604 37:-0.230067 
-8 1:-0.196794 2:-0.714283 3:0.930636 4:-1 5:-0.6 6:0.751446 7:-0.469836 8:-0.666663 9:1 10:-0.387946 11:0.199999 12:-0.174309 13:-1 14:0.861272 15:0.190474 16:-0.666663 17:0.780346 18:-0.186408 19:-1 20:-0.187273 21:0.751446 22:-0.333328 23:-0.486486 24:-0.51433 25:-0.471506 26:0.867052 27:-1 28:-0.213889 29:0.890174 30:0.122216 31:0.757226 32:-1 33:-1 34:-1 35:0.774566 36:0.278265 37:-0.264056 
-5.770014353052067 1:-0.465739 2:-0.714283 3:0.774566 4:-0.666667 5:-0.799998 6:0.687862 7:0.287808 8:-0.666663 9:0.930636 10:0.0144026 11:0.170148 12:-0.169057 13:-0.599996 14:0.751446 15:-0.705213 16:-0.666663 17:0.861272 18:-0.322734 19:-1 20:0.818056 21:0.751446 22:-0.333328 23:0.594594 24:1 25:-0.625352 26:0.687862 27:-0.5 28:0.252324 29:0.780346 30:-0.0498403 31:0.976878 32:-0.599996 33:-0.486486 34:-0.428572 35:0.867052 36:-0.572531 37:-1 
-8 1:-0.197828 2:-0.714283 3:0.867052 4:-1 5:-0.399998 6:0.930636 7:-0.277962 8:-0.666663 9:0.930636 10:0.0144026 11:-0.0507464 12:0.0528539 13:-1 14:0.774566 15:1 16:-1 17:0.809248 18:1 19:-0.599996 20:0.579966 21:0.907514 22:-0.333328 23:-0.756756 24:-0.708317 25:0.658119 26:0.890174 27:-0.749997 28:-0.213889 29:0.751446 30:-0.224931 31:0.757226 32:-0.599996 33:0.513514 34:-0.142855 35:0.907514 36:-0.900875 37:-0.236607 
-8 1:0.197828 2:-1 3:1 4:-0.666667 5:-0.6 6:0.67052 7:0.840695 8:-1 9:0.687862 10:-0.732685 11:-0.0507464 12:0.725854 13:-0.599996 14:0.445086 15:-0.630383 16:-0.333333 17:0.751446 18:1 19:-0.599996 20:-0.70548 21:0.976878 22:-1 23:0.594594 24:-0.256691 25:0.276354 26:0.861272 27:-0.749997 28:-0.510231 29:0.867052 30:-0.59986 31:0.942196 32:-0.200002 33:0.594594 34:-1 35:0.445086 36:1 37:-0.275818 
-7.214286727793684 1:-1 2:-0.714283 3:0.867052 4:-1 5:2.2e-006 6:0.867052 7:-0.692629 8:-1 9:0.930636 10:0.0144026 11:-0.617912 12:0.73635 13:-0.599996 14:-1 15:0.190474 16:-0.666663 17:0.687862 18:0.141989 19:-0.599996 20:-0.70548 21:0.786128 22:-1 23:0.108108 24:0.336542 25:0.658119 26:0.867052 27:-0.749997 28:0.0948558 29:0.751446 30:1 31:0.687862 32:-0.599996 33:0.162162 34:-1 35:0.445086 36:-0.208054 37:-1 
-1.566996558702777 1:-0.521596 2:-0.428572 3:-1 4:-1 5:-0.799998 6:0.890174 7:1 8:-1 9:0.976878 10:-0.394953 11:-0.588061 12:0.389479 13:-1 14:0.867052 15:-0.790249 16:-0.333333 17:1 18:0.141989 19:-1 20:-0.565563 21:0.751446 22:-1 23:0.486486 24:-0.708317 25:-1 26:0.751446 27:-0.249997 28:-0.0229391 29:0.930636 30:0.675036 31:0.809248 32:-0.599996 33:0.81081 34:-1 35:0.751446 36:-0.375322 37:-0.244443 
-8 1:0.74192 2:-0.714283 3:0.867052 4:-0.333335 5:-0.399998 6:0.687862 7:-0.172304 8:-1 9:0.751446 10:-0.615177 11:-0.78508 12:-0.0580976 13:-0.599996 14:0.687862 15:-0.303856 16:-0.666663 17:0.890174 18:-0.807922 19:-0.200002 20:-1 21:0.687862 22:-1 23:0.162162 24:-0.807662 25:0.658119 26:0.786128 27:-0.5 28:0.210168 29:0.687862 30:0.133421 31:0.751446 32:0.599996 34:-1 35:0.687862 36:-0.6128 37:-0.264056 
-8 1:0.426431 2:0.142855 3:0.786128 4:-0.333335 5:-1 6:0.751446 7:-0.500761 8:-1 9:0.751446 10:-0.567324 11:-0.588061 12:0.727602 13:-1 14:0.907514 15:1 16:-1 17:0.757226 18:-0.398951 19:-0.200002 20:-0.461924 21:1 22:-1 23:-0.135136 24:-0.100286 25:0.0128212 26:0.890174 27:-0.5 28:-1 29:0.757226 30:-1 31:0.751446 32:-1 33:0.108108 34:-0.428572 35:1 36:-0.732573 37:0.556865 
-0.3487145688481947 1:-0.86243 2:-0.714283 3:0.976878 4:-1 5:-0.799998 6:0.890174 7:0.287808 8:-1 9:0.976878 10:-0.394953 11:0.170148 12:-0.0580976 13:-0.599996 14:0.751446 15:-0.504532 16:-0.666663 17:0.907514 18:-0.266982 19:-0.599996 20:0.123656 21:0.867052 22:-0.333328 23:0.594594 24:0.178489 25:0.445871 26:0.930636 28:-0.528833 29:0.751446 30:0.675036 31:-1 32:-0.599996 33:-0.135136 34:-0.714283 35:0.780346 36:-0.208054 37:-1 
-8 1:-0.772436 2:-0.142855 3:0.890174 4:-1 5:-0.6 6:0.890174 7:-0.255239 8:-1 9:0.751446 10:-0.567324 11:-0.0507464 12:-0.169057 13:-1 14:0.930636 15:-0.534015 16:-1 17:0.786128 18:0.720386 19:-0.200002 20:-0.365481 21:1 22:-0.333328 23:0.081082 24:-1 25:1 26:0.751446 27:-0.749997 28:-0.0229391 29:0.780346 30:0.675036 31:0.809248 32:-0.599996 33:-0.27027 34:-1 35:0.67052 36:-0.572531 37:0.478428 
-1.419689516862543 1:-0.531422 2:-0.714283 3:0.867052 4:-1 5:-0.399998 6:0.757226 7:-0.277962 8:-0.333333 9:0.976878 10:-0.394953 11:-0.773138 12:1 13:-1 14:0.774566 15:-0.695012 16:-1 17:0.67052 18:-0.266982 19:-0.599996 20:0.818056 21:0.751446 22:-1 23:-0.756756 24:-0.100286 25:0.658119 26:0.942196 27:-0.5 28:0.252324 29:0.867052 30:-0.530526 31:0.976878 32:-1 33:-0.243244 34:-1 35:0.867052 36:1 37:-0.275818 
-8 1:-0.397466 2:-0.142855 3:0.930636 4:-1 5:-0.399998 6:0.976878 7:0.778845 8:-0.666663 9:0.751446 10:-0.567324 11:-0.205973 12:0.157065 13:-0.200002 14:0.976878 15:-0.679136 16:-1 17:0.930636 18:0.476046 19:-0.599996 20:-0.565563 21:0.907514 22:-1 23:1 24:-0.227337 25:-0.471506 26:0.67052 27:-1 28:0.292004 29:0.890174 30:0.499945 31:0.867052 32:-1 33:0.081082 34:-0.428572 35:0.751446 36:0.278265 37:1 
-8 1:-0.521596 2:-1 3:0.809248 4:-0.666667 5:-0.2 6:1 7:0.482958 8:-1 9:0.751446 10:-0.615177 11:0.170148 12:0.725854 13:-1 14:0.809248 15:-0.504532 16:-1 17:1 18:-0.813588 19:-1 20:0.579966 21:0.757226 22:-1 23:0.513514 24:-0.511041 25:0.284899 26:0.930636 27:0.250003 28:0.210168 29:1 30:-0.36944 31:0.751446 32:-1 33:0.81081 34:-0.714283 35:0.907514 36:-0.603507 37:1 
-2.094400776295196 1:-1 2:-1 3:0.751446 4:-0.666667 5:-0.6 6:0.867052 7:0.840695 8:-0.666663 9:1 10:-0.387946 11:-0.0507464 12:0.157065 13:-1 14:0.445086 15:-0.534015 16:-1 17:0.687862 18:0.141989 19:-1 20:-0.767376 21:0.751446 22:-1 23:0.594594 24:-0.807662 25:-0.565523 26:0.751446 27:0.250003 28:-0.0229391 29:1 30:1 31:0.809248 32:-0.599996 33:0.162162 34:-1 35:0.751446 36:-0.603507 37:-0.454904 
-8 1:-0.397466 2:-0.142855 3:1 4:-1 5:-0.399998 6:0.751446 7:1 8:-1 9:0.687862 10:-0.736949 11:-0.205973 12:0.618398 13:-0.599996 14:0.867052 15:-0.72222 16:-0.666663 17:0.930636 18:-1 19:-1 20:0.818056 21:0.751446 22:-1 23:0.486486 24:0.336542 25:0.276354 26:0.976878 27:-0.749997 28:-0.765655 29:0.976878 30:0.122216 31:0.907514 32:-0.599996 33:0.081082 34:-0.714283 35:0.867052 36:-1 37:-0.454904 
-3.900670752920073 1:0.197828 2:-0.714283 3:0.786128 4:-1 5:-1 6:0.890174 7:-0.692629 8:-1 9:0.751446 10:-0.615177 11:-0.773138 12:0.585407 13:-1 14:-1 15:0.0612227 16:-0.666663 17:0.751446 18:0.0953877 19:-0.599996 20:-0.365481 21:0.751446 22:-0.333328 23:0.108108 24:-0.51433 25:0.0128212 26:1 27:-0.249997 28:-0.765655 29:0.930636 30:0.675036 31:0.907514 32:-1 33:0.594594 34:-0.714283 35:0.67052 36:-0.375322 37:-0.275818 
