svm_type c_svc
kernel_type rbf
gamma 0.00012207
nr_class 2
total_sv 404
rho 8.15325
label 1 -1
probA -0.958656
probB 1.74037
nr_sv 62 342
SV
3160.275968 1:-0.230768 2:0.930636 3:-0.499993 4:0.861272 5:-1 6:-0.764169 7:0.976878 8:-0.32798 9:-0.81818 10:0.780346 11:-0.876302 12:-0.575164 13:-0.765036 14:-0.547177 15:0.861272 16:-0.6 17:0.334099 18:-0.760428 19:0.751446 20:-1 21:1 22:-1 23:0.867052 24:-0.184197 25:-0.648352 26:0.445086 27:-0.453959 
2178.44587192762 1:-0.846152 2:-1 3:-1 4:0.890174 5:-0.636364 6:-0.240984 7:0.867052 8:0.851824 9:-0.636364 10:-1 11:-0.811197 12:-0.791571 13:-0.323636 14:0.341316 15:0.907514 16:-0.6 17:-0.104995 18:-0.730413 19:0.890174 20:-1 21:-0.621217 22:-0.555556 23:0.976878 24:-0.0623892 25:-0.472526 26:0.445086 27:1 
390.4520434029812 1:-0.53846 2:0.976878 3:-1 4:0.809248 5:-0.81818 6:-0.575506 7:0.907514 8:0.0654823 9:-0.0909078 10:0.867052 11:1 12:-0.902438 13:-0.418181 14:1 15:0.809248 16:-0.6 17:0.138819 18:-0.6825 19:0.976878 20:-1 21:0.712415 22:-0.777775 23:0.751446 24:-0.46404 25:-1 26:1 27:-0.364385 
3160.275968 1:-0.384616 2:0.907514 3:-1 4:0.930636 5:-0.636364 6:-0.764169 7:0.976878 8:-0.652727 9:-0.81818 10:0.867052 11:-0.485029 12:-0.695196 13:-0.746014 14:1 15:0.976878 16:-0.799997 17:0.0860796 18:-0.413327 19:0.809248 20:-1 21:0.172069 22:-0.777775 23:0.861272 24:1 25:-0.648352 26:0.809248 27:-0.453959 
3160.275968 1:-0.230768 2:0.890174 3:-1 4:0.757226 5:-0.636364 6:-0.240984 7:0.687862 8:1 9:-0.81818 10:0.751446 11:-1 12:1 13:-0.770071 14:-0.773104 15:0.751446 16:-0.399997 17:-0.159835 18:-0.413327 19:0.867052 20:-0.653842 21:-0.621217 22:-0.555556 23:1 24:-0.193095 25:-1 26:0.907514 27:-0.509854 
3160.275968 1:-0.692308 2:0.786128 3:-1 4:0.751446 5:-0.0909078 6:-0.764169 7:0.757226 8:-1 9:-0.636364 10:0.867052 11:-0.412111 12:-0.215077 13:-0.434405 14:1 15:0.67052 16:-0.399997 17:0.703446 18:-0.413327 19:0.751446 20:-1 21:-1 22:-0.777775 23:0.890174 24:-0.184197 25:-0.824174 26:0.809248 27:-0.192405 
1023.939979330577 1:-0.53846 2:0.786128 3:-1 4:0.867052 5:-0.81818 6:1 7:1 8:-0.149249 9:-0.81818 10:0.976878 11:-0.876302 12:-0.695196 13:1 14:-0.182071 15:0.751446 16:-0.2 17:-0.0247425 18:1 19:0.907514 20:-1 21:-1 22:-0.555556 23:0.751446 24:0.443279 25:-1 26:0.757226 27:-0.522035 
3160.275968 1:-0.846152 2:0.976878 3:-1 4:0.976878 5:0.0909078 6:-0.664288 7:0.942196 8:-0.313489 9:-0.81818 10:0.890174 11:-0.455732 12:-0.989356 13:-0.393567 14:-0.167826 15:0.867052 16:-0.399997 17:0.090285 18:-0.413327 19:0.757226 20:-0.653842 21:0.0243237 22:-0.777775 23:0.751446 24:-1 25:-0.648352 26:0.751446 27:-0.0347542 
3160.275968 1:-0.846152 2:0.907514 3:-1 4:0.809248 5:-0.81818 6:-0.819263 7:0.907514 8:1 9:1 10:0.907514 11:-0.42318 12:-0.902438 13:-0.418181 14:-0.805471 15:1 16:-0.799997 17:-0.104995 18:-0.353711 19:0.867052 20:-1 21:-0.416929 22:-1 23:-1 24:-0.199023 25:-0.824174 26:0.890174 27:-0.364385 
3160.275968 1:-0.53846 2:0.890174 3:-1 4:0.976878 5:-0.272728 6:-0.663098 7:0.751446 8:-0.149249 9:-0.636364 10:0.867052 11:-0.530599 12:-0.428823 13:-0.393567 14:1 15:0.867052 16:-0.799997 17:0.138819 18:-0.511498 19:0.907514 20:-1 21:-0.416929 22:-0.333331 23:1 24:0.443279 25:-1 26:-1 27:-1 
3160.275968 1:-0.846152 2:0.67052 3:-1 4:1 5:-0.454544 6:-0.983751 7:0.867052 8:-0.149249 9:-0.81818 10:0.809248 11:0.0377602 12:-0.54619 13:-0.366715 14:-0.951125 15:0.861272 16:-0.799997 17:0.703446 18:-0.730413 19:0.907514 20:-1 21:-0.0946943 22:-0.777775 23:-1 24:-0.0623892 25:-0.824174 26:0.751446 27:1 
3160.275968 1:-0.692308 2:0.976878 3:-1 4:0.687862 5:-0.81818 6:-0.369799 7:0.751446 8:0.0654823 9:-0.636364 10:0.890174 11:-0.485029 12:-1 13:-0.253705 14:-0.167826 15:1 16:-0.799997 17:-0.173594 18:-0.840287 19:0.976878 20:-1 21:-0.416929 22:-1 23:0.809248 24:0.0320907 25:-1 26:0.687862 27:-1 
3160.275968 1:-0.846152 2:0.976878 3:-0.499993 4:0.445086 5:-0.81818 6:-0.549346 7:0.687862 8:0.0654823 9:-0.81818 10:0.687862 11:-0.115888 12:-0.508055 13:-1 14:-0.725848 15:0.757226 16:-1 17:-0.0100323 18:-0.858598 19:0.976878 20:-1 21:0.172069 22:-0.555556 23:0.907514 24:0.0320907 25:-0.472526 26:0.445086 27:-0.509854 
3160.275968 1:-0.692308 2:1 3:-1 4:1 5:-0.636364 6:1 7:0.445086 8:-0.326398 9:-1 10:0.809248 11:-0.27539 12:-0.680709 13:-0.366715 14:-0.951125 15:0.786128 16:-0.799997 17:0.703446 18:-0.511498 19:0.942196 20:-0.653842 21:-0.621217 22:-0.555556 23:0.757226 24:-0.184197 25:-0.824174 26:1 27:-0.358656 
3160.275968 1:-0.53846 2:0.930636 3:-1 4:0.976878 5:-0.636364 6:-0.575506 7:0.786128 8:0.0654823 9:-0.81818 10:0.890174 11:0.830078 12:-1 13:-0.393567 14:-0.167826 15:0.867052 16:-1 17:-0.0247425 18:-0.856258 19:0.976878 20:-1 21:0.535947 22:-0.555556 23:0.445086 24:0.0534909 25:-0.824174 26:0.757226 27:-0.201005 
3160.275968 1:-0.846152 2:1 3:-1 4:0.751446 5:-0.636364 6:-0.240984 7:0.786128 8:0.851824 9:-0.81818 10:0.751446 11:0.0377602 12:-0.695196 13:-0.897064 14:-0.773104 15:0.757226 16:0.800003 17:-0.173594 18:-0.6825 19:0.890174 20:-1 21:0.712415 22:-0.777775 23:0.67052 24:-0.199023 25:-0.824174 26:0.751446 27:-0.201005 
3160.275968 1:-0.692308 2:0.687862 3:-1 4:0.751446 5:-0.81818 6:-0.369799 7:0.976878 8:0.0654823 9:-1 10:0.867052 11:0.830078 12:-0.205912 13:-0.434405 14:1 15:0.751446 16:-0.799997 17:-0.173594 18:-0.511498 19:0.976878 20:-1 21:-0.710435 22:-1 23:0.786128 24:0.150935 25:-0.824174 26:0.976878 27:-0.453959 
1492.706495034961 1:-0.53846 2:0.751446 3:-1 4:0.809248 5:-0.81818 6:-0.573524 7:0.867052 8:1 9:-0.81818 10:0.445086 11:1 12:-0.695196 13:-0.418181 14:-0.458491 15:0.67052 16:0.2 17:1 18:-0.730413 19:0.867052 20:-1 21:-1 22:-1 23:0.751446 24:-0.184197 25:-0.824174 26:0.751446 27:1 
1702.155027552243 1:-0.230768 2:0.942196 3:-1 4:0.757226 5:-1 6:1 7:-1 8:-0.149249 9:-0.81818 10:0.867052 11:-0.485029 12:-0.500072 13:-0.770071 14:1 15:0.67052 16:-1 17:-0.104995 18:-0.760428 19:0.907514 20:-0.653842 21:-0.314784 22:-0.777775 23:0.751446 24:-0.193095 25:-1 26:0.976878 27:0.45754 
3160.275968 1:-0.692308 2:0.774566 3:-1 4:0.751446 5:-0.454544 6:-0.983751 7:0.976878 8:-0.0494134 9:-0.81818 10:0.930636 11:-0.412111 12:1 13:-0.897064 14:-0.725848 15:0.687862 16:2.6e-006 17:0.703446 18:-0.413327 19:-1 20:-1 21:0.172069 22:-0.777775 23:0.757226 24:-0.184197 25:-1 26:0.809248 27:-0.453959 
3160.275968 1:-0.692308 2:0.445086 3:-1 4:0.687862 5:-1 6:-0.764169 7:-1 8:-0.313489 9:-0.81818 10:0.751446 11:-0.514326 12:-0.989356 13:-0.643079 14:-0.526787 15:0.751446 16:-0.2 17:-0.104995 18:-1 19:0.757226 20:-0.307692 21:-0.0946943 22:-0.777775 23:0.751446 24:-0.199023 25:-0.472526 26:0.809248 27:0.45754 
3160.275968 1:-0.692308 2:0.687862 3:-1 4:0.445086 5:-0.636364 6:-0.622672 7:0.930636 8:0.851824 9:-0.81818 10:0.67052 11:-0.42318 12:-0.695196 13:-1 14:-0.601233 15:0.751446 16:-0.6 17:1 18:-0.876496 19:0.890174 20:-0.653842 21:0.535947 22:-1 23:0.786128 24:0.0320907 25:-0.824174 26:1 27:-0.423861 
2214.704991900911 1:-0.230768 2:0.445086 3:-1 4:0.867052 5:-1 6:-0.622672 7:0.976878 8:1 9:-1 10:0.445086 11:-0.414714 12:-0.951217 13:1 14:-0.458491 15:0.445086 16:-0.799997 17:0.138819 18:-0.958691 19:0.867052 20:-0.653842 21:-0.314784 22:-0.777775 23:0.445086 24:1 25:-0.296704 26:-1 27:-0.453959 
3160.275968 1:-0.230768 2:0.445086 3:-1 4:0.867052 5:-1 6:-0.369799 7:0.976878 8:-0.241054 9:-1 10:0.976878 11:-0.42318 12:1 13:1 14:-0.182071 15:0.687862 16:-0.6 17:-0.104995 18:-1 19:0.774566 20:-0.653842 21:-1 22:-1 23:0.687862 24:-1 25:-0.648352 26:0.867052 27:-0.453959 
3026.333262373193 1:-0.384616 2:0.942196 3:-1 4:0.751446 5:-1 6:-0.664288 7:0.930636 8:1 9:-1 10:-1 11:-0.27539 12:-0.680709 13:-0.897064 14:0.341316 15:0.809248 16:-0.6 17:-0.0100323 18:-0.958691 19:0.867052 20:0.384615 21:0.00152848 22:-1 23:0.942196 24:0.150935 25:-0.648352 26:0.867052 27:-0.423861 
1727.574203564575 1:-0.692308 2:0.930636 3:-1 4:0.751446 5:-0.0909078 6:-0.369799 7:0.751446 8:-0.0494134 9:-1 10:0.890174 11:1 12:-0.575164 13:-0.434405 14:-0.167826 15:-1 16:-1 17:0.703446 18:-0.876496 19:-1 20:-0.653842 21:0.0243237 22:-1 23:0.809248 24:0.513401 25:-1 26:0.687862 27:0.281979 
3160.275968 1:-0.53846 2:0.751446 3:-1 4:0.976878 5:-0.454544 6:-0.474436 7:0.751446 8:-0.652727 9:-0.454544 10:0.890174 11:-0.115888 12:-0.205912 13:-0.393567 14:-0.167826 15:0.907514 16:-0.6 17:1 18:-0.353711 19:0.809248 20:-1 21:-0.668793 22:-0.111112 23:0.867052 24:-0.193095 25:-0.648352 26:1 27:-1 
1683.600292948719 1:-0.230768 2:0.907514 3:-1 4:0.867052 5:-1 6:-0.780421 7:0.867052 8:-0.170193 9:-0.81818 10:0.751446 11:-0.665366 12:-0.593791 13:1 14:-0.526787 15:0.867052 16:-1 17:-0.483902 18:-0.353711 19:0.67052 20:-1 21:0.712415 22:-0.777775 23:-1 24:-0.0623892 25:-1 26:0.867052 27:1 
304.270356289983 1:-0.53846 2:0.976878 3:-1 4:0.809248 5:-0.0909078 6:-0.983751 7:0.890174 8:-0.32798 9:-1 10:0.976878 11:1 12:-0.215077 13:-0.418181 14:-0.182071 15:0.687862 16:-0.799997 17:-0.0100323 18:-0.162465 19:0.751446 20:-1 21:0.0243237 22:-0.333331 23:0.757226 24:-0.0623892 25:-0.824174 26:0.867052 27:0.314943 
2802.624624770419 1:-0.53846 2:0.890174 3:-0.499993 4:0.445086 5:-0.0909078 6:-0.819263 7:0.445086 8:-0.0494134 9:-0.81818 10:0.751446 11:1 12:-0.500072 13:-1 14:-0.773104 15:0.930636 16:-0.6 17:0.0818742 18:-0.413327 19:-1 20:-1 21:0.712415 22:-1 23:0.890174 24:-0.193095 25:-0.648352 26:0.687862 27:-0.358656 
6.201908304703612 1:-0.692308 2:0.757226 3:-1 4:0.907514 5:-0.0909078 6:-0.474436 7:0.809248 8:-0.301153 9:-0.81818 10:0.976878 11:-0.27539 12:-0.695196 13:-0.724198 14:-0.182071 15:0.751446 16:2.6e-006 17:0.703446 18:1 19:0.445086 20:-0.653842 21:0.0243237 22:-0.555556 23:1 24:0.513401 25:-0.824174 26:1 27:-0.130058 
3160.275968 1:-0.846152 2:0.774566 3:-1 4:0.976878 5:-0.454544 6:-0.819263 7:0.751446 8:-0.32798 9:-1 10:0.930636 11:-0.27539 12:-0.500072 13:-0.393567 14:-0.725848 15:0.890174 16:-1 17:-0.483902 18:-0.876496 19:0.751446 20:-0.653842 21:-0.733236 22:-1 23:0.976878 24:0.513401 25:-0.824174 26:0.67052 27:0.281979 
3160.275968 1:-0.846152 2:0.907514 3:-0.499993 4:-1 5:-0.636364 6:-0.666668 7:1 8:-1 9:-0.81818 10:-1 11:-0.811197 12:-0.215077 13:0.117203 14:0.341316 15:0.890174 16:-0.6 17:0.334099 18:-0.691863 19:0.751446 20:-0.653842 21:-0.621217 22:-0.777775 23:0.687862 24:0.150935 25:-0.472526 26:-1 27:-0.522035 
3160.275968 1:-0.692308 2:1 3:-1 4:1 5:-1 6:-0.663098 7:0.687862 8:0.0654823 9:-0.81818 10:0.687862 11:-0.341796 12:-0.54619 13:-0.366715 14:-0.725848 15:0.867052 16:-1 17:-0.159835 18:-0.691863 19:0.976878 20:-0.653842 21:-0.621217 22:-0.555556 23:0.976878 24:-0.46404 25:-0.472526 26:0.774566 27:0.134362 
3160.275968 1:-0.846152 2:0.976878 3:-1 4:0.809248 5:-0.636364 6:1 7:0.751446 8:-0.324247 9:-0.636364 10:0.757226 11:1 12:-0.54619 13:-0.418181 14:-0.765659 15:0.67052 16:-0.799997 17:-0.0100323 18:-0.856258 19:0.786128 20:-1 21:-0.0946943 22:-0.777775 23:0.774566 24:0.0320907 25:-0.824174 26:-1 27:-1 
3160.275968 1:-1 2:0.751446 3:-1 4:1 5:0.0909078 6:-0.474436 7:0.890174 8:0.851824 9:-1 10:-1 11:-0.876302 12:-0.989356 13:-0.366715 14:0.341316 15:-1 16:-0.2 17:-0.104995 18:-0.6825 19:0.890174 20:-1 21:0.535947 22:-0.777775 23:0.809248 24:-0.424216 25:-0.824174 26:0.751446 27:0.314943 
1968.656325093358 1:0.076924 2:0.976878 3:-1 4:0.786128 5:-1 6:-0.622672 7:0.774566 8:-0.313489 9:-0.81818 10:0.867052 11:0.830078 12:-0.989356 13:-0.697343 14:1 15:0.907514 16:-1 17:0.138819 18:1 19:0.757226 20:-0.653842 21:-0.710435 22:-0.555556 23:0.976878 24:0.0534909 25:-1 26:0.809248 27:-0.269081 
3160.275968 1:-0.384616 2:1 3:-1 4:0.67052 5:-0.81818 6:-0.240984 7:0.867052 8:0.0654823 9:-0.81818 10:0.942196 11:0.830078 12:-0.328601 13:-0.78126 14:-0.697364 15:0.976878 16:-0.6 17:0.429062 18:-0.6825 19:0.976878 20:0.038466 21:-0.570596 22:-1 23:0.687862 24:0.150935 25:-0.648352 26:0.751446 27:1 
3160.275968 1:-0.692308 2:0.751446 3:-1 4:0.809248 5:-0.81818 6:-0.622672 7:0.751446 8:1 9:-0.81818 10:0.751446 11:-0.115888 12:-0.680709 13:-0.418181 14:-0.526787 15:0.751446 16:-0.6 17:0.334099 18:1 19:0.867052 20:-0.653842 21:-0.621217 22:-0.777775 23:0.942196 24:-1 25:-0.472526 26:0.751446 27:0.281979 
3160.275968 1:-0.53846 2:0.867052 3:-1 4:0.751446 5:-0.81818 6:-0.983751 7:0.809248 8:-0.313489 9:-0.636364 10:0.890174 11:0.830078 12:-0.575164 13:-0.434405 14:-0.167826 15:0.67052 16:-0.6 17:0.090285 18:-0.691863 19:0.757226 20:-1 21:-0.416929 22:-0.555556 23:0.861272 24:-1 25:-0.824174 26:0.976878 27:-0.130058 
3160.275968 1:-1 2:0.890174 3:-1 4:0.774566 5:-0.272728 6:-0.819263 7:0.751446 8:0.851824 9:-0.636364 10:0.930636 11:1 12:-0.93673 13:-0.599999 14:-0.725848 15:0.751446 16:-0.799997 17:-0.173594 18:-0.730413 19:0.890174 20:-1 21:0.0243237 22:-0.777775 23:0.751446 24:-0.193095 25:-1 26:0.976878 27:-1 
3160.275968 1:-0.384616 2:0.687862 3:-1 4:0.930636 5:-0.81818 6:1 7:1 8:0.0654823 9:-0.81818 10:0.757226 11:-0.485029 12:-1 13:-0.746014 14:-0.765659 15:0.907514 16:-0.399997 17:-0.104995 18:1 19:0.976878 20:-1 21:1 22:-0.555556 23:0.751446 24:-0.174666 25:-1 26:1 27:-0.522035 
1902.757692274768 1:-0.692308 2:1 3:-1 4:1 5:-0.636364 6:1 7:0.867052 8:-0.324247 9:-1 10:-1 11:-0.455732 12:-0.205912 13:-0.366715 14:0.341316 15:0.445086 16:-0.799997 17:-1 18:-0.637338 19:0.786128 20:-1 21:-0.733236 22:-0.777775 23:0.751446 24:-0.0623892 25:-0.648352 26:0.890174 27:1 
3160.275968 1:-0.53846 2:1 3:-1 4:0.687862 5:-1 6:-0.240984 7:-1 8:-0.652727 9:-1 10:0.809248 11:-0.115888 12:1 13:-0.643079 14:-0.951125 15:0.67052 16:-0.799997 17:-0.693898 18:-0.876496 19:0.809248 20:-0.653842 21:-0.710435 22:-0.333331 23:0.786128 24:0.513401 25:-1 26:0.751446 27:0.45754 
3160.275968 1:-0.846152 2:0.907514 3:-0.499993 4:0.907514 5:-0.81818 6:-1 7:0.890174 8:-0.301153 9:-0.0909078 10:0.751446 11:-0.412111 12:-0.791571 13:-0.724198 14:-0.526787 15:0.751446 16:-1 17:0.0818742 18:-0.353711 19:0.445086 20:-0.653842 21:-0.0946943 22:-0.333331 23:0.907514 24:-0.193095 25:-0.824174 26:1 27:0.314943 
3160.275968 1:-0.692308 2:0.687862 3:-1 4:0.687862 5:-0.636364 6:-0.575506 7:0.976878 8:0.258696 9:-1 10:0.867052 11:0.0377602 12:-0.989356 13:-0.253705 14:1 15:0.757226 16:-0.799997 17:0.138819 18:-0.511498 19:1 20:-1 21:0.712415 22:-0.555556 23:0.890174 24:0.0320907 25:-1 26:0.786128 27:-0.453959 
3160.275968 1:-0.53846 2:0.907514 3:-0.499993 4:-1 5:-0.454544 6:-0.622672 7:0.867052 8:0.0654823 9:-0.81818 10:0.976878 11:-1 12:-0.745454 13:0.117203 14:-0.182071 15:0.890174 16:-1 17:-0.0100323 18:-0.353711 19:0.976878 20:-0.653842 21:-0.172966 22:-0.777775 23:0.890174 24:-0.0623892 25:-1 26:0.976878 27:1 
3160.275968 1:-0.692308 2:0.890174 3:-1 4:0.867052 5:-0.0909078 6:-0.369799 7:0.976878 8:-1 9:-1 10:0.890174 11:-0.455732 12:-0.575164 13:1 14:-0.167826 15:0.751446 16:-0.6 17:0.138819 18:-0.840287 19:0.751446 20:-1 21:0.535947 22:-0.555556 23:0.930636 24:-0.0623892 25:-1 26:0.890174 27:-0.453959 
1730.23072428678 1:0.076924 2:0.751446 3:-1 4:0.867052 5:-1 6:1 7:0.976878 8:1 9:-0.81818 10:0.687862 11:-0.876302 12:-0.428823 13:1 14:-0.725848 15:0.757226 16:2.6e-006 17:-1 18:-0.6825 19:0.867052 20:-1 21:0.712415 22:-0.555556 23:0.907514 24:-0.193095 25:-0.648352 26:0.867052 27:-0.453959 
3160.275968 1:-0.230768 2:0.751446 3:-1 4:0.751446 5:-0.81818 6:-0.764169 7:0.930636 8:-0.523918 9:-0.81818 10:0.445086 11:-0.412111 12:-0.989356 13:-0.897064 14:-0.458491 15:0.930636 16:-0.2 17:-0.159835 18:1 19:0.930636 20:-0.653842 21:1 22:-0.555556 23:0.67052 24:1 25:-0.296704 26:0.867052 27:-0.423861 
3160.275968 1:-0.53846 2:0.751446 3:-1 4:0.907514 5:-0.81818 6:-0.622672 7:0.751446 8:-0.170193 9:-0.636364 10:0.809248 11:-0.414714 12:-0.508055 13:-0.724198 14:-0.951125 15:0.907514 16:-1 17:1 18:-0.958691 19:0.67052 20:-0.653842 21:1 22:-1 23:0.976878 24:0.513401 25:-0.824174 26:0.445086 27:0.281979 
3160.275968 1:-1 2:0.687862 3:-1 4:0.890174 5:-0.272728 6:-0.575506 7:0.687862 8:0.851824 9:-0.81818 10:0.907514 11:-0.42318 12:-0.575164 13:-0.323636 14:-0.805471 15:0.757226 16:-0.399997 17:-0.0247425 18:-0.353711 19:0.890174 20:-1 21:0.172069 22:-0.777775 23:0.751446 24:-1 25:-1 26:0.774566 27:0.134362 
3160.275968 1:-0.846152 2:0.67052 3:-1 4:1 5:-0.272728 6:-0.474436 7:0.757226 8:-0.241054 9:-1 10:1 11:-0.533202 12:-0.989356 13:-0.366715 14:-0.894806 15:0.774566 16:-0.799997 17:-1 18:-0.637338 19:0.774566 20:-0.653842 21:0.712415 22:-0.333331 23:0.890174 24:0.513401 25:-0.824174 26:0.67052 27:-0.192405 
3160.275968 1:-0.846152 2:1 3:-1 4:0.976878 5:-1 6:-0.369799 7:0.861272 8:0.258696 9:-1 10:0.687862 11:-1 12:-0.745454 13:-0.393567 14:-0.725848 15:0.976878 16:-0.799997 17:0.0860796 18:1 19:1 20:-1 21:0.00152848 22:-0.777775 23:0.861272 24:-0.184197 25:-0.648352 26:0.445086 27:-0.224652 
3160.275968 1:-0.692308 2:0.976878 3:-0.499993 4:0.687862 5:-0.81818 6:-0.764169 7:0.687862 8:-0.174494 9:-1 10:0.976878 11:-0.27539 12:-0.680709 13:-0.643079 14:-0.182071 15:0.930636 16:-1 17:-0.173594 18:1 19:0.861272 20:-1 21:-0.314784 22:-1 23:0.976878 24:-0.174666 25:-0.648352 26:0.67052 27:0.134362 
3160.275968 1:-0.692308 2:0.867052 3:-1 4:0.890174 5:-0.81818 6:-0.573524 7:0.757226 8:-0.170193 9:-0.636364 10:0.687862 11:-0.414714 12:-0.791571 13:-0.323636 14:-0.725848 15:0.976878 16:-1 17:-0.335056 18:-0.860939 19:0.67052 20:-1 21:-0.214614 22:-0.777775 23:0.976878 24:-0.193095 25:-1 26:0.809248 27:-0.192405 
3160.275968 1:-0.230768 2:0.751446 3:-1 4:0.751446 5:-1 6:-0.819263 7:0.786128 8:0.0654823 9:-0.81818 10:0.907514 11:-0.27539 12:-0.205912 13:-0.897064 14:-0.805471 15:0.867052 16:-0.2 17:-0.173594 18:-0.840287 19:0.976878 20:-1 21:0.00152848 22:-1 23:0.786128 24:0.150935 25:-0.472526 26:0.774566 27:-0.201005 
3160.275968 1:-0.53846 2:1 3:-1 4:0.687862 5:-0.81818 6:-0.780421 7:0.445086 8:-0.32798 9:-1 10:0.751446 11:-0.876302 12:-0.54619 13:-0.253705 14:-0.773104 15:0.751446 16:-0.2 17:-0.0100323 18:1 19:0.751446 20:-0.653842 21:0.0243237 22:-1 23:0.786128 24:0.513401 25:-0.648352 26:0.687862 27:-0.358656 
3160.275968 1:-0.384616 2:0.67052 3:-0.499993 4:0.867052 5:-1 6:-0.72176 7:0.445086 8:-0.301153 9:-0.636364 10:0.757226 11:-0.530599 12:-0.951217 13:1 14:-0.765659 15:-1 16:-1 17:-0.693898 18:-0.730413 19:0.445086 20:-1 21:-0.416929 22:-0.555556 23:0.67052 24:0.0320907 25:-0.648352 26:0.861272 27:-0.358656 
3160.275968 1:-0.692308 2:0.751446 3:-0.499993 4:0.751446 5:-0.454544 6:-0.474436 7:0.780346 8:-0.149249 9:-0.81818 10:0.445086 11:-0.455732 12:-0.575164 13:-0.897064 14:-0.458491 15:0.687862 16:-0.6 17:0.703446 18:-0.958691 19:0.907514 20:-1 21:0.0243237 22:-0.777775 23:0.67052 24:-0.424216 25:-0.824174 26:0.751446 27:-0.144395 
2319.763657329244 1:-0.384616 2:0.786128 3:-0.499993 4:0.867052 5:-0.81818 6:-0.575506 7:0.907514 8:-1 9:-0.81818 10:0.976878 11:0.0377602 12:1 13:1 14:-0.182071 15:0.809248 16:-0.6 17:0.090285 18:-0.162465 19:0.751446 20:-1 21:-0.0946943 22:-0.555556 23:0.890174 24:-0.46404 25:-1 26:0.757226 27:-0.364385 
3160.275968 1:-0.384616 2:0.786128 3:-0.499993 4:0.867052 5:-0.81818 6:-0.575506 7:0.907514 8:-1 9:-0.81818 10:0.976878 11:0.0377602 12:1 13:1 14:-0.182071 15:0.809248 16:-0.6 17:0.090285 18:-0.162465 19:0.751446 20:-1 21:-0.0946943 22:-0.555556 23:0.890174 24:-0.46404 25:-1 26:0.757226 27:-0.364385 
-512 1:-0.384616 2:0.867052 3:-1 4:1 5:-0.81818 6:-0.474436 7:0.867052 8:0.0654823 9:-0.81818 10:0.867052 11:-0.455732 12:-0.989356 13:-0.366715 14:1 15:0.930636 16:-0.799997 17:1 18:-0.856258 19:0.976878 20:-1 21:-0.710435 22:-0.777775 23:0.751446 24:-0.174666 25:-0.824174 26:0.757226 27:1 
-512 1:-0.84 2:0.907514 3:-1 4:0.890174 5:-0.432727 6:-0.983751 7:0.867052 8:-0.523918 9:-0.621818 10:0.786128 11:-0.27539 12:-0.989356 13:-0.323636 14:-1 15:0.976878 16:-0.375999 17:0.429062 18:-0.730413 19:0.930636 20:-1 21:-0.621217 22:-1 23:0.751446 24:-0.283978 25:-0.817143 26:0.890174 27:1 
-512 1:-0.846152 2:0.757226 3:-0.499993 4:0.445086 5:-0.454544 6:-0.622672 7:1 8:-0.652727 9:-0.81818 10:0.890174 11:-0.412111 12:-0.508055 13:-1 14:-0.167826 15:0.786128 16:-1 17:0.138819 18:-0.162465 19:0.809248 20:-1 21:-0.385155 22:-0.555556 23:0.890174 24:-0.0623892 25:-0.472526 26:0.809248 27:-0.522035 
-512 1:-0.692308 2:0.907514 3:-1 4:0.976878 5:-0.636364 6:-0.369799 7:0.907514 8:-0.170193 9:-0.636364 10:0.930636 11:-0.530599 12:-0.428823 13:-0.393567 14:-0.725848 15:0.942196 16:-1 17:-0.104995 18:-0.858598 19:0.67052 20:-0.653842 21:-0.466472 22:-1 23:0.930636 24:1 25:-1 26:1 27:-0.364385 
-512 1:-0.384616 2:0.809248 3:-1 4:0.809248 5:-1 6:1 7:-1 8:-0.875493 9:-0.81818 10:0.687862 11:0.830078 12:-0.695196 13:-0.418181 14:-0.725848 15:0.976878 16:-0.399997 17:-0.0100323 18:1 19:0.687862 20:-1 21:0.712415 22:-0.777775 23:0.751446 24:-0.57928 25:-1 26:0.976878 27:0.45754 
-512 1:-0.53846 2:0.751446 3:-1 4:0.867052 5:-1 6:-0.369799 7:0.930636 8:-0.313489 9:-1 10:0.445086 11:-0.530599 12:1 13:1 14:-0.458491 15:0.445086 16:2.6e-006 17:-1 18:-0.876496 19:0.757226 20:-1 21:-1 22:-0.777775 23:0.445086 24:-0.184197 25:-0.472526 26:0.751446 27:-0.423861 
-512 1:-0.230768 2:0.751446 3:-1 4:0.867052 5:-1 6:-0.240984 7:1 8:-0.32798 9:-1 10:0.867052 11:0.830078 12:-0.791571 13:1 14:1 15:0.751446 16:-0.2 17:-0.173594 18:-0.876496 19:0.751446 20:-1 21:0.535947 22:-1 23:0.751446 24:-0.184197 25:-1 26:0.867052 27:-0.522035 
-512 1:-0.692308 2:0.976878 3:-0.499993 4:0.751446 5:-0.454544 6:-0.983751 7:0.867052 8:-0.32798 9:-0.454544 10:0.445086 11:-0.414714 12:-0.902438 13:-0.434405 14:-0.458491 15:0.867052 16:-0.799997 17:-0.0100323 18:-0.413327 19:0.751446 20:-1 21:0.535947 22:-1 23:0.774566 24:-1 25:-0.824174 26:0.976878 27:1 
-512 1:-0.384616 2:0.867052 3:-1 4:0.809248 5:-0.454544 6:-0.622672 7:0.786128 8:-0.149249 9:-0.81818 10:0.867052 11:-0.42318 12:-0.951217 13:-0.418181 14:1 15:0.687862 16:-1 17:0.429062 18:-0.760428 19:0.907514 20:-1 21:0.0243237 22:-0.777775 23:0.751446 24:-0.46404 25:-0.648352 26:0.867052 27:-0.201005 
-512 1:-0.846152 2:0.751446 3:-1 4:0.751446 5:-0.636364 6:-0.474436 7:0.930636 8:-0.32798 9:-0.81818 10:0.942196 11:-0.455079 12:-0.205912 13:-0.434405 14:-0.697364 15:0.751446 16:2.6e-006 17:0.703446 18:-0.876496 19:0.751446 20:-0.653842 21:-1 22:-1 23:0.786128 24:0.0320907 25:-1 26:0.751446 27:-0.423861 
-512 1:-1 2:0.751446 3:0.500007 4:0.976878 5:-0.272728 6:-0.474436 7:0.890174 8:-0.226563 9:-1 10:0.976878 11:-0.876302 12:-0.989356 13:-0.393567 14:-0.182071 15:1 16:-0.2 17:0.703446 18:-0.6825 19:0.780346 20:-1 21:-0.447625 22:-0.777775 23:0.751446 24:0.150935 25:-0.648352 26:0.780346 27:0.314943 
-512 1:0.076924 2:0.867052 3:-1 4:0.976878 5:-1 6:-0.240984 7:0.867052 8:1 9:-1 10:-1 11:-0.455732 12:-0.575164 13:-0.393567 14:0.341316 15:0.809248 16:-1 17:1 18:1 19:0.867052 20:-1 21:1 22:-1 23:0.930636 24:-0.174666 25:-1 26:0.809248 27:1 
-512 1:-0.789472 2:0.976878 3:-1 4:0.751446 5:-0.502393 6:-0.474436 7:0.687862 8:-0.170193 9:-1 10:0.687862 11:-0.27539 12:-0.575164 13:-0.897064 14:-0.812271 15:0.861272 16:-0.726313 17:-0.276968 18:-0.511498 19:0.67052 20:-1 21:0.712415 22:-0.695904 23:0.976878 24:-0.283978 25:-0.759397 27:-0.509854 
-512 1:-0.53846 2:0.751446 3:-0.499993 4:0.757226 5:-1 6:1 7:0.751446 8:1 9:-1 10:0.751446 11:-0.455732 12:-0.500072 13:-0.770071 14:-0.773104 15:0.445086 16:-0.6 17:0.0818742 18:1 19:0.867052 20:-1 21:-0.0946943 22:-0.777775 23:-1 24:-0.193095 25:-0.648352 26:-1 27:-1 
-512 1:-0.53846 2:0.942196 3:-1 4:0.67052 5:-0.81818 6:-0.575506 7:1 8:0.0654823 9:-0.81818 10:0.976878 11:0.0377602 12:-0.951217 13:-0.78126 14:-0.182071 15:0.809248 16:-1 17:0.429062 18:-0.856258 19:0.976878 20:-0.653842 21:1 22:-0.777775 23:0.751446 24:0.0320907 25:-0.648352 26:0.751446 27:-0.522035 
-512 1:-0.692308 2:0.976878 4:1 5:-1 6:-0.663098 7:0.861272 8:-0.170193 9:-0.454544 10:0.976878 11:-0.115888 12:-0.575164 13:-0.366715 14:-0.182071 15:0.867052 16:-1 17:-0.335056 18:-0.637338 19:0.67052 20:-1 21:-0.314784 22:-0.777775 23:0.867052 24:0.0534909 25:-1 26:0.751446 27:-0.224652 
-512 1:-0.846152 2:0.942196 3:-1 4:0.809248 5:-0.81818 6:-0.369799 7:0.445086 8:0.0654823 9:-0.636364 10:0.445086 11:-0.115888 12:-0.575164 13:-0.418181 14:-0.458491 15:0.930636 16:-1 17:0.138819 18:-1 19:0.976878 20:-0.653842 21:-0.668793 22:-0.111112 23:0.907514 24:-0.0623892 25:-0.472526 26:0.774566 27:-0.358656 
-512 1:-0.846152 2:0.976878 3:-1 4:1 5:0.272728 6:-0.474436 7:0.751446 8:-1 9:-0.81818 10:0.930636 11:-1 12:-0.215077 13:-0.366715 14:-0.725848 15:0.907514 16:-0.399997 17:0.703446 18:-0.353711 19:0.751446 20:-1 21:0.535947 22:-1 23:0.687862 24:1 25:-0.824174 26:0.890174 27:-1 
-5.517905338563775 1:-0.692308 2:0.867052 3:-1 4:0.976878 5:-0.454544 6:-0.474436 7:0.67052 8:-0.875493 9:-0.636364 10:0.786128 11:-0.115888 12:-0.695196 13:-0.393567 14:-1 15:0.687862 16:-0.799997 17:0.703446 18:-0.860939 19:0.687862 20:-1 21:-0.668793 22:-0.555556 23:0.907514 24:-0.174666 25:-0.472526 26:0.67052 27:-0.30491 
-512 1:-0.692308 2:0.907514 3:-1 4:0.867052 5:-1 6:-0.663098 7:-1 8:-0.875493 9:-0.636364 10:0.907514 11:-0.414714 12:-0.575164 13:1 14:-0.805471 15:0.809248 16:-1 17:-0.631604 18:-0.353711 19:0.687862 20:-1 21:1 22:-0.777775 23:1 24:-0.193095 25:-1 26:-1 27:0.45754 
-512 1:-0.53846 2:0.809248 3:-0.499993 4:0.867052 5:-0.81818 6:-0.679351 7:0.67052 8:-0.32798 9:-1 10:0.867052 11:-0.455079 12:-0.508055 13:1 14:1 15:0.976878 16:-1 17:-0.0100323 18:-0.637338 19:0.751446 20:-1 21:-0.314784 22:-0.555556 23:0.809248 24:0.0320907 25:-0.824174 26:0.809248 27:-0.30491 
-512 1:-0.230768 2:0.976878 3:-0.499993 4:0.445086 5:-0.81818 6:-0.983751 7:0.687862 8:1 9:-1 10:0.976878 11:-0.665366 12:-0.989356 13:-1 14:-0.182071 15:0.930636 16:-0.2 17:1 18:-0.6825 19:0.867052 20:-1 21:1 22:-0.777775 23:0.780346 24:0.0320907 25:-0.824174 26:0.757226 27:-0.509854 
-512 1:-0.846152 2:0.976878 3:-1 4:0.809248 5:-0.81818 6:-0.575506 7:0.751446 8:-0.0494134 9:-1 10:0.751446 11:-0.27539 12:-0.205912 13:-0.418181 14:-0.773104 15:0.751446 16:-0.399997 17:-0.693898 18:1 19:-1 20:-1 21:0.535947 22:-1 23:0.751446 24:-0.193095 25:-0.648352 26:0.751446 27:0.281979 
-512 1:-1 2:0.976878 3:-1 4:0.774566 5:-0.272728 6:-0.369799 7:0.976878 8:-0.149249 9:-0.636364 10:0.786128 11:-0.533202 12:-0.989356 13:-0.599999 14:-1 15:0.687862 16:-0.399997 17:0.138819 18:-0.413327 19:0.907514 20:-1 21:0.0243237 22:-0.777775 23:1 24:-0.184197 25:-1 26:0.687862 27:-0.453959 
-512 1:-1 2:0.907514 3:-1 4:1 5:-0.81818 6:-0.72176 7:0.809248 8:-0.652727 9:-0.272728 10:0.890174 11:-0.455732 12:-0.695196 13:-0.366715 14:-0.167826 15:0.751446 16:-0.2 17:0.429062 18:-0.730413 19:0.809248 20:-1 21:-0.0946943 22:-1 23:0.809248 24:-0.0623892 25:-0.296704 26:-1 27:-0.130058 
-512 1:-0.846152 2:0.890174 3:-0.499993 4:0.976878 5:-0.454544 6:-0.679351 7:1 8:-0.875493 9:-0.636364 10:0.890174 11:-0.530599 12:-0.575164 13:-0.393567 14:-0.167826 15:0.890174 16:-0.799997 17:1 18:-0.760428 19:0.687862 20:-1 21:0.535947 22:-1 23:0.930636 24:-1 25:-1 26:0.751446 27:-0.522035 
-512 1:-0.53846 2:1 3:-1 4:0.976878 5:-0.636364 6:-0.748314 7:0.786128 8:-1 9:-0.636364 10:0.751446 11:0.0377602 12:-0.791571 13:-0.393567 14:-0.526787 15:0.930636 16:-0.799997 17:0.703446 18:1 19:0.751446 20:-1 21:-0.0946943 22:-0.777775 23:0.867052 24:-0.283978 25:-1 26:-1 27:-0.201005 
-512 1:-0.384616 2:0.930636 3:-1 4:1 5:-1 6:-0.575506 7:0.867052 8:-0.149249 9:-0.636364 10:0.809248 11:-0.115888 12:-0.328601 13:-0.366715 14:-0.951125 15:0.867052 16:-1 17:-0.693898 18:-0.858598 19:0.907514 20:-0.653842 21:-0.621217 22:-0.777775 23:1 24:-0.199023 25:-1 26:0.809248 27:1 
-512 1:-0.692308 2:0.930636 3:-0.499993 4:0.867052 5:-0.636364 6:-0.679351 7:0.751446 8:-0.32798 9:-0.81818 10:0.942196 11:1 12:-0.791571 13:1 14:-0.697364 15:0.861272 16:-0.799997 17:-0.104995 18:-0.760428 19:0.751446 20:-0.653842 21:-0.416929 22:-0.777775 23:0.445086 24:0.0534909 25:-0.824174 26:0.976878 27:-1 
-512 1:-0.53846 2:0.809248 3:-1 4:0.907514 5:-0.636364 6:-0.983751 7:0.809248 8:-1 9:-0.81818 10:0.687862 11:0.830078 12:-0.215077 13:-0.724198 14:-0.725848 15:0.786128 16:-0.399997 17:-0.631604 18:-0.511498 19:0.751446 20:-1 21:-0.214614 22:-1 23:0.751446 24:1 25:-0.472526 26:0.445086 27:-0.130058 
-512 1:-0.846152 2:0.67052 3:-0.499993 4:0.780346 5:-0.636364 6:-0.549346 7:0.445086 8:-0.523918 9:-1 10:0.687862 11:-0.455079 12:-0.508055 13:-0.702939 14:-0.725848 15:0.445086 16:-1 17:0.703446 18:-0.876496 19:0.930636 20:-0.653842 21:-0.710435 22:-1 23:-1 24:-0.0623892 25:-0.296704 26:0.786128 27:-0.358656 
-512 1:-0.53846 2:0.445086 3:-1 4:0.907514 5:-0.636364 6:-0.983751 7:0.774566 8:-0.0494134 9:-0.454544 10:0.751446 11:0.830078 12:-0.54619 13:-0.724198 14:-0.526787 15:0.809248 16:-0.399997 17:-0.232639 18:-0.876496 19:-1 20:-1 21:0.0243237 22:-0.555556 23:0.976878 24:-0.193095 25:-0.648352 26:0.786128 27:-0.269081 
-512 1:-0.53846 2:0.751446 3:-1 4:0.907514 5:-1 6:-0.819263 7:0.930636 8:1 9:-0.81818 10:0.445086 11:0.830078 12:-0.428823 13:-0.724198 14:-0.458491 15:0.809248 16:0.400003 17:0.138819 18:-0.666939 19:0.867052 20:-0.653842 21:-0.621217 22:-0.555556 23:0.751446 24:-0.57928 25:-0.824174 26:0.751446 27:-0.423861 
-446.0622329494235 1:-0.692308 2:0.890174 3:-1 4:0.907514 5:-0.81818 6:-0.764169 7:0.751446 8:-0.652727 9:-0.272728 10:0.907514 11:0.830078 12:-0.54619 13:-0.724198 14:-0.805471 15:0.976878 16:-0.799997 17:-0.0100323 18:-0.730413 19:0.809248 20:-1 21:0.172069 22:-0.777775 23:0.757226 24:-0.57928 25:-0.472526 26:0.751446 27:-1 
-512 1:-0.53846 2:0.751446 3:-1 4:0.687862 5:-0.272728 6:1 7:0.867052 8:-0.149249 9:-0.454544 10:0.907514 11:-0.665366 12:-0.791571 13:-0.643079 14:-0.805471 15:0.687862 16:-0.6 17:-0.0100323 18:-0.413327 19:0.907514 20:-1 21:0.712415 22:-1 23:0.751446 24:-0.174666 25:-1 26:0.907514 27:1 
-512 1:-1 2:0.930636 3:-1 4:0.67052 5:-0.272728 6:-0.549346 7:1 8:-0.652727 9:-1 10:0.751446 11:1 12:-0.791571 13:-0.78126 14:-0.526787 15:0.445086 16:-1 17:0.090285 18:-0.353711 19:0.809248 20:-1 21:-0.710435 22:-0.555556 23:0.757226 24:-0.530558 25:-0.648352 26:0.890174 27:-0.522035 
-512 1:-0.230768 2:0.67052 3:-1 4:0.445086 5:-1 6:-0.549346 7:0.867052 8:1 9:-1 10:0.67052 11:-0.27539 12:1 13:-1 14:-0.601233 15:0.687862 16:-0.799997 17:0.334099 18:-0.730413 19:0.867052 20:-1 21:0.172069 22:-1 23:0.976878 24:-0.57928 25:-0.472526 26:0.445086 27:1 
-512 1:-0.230768 2:0.867052 3:-1 4:0.809248 5:-0.81818 6:-0.575506 7:0.976878 8:-1 9:-0.636364 10:0.751446 11:-0.42318 12:-0.902438 13:-0.418181 14:-0.526787 15:0.890174 16:-0.6 17:-0.483902 18:1 19:0.751446 20:-1 21:0.712415 22:-1 23:0.930636 24:-0.184197 25:-0.824174 26:0.751446 27:-0.453959 
-512 1:-0.692308 2:0.976878 3:-1 4:0.930636 5:-1 6:-0.819263 7:0.445086 8:-0.875493 9:-1 10:0.930636 11:-0.42318 12:-0.989356 13:-0.746014 14:-0.725848 15:0.687862 16:-1 17:1 18:-0.730413 19:0.687862 20:-1 21:1 22:-1 23:0.67052 24:-0.0623892 25:-0.648352 26:1 27:-0.358656 
-512 1:-0.692308 2:0.751446 3:-1 4:0.942196 5:-0.636364 6:-0.369799 7:0.867052 8:1 9:-0.454544 10:0.930636 11:-0.530599 12:-0.951217 13:-0.765036 14:-0.725848 15:1 16:-0.799997 17:-0.0100323 18:-0.958691 19:0.867052 20:-0.307692 21:-1 22:-1 23:0.907514 24:0.150935 25:-0.824174 26:0.890174 27:1 
-512 1:-0.076924 2:0.890174 3:-1 4:0.867052 5:-0.454544 6:1 7:0.867052 8:1 9:-0.636364 10:0.867052 11:-0.876302 12:-0.680709 13:1 14:1 15:0.890174 16:-0.799997 17:0.429062 18:-0.730413 19:0.867052 20:-1 21:-0.466472 22:-0.555556 23:0.890174 24:-0.193095 25:-0.648352 26:0.907514 27:1 
-512 1:-0.384616 2:1 3:-1 4:0.890174 5:-0.272728 6:-0.983751 7:0.907514 8:0.0654823 9:-0.81818 10:0.890174 11:-0.455732 12:-0.989356 13:-0.323636 14:-0.167826 15:0.890174 16:-0.6 17:1 18:-0.511498 19:0.976878 20:-1 21:-0.0946943 22:-1 23:0.751446 24:-1 25:-0.648352 26:0.890174 27:-0.364385 
-512 1:-0.692308 2:0.809248 3:-1 4:0.445086 5:-0.454544 6:-0.850574 7:0.976878 8:-0.149249 9:-0.81818 10:0.890174 11:-0.485029 12:-0.791571 13:-1 14:-0.167826 15:0.751446 16:-0.6 17:-1 18:-0.413327 19:0.907514 20:-1 21:1 22:-1 23:-1 24:0.0320907 25:-0.648352 26:0.809248 27:-0.453959 
-512 1:-0.53846 2:0.976878 3:-1 4:0.930636 5:-0.636364 6:-0.622672 7:0.757226 8:-0.241054 9:-0.636364 10:1 11:0.0377602 12:-0.54619 13:-0.746014 14:-0.894806 15:0.890174 16:-0.399997 17:1 18:-0.691863 19:0.774566 20:-1 21:0.535947 22:-0.333331 23:0.751446 24:-0.199023 25:-0.648352 26:0.907514 27:-0.192405 
-512 1:-0.53846 2:1 3:-1 4:0.809248 5:-1 6:-0.575506 7:0.751446 8:-0.523918 9:-0.81818 10:0.867052 11:0.830078 12:-0.54619 13:-0.418181 14:1 15:0.751446 16:-0.6 17:0.138819 18:-0.840287 19:0.930636 20:-1 21:0.712415 22:-0.111112 23:0.976878 24:-0.193095 25:-0.648352 26:0.809248 27:-1 
-512 1:-0.384616 2:0.867052 3:-1 4:0.867052 5:-1 6:-0.748314 7:0.930636 8:0.0654823 9:-1 10:0.687862 11:-1 12:-0.93673 13:1 14:-0.725848 15:0.930636 16:-0.6 17:1 18:-0.691863 19:0.976878 20:-1 21:-0.0946943 22:-0.333331 23:0.867052 24:-0.193095 25:-0.648352 26:0.687862 27:-0.423861 
-512 1:-0.846152 2:0.751446 3:-0.499993 4:0.867052 5:-0.636364 6:-0.369799 7:0.890174 8:-0.32798 9:-0.81818 10:1 11:-0.485029 12:-0.680709 13:1 14:-0.894806 15:0.976878 16:-0.6 17:-0.173594 18:-0.876496 19:0.751446 20:-1 21:0.535947 22:-0.777775 23:0.976878 24:-0.193095 25:-1 26:0.930636 27:0.314943 
-512 1:-0.692308 2:1 3:-1 4:0.757226 5:-0.636364 6:-0.780421 7:0.751446 8:0.258696 9:-0.81818 10:-1 11:0.830078 12:-0.328601 13:-0.770071 14:0.341316 15:-1 16:-0.399997 17:-0.483902 18:1 19:1 20:-0.653842 21:0.712415 22:-0.555556 23:0.976878 24:-0.193095 25:-0.824174 26:-1 27:-1 
-512 1:-0.53846 2:0.861272 3:-1 4:0.67052 5:-0.81818 6:1 7:0.751446 8:0.0654823 9:-0.81818 10:1 11:-1 12:-0.745454 13:-0.78126 14:-0.894806 15:0.867052 16:-0.6 17:-0.563011 18:-0.6825 19:0.976878 20:-1 21:0.172069 22:-1 23:0.67052 24:-1 25:-1 26:0.809248 27:0.281979 
-512 1:-1 2:0.445086 3:-1 4:1 5:-0.272728 6:-0.819263 7:0.976878 8:0.258696 9:-0.81818 10:0.976878 11:-0.514326 12:-0.902438 13:-0.366715 14:-0.182071 15:0.890174 16:-0.799997 17:0.703446 18:-0.353711 19:1 20:-0.653842 21:-0.621217 22:-1 23:0.890174 24:-0.0623892 25:-0.824174 26:0.976878 27:-0.453959 
-512 1:-0.384616 2:0.751446 3:-1 4:1 5:-0.454544 6:-0.664288 7:0.67052 8:-0.149249 9:-0.81818 10:0.67052 11:1 12:-0.745454 13:-0.366715 14:-0.601233 15:0.809248 16:-0.799997 17:1 18:-1 19:0.907514 20:-1 21:-0.0946943 22:-0.777775 23:1 24:1 25:-0.648352 26:0.976878 27:-0.30491 
-512 1:-0.692308 2:0.976878 3:-1 4:0.930636 5:-0.272728 6:-0.983751 7:0.445086 8:-0.326398 9:-0.81818 10:0.751446 11:-0.27539 12:-0.215077 13:-0.746014 14:-0.526787 15:-1 16:-0.799997 17:1 18:-0.413327 19:0.942196 20:-0.653842 21:0.712415 22:-1 23:0.976878 24:0.0534909 25:-0.824174 26:0.907514 27:-0.358656 
-512 1:-0.384616 2:0.942196 3:-1 4:0.976878 5:-0.636364 6:-0.72176 7:0.809248 8:1 9:-0.81818 10:0.890174 11:-0.455732 12:1 13:-0.393567 14:-0.167826 15:-1 16:-0.799997 17:-1 18:-0.730413 19:0.867052 20:-0.653842 21:-0.0946943 22:-0.777775 23:0.861272 24:-0.424216 25:-0.824174 26:0.445086 27:-0.130058 
-512 1:-0.384616 2:0.809248 3:-1 4:0.687862 5:-1 6:-0.575506 7:0.976878 8:-0.32798 9:-0.636364 10:0.751446 11:-0.811197 12:-0.428823 13:-0.643079 14:-0.773104 15:0.67052 16:-0.799997 17:-0.0100323 18:1 19:0.751446 20:-1 21:0.172069 22:-0.777775 23:0.976878 24:-1 25:-0.824174 26:0.757226 27:-0.453959 
-512 1:-0.53846 2:0.751446 3:-1 4:0.751446 5:-0.81818 6:-1 7:0.445086 8:0.0654823 9:-0.636364 10:0.751446 11:-0.876302 12:-0.791571 13:-0.434405 14:-0.773104 15:0.687862 16:-0.6 17:-0.173594 18:-0.958691 19:0.976878 20:-1 21:0.712415 22:-0.777775 23:0.890174 24:1 25:-0.296704 26:0.867052 27:-0.358656 
-512 1:-0.53846 2:0.786128 3:-1 4:0.867052 5:-0.81818 6:-0.549346 7:0.890174 8:-0.170193 9:-1 10:-1 11:-0.665366 12:-0.695196 13:1 14:0.341316 15:-1 16:-0.2 17:-0.631604 18:-0.511498 19:0.67052 20:-1 21:0.712415 22:-1 23:0.786128 24:-0.46404 25:-0.824174 26:0.445086 27:0.314943 
-512 1:-0.846152 2:0.976878 3:-1 4:0.751446 5:-0.636364 6:-0.819263 7:0.976878 8:0.851824 9:-0.81818 10:0.751446 11:-0.876302 12:-0.215077 13:-0.897064 14:-0.773104 15:0.687862 16:-0.399997 17:-0.483902 18:-0.840287 19:0.890174 20:-0.307692 21:0.712415 22:-0.777775 23:0.445086 24:0.513401 25:-0.648352 26:0.445086 27:-0.453959 
-512 1:-0.846152 2:0.890174 3:-1 4:0.809248 5:-0.0909078 6:-0.240984 7:-1 8:-0.313489 9:-1 10:0.976878 11:-0.485029 12:-1 13:-0.418181 14:-0.182071 15:1 16:-0.6 17:0.703446 18:-0.6825 19:0.757226 20:-0.653842 21:-0.172966 22:-0.555556 23:0.890174 24:0.443279 25:-0.824174 26:0.890174 27:0.45754 
-512 1:-1 2:0.809248 3:-1 4:0.809248 5:-0.636364 6:-0.240984 7:0.976878 8:-0.301153 9:-0.81818 10:-1 11:-0.455732 12:-0.791571 13:-0.418181 14:0.341316 15:0.976878 16:-0.6 17:-0.483902 18:-0.511498 19:0.445086 20:-1 21:-0.733236 22:-0.555556 23:0.907514 24:-1 25:-0.648352 26:-1 27:-0.453959 
-512 1:0.076924 2:0.867052 3:-1 4:0.976878 5:-0.81818 6:1 7:0.751446 8:1 9:-1 10:0.751446 11:-0.485029 12:-0.593791 13:-0.393567 14:-0.526787 15:0.867052 16:-0.399997 17:-0.483902 18:-0.6825 19:0.867052 20:-1 21:0.535947 22:-1 23:0.930636 24:1 25:-0.824174 26:0.867052 27:0.281979 
-512 1:-0.692308 2:0.976878 3:-1 4:0.786128 5:-0.81818 6:-0.575506 7:0.890174 8:1 9:-1 10:0.687862 11:-0.530599 12:-0.951217 13:-0.697343 14:-0.725848 15:0.687862 16:-0.799997 17:-0.0247425 18:-1 19:0.867052 20:-1 21:0.172069 22:-1 23:0.809248 24:0.150935 25:-0.472526 26:0.751446 27:0.314943 
-512 1:-0.846152 2:0.809248 3:-0.499993 4:0.930636 5:-0.272728 6:-0.240984 7:0.751446 8:-0.324247 9:-1 10:1 11:-0.876302 12:-0.215077 13:-0.746014 14:-0.894806 15:0.67052 16:0.2 17:0.429062 18:-0.730413 19:0.786128 20:-1 21:0.0243237 22:-1 23:0.751446 24:-0.174666 25:-0.648352 26:0.774566 27:-1 
-512 1:-0.846152 2:0.780346 4:0.809248 5:-0.636364 6:-0.663098 7:0.687862 8:-0.149249 9:-0.81818 10:0.890174 11:-0.414714 12:-0.428823 13:-0.418181 14:-0.167826 15:0.445086 16:-0.799997 17:-0.0100323 18:-0.666939 19:0.907514 20:-0.307692 21:0.535947 22:-1 23:0.867052 24:-0.530558 25:-0.824174 26:0.780346 27:0.134362 
-512 1:-0.692308 2:0.867052 3:-1 4:1 5:-1 6:-0.575506 7:-1 8:-0.241054 9:-1 10:0.976878 11:-0.665366 12:1 13:-0.366715 14:-0.182071 15:1 16:-0.6 17:-0.483902 18:-0.6825 19:0.774566 20:-1 21:-1 22:-0.777775 23:0.67052 24:-0.457472 25:-1 26:0.786128 27:0.45754 
-512 1:-0.846152 2:0.751446 3:-1 4:0.757226 5:-0.272728 6:-1 7:0.890174 8:-0.313489 9:-0.81818 10:1 11:0.830078 12:-0.215077 13:-0.770071 14:-0.894806 15:0.757226 16:-0.399997 17:-0.104995 18:-0.730413 19:0.757226 20:-0.653842 21:0.712415 22:-0.111112 23:0.942196 24:-0.184197 25:-1 26:0.976878 27:0.314943 
-512 1:-0.230768 2:0.867052 3:-1 4:0.976878 5:-0.636364 6:1 7:0.930636 8:-1 9:-0.636364 10:0.907514 11:-0.27539 12:-0.328601 13:-0.393567 14:-0.805471 15:0.867052 16:-0.799997 17:-0.483902 18:-0.413327 19:0.751446 20:-0.307692 21:0.535947 22:-0.777775 23:0.976878 24:-0.530558 25:-1 26:0.867052 27:-0.423861 
-512 1:-0.230768 2:0.867052 3:-1 4:0.976878 5:-0.454544 6:-0.474436 7:0.67052 8:-0.326398 9:-1 10:0.867052 11:-0.811197 12:-0.500072 13:-0.393567 14:1 15:0.976878 16:-1 17:1 18:-0.666939 19:0.942196 20:0.384615 21:0.00152848 22:-0.777775 23:0.867052 24:0.513401 25:-0.824174 26:0.976878 27:-0.30491 
-512 1:0.076924 2:1 3:-1 4:0.809248 5:-0.81818 6:-0.983751 7:0.867052 8:1 9:-0.454544 10:0.907514 11:-1 12:-0.215077 13:-0.418181 14:-0.805471 15:0.907514 16:-0.399997 17:1 18:-0.858598 19:0.867052 20:-1 21:-0.733236 22:-1 23:0.867052 24:1 25:-0.824174 26:0.751446 27:1 
-9.818316919400226 1:-0.846152 2:0.861272 3:-0.499993 4:0.976878 5:-0.636364 6:-0.240984 7:0.867052 8:0.0654823 9:-1 10:0.445086 11:-0.811197 12:-0.93673 13:-0.393567 14:-0.458491 15:0.890174 16:-1 17:-0.483902 18:-0.858598 19:0.976878 20:-1 21:-0.621217 22:-0.555556 23:0.687862 24:-0.262578 25:-0.472526 26:0.976878 27:1 
-112.2367652455766 1:-0.53846 2:0.751446 3:-1 4:0.751446 5:-0.636364 6:-0.240984 7:1 8:-0.0494134 9:-0.636364 10:0.890174 11:-0.42318 12:-0.205912 13:-0.897064 14:-0.167826 15:-1 16:-0.799997 17:0.090285 18:-0.353711 19:-1 20:-1 21:-0.710435 22:-1 23:0.907514 24:-0.199023 25:-1 26:0.930636 27:-0.522035 
-512 1:-0.230768 2:0.809248 3:-1 4:0.867052 5:-0.636364 6:-0.819263 7:0.867052 8:1 9:-1 10:-1 11:-1 12:-0.680709 13:1 14:0.341316 15:-1 16:-1 17:-0.483902 18:1 19:0.867052 20:-1 21:-0.621217 22:-1 23:0.930636 24:0.0534909 25:-1 26:0.751446 27:1 
-512 1:-0.53846 2:0.930636 3:-1 4:0.907514 5:-0.81818 6:-0.72176 7:0.930636 8:-0.523918 9:-0.636364 10:1 11:1 12:1 13:-0.724198 14:-0.894806 15:0.930636 16:-0.799997 17:-0.0100323 18:-0.6825 19:0.930636 20:-0.653842 21:-0.172966 22:-0.777775 23:1 24:-0.0623892 25:-1 26:0.751446 27:-0.423861 
-512 1:-0.384616 2:0.751446 3:-1 4:0.890174 5:0.272728 6:-0.819263 7:0.861272 8:-0.875493 9:-1 10:0.890174 11:-0.414714 12:-0.428823 13:-0.323636 14:-0.167826 15:0.890174 16:-0.799997 17:-0.693898 18:1 19:0.687862 20:-1 21:-1 22:-1 23:0.867052 24:-0.530558 25:-1 26:0.867052 27:-0.224652 
-512 1:-0.846152 2:0.774566 3:-1 4:0.976878 5:-0.454544 6:-0.780421 7:0.751446 8:-0.313489 9:-0.636364 10:0.67052 11:-0.27539 12:-0.902438 13:-0.393567 14:-0.601233 15:0.751446 16:-0.799997 17:-0.104995 18:1 19:0.757226 20:-0.653842 21:-0.668793 22:-0.111112 23:0.757226 24:-0.199023 25:-1 26:0.976878 27:-1 
-512 1:-1 2:0.976878 3:-1 4:0.687862 5:-0.636364 6:-0.622672 7:1 8:-0.174494 9:-0.81818 10:0.687862 11:-0.485029 12:-0.593791 13:-0.643079 14:-0.725848 15:0.786128 16:-0.6 17:0.703446 18:-0.876496 19:0.861272 20:-0.653842 21:0.0243237 22:-1 23:0.942196 24:-1 25:-1 26:0.67052 27:-0.522035 
-512 1:-0.846152 2:0.890174 3:-1 4:0.751446 5:-0.454544 6:-0.474436 7:0.445086 8:-0.313489 9:-0.81818 10:0.774566 11:-0.533202 12:-0.428823 13:-0.434405 14:-0.641044 15:0.976878 16:-0.6 17:-0.173594 18:-0.637338 19:0.757226 20:-1 21:0.0243237 22:-0.333331 23:0.757226 24:-1 25:-0.648352 26:0.751446 27:-0.358656 
-512 1:-1 2:0.890174 3:-1 4:0.809248 5:-0.454544 6:-0.819263 7:0.687862 8:-0.523918 9:-0.454544 10:0.930636 11:-0.27539 12:-1 13:-0.418181 14:-0.725848 15:0.907514 16:-0.799997 17:0.703446 18:-0.413327 19:0.930636 20:-1 21:-0.416929 22:-0.555556 23:1 24:-0.0623892 25:-0.824174 26:0.930636 27:-0.509854 
-512 1:-1 2:0.751446 3:-1 4:0.890174 5:0.272728 6:-0.240984 7:0.751446 8:-0.652727 9:-1 10:0.751446 11:-0.42318 12:-0.500072 13:-0.323636 14:-0.773104 15:0.751446 16:0.400003 17:-0.173594 18:-0.6825 19:0.809248 20:0.038466 21:0.0243237 22:-1 23:0.890174 24:0.513401 25:-1 26:0.890174 27:-1 
-512 1:-0.53846 2:0.687862 3:-1 4:0.867052 5:-0.636364 6:-1 7:0.751446 8:-1 9:-0.454544 10:0.445086 11:1 12:-0.902438 13:1 14:-0.458491 15:0.687862 16:-0.399997 17:-0.104995 18:-0.691863 19:0.751446 20:-1 21:-1 22:-0.111112 23:0.907514 24:-0.193095 25:-0.824174 26:0.809248 27:0.281979 
-512 1:-0.076924 2:0.867052 3:-1 4:0.687862 5:-1 6:1 7:0.867052 8:-0.523918 9:-1 10:0.757226 11:-0.115888 12:-1 13:-0.643079 14:-0.765659 15:0.751446 16:-0.6 17:0.090285 18:-0.353711 19:0.930636 20:-1 21:-0.668793 22:-0.111112 23:0.809248 24:0.150935 25:-0.824174 26:0.687862 27:1 
-512 1:-1 2:1 3:-1 4:1 5:-0.0909078 6:-0.573524 7:0.890174 8:0.0654823 9:-0.636364 10:0.751446 11:-0.455732 12:-0.215077 13:-0.366715 14:-0.526787 15:0.890174 16:-0.6 17:-0.104995 18:-0.353711 19:0.976878 20:-1 21:-0.447625 22:-1 23:0.751446 24:-0.0623892 25:-0.824174 26:-1 27:0.314943 
-512 1:-0.384616 2:0.751446 3:-1 4:-1 5:-1 6:-0.240984 7:0.751446 8:-0.32798 9:-0.81818 10:0.867052 11:-0.42318 12:-0.791571 13:0.117203 14:1 15:0.809248 16:-0.6 17:0.138819 18:-0.876496 19:0.751446 20:-1 21:0.535947 22:-0.555556 23:0.751446 24:0.0534909 25:-1 26:0.687862 27:0.281979 
-512 1:-0.846152 2:0.890174 3:-1 4:0.751446 5:-0.272728 6:-0.664288 7:0.907514 8:0.851824 9:-0.636364 10:0.751446 11:-0.485029 12:-0.575164 13:-0.434405 14:-0.773104 15:0.751446 16:-0.2 17:-0.159835 18:-0.353711 19:0.890174 20:-0.653842 21:-0.0946943 22:-0.555556 23:0.751446 24:-0.199023 25:-1 26:1 27:-0.364385 
-512 1:0.692308 2:0.867052 3:-1 4:0.867052 5:-1 6:-0.764169 7:0.867052 8:-0.32798 9:-0.454544 10:0.751446 11:0.830078 12:-0.695196 13:1 14:-0.526787 15:0.867052 16:-0.6 17:-0.483902 18:1 19:0.751446 20:-0.653842 21:-0.416929 22:-0.777775 23:0.757226 24:-0.199023 25:-0.824174 26:0.907514 27:1 
-512 1:-0.53846 2:0.976878 3:-1 4:0.930636 5:-0.636364 6:-0.72176 7:0.867052 8:0.851824 9:-0.454544 10:0.687862 11:-0.341796 12:-0.428823 13:-0.746014 14:-0.725848 15:0.809248 16:2.6e-006 17:1 18:-0.666939 19:0.890174 20:-0.653842 21:-0.668793 22:-0.333331 23:1 24:-0.46404 25:-0.824174 26:0.751446 27:1 
-512 1:-1 2:0.976878 3:-1 4:0.445086 5:-0.454544 6:-0.474436 7:0.751446 8:-0.326398 9:-0.81818 10:0.751446 11:-0.876302 12:-0.791571 13:-1 14:-0.526787 15:0.687862 16:-0.6 17:0.334099 18:-0.6825 19:0.942196 20:-0.653842 21:-0.733236 22:-0.777775 23:0.786128 24:0.443279 25:-0.648352 26:0.890174 27:0.281979 
-512 1:-0.384616 2:0.751446 3:-1 4:0.445086 5:-1 6:-0.780421 7:0.687862 8:-0.32798 9:-0.81818 10:1 11:-0.514326 12:-0.902438 13:-1 14:-0.894806 15:0.861272 16:-0.399997 17:-0.0100323 18:1 19:0.751446 20:-0.653842 21:0.00152848 22:-0.777775 23:0.687862 24:1 25:-0.648352 26:0.867052 27:-0.509854 
-512 1:-0.692308 2:0.976878 3:-1 4:0.751446 5:-1 6:-0.575506 7:1 8:0.0654823 9:-1 10:0.751446 11:-0.455732 12:-0.989356 13:-0.434405 14:-0.773104 15:1 16:-0.799997 17:-0.483902 18:-0.353711 19:0.976878 20:-1 21:0.535947 22:-0.777775 23:1 24:0.0320907 25:-1 26:-1 27:-0.522035 
-512 1:-0.384616 2:0.809248 4:0.751446 5:-0.81818 6:-0.664288 7:0.942196 8:-0.313489 9:-1 10:0.786128 11:-0.498047 12:1 13:-0.434405 14:-1 15:0.687862 16:-0.799997 17:-0.0247425 18:-0.691863 19:0.757226 20:-0.653842 21:-0.0946943 22:-0.555556 23:0.890174 24:-1 25:-1 26:0.751446 27:-0.0347542 
-512 1:-0.846152 2:0.751446 3:-1 4:0.861272 5:-0.636364 6:-0.369799 7:0.867052 8:0.0654823 9:-0.454544 10:0.809248 11:-0.27539 12:-0.428823 13:-0.765036 14:-0.951125 15:0.976878 16:-0.799997 17:-0.0100323 18:-0.637338 19:0.976878 20:-1 21:0.712415 22:-1 23:0.907514 24:0.443279 25:-1 26:0.751446 27:1 
-512 1:-1 2:0.809248 3:-1 4:0.809248 5:-0.454544 6:-0.622672 7:0.751446 8:0.258696 9:-1 10:0.890174 11:-0.27539 12:-0.989356 13:-0.418181 14:-0.167826 15:1 16:-0.6 17:0.429062 18:-0.876496 19:1 20:-1 21:-0.214614 22:-1 23:0.445086 24:-1 25:-0.648352 26:0.976878 27:-1 
-512 1:-0.076924 2:0.67052 3:-1 4:0.687862 5:-0.636364 6:1 7:0.445086 8:1 9:-0.81818 10:0.757226 11:-0.455732 12:-0.745454 13:-0.643079 14:-0.765659 15:0.867052 16:-0.399997 17:-0.483902 18:-0.353711 19:0.867052 20:-1 21:1 22:-0.777775 23:0.867052 24:0.0320907 25:-0.824174 26:0.890174 27:-0.358656 
-512 1:-0.846152 2:0.809248 3:-1 4:0.751446 5:-0.636364 6:-0.575506 7:0.786128 8:0.0654823 9:-1 10:0.67052 11:-0.455732 12:-0.54619 13:-0.897064 14:-0.601233 15:0.757226 16:-0.2 17:0.090285 18:-0.840287 19:0.976878 20:-1 21:0.535947 22:-0.333331 23:0.890174 24:0.443279 25:-0.824174 26:0.757226 27:-0.201005 
-512 1:-1 2:1 3:-1 4:0.942196 5:-0.454544 6:-0.663098 7:0.751446 8:0.851824 9:-1 10:0.751446 11:-0.42318 12:-0.951217 13:-0.765036 14:-0.526787 15:0.751446 16:-1 17:0.138819 18:-0.958691 19:0.890174 20:-0.653842 21:-0.621217 22:-0.777775 23:0.809248 24:0.0534909 25:-1 26:0.976878 27:0.281979 
-512 1:-0.692308 2:0.687862 3:-1 4:1 5:-0.454544 6:-0.622672 7:0.751446 8:-0.0494134 9:-1 10:0.867052 11:-0.42318 12:-0.215077 13:-0.366715 14:1 15:0.751446 16:-1 17:-0.173594 18:-0.876496 19:-1 20:-1 21:-0.621217 22:-1 23:0.976878 24:-0.193095 25:-0.648352 26:0.445086 27:0.281979 
-512 1:0.692308 2:0.751446 3:-1 4:0.867052 5:-1 6:-0.240984 7:1 8:-0.652727 9:-1 10:0.867052 11:-1 12:-1 13:1 14:1 15:0.867052 16:-0.799997 17:-0.173594 18:1 19:0.809248 20:-1 21:1 22:-0.777775 23:0.867052 24:-0.0623892 25:-1 26:0.867052 27:-0.522035 
-512 1:-0.692308 2:1 3:-1 4:0.890174 5:-0.272728 6:-0.983751 7:-1 8:0.851824 9:-0.81818 10:0.890174 11:-0.455732 12:1 13:-0.323636 14:-0.167826 15:-1 16:-0.799997 17:-0.173594 18:-0.730413 19:0.890174 20:-1 21:0.535947 22:-1 23:0.890174 24:-0.174666 25:-0.824174 26:0.445086 27:0.45754 
-512 1:-0.692308 2:0.809248 3:-1 4:0.809248 5:-0.636364 6:-0.663098 7:0.861272 8:0.0654823 9:-0.81818 10:0.942196 11:-0.42318 12:-0.215077 13:-0.418181 14:-0.697364 15:0.930636 16:-0.799997 17:0.334099 18:1 19:0.976878 20:-0.653842 21:-0.621217 22:-1 23:-1 24:-0.184197 25:-0.824174 26:0.809248 27:-0.224652 
-512 1:-0.384616 2:0.687862 3:-1 4:0.907514 5:-0.81818 6:-0.850574 7:0.930636 8:-0.652727 9:-0.81818 10:0.809248 11:-0.455732 12:-0.593791 13:-0.724198 14:-0.951125 15:0.751446 16:-0.6 17:1 18:-0.353711 19:0.809248 20:-1 21:0.535947 22:-1 23:0.867052 24:-1 25:-0.648352 26:0.809248 27:-0.423861 
-512 1:-0.692308 2:0.757226 3:-1 4:0.890174 5:-0.81818 6:-0.663098 7:0.867052 8:-0.32798 9:-1 10:0.867052 11:-0.455732 12:-1 13:-0.323636 14:1 15:0.687862 16:-0.799997 17:-0.483902 18:-0.353711 19:0.751446 20:-1 21:-0.447625 22:-0.777775 23:1 24:-0.193095 25:-1 26:0.976878 27:1 
-512 1:-0.53846 2:0.976878 3:-1 4:0.751446 5:-0.81818 6:-0.983751 7:0.757226 8:-0.523918 9:-1 10:0.867052 11:-0.27539 12:-0.575164 13:-0.897064 14:1 15:0.890174 16:-0.6 17:-0.483902 18:-0.353711 19:0.930636 20:-1 21:0.535947 22:-0.555556 23:1 24:1 25:-1 26:0.809248 27:-0.192405 
-512 1:-0.53846 2:0.67052 3:-1 4:0.930636 5:-0.81818 6:-0.622672 7:0.890174 8:-0.149249 9:-0.81818 10:0.976878 11:0.830078 12:-0.93673 13:-0.746014 14:-0.182071 15:0.751446 16:-0.6 17:-0.693898 18:1 19:0.907514 20:-0.653842 21:0.712415 22:-0.555556 23:0.774566 24:-0.46404 25:-1 26:0.751446 27:0.314943 
-512 1:-0.230768 2:1 3:-1 4:0.867052 5:-1 6:-0.622672 7:1 8:1 9:-1 10:0.930636 11:-0.414714 12:1 13:1 14:-0.725848 15:0.445086 16:-0.799997 17:0.090285 18:-0.666939 19:0.867052 20:-0.653842 21:-0.466472 22:-1 23:0.687862 24:1 25:-0.824174 26:-1 27:-0.522035 
-512 1:-0.846152 2:0.890174 3:-1 4:-1 5:-0.272728 6:-0.819263 7:1 8:-0.875493 9:-0.81818 10:0.445086 11:-0.455732 12:-0.575164 13:0.117203 14:-0.458491 15:-1 16:-0.6 17:1 18:-0.730413 19:0.687862 20:-1 21:0.00152848 22:-0.777775 23:0.751446 24:0.443279 25:-0.824174 26:0.890174 27:-0.522035 
-340.6351802178874 1:-0.846152 2:0.687862 3:-1 4:1 5:-0.81818 6:1 7:0.751446 8:-1 9:-1 10:0.809248 11:-0.876302 12:-0.215077 13:-0.366715 14:-0.951125 15:0.809248 16:-0.2 17:0.429062 18:-1 19:0.751446 20:-1 21:0.00152848 22:-1 23:1 24:-0.193095 25:-0.472526 26:0.751446 27:-1 
-512 1:-0.846152 2:0.890174 3:-1 4:0.67052 5:-0.454544 6:-0.369799 7:1 8:1 9:-1 10:0.786128 11:1 12:-0.428823 13:-0.78126 14:-1 15:0.890174 16:-0.799997 17:-0.631604 18:-0.162465 19:0.867052 20:-1 21:-0.314784 22:-0.555556 23:0.757226 24:-0.424216 25:-1 26:0.757226 27:-0.522035 
-512 1:-0.53846 2:0.751446 3:-1 4:0.890174 5:-0.454544 6:-0.369799 7:0.907514 8:0.258696 9:-0.636364 10:0.809248 11:-0.485029 12:-0.791571 13:-0.323636 14:-0.951125 15:0.867052 16:-0.2 17:0.138819 18:-1 19:1 20:-1 21:0.0243237 22:-0.333331 23:0.867052 24:1 25:-0.648352 26:0.757226 27:-0.364385 
-512 1:-0.53846 2:0.976878 3:-1 4:0.976878 5:-1 6:-0.240984 7:0.976878 8:-0.0494134 9:-0.81818 10:0.867052 11:-0.876302 12:-0.902438 13:-0.393567 14:1 15:0.751446 16:-0.6 17:0.429062 18:-0.511498 19:-1 20:-0.653842 21:-1 22:-0.555556 23:0.942196 24:-1 25:-0.824174 26:0.867052 27:-0.453959 
-512 1:-0.384616 2:0.809248 3:-1 4:0.890174 5:-0.81818 6:-0.664288 7:0.867052 8:0.0654823 9:-1 10:0.809248 11:0.830078 12:-0.695196 13:-0.323636 14:-0.951125 15:0.976878 16:-0.399997 17:0.138819 18:-0.958691 19:0.976878 20:-1 21:-0.0946943 22:-0.777775 23:0.976878 24:1 25:-1 26:0.751446 27:1 
-512 1:-0.692308 2:0.751446 3:-1 4:0.751446 5:-0.81818 6:-0.666668 7:0.930636 8:0.0654823 9:-1 10:0.687862 11:-0.811197 12:-0.54619 13:-0.897064 14:-0.725848 15:0.930636 16:-0.2 17:-0.0100323 18:1 19:0.976878 20:-0.307692 21:-0.668793 22:-0.777775 23:0.687862 24:-0.424216 25:-0.472526 26:0.930636 27:-0.423861 
-512 1:-0.384616 2:0.976878 3:-1 4:0.687862 5:-0.454544 6:-0.240984 7:1 8:-1 9:-1 10:0.751446 11:0.830078 12:-0.680709 13:-0.253705 14:-0.526787 15:0.867052 16:-0.399997 17:0.334099 18:1 19:0.751446 20:-1 21:-0.733236 22:-1 23:0.890174 24:-0.184197 25:-0.824174 26:0.751446 27:-0.522035 
-512 1:-1 2:0.445086 3:-0.499993 4:1 5:-0.454544 6:-0.474436 7:0.687862 8:-0.301153 9:-0.636364 10:0.780346 11:-0.665366 12:-0.508055 13:-0.366715 14:-0.547177 15:0.809248 16:-1 17:-0.0100323 18:-0.730413 19:0.445086 20:-1 21:-0.416929 22:-1 23:1 24:-1 25:-0.120878 26:0.445086 27:0.134362 
-512 1:-0.53846 2:0.942196 3:-1 4:0.786128 5:-0.636364 6:-0.474436 7:0.861272 8:0.0654823 9:-1 10:0.687862 11:-0.27539 12:-0.989356 13:-0.697343 14:-0.725848 15:1 16:-0.6 17:-0.483902 18:-0.6825 19:0.976878 20:-0.653842 21:-0.314784 22:-0.777775 23:0.757226 24:-0.0623892 25:-0.648352 26:0.751446 27:-0.224652 
-512 1:-0.692308 2:0.687862 3:-0.499993 4:0.687862 5:-0.81818 6:-0.664288 7:0.751446 8:-0.170193 9:-0.636364 10:0.976878 11:-0.533202 12:-0.701993 13:-0.253705 14:-0.182071 15:0.867052 16:-0.6 17:-0.0100323 18:-0.730413 19:0.67052 20:-0.653842 21:-0.314784 22:-1 23:1 24:0.0534909 25:-1 26:0.751446 27:-1 
-512 1:-1 2:0.942196 3:-1 4:0.890174 5:1 6:-0.474436 7:0.890174 8:-0.0494134 9:-1 10:-1 11:1 12:-0.575164 13:-0.323636 14:0.341316 15:0.890174 16:-0.399997 17:-0.104995 18:-0.413327 19:-1 20:-0.653842 21:-1 22:-0.777775 23:0.757226 24:0.443279 25:-1 26:0.809248 27:0.314943 
-512 1:-0.2 2:0.774566 3:-1 4:0.942196 5:-0.369699 6:-0.679351 8:-0.278636 9:-1 11:-0.811197 12:-0.575164 13:-0.765036 14:-0.643308 16:-0.653331 17:1 18:-0.353711 20:-0.399996 21:-0.405976 22:-0.614813 24:1 25:-0.695237 26:0.890174 27:-0.230382 
-512 1:-0.846152 2:0.809248 3:-0.499993 4:0.751446 5:-0.636364 6:-0.549346 7:0.751446 8:-0.149249 9:-0.454544 10:0.890174 11:-0.341796 12:-0.951217 13:-0.434405 14:-0.167826 15:0.780346 16:-0.6 17:0.703446 18:-0.860939 19:0.907514 20:-0.653842 21:-0.314784 22:-1 23:0.861272 24:-0.530558 25:-1 26:0.774566 27:-1 
-512 1:-0.846152 2:0.809248 3:-1 4:1 5:-0.454544 6:-0.819263 7:1 8:-0.301153 9:-1 10:0.976878 11:-1 12:-1 13:-0.366715 14:-0.182071 15:0.890174 16:-0.799997 17:0.090285 18:-0.413327 19:0.445086 20:-1 21:0.535947 22:-1 23:0.687862 24:0.150935 25:-0.648352 26:-1 27:-0.522035 
-157.0879886215105 1:-0.692308 2:0.786128 3:-1 4:0.687862 5:-0.81818 6:-0.474436 7:0.867052 8:-0.149249 9:-0.454544 10:0.976878 11:-0.485029 12:-0.500072 13:-0.643079 14:-0.182071 15:0.976878 16:-0.6 17:-0.335056 18:-0.958691 19:0.907514 20:-1 21:-0.668793 22:-0.333331 23:0.751446 24:-0.0623892 25:-0.824174 26:0.751446 27:1 
-512 1:-0.384616 2:0.867052 3:-1 4:0.867052 5:-0.272728 6:-0.983751 7:1 8:1 9:-1 10:0.867052 11:1 12:-0.575164 13:1 14:1 15:0.930636 16:2.6e-006 17:0.703446 18:-0.353711 19:0.867052 20:-1 21:-1 22:-0.777775 23:0.976878 24:-0.424216 25:-1 26:0.890174 27:-0.522035 
-512 1:-0.53846 2:0.976878 3:-0.499993 4:0.751446 5:-0.454544 6:-0.819263 7:0.930636 8:0.851824 9:-1 10:0.786128 11:-0.455079 12:-0.951217 13:-0.434405 14:-1 15:0.930636 16:-1 17:0.0818742 18:-0.413327 19:0.890174 20:-1 21:-0.621217 22:-1 23:0.867052 24:-0.46404 25:-0.648352 26:0.774566 27:-0.423861 
-512 1:-0.692308 2:0.976878 3:-1 4:0.774566 5:-1 6:-0.575506 7:0.445086 8:-0.875493 9:-0.81818 10:-1 11:-1 12:-0.680709 13:-0.599999 14:0.341316 15:0.907514 16:-0.6 17:0.429062 18:-0.958691 19:0.687862 20:-1 21:-0.314784 22:-0.777775 23:0.786128 24:-0.193095 25:-0.648352 26:-1 27:-0.358656 
-512 1:-0.53846 2:0.930636 3:-0.499993 4:0.976878 5:-0.636364 6:-0.819263 7:0.809248 8:-0.149249 9:-0.81818 10:0.809248 11:-0.455732 12:-0.428823 13:-0.393567 14:-0.951125 15:0.445086 16:-1 17:0.0818742 18:-0.413327 19:0.907514 20:-1 21:-0.0946943 22:-0.555556 23:0.687862 24:1 25:-0.648352 26:0.890174 27:-0.130058 
-512 1:-0.692308 2:1 3:-1 4:0.942196 5:-0.636364 6:-0.622672 7:0.751446 8:-1 9:-0.81818 10:0.786128 11:-0.530599 12:-0.951217 13:-0.765036 14:-1 15:0.942196 16:-0.6 17:0.703446 18:-0.413327 19:0.751446 20:-0.307692 21:1 22:-1 23:0.867052 24:-0.193095 25:-0.648352 26:0.976878 27:-1 
-512 1:-1 2:0.751446 3:-1 4:-1 5:-0.81818 6:-0.748314 7:-1 8:0.851824 9:-0.272728 10:0.907514 11:-0.455732 12:-0.205912 13:0.117203 14:-0.805471 15:0.976878 16:-0.6 17:-0.104995 18:-0.353711 19:0.890174 20:-1 21:-0.0946943 22:-1 23:-1 24:-0.199023 25:-1 26:0.976878 27:0.45754 
-512 1:-0.692308 2:0.751446 3:-0.499993 4:0.780346 5:-0.636364 6:-0.764169 7:0.67052 8:-1 9:-1 10:0.976878 11:-0.876302 12:1 13:-0.702939 14:-0.182071 15:0.445086 16:-0.6 17:0.334099 18:-0.730413 19:0.751446 20:-0.653842 21:-0.570596 22:-1 23:0.867052 24:-0.193095 25:-0.648352 26:0.786128 27:-0.30491 
-512 1:-0.53846 2:0.751446 3:-1 4:0.809248 5:-0.636364 6:-0.850574 7:0.890174 8:1 9:-0.636364 10:0.976878 11:-0.412111 12:-0.989356 13:-0.418181 14:-0.182071 15:1 16:-1 17:-0.693898 18:-0.876496 19:0.867052 20:-0.653842 21:0.712415 22:-1 23:0.942196 24:1 25:-1 26:1 27:0.314943 
-449.2071521493374 1:-0.692308 2:0.751446 3:-1 4:0.976878 5:-1 6:-0.575506 7:0.809248 8:-1 9:-0.81818 10:0.976878 11:0.830078 12:-1 13:-0.393567 14:-0.182071 15:0.786128 16:-0.6 17:1 18:-0.511498 19:0.751446 20:-0.653842 21:-0.416929 22:-0.333331 23:0.757226 24:-0.193095 25:-0.824174 26:0.809248 27:-0.130058 
-512 1:-0.846152 2:0.751446 3:-1 4:0.867052 5:-0.81818 6:-0.622672 7:0.67052 8:-0.301153 9:-0.81818 10:0.445086 11:-0.455079 12:-0.791571 13:1 14:-0.458491 15:0.751446 16:-0.399997 17:-0.0100323 18:-0.691863 19:0.445086 20:-1 21:0.172069 22:-0.333331 23:0.907514 24:0.150935 25:-0.472526 26:0.976878 27:-0.30491 
-512 1:-0.692308 2:0.445086 3:-1 4:0.757226 5:-0.81818 6:-0.549346 7:0.976878 8:1 9:-0.454544 10:0.445086 11:0.830078 12:-1 13:-0.770071 14:-0.458491 15:0.751446 16:-0.799997 17:-0.483902 18:-0.876496 19:0.867052 20:-1 21:-0.733236 22:-0.777775 23:0.67052 24:-0.199023 25:-0.472526 26:0.976878 27:-0.453959 
-512 1:-0.692308 2:0.774566 3:-0.499993 4:0.687862 5:-0.81818 6:-0.983751 7:0.930636 8:-0.324247 9:-0.81818 10:0.809248 11:-0.530599 12:-0.791571 13:-0.643079 14:-0.951125 15:0.890174 16:-0.6 17:1 18:1 19:0.786128 20:-1 21:-0.668793 22:-0.777775 23:0.907514 24:-0.0623892 25:-0.648352 26:1 27:-0.423861 
-98.69958556812074 1:-0.692308 2:1 3:-1 4:0.751446 5:-0.454544 6:-0.622672 7:-1 8:-0.0494134 9:-1 10:0.890174 11:-0.876302 12:-1 13:-0.897064 14:-0.167826 15:-1 16:-0.6 17:0.138819 18:-0.840287 19:-1 20:-1 21:0.712415 22:-0.777775 23:0.445086 24:0.150935 25:-0.120878 26:0.890174 27:0.45754 
-512 1:-0.846152 2:0.445086 3:-1 4:0.976878 5:-0.81818 6:-0.764169 7:0.861272 8:-1 9:-0.636364 10:0.976878 11:1 12:-0.428823 13:-0.393567 14:-0.182071 15:0.757226 16:-0.799997 17:1 18:-0.858598 19:0.751446 20:-1 21:0.712415 22:-0.777775 23:0.786128 24:-0.199023 25:-0.648352 26:0.687862 27:-0.224652 
-512 1:-1 2:0.809248 3:-0.499993 4:0.751446 5:-0.454544 6:-0.474436 7:0.774566 8:-0.0494134 9:-0.81818 10:0.445086 11:-0.27539 12:-0.695196 13:-0.897064 14:-0.458491 15:0.780346 16:-0.6 17:-0.483902 18:-0.353711 19:-1 20:-1 21:-0.733236 22:-1 23:-1 24:-0.46404 25:-0.648352 26:0.751446 27:-0.269081 
-512 1:-0.53846 2:0.757226 3:-0.499993 4:0.867052 5:-0.636364 6:1 7:0.786128 8:-0.170193 9:-0.81818 10:0.930636 11:-0.485029 12:-0.680709 13:1 14:-0.725848 15:0.445086 16:-1 17:-0.335056 18:-0.413327 19:0.67052 20:-1 21:0.0243237 22:-0.555556 23:0.930636 24:-0.0623892 25:-0.824174 26:0.751446 27:-0.201005 
-512 1:-0.846152 2:0.774566 3:-1 4:-1 5:-0.636364 6:1 7:0.930636 8:-0.301153 9:-0.636364 10:0.67052 11:-0.485029 12:-0.215077 13:0.117203 14:-0.601233 15:0.890174 16:-0.399997 17:0.138819 18:-0.691863 19:0.445086 20:-1 21:-1 22:-0.333331 23:0.907514 24:-0.184197 25:-0.296704 26:-1 27:-0.423861 
-512 1:-0.84 2:0.445086 3:-1 4:0.890174 5:-0.621818 6:-0.622672 7:0.976878 8:0.0654823 9:-0.810909 10:0.751446 11:-1 12:-0.508055 13:-0.323636 14:-0.526787 15:0.976878 16:-0.792 17:-0.693898 18:-0.162465 19:0.976878 20:-1 21:0.712415 22:-0.768889 23:1 24:-0.283978 25:-0.451429 26:0.687862 27:-0.453959 
-512 1:-0.384616 2:0.976878 3:-1 4:0.890174 5:-0.454544 6:1 7:0.890174 8:1 9:-1 10:0.867052 11:-0.876302 12:-0.215077 13:-0.323636 14:1 15:0.67052 16:-0.399997 17:-0.0100323 18:-0.353711 19:0.867052 20:-1 21:-0.710435 22:-1 23:1 24:-0.46404 25:-0.824174 26:0.976878 27:0.314943 
-512 1:-0.846152 2:1 3:-0.499993 4:-1 5:-0.636364 6:-0.622672 7:0.786128 8:0.258696 9:-0.454544 10:0.890174 11:-0.341796 12:-1 13:0.117203 14:-0.167826 15:0.445086 16:-1 17:-0.483902 18:-0.856258 19:1 20:-0.653842 21:-0.416929 22:-0.777775 23:0.907514 24:-0.262578 25:-0.824174 26:0.890174 27:-0.201005 
-512 1:-0.846152 2:1 3:-0.499993 4:0.757226 5:-0.454544 6:-0.664288 7:0.930636 8:0.258696 9:-0.81818 10:0.867052 11:-0.27539 12:-0.902438 13:-0.770071 14:1 15:0.942196 16:-1 17:-0.631604 18:-1 19:1 20:0.038466 21:0.535947 22:-0.333331 23:-1 24:-0.262578 25:-0.824174 26:0.687862 27:-0.423861 
-512 1:-0.384616 2:0.751446 3:-1 4:0.687862 5:-0.81818 6:1 7:0.774566 8:-0.149249 9:-0.636364 10:0.67052 11:0.0377602 12:-0.215077 13:-0.643079 14:-0.601233 15:0.687862 16:-0.799997 17:-0.693898 18:-0.730413 19:0.907514 20:-1 21:0.712415 22:-1 23:0.976878 24:1 25:-1 26:0.930636 27:-0.269081 
-512 1:-0.692308 2:0.930636 3:-1 4:0.445086 5:-0.81818 6:-0.663098 7:0.861272 8:1 9:-0.81818 10:0.867052 11:-0.412111 12:-0.428823 13:-1 14:1 15:0.930636 16:-0.6 17:-0.0247425 18:-0.858598 19:0.867052 20:-0.653842 21:0.172069 22:-0.555556 23:0.976878 24:-0.424216 25:-0.648352 26:0.942196 27:-0.224652 
-348.6974958297512 1:-0.384616 2:0.751446 3:-1 4:-1 5:-0.636364 6:-0.819263 7:1 8:0.258696 9:-1 10:0.757226 11:-0.876302 12:-0.695196 13:0.117203 14:-0.765659 15:-1 16:-0.2 17:0.703446 18:-0.860939 19:1 20:-1 21:-0.0946943 22:-0.555556 23:0.867052 24:-0.184197 25:-1 26:0.890174 27:-0.522035 
-512 1:-0.692308 2:1 3:-1 4:0.751446 5:-1 6:-0.850574 7:0.751446 8:-1 9:-1 10:0.786128 11:0.830078 12:-0.951217 13:-0.434405 14:-1 15:0.687862 16:-0.2 17:-0.0100323 18:1 19:0.751446 20:-1 21:0.00152848 22:-0.777775 23:0.687862 24:-0.184197 25:-1 26:0.786128 27:0.281979 
-512 1:-0.384616 2:0.751446 3:-1 4:1 5:-0.81818 6:-0.983751 7:0.751446 8:0.851824 9:-0.81818 10:0.907514 11:-0.115888 12:-0.695196 13:-0.366715 14:-0.805471 15:0.751446 16:0.6 17:1 18:-1 19:0.890174 20:-1 21:-1 22:-0.555556 23:0.445086 24:1 25:-0.648352 26:0.757226 27:-1 
-512 1:-0.53846 2:0.751446 3:-1 4:0.867052 5:-1 6:1 7:0.976878 8:1 9:-1 10:0.809248 11:-0.115888 12:-0.791571 13:1 14:-0.951125 15:0.751446 16:2.6e-006 17:-1 18:-0.760428 19:0.867052 20:-0.653842 21:-0.733236 22:0.111112 23:0.757226 24:0.513401 25:-0.824174 26:0.757226 27:-0.453959 
-512 1:-0.692308 2:0.757226 3:-1 4:1 5:-0.81818 6:-0.622672 7:1 8:-0.313489 9:-0.454544 10:0.687862 11:1 12:-0.575164 13:-0.366715 14:-0.812271 15:0.976878 16:-0.6 17:-0.104995 18:-0.840287 19:0.757226 20:-1 21:1 22:-0.333331 23:0.445086 24:-0.0623892 25:-0.824174 26:0.907514 27:-0.522035 
-512 1:-1 2:0.809248 3:-0.499993 4:0.976878 5:-0.454544 6:-0.72176 7:0.67052 8:0.851824 9:-0.81818 10:0.930636 11:-0.876302 12:-0.680709 13:-0.393567 14:-0.725848 15:0.786128 16:-0.2 17:0.090285 18:-0.511498 19:0.890174 20:-1 21:-0.710435 22:-1 23:0.780346 24:-0.184197 25:-0.648352 26:0.976878 27:-0.30491 
-512 1:-0.53846 2:0.687862 3:-1 4:0.751446 5:-0.636364 6:-0.666668 7:0.976878 8:-0.324247 9:-0.636364 10:0.867052 11:-0.27539 12:-0.902438 13:-0.897064 14:1 15:0.907514 16:-0.399997 17:0.138819 18:-0.691863 19:0.786128 20:-0.653842 21:-0.0946943 22:-0.555556 23:0.890174 24:1 25:-1 26:0.976878 27:-0.453959 
-512 1:-0.692308 2:0.67052 3:-1 4:0.751446 5:-0.636364 6:-0.850574 7:0.751446 8:0.0654823 9:-0.636364 10:0.751446 11:-0.514326 12:-0.680709 13:-0.897064 14:-0.773104 15:0.861272 16:-0.6 17:0.138819 18:-0.856258 19:0.976878 20:-0.653842 21:0.712415 22:-0.555556 23:0.890174 24:-0.193095 25:-0.824174 26:0.445086 27:0.281979 
-512 1:-0.384616 2:0.687862 3:-1 4:1 5:-0.636364 6:-0.850574 7:0.890174 8:-0.652727 9:-0.81818 10:0.907514 11:1 12:-0.428823 13:-0.366715 14:-0.805471 15:0.867052 16:-1 17:0.138819 18:-0.511498 19:0.809248 20:-0.653842 21:-0.0946943 22:-0.333331 23:0.976878 24:0.0534909 25:-0.824174 26:0.757226 27:0.314943 
-512 1:-0.846152 2:0.809248 3:-1 4:0.867052 5:-0.81818 6:-0.780421 7:0.751446 8:-0.326398 9:-0.636364 10:0.890174 11:0.0377602 12:-0.93673 13:1 14:-0.167826 15:0.907514 16:-0.399997 17:-0.0100323 18:-0.730413 19:0.942196 20:-0.653842 21:0.712415 22:-0.777775 23:0.976878 24:-0.46404 25:-1 26:0.907514 27:-1 
-512 1:-0.53846 2:0.976878 3:-1 4:0.890174 5:-0.636364 6:-0.850574 7:0.890174 8:1 9:-1 10:0.976878 11:-0.115888 12:1 13:-0.323636 14:-0.182071 15:0.774566 16:-0.2 17:-0.173594 18:1 19:0.867052 20:-1 21:-0.570596 22:-0.777775 23:0.786128 24:-1 25:-1 26:0.976878 27:0.314943 
-512 1:-0.384616 2:0.774566 3:-1 4:0.867052 5:-1 6:-0.72176 7:0.757226 8:1 9:-0.81818 10:0.687862 11:0.830078 12:-0.205912 13:1 14:-0.812271 15:0.809248 16:-0.6 17:-0.693898 18:-0.6825 19:0.867052 20:-1 21:-0.466472 22:-0.777775 23:0.751446 24:0.0534909 25:-0.824174 26:0.809248 27:-0.192405 
-512 1:-0.53846 2:0.867052 3:-1 4:0.687862 5:-1 6:-0.369799 7:0.751446 8:-0.324247 9:-0.636364 10:0.867052 11:-0.811197 12:-0.54619 13:-0.253705 14:1 15:0.751446 16:-0.6 17:-0.335056 18:-0.858598 19:0.786128 20:-1 21:1 22:-0.777775 23:0.976878 24:-0.283978 25:-0.472526 26:0.687862 27:-1 
-512 1:-0.692308 2:0.861272 3:-1 4:0.976878 5:-0.81818 6:-0.474436 7:0.751446 8:-0.652727 9:-0.636364 10:0.751446 11:-0.485029 12:-0.695196 13:-0.393567 14:-0.526787 15:0.445086 16:-0.799997 17:0.334099 18:-0.511498 19:0.809248 20:-1 21:-0.416929 22:-1 23:0.976878 24:0.0320907 25:-0.824174 26:0.861272 27:0.281979 
-512 1:-0.846152 2:0.786128 3:-0.499993 4:0.751446 5:-0.81818 6:-0.72176 7:0.687862 8:-0.875493 9:-0.272728 10:0.861272 11:-0.455079 12:-0.328601 13:-0.897064 14:-0.678587 15:0.774566 16:-0.799997 17:-0.0100323 18:-0.413327 19:0.687862 20:-0.653842 21:0.535947 22:-1 23:0.976878 24:1 25:-1 26:0.751446 27:-0.509854 
-512 1:0.230768 2:0.861272 3:-1 4:0.867052 5:-1 6:1 7:0.867052 8:-0.313489 9:-1 10:0.687862 11:0.0377602 12:-0.680709 13:1 14:-0.725848 15:0.867052 16:-0.6 17:1 18:-0.840287 19:0.757226 20:-1 21:1 22:-0.333331 23:0.867052 24:-0.0623892 25:-0.824174 26:0.687862 27:1 
-512 1:-0.846152 2:0.786128 3:-1 4:0.751446 5:-0.454544 6:-0.764169 7:0.751446 8:-0.313489 9:-0.454544 10:0.751446 11:1 12:-0.951217 13:-0.434405 14:-0.526787 15:0.867052 16:-0.799997 17:-0.0100323 18:-0.856258 19:0.757226 20:-1 21:-0.416929 22:-0.777775 23:0.774566 24:-1 25:-0.824174 26:0.751446 27:0.281979 
-512 1:-1 2:0.751446 3:-1 4:-1 5:-0.636364 6:-0.764169 7:0.445086 8:0.851824 9:-0.81818 10:0.751446 11:-0.455732 12:-0.695196 13:0.117203 14:-0.773104 15:0.861272 16:-0.2 17:-0.104995 18:-1 19:0.890174 20:-1 21:-0.621217 22:-1 23:0.687862 24:-0.199023 25:0.054944 26:0.751446 27:-0.358656 
-512 1:-0.53846 2:0.687862 3:-0.499993 4:0.751446 5:-0.81818 6:1 7:0.976878 8:-0.174494 9:-0.81818 10:1 11:0.0377602 12:-0.215077 13:-0.897064 14:-0.894806 15:0.751446 16:-0.6 17:-0.0100323 18:-0.353711 19:0.861272 20:-0.653842 21:-1 22:-0.555556 23:1 24:1 25:-1 26:0.757226 27:-0.453959 
-512 1:-0.384616 2:0.687862 3:-1 4:0.930636 5:-1 6:-0.622672 7:0.867052 8:1 9:-0.81818 10:0.907514 11:0.0377602 12:-0.791571 13:-0.746014 14:-0.805471 15:0.976878 16:-0.6 17:1 18:-0.840287 19:0.867052 20:-0.307692 21:-0.447625 22:-0.777775 23:0.786128 24:-0.184197 25:-1 26:-1 27:1 
-512 1:-0.692308 2:0.976878 3:-0.499993 4:0.867052 5:-0.454544 6:-0.819263 7:0.687862 8:-0.652727 9:-0.81818 10:0.751446 11:-0.811197 12:-0.215077 13:1 14:-0.526787 15:0.780346 16:-0.399997 17:0.703446 18:-0.958691 19:0.809248 20:-0.653842 21:0.712415 22:-1 23:0.942196 24:-0.184197 25:-0.824174 26:0.930636 27:0.134362 
-512 1:-0.230768 2:0.751446 3:-1 4:0.976878 5:-1 6:-0.983751 7:-1 8:-0.523918 9:-0.81818 10:0.687862 11:-0.414714 12:-0.575164 13:-0.393567 14:-0.725848 15:0.867052 16:-0.6 17:-0.104995 18:1 19:0.930636 20:-1 21:0.712415 22:-1 23:0.867052 24:-0.0623892 25:-1 26:0.809248 27:0.45754 
-512 1:-0.692308 2:0.942196 3:-1 4:0.809248 5:-0.81818 6:-0.549346 7:0.867052 8:-0.652727 9:-1 10:0.445086 11:-0.530599 12:-0.428823 13:-0.418181 14:-0.458491 15:0.809248 16:-0.6 17:-0.631604 18:-0.730413 19:0.809248 20:-0.653842 21:1 22:-0.555556 23:0.890174 24:0.0320907 25:-0.648352 26:0.786128 27:1 
-512 1:-0.846152 2:0.890174 3:-1 4:0.861272 5:-0.454544 6:-0.549346 7:0.976878 8:1 9:-0.81818 10:0.751446 11:-0.42318 12:-0.575164 13:-0.765036 14:-0.526787 15:0.930636 16:-0.799997 17:-0.563011 18:-0.958691 19:0.867052 20:-0.653842 21:0.712415 22:-1 23:0.907514 24:0.0320907 25:-0.648352 26:0.751446 27:-0.453959 
-512 1:-0.384616 2:0.942196 3:-0.499993 4:0.867052 5:-0.636364 6:-0.679351 7:0.67052 8:-0.428389 9:-1 10:0.890174 11:-0.455079 12:-0.791571 13:1 14:-0.167826 15:0.867052 16:-1 17:-0.0100323 18:-0.691863 19:0.687862 20:-0.653842 21:0.00152848 22:-0.111112 23:0.809248 24:-0.530558 25:-0.824174 26:0.757226 27:-0.30491 
-171.0683742642505 1:-0.384616 2:0.780346 3:0.500007 4:0.67052 5:-0.636364 6:-0.780421 7:0.867052 8:-0.652727 9:-0.81818 10:1 11:-0.665366 12:-0.701993 13:-0.78126 14:-0.894806 15:1 16:-1 17:-0.0100323 18:-0.958691 19:0.809248 20:-0.307692 21:-0.314784 22:-1 23:0.942196 24:1 25:-1 26:0.809248 27:1 
-512 1:-0.692308 2:0.890174 3:-1 4:0.907514 5:-0.636364 6:-0.983751 7:0.67052 8:1 9:-0.454544 10:0.751446 11:-0.42318 12:-0.215077 13:-0.724198 14:-0.526787 15:0.751446 16:2.6e-006 17:-0.0247425 18:-0.691863 19:0.867052 20:-1 21:-0.416929 22:-0.555556 23:1 24:-0.184197 25:-0.824174 26:0.751446 27:-0.30491 
-512 1:-0.846152 2:0.751446 3:-1 4:0.809248 5:-0.636364 6:-0.369799 7:0.907514 8:-0.0494134 9:-0.636364 10:0.757226 11:-0.42318 12:-0.745454 13:-0.418181 14:-0.765659 15:-1 16:-0.799997 17:-0.0100323 18:1 19:-1 20:-1 21:-0.0946943 22:-0.555556 23:1 24:-0.193095 25:-0.824174 26:0.774566 27:-0.364385 
-512 1:-0.692308 2:0.751446 3:-0.499993 4:0.751446 5:-0.636364 6:-0.575506 7:0.751446 8:-0.32798 9:-0.81818 10:0.861272 11:0.830078 12:-0.680709 13:-0.434405 14:-0.678587 15:0.976878 16:-0.399997 17:-0.173594 18:-0.691863 19:0.751446 20:-1 21:-0.733236 22:-0.777775 23:0.751446 24:0.443279 25:-0.824174 26:0.976878 27:-1 
-512 1:-0.692308 2:0.976878 3:-1 4:0.976878 5:-0.454544 6:-0.474436 7:0.890174 8:-0.875493 9:-0.81818 10:0.976878 11:-0.876302 12:1 13:-0.393567 14:-0.182071 15:0.786128 16:-0.6 17:-0.693898 18:-0.413327 19:0.687862 20:-1 21:-0.570596 22:-0.777775 23:0.907514 24:-0.46404 25:-0.648352 26:0.867052 27:0.314943 
-512 1:-0.384616 2:0.942196 3:-1 4:0.867052 5:-0.272728 6:-0.764169 7:0.890174 8:-0.652727 9:-0.81818 10:0.867052 11:-0.876302 12:-0.791571 13:1 14:1 15:0.890174 16:-0.399997 17:-1 18:-0.958691 19:0.809248 20:-0.653842 21:-0.733236 22:-1 23:0.867052 24:-1 25:-0.296704 26:0.687862 27:0.314943 
-512 1:-0.53846 2:0.751446 4:0.780346 5:-0.81818 6:1 7:0.786128 8:0.851824 9:-1 10:0.751446 11:-0.530599 12:-0.745454 13:-0.702939 14:-0.773104 15:0.809248 16:2.6e-006 17:-0.104995 18:-0.6825 19:0.890174 20:-0.653842 21:-0.385155 22:-1 23:0.867052 24:-0.0623892 25:-0.824174 26:0.67052 27:-0.201005 
-512 1:-0.692308 2:0.786128 3:-0.499993 4:0.867052 5:-0.454544 6:-0.474436 7:0.976878 8:-1 9:-1 10:0.890174 11:-0.533202 12:-0.54619 13:1 14:-0.167826 15:0.786128 16:-0.399997 17:-0.0247425 18:-0.6825 19:0.751446 20:-0.653842 21:-0.733236 22:-0.777775 23:1 24:0.443279 25:-0.472526 26:0.751446 27:-0.453959 
-512 1:-0.692308 2:0.751446 3:-1 4:0.976878 5:-1 6:-0.622672 7:0.907514 8:-0.32798 9:-0.81818 10:0.867052 11:0.830078 12:-0.575164 13:-0.393567 14:1 15:0.809248 16:-0.799997 17:0.334099 18:-0.840287 19:0.751446 20:-0.653842 21:0.712415 22:-0.777775 23:0.930636 24:0.0534909 25:-1 26:0.757226 27:-0.364385 
-512 1:-0.53846 2:0.751446 3:-1 4:0.861272 5:-0.81818 6:-0.748314 7:0.445086 8:-1 9:-1 10:0.687862 11:-0.876302 12:-0.695196 13:-0.765036 14:-0.725848 15:0.751446 16:2.6e-006 17:1 18:1 19:0.751446 20:-0.653842 21:-0.172966 22:-0.777775 23:0.751446 24:-0.193095 25:-0.648352 26:0.687862 27:-0.358656 
-512 1:0.076924 2:0.867052 3:-1 4:0.757226 5:-1 6:-0.575506 7:0.751446 8:-0.652727 9:-1 10:0.751446 11:-0.42318 12:-0.54619 13:-0.770071 14:-0.773104 15:0.867052 16:-0.399997 17:-0.173594 18:1 19:0.809248 20:-1 21:0.712415 22:-0.111112 23:0.751446 24:0.150935 25:-0.648352 26:0.757226 27:0.281979 
-512 1:0.846152 2:0.757226 3:-1 4:0.867052 5:-1 6:-0.575506 7:0.687862 8:-0.32798 9:-1 10:0.867052 11:0.830078 12:-0.500072 13:1 14:1 15:0.809248 16:-1 17:-0.483902 18:-0.876496 19:0.751446 20:-1 21:1 22:-0.777775 23:0.867052 24:1 25:-1 26:0.809248 27:-0.509854 
-512 1:-0.692308 2:0.930636 3:-1 4:0.774566 5:-1 6:-0.666668 7:0.751446 8:-0.326398 9:-1 10:0.942196 11:-0.341796 12:-0.695196 13:-0.599999 14:-0.697364 15:1 16:-0.399997 17:1 18:1 19:0.942196 20:0.384615 21:0.172069 22:-0.555556 23:0.757226 24:-0.184197 25:-0.824174 26:1 27:-1 
-512 1:-1 2:0.757226 3:-0.499993 4:0.445086 5:-0.454544 6:-0.663098 7:0.757226 8:0.0654823 9:-0.81818 10:0.751446 11:-0.414714 12:-0.428823 13:-1 14:-0.526787 15:0.890174 16:-0.399997 17:0.703446 18:-0.876496 19:0.976878 20:-1 21:-0.466472 22:-0.555556 23:0.751446 24:-0.424216 25:-0.824174 26:0.67052 27:-0.192405 
-512 1:-1 2:1 3:-1 4:-1 5:-1 6:-0.764169 7:-1 8:0.258696 9:-1 10:0.757226 11:-0.455732 12:-1 13:0.117203 14:-0.765659 15:0.757226 16:-0.799997 17:-0.173594 18:-0.691863 19:1 20:-1 21:-0.0946943 22:-0.333331 23:1 24:-0.193095 25:-0.648352 26:-1 27:0.45754 
-512 1:-0.53846 2:0.786128 3:-1 4:0.890174 5:-0.636364 6:-0.819263 7:0.976878 8:-1 9:-0.81818 10:0.867052 11:0.830078 12:-0.989356 13:-0.323636 14:1 15:0.751446 16:-0.6 17:1 18:-0.876496 19:0.751446 20:-1 21:-0.710435 22:-1 23:0.445086 24:0.0320907 25:-0.824174 26:0.751446 27:-0.453959 
-512 1:-0.692308 2:0.67052 3:-1 4:0.687862 5:-0.81818 6:-0.240984 7:0.809248 8:-1 9:-0.636364 10:0.976878 11:-0.455079 12:-0.205912 13:-0.253705 14:-0.182071 15:0.867052 16:-0.399997 17:-0.693898 18:1 19:0.751446 20:-1 21:0.172069 22:-1 23:0.907514 24:-0.0623892 25:-0.824174 26:0.751446 27:-0.130058 
-512 1:-0.53846 2:0.930636 3:-0.499993 4:0.976878 5:-0.454544 6:-0.549346 7:0.867052 8:-0.226563 9:-0.81818 10:0.930636 11:-0.665366 12:-0.745454 13:-0.393567 14:-0.725848 15:0.890174 16:-1 17:0.090285 18:-0.860939 19:0.780346 20:-1 21:-0.710435 22:-0.777775 23:0.445086 24:1 25:-0.648352 26:0.67052 27:1 
-512 1:-0.846152 2:0.976878 3:-1 4:0.751446 5:-0.636364 6:-0.369799 7:0.930636 8:0.258696 9:-1 10:0.751446 11:-0.414714 12:-0.745454 13:-0.897064 14:-0.773104 15:0.809248 16:-0.6 17:0.0860796 18:1 19:1 20:-1 21:0.712415 22:-0.777775 23:0.757226 24:-0.174666 25:-0.648352 26:1 27:-0.423861 
-512 1:-0.076924 2:0.867052 3:-1 4:0.907514 5:-1 6:1 7:0.976878 8:-0.241054 9:-0.81818 10:0.809248 11:0.830078 12:1 13:-0.724198 14:-0.951125 15:0.445086 16:-0.799997 17:-0.0247425 18:1 19:0.774566 20:-1 21:-0.314784 22:-1 23:0.751446 24:-1 25:-0.824174 26:0.751446 27:-0.453959 
-512 1:-1 2:0.687862 3:-1 4:0.890174 5:-0.0909078 6:-0.474436 7:0.907514 8:-0.32798 9:-0.81818 10:0.890174 11:-1 12:-0.93673 13:-0.323636 14:-0.167826 15:0.786128 16:-1 17:-0.159835 18:-0.840287 19:0.751446 20:-0.653842 21:-0.668793 22:-0.555556 23:0.890174 24:0.0320907 25:-0.824174 26:0.687862 27:-0.364385 
-512 1:-1 2:0.861272 3:-1 4:0.445086 5:-0.636364 6:-0.983751 7:1 8:0.851824 9:-0.454544 10:0.930636 11:-0.412111 12:-0.989356 13:-1 14:-0.725848 15:0.976878 16:-0.6 17:-0.159835 18:-0.413327 19:0.890174 20:0.038466 21:-0.733236 22:-1 23:0.445086 24:0.513401 25:-0.296704 26:0.907514 27:-0.522035 
-512 1:-0.53846 2:0.67052 3:-1 4:0.907514 5:-0.636364 6:-0.666668 7:0.751446 8:-0.32798 9:-0.272728 10:0.890174 11:-0.115888 12:-0.951217 13:-0.724198 14:-0.167826 15:0.907514 16:-0.399997 17:0.703446 18:-0.840287 19:0.751446 20:-0.653842 21:-0.0946943 22:-0.777775 23:0.867052 24:-0.199023 25:-1 26:0.751446 27:-1 
-512 1:-0.692308 2:0.809248 3:-1 4:0.687862 5:-0.81818 6:-0.663098 7:0.751446 8:1 9:-0.81818 10:-1 11:-0.665366 12:-0.500072 13:-0.643079 14:0.341316 15:-1 16:-0.399997 17:0.703446 18:-0.353711 19:0.867052 20:-1 21:0.172069 22:-0.777775 23:0.757226 24:-1 25:-1 26:0.67052 27:-1 
-512 1:-0.384616 2:0.890174 3:-1 4:0.687862 5:-0.81818 6:-0.819263 7:0.930636 8:1 9:-1 10:0.976878 11:0.830078 12:-0.680709 13:-0.643079 14:-0.182071 15:0.757226 16:-0.6 17:1 18:-1 19:0.867052 20:-1 21:0.535947 22:-0.555556 23:0.67052 24:-0.184197 25:-0.472526 26:0.751446 27:-0.423861 
-512 1:-0.53846 2:0.67052 3:-1 4:0.67052 5:-1 6:-0.983751 7:0.907514 8:1 9:-0.636364 10:0.930636 11:-0.412111 12:1 13:-0.78126 14:-0.725848 15:0.861272 16:0.2 17:0.334099 18:-0.730413 19:0.867052 20:-0.653842 21:-1 22:-1 23:0.786128 24:-0.57928 25:-1 26:0.751446 27:-0.364385 
-512 1:-1 2:0.67052 3:-1 4:0.861272 5:-0.636364 6:-0.622672 7:0.751446 8:-0.174494 9:-0.81818 10:0.890174 11:0.0377602 12:-0.428823 13:-0.765036 14:-0.167826 15:0.786128 16:-0.799997 17:-0.483902 18:-0.353711 19:0.861272 20:-1 21:0.172069 22:-1 23:1 24:-0.193095 25:-0.824174 26:0.976878 27:-1 
-512 1:-0.846152 2:0.786128 3:-1 4:0.757226 5:-0.636364 6:-0.622672 7:0.942196 8:0.851824 9:-1 10:0.687862 11:-0.876302 12:-0.680709 13:-0.770071 14:-0.725848 15:0.867052 16:-0.799997 17:0.090285 18:-0.840287 19:0.890174 20:0.038466 21:-0.466472 22:-0.333331 23:0.67052 24:-0.46404 25:-1 26:0.751446 27:-0.0347542 
-512 1:-0.846152 2:0.751446 3:-1 4:0.786128 5:-0.454544 6:-0.764169 7:0.809248 8:-0.324247 9:-1 10:0.930636 11:-0.42318 12:-0.575164 13:-0.697343 14:-0.725848 15:1 16:-0.799997 17:0.138819 18:-0.511498 19:0.786128 20:-0.653842 21:0.712415 22:-0.777775 23:0.890174 24:-0.184197 25:-0.648352 26:0.786128 27:-0.130058 
-337.8740234351947 1:-0.846152 2:0.976878 3:-1 4:0.774566 5:-1 6:-0.72176 7:0.861272 8:0.0654823 9:-0.454544 10:0.867052 11:-0.455732 12:-0.575164 13:-0.599999 14:1 15:0.687862 16:-0.2 17:-1 18:-0.511498 19:0.976878 20:-1 21:-0.0946943 22:-0.777775 23:0.751446 24:-0.193095 25:-0.824174 26:-1 27:-0.224652 
-512 1:-0.384616 2:0.930636 3:-1 4:0.445086 5:-1 6:-0.663098 7:0.67052 8:-1 9:-1 10:0.67052 11:-0.455732 12:1 13:-1 14:-0.601233 15:0.930636 16:-0.399997 17:-0.0247425 18:-0.860939 19:0.751446 20:-1 21:-0.570596 22:-0.777775 23:0.867052 24:-0.0623892 25:-0.824174 26:0.757226 27:-0.30491 
-512 1:-0.53846 2:0.861272 3:-1 4:0.751446 5:-0.636364 6:-0.780421 7:0.687862 8:-0.652727 9:-0.81818 10:0.751446 11:-0.27539 12:-0.680709 13:-0.434405 14:-0.526787 15:0.867052 16:-1 17:0.703446 18:1 19:0.809248 20:-1 21:0.0243237 22:-1 23:0.976878 24:-1 25:-1 26:0.751446 27:-0.509854 
-512 1:-1 2:0.687862 3:-1 4:1 5:-0.636364 6:-0.474436 7:0.751446 8:0.0654823 9:-0.81818 10:0.786128 11:-0.412111 12:-0.593791 13:-0.366715 14:-1 15:0.976878 16:-0.799997 17:0.703446 18:-0.858598 19:0.976878 20:-1 21:-0.0946943 22:-0.777775 23:0.687862 24:-0.283978 25:-1 26:0.757226 27:0.281979 
-512 1:0.230768 2:0.809248 3:-1 4:-1 5:-1 6:1 7:1 8:-0.0494134 9:-1 10:0.809248 11:-0.455732 12:1 13:0.117203 14:-0.951125 15:0.751446 16:-1 17:-0.104995 18:1 19:-1 20:-1 21:0.172069 22:-1 23:0.867052 24:0.0320907 25:-1 26:0.751446 27:-0.522035 
-512 1:-0.846152 2:0.976878 3:-1 4:0.786128 5:-1 6:-0.72176 7:-1 8:1 9:-0.454544 10:0.786128 11:-0.533202 12:-0.695196 13:-0.697343 14:-1 15:0.445086 16:-0.799997 17:0.0860796 18:-0.730413 19:0.867052 20:-0.653842 21:-0.416929 22:-1 23:0.809248 24:-0.424216 25:-0.824174 26:-1 27:0.45754 
-512 1:-1 2:0.751446 3:-1 4:0.942196 5:0.0909078 6:-0.666668 7:0.890174 8:0.258696 9:-1 10:-1 11:-0.811197 12:-1 13:-0.765036 14:0.341316 15:0.890174 16:-0.2 17:-0.483902 18:-0.6825 19:1 20:0.384615 21:-1 22:-0.777775 23:0.751446 24:-0.46404 25:-0.824174 26:0.757226 27:0.314943 
-512 1:-0.692308 2:0.751446 3:-0.499993 4:0.867052 5:-1 6:-0.240984 7:0.751446 8:-0.32798 9:-0.81818 10:-1 11:-0.42318 12:-1 13:1 14:0.341316 15:0.942196 16:-0.399997 17:-0.104995 18:-0.353711 19:0.751446 20:-0.653842 21:-0.416929 22:-1 23:0.809248 24:-0.0623892 25:-0.648352 26:-1 27:0.281979 
-512 1:-0.384616 2:0.786128 3:-1 4:0.942196 5:-0.81818 6:1 7:0.867052 8:-0.652727 9:-0.81818 10:0.942196 11:-0.27539 12:-0.989356 13:-0.765036 14:-0.697364 15:0.751446 16:-0.2 17:1 18:-0.876496 19:0.809248 20:0.038466 21:0.712415 22:-1 23:0.687862 24:-0.193095 25:-1 26:0.976878 27:1 
-512 1:-0.846152 2:0.757226 3:-1 4:0.751446 5:-0.636364 6:-0.983751 7:0.67052 8:-0.149249 9:-0.454544 10:0.890174 11:1 12:-0.902438 13:-0.434405 14:-0.167826 15:0.809248 16:-0.6 17:0.0860796 18:-0.730413 19:0.907514 20:-1 21:-0.621217 22:-0.333331 23:0.976878 24:0.150935 25:-0.648352 26:0.757226 27:-0.30491 
-512 1:-0.692308 2:0.867052 3:-1 4:0.976878 5:-0.636364 6:-0.622672 7:0.976878 8:-0.875493 9:-0.454544 10:0.867052 11:-0.876302 12:-0.500072 13:-0.393567 14:1 15:0.786128 16:-0.399997 17:-0.0100323 18:-0.511498 19:0.687862 20:-1 21:-0.416929 22:-0.777775 23:0.751446 24:-0.46404 25:-1 26:0.757226 27:-0.453959 
-512 1:-0.692308 2:0.861272 3:-1 4:0.687862 5:-0.636364 6:1 7:0.890174 8:-0.652727 9:-0.272728 10:0.907514 11:-0.485029 12:1 13:-0.643079 14:-0.805471 15:0.757226 16:-0.6 17:0.703446 18:-1 19:0.809248 20:-0.653842 21:-0.172966 22:-0.555556 23:0.751446 24:-0.199023 25:-0.824174 26:0.687862 27:0.314943 
-512 1:-0.846152 2:0.445086 3:-1 4:0.976878 5:-0.454544 6:-0.764169 7:0.861272 8:-0.313489 9:-0.81818 10:0.751446 11:1 12:-0.989356 13:-0.393567 14:-0.526787 15:0.861272 16:-0.799997 17:-0.631604 18:-0.730413 19:0.757226 20:-1 21:1 22:-0.555556 23:0.976878 24:0.0534909 25:-0.648352 26:0.751446 27:-0.224652 
-512 1:-0.692308 2:0.67052 3:-1 4:0.774566 5:-0.454544 6:-0.474436 7:0.976878 8:0.0654823 9:-0.636364 10:0.751446 11:-0.42318 12:-1 13:-0.599999 14:-0.526787 15:0.809248 16:-0.799997 17:0.703446 18:-0.6825 19:0.976878 20:-1 21:0.535947 22:-0.555556 23:0.809248 24:-0.199023 25:-1 26:0.774566 27:-0.453959 
-512 1:-0.846152 2:0.930636 3:-0.499993 4:0.867052 5:-0.81818 6:-0.764169 7:0.930636 8:-0.875493 9:-0.81818 10:0.751446 11:-0.455732 12:-0.680709 13:1 14:-0.526787 15:0.757226 16:-1 17:0.703446 18:-0.958691 19:0.687862 20:-1 21:0.712415 22:-0.777775 23:0.687862 24:0.0320907 25:-0.648352 26:0.907514 27:-0.423861 
-512 1:-1 2:0.751446 3:-1 4:0.757226 5:-1 6:-0.622672 7:-1 8:-0.0494134 9:-0.636364 10:-1 11:-0.42318 12:-0.93673 13:-0.770071 14:0.341316 15:0.751446 16:-0.6 17:-0.0100323 18:-0.876496 19:-1 20:-0.653842 21:-0.668793 22:-0.333331 23:0.751446 24:0.150935 25:-0.296704 26:0.687862 27:0.45754 
-512 1:-0.53846 2:0.445086 3:-1 4:0.809248 5:-0.636364 6:1 7:0.867052 8:0.0654823 9:-1 10:0.751446 11:1 12:-0.593791 13:-0.418181 14:-0.526787 15:0.809248 16:-0.799997 17:0.0860796 18:-0.691863 19:0.976878 20:-0.653842 21:-0.733236 22:-0.555556 23:0.867052 24:-0.0623892 25:-0.648352 26:0.687862 27:1 
-512 1:-0.53846 2:0.751446 3:-1 4:0.907514 5:-0.81818 6:-0.575506 7:0.687862 8:-0.652727 9:-0.636364 10:0.976878 11:0.830078 12:-0.680709 13:-0.724198 14:-0.182071 15:0.976878 16:-0.2 17:-0.335056 18:1 19:0.809248 20:-0.653842 21:1 22:-0.555556 23:0.757226 24:0.0320907 25:-1 26:0.751446 27:-0.509854 
-512 1:-0.076924 2:0.867052 3:-1 4:0.687862 5:-1 6:1 7:0.976878 8:-0.652727 9:-1 10:0.867052 11:-1 12:-0.54619 13:-0.643079 14:1 15:0.930636 16:-0.2 17:-0.159835 18:-0.730413 19:0.809248 20:-0.653842 21:-1 22:-0.777775 23:0.976878 24:-0.184197 25:-0.824174 26:0.861272 27:-0.453959 
-512 1:-0.692308 2:0.907514 3:-1 4:0.907514 5:-0.272728 6:-0.575506 7:0.687862 8:1 9:-0.636364 10:0.976878 11:1 12:-0.54619 13:-0.724198 14:-0.182071 15:0.890174 16:-0.2 17:-1 18:-0.958691 19:0.867052 20:-1 21:0.535947 22:-0.777775 23:0.976878 24:0.0320907 25:-0.824174 26:0.890174 27:-0.509854 
-512 1:-0.789472 2:1 3:-1 4:1 5:-1 6:-0.575506 7:0.751446 8:-0.313489 9:-0.751194 10:0.445086 11:-0.341796 12:-0.791571 13:-0.366715 14:-0.458491 15:1 16:-0.452632 17:-0.276968 18:-0.840287 19:0.757226 20:-1 21:1 22:-0.695904 23:0.809248 24:-0.283978 25:-0.759397 27:-1 
-512 1:-0.846152 2:0.786128 3:-1 4:0.774566 5:-0.81818 6:-0.819263 7:0.751446 8:-0.523918 9:-0.81818 10:0.867052 11:-0.665366 12:-1 13:-0.599999 14:1 15:1 16:-0.399997 17:0.703446 18:-0.958691 19:0.930636 20:-1 21:0.535947 22:-1 23:0.809248 24:-0.174666 25:-0.824174 26:0.687862 27:-1 
-512 1:-0.692308 2:0.751446 3:-1 4:0.890174 5:-0.272728 6:-0.819263 7:0.809248 8:0.851824 9:-1 10:0.809248 11:-1 12:-0.93673 13:-0.323636 14:-0.951125 15:0.687862 16:2.6e-006 17:0.703446 18:-0.353711 19:0.890174 20:-1 21:-0.570596 22:-0.555556 23:0.751446 24:-0.193095 25:-0.648352 26:0.867052 27:-0.130058 
-512 1:-0.846152 2:0.890174 3:-0.499993 4:0.751446 5:-0.454544 6:-0.573524 7:0.67052 8:-0.32798 9:-0.81818 10:0.751446 11:0.0377602 12:-0.989356 13:-0.434405 14:-0.526787 15:0.786128 16:-1 17:0.703446 18:-0.856258 19:0.751446 20:-1 21:-0.570596 22:-1 23:0.976878 24:-0.457472 25:-1 26:0.890174 27:-0.30491 
-512 1:-0.53846 2:0.867052 3:-1 4:0.867052 5:-0.81818 6:-1 7:0.687862 8:-0.170193 9:-1 10:0.687862 11:0.830078 12:-0.951217 13:1 14:-0.812271 15:1 16:-0.799997 17:-0.693898 18:-0.691863 19:0.67052 20:-1 21:-0.733236 22:-0.333331 23:0.757226 24:-1 25:-0.648352 26:0.687862 27:0.134362 
-512 1:-0.53846 2:0.867052 3:-1 4:0.809248 5:-0.636364 6:-0.369799 7:0.751446 8:-0.301153 9:-0.81818 10:0.445086 11:0.0377602 12:1 13:-0.418181 14:-0.458491 15:0.907514 16:-0.2 17:0.090285 18:-0.6825 19:0.445086 20:-0.307692 21:-0.668793 22:-0.777775 23:-1 24:-0.184197 25:-0.648352 26:0.930636 27:-1 
-512 1:-0.384616 2:0.867052 3:-1 4:1 5:-0.81818 6:-0.72176 7:0.867052 8:-0.313489 9:-0.81818 10:-1 11:-0.42318 12:1 13:-0.366715 14:0.341316 15:0.976878 16:-0.6 17:-0.104995 18:-0.840287 19:0.757226 20:-1 21:-0.668793 22:-0.555556 23:0.751446 24:-0.193095 25:-1 26:0.976878 27:1 
-512 1:-1 2:1 3:-1 4:0.907514 5:-0.81818 6:-0.240984 7:0.757226 8:-1 9:-0.454544 10:-1 11:-0.533202 12:-0.695196 13:-0.724198 14:0.341316 15:0.890174 16:-0.399997 17:-0.104995 18:-1 19:0.751446 20:-1 21:-0.668793 22:-0.333331 23:-1 24:-0.199023 25:-0.472526 26:0.751446 27:-0.192405 
-512 1:-0.692308 2:0.976878 3:-0.499993 4:0.786128 5:-0.81818 6:-0.748314 7:0.687862 8:0.258696 9:-0.81818 10:0.687862 11:-0.115888 12:-0.680709 13:-0.697343 14:-0.725848 15:0.890174 16:-1 17:-0.483902 18:-0.353711 19:1 20:-1 21:-0.733236 22:-0.777775 23:0.445086 24:-0.174666 25:-0.472526 26:0.861272 27:0.134362 
-512 1:-0.846152 2:0.687862 3:-0.499993 4:0.976878 5:-0.81818 6:-0.664288 7:0.751446 8:-0.652727 9:-1 10:0.976878 11:-0.27539 12:-0.951217 13:-0.393567 14:-0.182071 15:0.687862 16:-0.799997 17:-0.0247425 18:-0.353711 19:0.809248 20:-1 21:0.712415 22:-1 23:0.930636 24:-0.457472 25:-0.648352 26:0.445086 27:0.281979 
-512 1:-1 2:0.751446 3:-1 4:0.890174 5:-0.0909078 6:-0.850574 7:0.890174 8:-0.32798 9:-1 10:0.757226 11:1 12:-0.93673 13:-0.323636 14:-0.765659 15:0.751446 16:-0.399997 17:-1 18:-0.413327 19:0.751446 20:-1 21:0.535947 22:-0.333331 23:0.687862 24:0.0534909 25:-1 26:-1 27:0.314943 
-512 1:-0.230768 2:0.976878 3:-1 4:0.751446 5:-1 6:-0.575506 7:0.751446 8:-0.149249 9:-0.454544 10:0.907514 11:-1 12:-0.989356 13:-0.434405 14:-0.805471 15:0.867052 16:-0.6 17:0.429062 18:-0.840287 19:0.907514 20:-0.653842 21:-0.733236 22:-0.777775 23:-1 24:1 25:-0.472526 26:0.867052 27:0.281979 
-512 1:-0.230768 2:0.751446 3:-1 4:0.687862 5:-0.81818 6:1 7:0.751446 8:0.851824 9:-1 10:0.976878 11:-0.455732 12:-0.989356 13:-0.643079 14:-0.182071 15:0.445086 16:-0.799997 17:-0.104995 18:-0.353711 19:0.890174 20:-1 21:-0.621217 22:-1 23:0.867052 24:0.0320907 25:-0.824174 26:0.687862 27:-1 
-512 1:-0.692308 2:0.751446 3:-0.499993 4:0.809248 5:-0.81818 6:-0.575506 7:0.757226 8:0.851824 9:-0.454544 10:0.757226 11:-0.485029 12:-0.54619 13:-0.418181 14:-0.765659 15:0.751446 16:2.6e-006 17:-0.335056 18:-0.6825 19:0.890174 20:-1 21:-0.416929 22:-0.555556 23:0.786128 24:0.0534909 25:-0.472526 26:0.809248 27:-0.192405 
-512 1:-0.692308 2:0.757226 3:-1 4:0.907514 5:-1 6:-0.780421 7:0.786128 8:0.0654823 9:-0.81818 10:0.751446 11:-0.27539 12:-0.54619 13:-0.724198 14:-0.526787 15:0.445086 16:-1 17:1 18:-0.876496 19:0.976878 20:-1 21:0.00152848 22:-0.111112 23:0.867052 24:-0.193095 25:-0.472526 26:0.757226 27:-0.201005 
-512 1:-0.846152 2:0.751446 3:-1 4:0.861272 5:-0.81818 6:-0.819263 7:0.751446 8:1 9:-0.81818 10:0.751446 11:-0.811197 12:-0.508055 13:-0.765036 14:-0.773104 15:0.687862 16:-0.399997 17:-0.693898 18:-0.353711 19:0.867052 20:-1 21:-0.0946943 22:-0.777775 23:1 24:-0.0623892 25:-0.824174 26:0.976878 27:0.281979 
-512 1:-0.076924 2:0.890174 3:-1 4:0.445086 5:-0.454544 6:1 7:0.757226 8:0.258696 9:-1 10:0.786128 11:1 12:1 13:-1 14:-1 15:0.867052 16:-0.6 17:-0.563011 18:1 19:1 20:-1 21:0.712415 22:-0.333331 23:0.751446 24:-0.46404 25:-0.824174 26:0.930636 27:-0.192405 
-512 1:0.384616 2:0.867052 3:-1 4:0.930636 5:-0.636364 6:-0.780421 7:0.687862 8:1 9:-1 10:0.861272 11:0.830078 12:-0.54619 13:-0.746014 14:-0.678587 15:0.67052 16:-1 17:-0.0247425 18:-0.413327 19:0.867052 20:-1 21:-0.733236 22:-1 23:0.809248 24:1 25:-0.648352 26:0.867052 27:-0.509854 
-512 1:-0.846152 2:0.751446 3:-1 4:1 5:-0.636364 6:-0.369799 7:0.67052 8:-0.170193 9:-1 10:0.751446 11:-0.27539 12:-0.205912 13:-0.366715 14:-0.526787 15:0.757226 16:-0.799997 17:-0.0100323 18:-0.353711 19:0.67052 20:-1 21:0.0243237 22:-0.777775 23:0.751446 24:1 25:-1 26:0.890174 27:-0.30491 
-410.2069638460108 1:-0.692308 2:0.861272 3:-1 4:0.774566 5:-1 6:-0.622672 7:0.751446 8:-0.875493 9:-0.454544 10:-1 11:-0.115888 12:-0.989356 13:-0.599999 14:0.341316 15:0.907514 16:-0.2 17:-1 18:-0.876496 19:0.687862 20:-1 21:-0.416929 22:-0.777775 23:0.751446 24:1 25:-0.824174 26:0.751446 27:-1 
-512 1:-0.53846 2:0.67052 3:-1 4:0.867052 5:-0.81818 6:-0.664288 7:0.930636 8:0.0654823 9:-0.636364 10:0.687862 11:-0.27539 12:-1 13:1 14:-0.812271 15:0.809248 16:-1 17:0.090285 18:-0.730413 19:0.976878 20:-0.653842 21:-0.416929 22:-1 23:0.867052 24:-0.0623892 25:-1 26:0.774566 27:-0.423861 
-512 1:-1 2:0.780346 3:-0.499993 4:0.809248 5:-0.272728 6:-0.819263 7:1 8:0.258696 9:-1 10:0.809248 11:-0.27539 12:-0.593791 13:-0.418181 14:-0.951125 15:0.687862 16:-1 17:0.138819 18:-0.958691 19:1 20:-1 21:-0.0946943 22:-0.777775 23:0.976878 24:-1 25:-0.824174 26:0.809248 27:-0.522035 
-512 1:-0.846152 2:0.942196 3:-1 4:0.907514 5:-0.272728 6:-0.474436 7:1 8:-0.652727 9:-0.454544 10:0.757226 11:-0.27539 12:-0.575164 13:-0.724198 14:-0.765659 15:0.890174 16:-0.799997 17:-1 18:-0.511498 19:0.809248 20:-0.307692 21:0.712415 22:-0.777775 23:0.907514 24:0.513401 25:-1 26:0.751446 27:-0.522035 
-512 1:-0.692308 2:0.780346 3:-0.499993 4:0.976878 5:-1 6:-0.664288 7:0.757226 8:0.0654823 9:-0.636364 10:1 11:0.830078 12:-0.328601 13:-0.393567 14:-0.894806 15:0.976878 16:-0.799997 17:-0.159835 18:-0.856258 19:0.976878 20:-0.307692 21:-0.570596 22:-0.777775 23:-1 24:-0.46404 25:-0.648352 26:0.751446 27:-0.192405 
-512 1:-0.846152 2:0.786128 3:-1 4:0.687862 5:-0.636364 6:-0.72176 7:0.867052 8:0.258696 9:-0.454544 10:0.930636 11:-0.27539 12:-0.215077 13:-0.643079 14:-0.725848 15:0.976878 16:-0.399997 17:-0.483902 18:-0.876496 19:1 20:-1 21:0.712415 22:-0.555556 23:0.687862 24:-0.184197 25:-0.824174 26:0.907514 27:1 
-512 1:-0.53846 2:0.867052 3:-0.499993 4:1 5:-0.81818 6:-0.369799 7:0.780346 8:1 9:-1 10:0.976878 11:-0.665366 12:-0.680709 13:-0.366715 14:-0.182071 15:0.757226 16:-0.799997 17:0.0860796 18:-1 19:0.867052 20:-1 21:-0.668793 22:0.111112 23:0.757226 24:0.0534909 25:-0.648352 26:0.930636 27:-0.144395 
-512 1:-1 2:0.751446 3:-0.499993 4:0.890174 5:-0.81818 6:-0.622672 7:0.445086 8:-0.0494134 9:-0.0909078 10:-1 11:-0.412111 12:-0.989356 13:-0.323636 14:0.341316 15:1 16:-0.6 17:-1 18:-0.730413 19:-1 20:-1 21:0.712415 22:-1 23:0.861272 24:-0.199023 25:-0.824174 26:0.907514 27:-0.358656 
-512 1:-0.692308 2:0.774566 3:-1 4:0.67052 5:-0.272728 6:-0.72176 7:0.786128 8:0.851824 9:-0.454544 10:0.786128 11:-0.27539 12:-1 13:-0.78126 14:-1 15:1 16:-1 17:-0.335056 18:-0.730413 19:0.890174 20:-1 21:0.712415 22:-0.777775 23:0.867052 24:0.150935 25:-0.648352 26:0.809248 27:-0.201005 
-512 1:-0.692308 2:0.976878 3:-0.499993 4:1 5:-0.272728 6:-0.780421 7:0.867052 8:-0.652727 9:-0.636364 10:0.867052 11:1 12:-0.989356 13:-0.366715 14:1 15:0.890174 16:-0.6 17:-0.335056 18:-0.655649 19:0.809248 20:-1 21:-0.416929 22:-0.777775 23:0.774566 24:0.0320907 25:-0.824174 26:0.445086 27:1 
-512 1:-0.384616 2:0.687862 3:-1 4:0.67052 5:-0.636364 6:-0.575506 7:1 8:0.851824 9:-1 10:0.867052 11:-0.876302 12:-0.791571 13:-0.78126 14:1 15:0.890174 16:-0.799997 17:-0.0247425 18:-0.958691 19:0.890174 20:-0.653842 21:0.535947 22:-0.777775 23:0.786128 24:-0.193095 25:-1 26:0.786128 27:-0.522035 
-512 1:-0.692308 2:0.751446 3:-1 4:1 5:-0.454544 6:-0.369799 7:0.890174 8:-0.313489 9:-1 10:1 11:-1 12:-0.951217 13:-0.366715 14:-0.894806 15:0.757226 16:-0.799997 17:-0.0100323 18:-0.730413 19:0.757226 20:-1 21:0.00152848 22:-0.555556 23:0.890174 24:1 25:-1 26:0.976878 27:0.314943 
-512 1:-0.230768 2:0.751446 3:-1 4:0.751446 5:-0.81818 6:1 7:0.942196 8:1 9:-0.81818 10:0.930636 11:-0.115888 12:-0.989356 13:-0.434405 14:-0.725848 15:-1 16:-1 17:-0.335056 18:1 19:0.867052 20:-0.307692 21:1 22:-0.555556 23:0.809248 24:-0.193095 25:-1 26:0.930636 27:-0.0347542 
-512 1:-0.53846 2:0.907514 3:-1 4:0.687862 5:-1 6:-0.666668 7:0.907514 8:1 9:-0.636364 10:0.867052 11:-0.811197 12:-0.93673 13:-0.643079 14:1 15:0.976878 16:-0.6 17:1 18:-0.760428 19:0.867052 20:-0.307692 21:-0.314784 22:-0.777775 23:0.930636 24:0.0320907 25:-0.824174 26:0.751446 27:-0.364385 
-512 1:-0.384616 2:0.687862 3:-1 4:0.751446 5:-1 6:-0.622672 7:-1 8:-1 9:-1 10:0.774566 11:-0.665366 12:-0.680709 13:-0.434405 14:-0.641044 15:0.751446 16:-0.2 17:1 18:-0.6825 19:0.751446 20:-1 21:-1 22:-1 23:0.867052 24:0.150935 25:-0.648352 26:0.786128 27:0.45754 
-512 1:-0.53846 2:0.976878 3:-0.499993 4:0.976878 5:-1 6:-0.622672 7:0.774566 8:1 9:-1 10:0.867052 11:-0.533202 12:-0.989356 13:-0.393567 14:1 15:0.751446 16:-0.6 17:-0.563011 18:-0.840287 19:0.867052 20:-0.653842 21:-1 22:-1 23:0.930636 24:1 25:-0.648352 26:0.751446 27:-0.269081 
-512 1:-0.692308 2:0.861272 3:-1 4:0.890174 5:-0.636364 6:-0.764169 7:0.890174 8:1 9:-0.81818 10:0.976878 11:-0.27539 12:-0.745454 13:-0.323636 14:-0.182071 15:0.751446 16:-0.6 17:-1 18:-0.353711 19:0.867052 20:-0.653842 21:1 22:-1 23:0.930636 24:-0.0623892 25:-0.824174 26:1 27:0.314943 
-512 1:-0.53846 2:0.757226 3:-1 4:0.907514 5:-0.81818 6:-0.983751 7:0.976878 8:-0.149249 9:-0.454544 10:0.890174 11:-0.42318 12:1 13:-0.724198 14:-0.167826 15:0.445086 16:-0.799997 17:-0.173594 18:-0.730413 19:0.907514 20:-1 21:-0.668793 22:-0.555556 23:0.867052 24:-0.174666 25:-0.472526 26:0.445086 27:-0.453959 
-512 1:-0.692308 2:0.890174 3:-0.499993 4:0.867052 5:-0.636364 6:-0.780421 7:0.976878 8:-0.324247 9:-0.272728 10:0.751446 11:-0.665366 12:-0.951217 13:1 14:-0.526787 15:0.751446 16:-0.799997 17:-0.335056 18:-0.856258 19:0.786128 20:-1 21:0.172069 22:-0.777775 23:0.907514 24:-0.46404 25:-1 26:1 27:-0.453959 
-512 1:-0.692308 2:0.976878 3:-1 4:0.867052 5:-0.81818 6:-0.622672 7:0.907514 8:1 9:-0.81818 10:1 11:-0.530599 12:-0.695196 13:1 14:-0.894806 15:0.687862 16:-0.799997 17:-0.483902 18:-0.958691 19:0.867052 20:-1 21:-0.466472 22:-0.555556 23:0.757226 24:-0.457472 25:-1 26:0.976878 27:-0.364385 
-512 1:-0.53846 2:0.890174 3:-1 4:0.751446 5:-0.454544 6:-0.819263 7:0.930636 8:-0.32798 9:-0.636364 10:0.867052 11:0.0377602 12:-0.428823 13:-0.434405 14:1 15:0.445086 16:-1 17:1 18:-0.860939 19:0.751446 20:-0.653842 21:0.0243237 22:-0.777775 23:0.942196 24:-0.530558 25:-0.824174 26:0.751446 27:-0.423861 
-512 1:-0.846152 2:0.930636 3:-1 4:1 5:0.0909078 6:-0.748314 7:0.751446 8:-0.313489 9:-0.81818 10:0.890174 11:0.0377602 12:-0.215077 13:-0.366715 14:-0.167826 15:0.757226 16:-0.799997 17:0.703446 18:-0.691863 19:0.757226 20:-1 21:-0.621217 22:-0.111112 23:0.890174 24:0.0320907 25:-0.824174 26:0.867052 27:-1 
-512 1:0.692308 2:0.67052 3:-1 4:0.867052 5:-0.81818 6:-0.474436 7:1 8:1 9:-0.81818 10:0.867052 11:-0.455732 12:1 13:1 14:1 15:0.687862 16:-1 17:1 18:1 19:0.867052 20:-1 21:-0.447625 22:-1 23:0.445086 24:0.150935 25:-0.648352 26:0.867052 27:-0.522035 
-512 1:-0.53846 2:0.809248 3:-1 4:0.687862 5:-0.81818 6:-0.549346 7:0.867052 8:1 9:-1 10:0.976878 11:-0.27539 12:-0.951217 13:-0.643079 14:-0.182071 15:0.809248 16:-0.399997 17:-0.483902 18:1 19:0.867052 20:-0.653842 21:0.0243237 22:-0.777775 23:0.757226 24:-0.184197 25:-0.296704 26:0.751446 27:1 
-512 1:-0.53846 2:0.890174 3:-0.499993 4:0.809248 5:-0.636364 6:1 7:0.907514 8:-0.652727 9:-0.272728 10:0.445086 11:-0.412111 12:-0.680709 13:-0.418181 14:-0.458491 15:0.751446 16:-0.799997 17:-0.159835 18:-0.637338 19:0.809248 20:-0.307692 21:-0.733236 22:-1 23:0.976878 24:-0.57928 25:-0.472526 26:0.976878 27:-0.364385 
-512 1:-0.384616 2:0.751446 3:-0.499993 4:0.687862 5:-0.81818 6:-0.983751 7:0.687862 8:1 9:-1 10:0.976878 11:1 12:-0.989356 13:-0.643079 14:-0.182071 15:0.809248 16:-0.399997 17:-0.693898 18:-1 19:0.867052 20:-0.653842 21:1 22:-0.777775 23:0.780346 24:-0.184197 25:-0.824174 26:0.687862 27:-0.509854 
-512 1:-0.846152 2:0.67052 3:-1 4:0.907514 5:-0.636364 6:-0.622672 7:0.976878 8:-0.523918 9:-0.636364 10:0.867052 11:-0.412111 12:-0.500072 13:-0.724198 14:1 15:0.890174 16:-0.399997 17:0.138819 18:-0.6825 19:0.930636 20:-1 21:0.0243237 22:-0.555556 23:1 24:-0.46404 25:-1 26:0.774566 27:-0.453959 
-512 1:-0.692308 2:0.976878 3:-1 4:1 5:-0.81818 6:1 7:0.907514 8:-1 9:-0.81818 10:0.751446 11:0.830078 12:-0.695196 13:-0.366715 14:-0.773104 15:0.890174 16:-0.399997 17:0.0860796 18:-0.860939 19:0.751446 20:-1 21:0.00152848 22:-0.777775 23:0.976878 24:-1 25:-0.824174 26:0.930636 27:-0.364385 
-512 1:-1 2:0.445086 3:-1 4:0.976878 5:-0.272728 6:-0.240984 7:0.907514 8:0.851824 9:-0.81818 10:1 11:-0.811197 12:-0.215077 13:-0.393567 14:-0.894806 15:0.751446 16:-0.399997 17:0.090285 18:-0.413327 19:0.890174 20:-1 21:-0.621217 22:-1 23:-1 24:-0.0623892 25:-0.472526 26:0.774566 27:-0.364385 
-512 1:-0.53846 2:0.867052 3:-1 4:0.890174 5:-0.81818 6:-0.764169 7:0.751446 8:-0.324247 9:-1 10:0.687862 11:-0.414714 12:-0.989356 13:-0.323636 14:-0.725848 15:0.687862 16:-0.799997 17:1 18:-0.666939 19:0.786128 20:-0.653842 21:-0.314784 22:-0.777775 23:0.867052 24:-0.193095 25:-0.824174 26:0.751446 27:0.281979 
-512 1:-0.384616 2:0.751446 3:-0.499993 4:0.907514 5:-1 6:1 7:0.445086 8:-0.241054 9:-0.636364 10:1 11:0.830078 12:-0.701993 13:-0.724198 14:-0.894806 15:0.751446 16:-0.799997 17:-0.631604 18:-0.840287 19:0.774566 20:-1 21:0.00152848 22:-0.555556 23:0.976878 24:-0.193095 25:-0.824174 26:0.687862 27:-0.358656 
-512 1:-0.846152 2:1 3:-1 4:0.751446 5:-0.81818 6:-0.240984 7:0.751446 8:1 9:-0.81818 10:0.445086 11:-0.811197 12:-0.680709 13:-0.434405 14:-0.458491 15:0.751446 16:-0.6 17:-0.0100323 18:-0.840287 19:0.867052 20:-1 21:-0.621217 22:-1 23:0.445086 24:0.150935 25:0.23077 26:0.907514 27:0.281979 
-512 1:-0.53846 2:0.930636 3:-1 4:0.867052 5:-1 6:-0.663098 7:0.757226 8:-0.170193 9:-1 10:0.867052 11:-0.455732 12:-0.508055 13:1 14:1 15:0.757226 16:-0.6 17:0.138819 18:-0.353711 19:0.67052 20:-0.653842 21:0.535947 22:0.333331 23:0.687862 24:-0.193095 25:-1 26:1 27:-0.192405 
-512 1:-0.692308 2:1 3:-0.499993 4:0.890174 5:-0.272728 6:-0.664288 7:0.890174 8:-0.32798 9:-1 10:0.780346 11:-0.485029 12:-0.989356 13:-0.323636 14:-0.547177 15:0.809248 16:-1 17:-0.631604 18:1 19:0.751446 20:-1 21:0.0243237 22:-0.777775 23:1 24:0.150935 25:-0.648352 26:0.976878 27:0.314943 
-512 1:-0.692308 2:0.867052 3:-0.499993 4:0.757226 5:-0.636364 6:-1 7:0.867052 8:-0.32798 9:-0.81818 10:0.780346 11:1 12:-0.791571 13:-0.770071 14:-0.547177 15:0.976878 16:-1 17:-0.0100323 18:-0.760428 19:0.751446 20:-1 21:-0.668793 22:0.111112 23:0.687862 24:-0.0623892 25:-0.824174 26:0.907514 27:1 
-512 1:-0.846152 2:0.751446 3:-1 4:0.890174 5:-0.636364 6:-0.819263 7:0.930636 8:-0.652727 9:-1 10:0.976878 11:1 12:-0.500072 13:-0.323636 14:-0.182071 15:0.751446 16:-0.799997 17:-0.483902 18:-0.353711 19:0.809248 20:-1 21:-0.710435 22:-0.555556 23:1 24:1 25:-1 26:0.809248 27:-0.423861 
-512 1:-0.846152 2:0.445086 3:-1 4:0.976878 5:-0.636364 6:-0.780421 7:0.687862 8:-0.0494134 9:-1 10:0.890174 11:-0.455079 12:1 13:-0.393567 14:-0.167826 15:0.861272 16:-0.799997 17:-0.104995 18:-0.760428 19:-1 20:-0.653842 21:0.712415 22:-0.777775 23:0.809248 24:-0.46404 25:-0.648352 26:0.751446 27:-0.509854 
-512 1:-0.53846 2:0.774566 3:-1 4:0.907514 5:-0.81818 6:-0.850574 7:0.890174 8:-0.174494 9:-0.454544 10:0.867052 11:0.830078 12:-0.695196 13:-0.724198 14:1 15:0.751446 16:-0.399997 17:-1 18:-0.856258 19:0.861272 20:-0.653842 21:0.535947 22:-0.555556 23:0.907514 24:-0.46404 25:-1 26:0.942196 27:0.314943 
-512 1:-1 2:1 3:-1 4:0.809248 5:-0.454544 6:-1 7:0.445086 8:-0.32798 9:-0.81818 10:-1 11:1 12:-0.93673 13:-0.418181 14:0.341316 15:-1 16:-0.6 17:0.703446 18:-0.637338 19:0.751446 20:-1 21:-0.621217 22:-0.555556 23:0.751446 24:-0.193095 25:-0.296704 26:0.445086 27:-0.358656 
